SVM-light Version V6.02
0 # kernel type
3 # kernel parameter -d 
1 # kernel parameter -g 
1 # kernel parameter -s 
1 # kernel parameter -r 
empty# kernel parameter -u 
95 # highest feature index 
294 # number of training documents 
174 # number of support vectors plus 1 
-2.388119 # threshold b, each following line is a SV (starting with alpha*y)
-0.00026039038832390004607475475495448 20:151.85022 21:175.338 22:475.09943 23:82.735062 24:231.36029 25:185.72333 26:444.01981 27:116.31735 28:243.28964 29:242.61818 30:779.65417 31:154.7942 32:206.62045 33:166.3945 34:423.4227 35:123.01965 36:274.23737 37:294.32233 38:709.99506 39:128.91824 40:355.72488 41:200.08167 42:475.30005 43:98.958649 44:171.35121 45:158.36794 46:564.88934 47:171.51753 48:362.46689 49:242.91412 50:624.12372 51:143.54832 52:186.48337 53:56.242188 54:453.50934 55:167.56418 56:263.53058 57:231.72028 58:727.93579 59:207.70467 60:352.11108 61:229.2364 62:660.02472 63:178.27792 64:69.697983 65:7.8691249 66:368.57434 67:252.41119 68:130.29797 69:181.34581 70:690.2702 71:202.51447 72:202.11809 73:119.82997 74:517.75891 75:60.168285 76:203.62665 77:117.67477 78:332.5563 79:116.11846 80:158.00455 81:162.43532 82:563.72821 83:66.567848 84:193.3942 85:104.71165 86:322.37527 87:133.90862 88:163.88916 89:150.91631 90:549.84167 91:65.918091 92:201.99326 93:105.21812 94:299.00662 95:140.73221 #
-0.0017279544166750662737008781277837 20:294.5051 21:109.11803 22:296.65015 23:65.282028 24:245.62996 25:151.54338 26:226.77591 27:83.756569 28:299.08456 29:178.32047 30:233.48459 31:75.474152 32:235.81102 33:164.17941 34:260.93661 35:107.84595 36:262.82635 37:188.54222 38:236.45609 39:76.422836 40:376.63553 41:259.52188 42:255.12802 43:83.491943 44:183.30548 45:315.79166 46:448.24423 47:64.418709 48:457.14148 49:251.67213 50:470.96503 51:96.146591 52:303.41205 53:222.50169 54:228.89775 55:84.131531 56:291.55444 57:294.21201 58:447.63138 59:74.497017 60:344.14056 61:295.19186 62:361.57877 63:58.745018 64:248.40102 65:193.86624 66:304.67981 67:98.682983 68:254.12021 69:280.448 70:367.15729 71:87.622169 72:221.26292 73:178.52374 74:198.39067 75:96.354126 76:257.10291 77:156.31197 78:266.53296 79:71.830353 80:291.08582 81:219.83858 82:188.53601 83:82.658386 84:257.53275 85:169.25856 86:265.82523 87:62.659809 88:294.94241 89:229.98143 90:192.64261 91:82.626526 92:273.74915 93:182.95271 94:269.30917 95:67.477631 #
-0.00015538335409461673242148549434205 20:155.94333 21:132.0759 22:221.25302 23:97.981964 24:81.087746 25:32.185928 26:339.95932 27:84.041969 28:346.06696 29:243.89938 30:467.29373 31:56.033718 32:90.115196 33:35.968792 34:366.77496 35:67.389038 36:171.26241 37:167.75439 38:273.94135 39:80.176857 40:362.22021 41:289.69595 42:571.44427 43:38.813923 44:289.60577 45:180.33234 46:621.89233 47:116.45757 48:393.62106 49:167.21672 50:531.66516 51:60.343803 52:378.61884 53:291.38181 54:498.37903 55:49.804897 56:276.03168 57:181.85246 58:549.70447 59:156.10811 60:264.60803 61:286.88431 62:638.0163 63:168.96394 64:338.13715 65:263.11078 66:465.73346 67:57.195282 68:260.18036 69:176.85417 70:534.97595 71:159.81729 72:214.32231 73:211.28896 74:415.87274 75:71.635666 76:99.476768 77:42.551353 78:442.57144 79:69.627747 80:374.93808 81:245.45157 82:405.91501 83:45.397778 84:112.42277 85:55.358448 86:451.31345 87:62.141029 88:372.40338 89:242.04828 90:373.59628 91:46.188858 92:115.53754 93:57.406483 94:435.9147 95:58.387859 #
-0.00043703435723021393302656356638636 20:60.346912 21:174.0731 22:433.77808 23:49.097233 24:72.764313 25:195.68369 26:380.50134 27:60.713963 28:84.961868 29:18.772915 30:148.20825 31:110.6836 32:73.920563 33:186.67815 34:365.45737 35:64.923897 36:19.123224 37:218.14746 38:428.65335 39:66.155327 40:78.923615 41:150.72649 42:202.45195 43:71.9842 44:113.65663 45:250.11118 46:422.10425 47:80.711983 48:104.89645 49:107.85274 50:372.77957 51:59.597843 52:165.88202 53:209.98622 54:310.72467 55:64.10379 56:95.278893 57:238.8356 58:602.09918 59:127.14748 60:230.26836 61:379.14069 62:595.65704 63:104.37299 64:189.18907 65:208.63402 66:329.93939 67:83.976967 68:80.441383 69:242.70984 70:577.59595 71:119.16872 72:55.239456 73:59.840397 74:175.53656 75:122.03629 76:41.622444 77:160.26566 78:349.21036 79:71.755241 80:46.678627 81:67.367836 82:177.23798 83:95.626801 84:54.127445 85:183.75822 86:381.96393 87:72.95414 88:25.027683 89:86.491615 90:186.99202 91:89.475243 92:70.753014 93:194.49722 94:396.09427 95:68.174271 #
0.0011863293111474548791051120133488 20:191.31833 21:201.26775 22:175.33421 23:135.81146 24:189.04027 25:186.1064 26:386.16016 27:134.0645 28:254.4579 29:187.09438 30:246.86143 31:94.90744 32:189.70042 33:177.91402 34:372.57916 35:157.8623 36:194.05856 37:194.44302 38:280.58978 39:96.586197 40:256.49884 41:179.67961 42:195.28294 43:73.056763 44:316.52271 45:264.64575 46:596.97955 47:198.802 48:273.4978 49:198.67355 50:338.46054 51:193.69531 52:281.8851 53:198.117 54:155.29083 55:62.941467 56:372.65372 57:281.27301 58:703.638 59:190.97275 60:240.22719 61:251.24028 62:482.67819 63:209.43901 64:325.83109 65:184.88403 66:214.25098 67:101.87083 68:275.86636 69:272.30341 70:689.95764 71:235.54939 72:168.86902 73:139.13596 74:198.18294 75:40.400841 76:161.94078 77:186.15787 78:429.01822 79:173.08017 80:227.94044 81:200.27997 82:266.02057 83:75.626694 84:157.82259 85:185.78954 86:446.6557 87:195.0249 88:227.46602 89:187.5502 90:235.78989 91:57.420326 92:148.37766 93:184.94766 94:484.81638 95:191.81345 #
0.0065639150150675062977967400001944 20:326.40085 21:171.30067 22:198.74496 23:63.287849 24:142.29329 25:94.000381 26:292.41208 27:36.777481 28:49.587395 29:63.082359 30:273.93344 31:114.72099 32:167.89255 33:56.775173 34:299.07907 35:37.666672 36:150.75665 37:182.50111 38:492.15985 39:64.381325 40:76.902679 41:168.25758 42:378.73877 43:118.17921 44:233.92932 45:156.91539 46:373.11908 47:108.81696 48:134.26985 49:97.112473 50:403.50781 51:67.992409 52:24.357969 53:174.11301 54:331.80215 55:105.85379 56:255.28658 57:174.53575 58:425.99448 59:162.5067 60:323.70734 61:267.57605 62:618.81085 63:201.52821 64:239.65094 65:191.2299 66:289.18042 67:99.925903 68:259.27011 69:208.82692 70:455.18671 71:173.67892 72:92.600296 73:33.208675 74:342.1478 75:82.079727 76:136.85153 77:32.428169 78:186.21214 79:44.035297 80:39.963451 81:67.724274 82:275.36642 83:94.970421 84:147.04356 85:26.957302 86:169.85252 87:59.582363 88:15.498762 89:80.118469 90:276.87772 91:89.602325 92:141.79356 93:39.918018 94:153.65671 95:72.870087 #
0.0021117197399753116771048411237643 20:261.29269 21:269.20383 22:817.2702 23:145.32277 24:44.378891 25:200.49849 26:706.70624 27:132.84552 28:170.96988 29:200.2394 30:630.49371 31:70.138435 32:35.965199 33:196.98277 34:688.24261 35:115.10455 36:62.368122 37:288.63687 38:899.93689 39:140.55133 40:214.62303 41:231.6106 42:694.85052 43:107.19 44:42.299412 45:233.69336 46:736.50793 47:175.38458 48:158.34717 49:266.23645 50:842.47711 51:82.623856 52:172.14067 53:207.75964 54:649.23108 55:114.59348 56:51.056889 57:177.38046 58:608.80743 59:197.78606 60:185.76845 61:211.78398 62:787.79602 63:350.85239 64:238.90981 65:192.25928 66:583.78522 67:165.09369 68:44.570004 69:127.61357 70:505.013 71:213.84077 72:170.26105 73:188.94797 74:499.14426 75:64.556465 76:64.903114 77:192.55681 78:613.68732 79:108.07813 80:172.91405 81:208.92188 82:559.22552 83:54.452721 84:66.969185 85:193.12633 86:579.72546 87:113.98415 88:177.54932 89:208.98944 90:553.92126 91:53.863716 92:86.809425 93:186.76297 94:542.28992 95:106.74398 #
0.00030127108973472538355764527295833 20:137.17366 21:21.67351 22:644.43365 23:174.98439 24:224.27383 25:82.214287 26:556.95703 27:85.60276 28:119.40491 29:187.40773 30:476.66232 31:51.566914 32:215.83585 33:73.382668 34:484.04633 35:70.832329 36:384.88559 37:138.91704 38:769.52045 39:117.90648 40:118.76845 41:136.82555 42:407.24658 43:102.91234 44:297.10693 45:221.04527 46:430.14597 47:113.78519 48:212.39099 49:227.60378 50:368.32318 51:123.72721 52:127.05289 53:216.15657 54:342.38196 55:124.15765 56:293.83273 57:293.73959 58:592.33374 59:151.6552 60:462.90182 61:270.39075 62:537.5199 63:119.82774 64:32.192719 65:178.22253 66:370.61606 67:163.6626 68:317.3082 69:295.84097 70:595.84375 71:164.52742 72:80.116852 73:135.06503 74:466.17749 75:44.205173 76:179.94528 77:70.630356 78:382.79764 79:69.612984 80:105.88181 81:133.99417 82:347.96692 83:47.487988 84:169.25105 85:85.321983 86:355.40192 87:79.402588 88:117.54562 89:168.8477 90:370.69009 91:60.821056 92:181.43427 93:118.98592 94:341.77316 95:83.862869 #
-0.0093290964975767890626778822138476 20:159.74028 21:134.94508 22:391.9165 23:53.499516 24:124.49176 25:144.42075 26:610.53046 27:150.32437 28:162.77577 29:181.39566 30:437.77972 31:76.363533 32:116.78753 33:137.46138 34:627.17126 35:133.40355 36:198.64899 37:212.63303 38:886.98517 39:245.85547 40:278.63663 41:380.30295 42:757.03339 43:79.4534 44:315.81561 45:373.63223 46:1234.4847 47:154.77727 48:100.12538 49:182.33002 50:887.58356 51:49.525639 52:312.13992 53:436.43674 54:800.24585 55:109.80187 56:339.36777 57:449.17407 58:1402.8826 59:133.74899 60:419.26526 61:535.26105 62:1339.4652 63:112.56192 64:308.56293 65:403.56708 66:777.15405 67:137.56018 68:323.54807 69:409.48083 70:1286.4608 71:112.89439 72:170.90256 73:162.20987 74:353.47223 75:84.770187 76:116.13123 77:133.69969 78:593.42371 79:117.69032 80:236.65958 81:246.27994 82:436.65497 83:94.516777 84:129.11484 85:154.02501 86:662.6377 87:125.49224 88:236.80557 89:255.97598 90:454.39798 91:81.870399 92:136.00784 93:178.54968 94:716.46326 95:144.76167 #
-0.0013292496741101949772612123013005 20:581.28204 21:305.90433 22:459.55707 23:213.73166 24:565.19037 25:734.29547 26:1034.9789 27:419.5304 28:938.44611 29:492.31818 30:688.93274 31:300.76419 32:594.2821 33:746.95856 34:1097.6075 35:452.25861 36:693.20428 37:622.32819 38:777.74084 39:263.40918 40:556.69727 41:818.74805 42:1435.7826 43:431.37708 44:893.61609 45:1112.5116 46:1590.7179 47:330.74384 48:319.91226 49:898.10022 50:1649.1744 51:278.45636 52:482.12848 53:533.99805 54:2166.4031 55:622.67316 56:841.08185 57:909.85437 58:1049.2611 59:415.09567 60:760.94318 61:564.70892 62:1080.6533 63:650.25385 64:191.71597 65:64.332748 66:692.85358 67:477.33878 68:1013.6586 69:1197.7059 70:1520.6377 71:382.55496 72:985.28986 73:529.77527 74:1004.3646 75:343.60416 76:644.12604 77:823.22131 78:1273.6075 79:509.77197 80:843.84509 81:359.17587 82:1010.723 83:416.88092 84:705.39435 85:855.32007 86:1319.7283 87:539.36951 88:897.70355 89:415.07111 90:1036.1337 91:455.98013 92:746.57635 93:896.59845 94:1412.4055 95:580.99713 #
-0.0016990411617080342088215161311382 20:270.83911 21:125.35683 22:148.7343 23:119.00147 24:130.62093 25:124.83463 26:390.08215 27:185.97014 28:280.76755 29:108.95127 30:222.19066 31:115.51155 32:194.3904 33:135.02507 34:372.70029 35:162.7971 36:344.29938 37:163.3125 38:439.60648 39:249.00496 40:97.488953 41:75.480507 42:399.97025 43:238.09776 44:318.49115 45:85.777084 46:857.3385 47:408.95093 48:331.55869 49:180.6741 50:406.17355 51:158.06938 52:174.35825 53:157.46062 54:473.33603 55:346.18347 56:351.36392 57:134.17908 58:1041.8557 59:561.37933 60:160.2168 61:56.645218 62:871.66919 63:411.95438 64:190.37213 65:164.51944 66:574.58868 67:413.81549 68:523.07147 69:242.06259 70:1170.9642 71:713.80884 72:155.24672 73:109.15411 74:178.63885 75:97.358627 76:157.89937 77:57.231045 78:450.16824 79:199.17514 80:270.36026 81:146.86896 82:257.40076 83:136.85674 84:160.11884 85:60.049412 86:512.67065 87:231.31783 88:258.48193 89:141.14232 90:252.2608 91:139.47516 92:162.79704 93:53.794273 94:588.33582 95:255.37798 #
-0.0018423900365232065076681600146458 20:209.18752 21:190.35524 22:629.66248 23:224.15996 24:164.59425 25:247.18044 26:619.70172 27:119.11297 28:241.85248 29:143.25313 30:391.03366 31:203.81845 32:194.46948 33:266.56207 34:565.72369 35:126.93182 36:473.90601 37:288.70224 38:678.28748 39:200.3768 40:208.90005 41:109.98128 42:420.5784 43:225.37753 44:415.79999 45:260.7067 46:549.9306 47:183.74965 48:297.84418 49:213.85361 50:652.2843 51:202.42307 52:300.13123 53:138.8661 54:401.5708 55:283.03522 56:492.50101 57:280.45016 58:603.88263 59:179.89731 60:431.75235 61:313.01331 62:412.85318 63:231.89156 64:407.86057 65:219.3309 66:425.93362 67:301.8519 68:319.46399 69:208.91971 70:564.87439 71:196.96629 72:224.14737 73:104.74583 74:441.95041 75:176.75023 76:109.59254 77:227.08235 78:521.08575 79:104.88996 80:189.13478 81:114.20811 82:344.51651 83:199.5179 84:111.54066 85:221.59346 86:486.78433 87:112.0451 88:179.64885 89:102.51319 90:342.34079 91:207.60559 92:93.274452 93:232.97403 94:503.82529 95:114.12396 #
0.00038615398203374270980070548375807 20:510.00427 21:238.26085 22:392.69299 23:91.400688 24:490.24231 25:255.29298 26:458.21078 27:126.26032 28:373.68991 29:130.12465 30:239.51964 31:61.712593 32:457.62827 33:254.87108 34:494.66727 35:132.91901 36:461.17734 37:290.27625 38:431.21896 39:126.50651 40:443.95795 41:171.4662 42:255.49902 43:68.946571 44:396.79718 45:279.25714 46:289.03677 47:112.3019 48:368.62091 49:159.97942 50:191.75101 51:71.717873 52:393.6059 53:175.18021 54:313.96817 55:97.661827 56:360.96964 57:227.13873 58:201.38918 59:104.81062 60:480.98154 61:372.35956 62:402.77023 63:138.22823 64:362.49469 65:160.77771 66:310.80267 67:92.86084 68:298.34497 69:191.07761 70:145.98981 71:125.53008 72:304.87347 73:64.418465 74:329.37976 75:54.737591 76:410.48578 77:243.73184 78:570.32141 79:132.10788 80:349.10254 81:100.60932 82:281.60873 83:64.875229 84:398.73203 85:235.98395 86:560.56311 87:132.43304 88:348.14609 89:93.657898 90:294.07101 91:69.409821 92:378.88647 93:226.15204 94:498.4491 95:138.83354 #
0.0026929689342721219169618507294217 20:61.86039 21:332.85648 22:633.35504 23:83.04348 24:44.239929 25:270.50082 26:437.86398 27:119.50178 28:183.94806 29:271.74268 30:900.87628 31:51.236496 32:48.340832 33:281.00003 34:465.35461 35:106.31975 36:158.56494 37:448.30521 38:801.13489 39:131.78624 40:53.430969 41:387.99191 42:1169.6108 43:89.094185 44:107.53188 45:512.62567 46:1040.9337 47:113.13435 48:78.872292 49:521.81006 50:1113.916 51:99.86689 52:165.08351 53:317.16013 54:1090.0253 55:86.618797 56:87.647293 57:493.47406 58:1129.8657 59:78.452065 60:504.89447 61:532.12195 62:1106.8385 63:128.22722 64:218.0329 65:288.20541 66:1028.5181 67:100.44174 68:130.67087 69:424.68799 70:935.54938 71:89.210968 72:138.33693 73:241.20576 74:813.33795 75:54.082211 76:66.112572 77:244.2086 78:468.44388 79:116.45874 80:162.84581 81:281.13858 82:916.53314 83:62.280857 84:61.205494 85:235.57245 86:498.04199 87:114.59305 88:162.09627 89:287.77612 90:938.37689 91:64.655472 92:110.28189 93:215.09444 94:550.12415 95:94.64959 #
-0.0021461771930476472927673547985705 20:162.61435 21:243.6324 22:570.18817 23:108.83594 24:71.733017 25:241.02646 26:524.46735 27:51.854145 28:96.220978 29:137.23949 30:449.29608 31:57.675007 32:70.414055 33:228.01407 34:499.53693 35:55.410793 36:21.665169 37:275.77676 38:809.20392 39:49.066513 40:113.00256 41:199.87582 42:576.67621 43:99.600319 44:56.021801 45:124.55265 46:515.67828 47:59.502087 48:46.356644 49:158.50845 50:558.98907 51:108.49164 52:100.01936 53:146.71606 54:461.3063 55:114.56597 56:109.46405 57:115.04453 58:355.83765 59:87.630501 60:64.823875 61:76.350807 62:510.15579 63:73.957016 64:93.085892 65:97.228851 66:432.40878 67:150.67143 68:98.918434 69:84.981689 70:268.32458 71:112.86224 72:135.8679 73:126.26055 74:386.40192 75:54.510128 76:46.696228 77:186.98376 78:432.827 79:58.244751 80:102.66505 81:134.12132 82:380.79877 83:74.155914 84:44.358429 85:168.90976 86:410.5137 87:70.438408 88:100.9798 89:144.7668 90:359.10025 91:75.175644 92:17.061016 93:141.68973 94:357.55057 95:69.206589 #
-0.012363435290345165321057585572362 20:97.785278 21:173.85634 22:682.0351 23:68.398766 24:258.03229 25:288.74265 26:688.53448 27:188.78757 28:87.79554 29:211.32205 30:598.0827 31:70.676308 32:251.66656 33:291.89301 34:713.8913 35:176.4157 36:317.77203 37:323.41162 38:534.76996 39:183.2036 40:231.65533 41:273.79706 42:751.08087 43:84.12632 44:299.25076 45:314.87112 46:564.31293 47:156.13942 48:74.882011 49:118.21056 50:921.10101 51:74.288139 52:238.54495 53:317.12259 54:834.40851 55:67.59687 56:379.61288 57:287.48074 58:501.01385 59:113.62517 60:175.1015 61:291.15775 62:598.63275 63:154.64452 64:247.28198 65:302.56738 66:923.85626 67:78.107353 68:351.15961 69:254.96378 70:437.5722 71:106.21611 72:127.69627 73:265.2666 74:620.34216 75:64.287811 76:241.88342 77:254.61734 78:649.41278 79:164.37895 80:101.47784 81:263.5184 82:629.71753 83:63.456581 84:241.31476 85:258.58911 86:602.57288 87:155.04535 88:108.93404 89:271.09641 90:633.6582 91:67.513794 92:251.70464 93:252.23167 94:561.07123 95:133.76659 #
0.0050120978537922852152908248513086 20:306.22293 21:73.788811 22:467.73563 23:172.09149 24:224.19501 25:265.00595 26:474.9133 27:199.62665 28:316.10416 29:118.61526 30:331.94772 31:83.404205 32:202.18512 33:264.20242 34:514.52502 35:188.48073 36:183.07336 37:341.93182 38:541.00909 39:203.68185 40:437.50009 41:178.13872 42:925.17468 43:250.95274 44:91.185623 45:302.94019 46:948.40149 47:229.39186 48:443.01685 49:391.9339 50:555.04474 51:285.09921 52:333.87186 53:77.591728 54:550.14948 55:180.74478 56:72.817596 57:331.95367 58:1147.4713 59:189.974 60:485.535 61:482.59961 62:976.31757 63:281.6124 64:281.28656 65:53.394047 66:653.75488 67:165.75319 68:30.744637 69:297.71994 70:1163.4081 71:179.63037 72:168.6757 73:63.601189 74:164.58034 75:102.01586 76:185.09845 77:244.17928 78:480.14447 79:171.63597 80:204.84734 81:53.068691 82:246.28429 83:148.34132 84:136.95152 85:243.46034 86:518.19257 87:159.16422 88:197.06891 89:74.392815 90:230.95348 91:142.02419 92:149.61728 93:269.83856 94:541.50067 95:142.65427 #
0.0053336043169835492538943810814089 20:377.85562 21:279.1893 22:305.67731 23:222.65591 24:146.55493 25:149.36375 26:309.79971 27:94.613678 28:572.32617 29:469.84656 30:233.31677 31:104.01818 32:107.20325 33:134.38745 34:275.25369 35:86.470276 36:220.39708 37:223.35921 38:385.70569 39:126.68592 40:582.64899 41:588.43719 42:469.76324 43:131.34833 44:227.04633 45:206.43814 46:373.69516 47:119.194 48:512.86639 49:452.32858 50:363.43216 51:197.40173 52:509.59399 53:501.17307 54:488.05411 55:108.36012 56:151.42873 57:204.17313 58:492.35458 59:169.27031 60:587.18713 61:438.91324 62:518.54956 63:101.79368 64:353.62473 65:449.74033 66:560.95795 67:159.17546 68:208.76256 69:204.51782 70:518.4455 71:217.31325 72:455.58267 73:368.86023 74:248.83344 75:99.959518 76:113.59366 77:116.0362 78:270.55032 79:91.446579 80:521.25305 81:441.952 82:244.95058 83:94.948975 84:93.232834 85:110.13287 86:280.39691 87:94.909111 88:522.00665 89:445.23627 90:274.71255 91:86.677338 92:94.978157 93:99.258896 94:286.77802 95:95.869537 #
0.00028194583488528549702900605211653 20:184.11531 21:125.15637 22:207.94424 23:100.24538 24:239.49385 25:127.43016 26:234.39075 27:145.04045 28:107.98968 29:109.77728 30:262.09872 31:44.201588 32:223.36966 33:122.10114 34:258.49518 35:168.31462 36:361.8558 37:234.82314 38:378.55392 39:151.59624 40:113.1311 41:137.04004 42:536.99329 43:49.478165 44:230.60536 45:83.248329 46:695.65686 47:255.44257 48:159.40012 49:126.28662 50:414.73825 51:51.105511 52:97.617905 53:171.51131 54:733.54358 55:61.480095 56:210.12024 57:48.517277 58:983.21307 59:316.60254 60:205.23718 61:141.43349 62:895.76923 63:257.86334 64:113.44349 65:225.25591 66:752.06549 67:93.853828 68:180.20967 69:45.613388 70:1015.9235 71:313.34351 72:84.887451 73:95.195549 74:241.88776 75:41.620312 76:216.4153 77:94.989105 78:281.02365 79:162.93599 80:95.703697 81:110.12171 82:256.99939 83:39.893131 84:227.21152 85:91.278999 86:317.21686 87:173.87959 88:93.247238 89:103.10816 90:279.33023 91:39.655773 92:208.84584 93:62.387753 94:378.08047 95:193.28815 #
0.0045710226768959638654621358000441 20:112.22289 21:59.437557 22:269.27686 23:89.196274 24:208.028 25:161.47638 26:651.88959 27:122.81519 28:382.2944 29:348.73773 30:533.6496 31:79.406075 32:211.782 33:149.24924 34:661.53467 35:131.10991 36:237.20108 37:145.84935 38:703.65582 39:99.028755 40:470.04413 41:389.7196 42:573.42291 43:110.9351 44:300.33759 45:262.22504 46:965.35162 47:187.83022 48:344.39597 49:258.47717 50:479.50403 51:114.98132 52:447.46344 53:321.23654 54:457.00269 55:163.77113 56:357.99408 57:242.74974 58:1051.6224 59:188.99762 60:135.88577 61:81.693558 62:612.99164 63:179.76949 64:371.36478 65:253.68161 66:444.53055 67:154.55707 68:340.02844 69:211.1786 70:963.29755 71:207.0007 72:302.39944 73:236.30576 74:442.10944 75:62.583477 76:231.11235 77:157.05475 78:720.50061 79:140.59595 80:382.34933 81:322.98093 82:512.85663 83:87.732735 84:256.97482 85:177.62016 86:807.0069 87:137.19339 88:384.72351 89:309.39059 90:498.10013 91:89.740852 92:270.85278 93:183.60385 94:873.5484 95:121.38087 #
0.0052159850728873821332221005775409 20:357.48596 21:37.373138 22:570.27905 23:154.76288 24:318.13538 25:89.047661 26:218.48209 27:127.09995 28:218.55534 29:111.84425 30:658.61761 31:148.89638 32:287.07837 33:96.495682 34:238.38809 35:136.91043 36:435.31711 37:78.592857 38:742.37427 39:134.90126 40:225.48212 41:79.057434 42:737.8175 43:204.21013 44:355.85342 45:107.78365 46:770.01288 47:135.0719 48:704.40332 49:70.849167 50:1861.7169 51:218.5988 52:79.136436 53:57.306934 54:794.38098 55:282.87994 56:409.46704 57:290.50156 58:787.07391 59:113.88778 60:314.32849 61:173.18742 62:828.94653 63:165.9648 64:279.83127 65:32.751324 66:796.07684 67:225.14758 68:413.77444 69:299.54694 70:716.37494 71:116.55383 72:423.23734 73:111.87213 74:586.85754 75:120.35554 76:295.72278 77:117.56326 78:236.1412 79:127.68554 80:482.59857 81:79.55899 82:667.57111 83:154.48228 84:296.35791 85:120.04765 86:292.29565 87:137.22984 88:441.25049 89:51.46003 90:661.32031 91:171.77596 92:290.04108 93:128.56909 94:352.70825 95:128.82378 #
-3.1289651824126349551058456910368e-05 20:479.01804 21:272.19312 22:264.87598 23:115.51682 24:612.47253 25:280.79782 26:533.69092 27:253.36458 28:975.29968 29:405.12695 30:524.35431 31:97.715706 32:523.13196 33:275.16058 34:584.78705 35:270.49561 36:405.56573 37:251.3353 38:587.00366 39:236.83916 40:605.51031 41:325.98242 42:877.07104 43:206.19385 44:806.27783 45:240.07114 46:1218.9756 47:335.22583 48:520.21704 49:150.25401 50:693.2713 51:86.307442 52:1193.1538 53:395.33047 54:1246.9275 55:365.69046 56:879.86517 57:281.24438 58:1700.2815 59:441.56543 60:494.58459 61:432.40698 62:2300.3213 63:866.68585 64:1177.5391 65:477.92599 66:1548.5729 67:564.37891 68:858.70624 69:287.83575 70:1920.9293 71:589.5368 72:754.02032 73:329.25125 74:371.17923 75:150.85339 76:583.78571 77:251.7103 78:542.38043 79:288.00607 80:1093.0826 81:332.37421 82:501.60587 83:133.63657 84:570.31097 85:229.11111 86:594.47046 87:307.22864 88:984.71869 89:342.92068 90:515.54523 91:123.73301 92:554.27679 93:224.91795 94:670.77734 95:295.93423 #
-0.00058545864242712589153860847090982 20:168.95776 21:102.35663 22:476.09818 23:140.89552 24:1101.0411 25:613.23096 26:748.44543 27:189.76485 28:198.19638 29:254.91043 30:461.65765 31:36.864048 32:1095.9187 33:661.08936 34:758.80957 35:179.94945 36:1146.6327 37:716.00836 38:905.17889 39:239.11642 40:290.14227 41:269.38989 42:596.25842 43:115.53097 44:951.25818 45:572.49323 46:1309.2786 47:291.00708 48:425.62662 49:329.84012 50:467.9418 51:131.41966 52:219.09604 53:239.35599 54:684.05188 55:111.35578 56:890.47272 57:693.09406 58:1405.3542 59:315.53549 60:841.77179 61:996.16986 62:1615.9594 63:339.82135 64:337.60364 65:380.99411 66:726.97241 67:141.57037 68:719.79816 69:743.05273 70:1909.0868 71:413.38953 72:162.91167 73:80.86058 74:374.59152 75:90.807869 76:1048.1057 77:571.98267 78:829.74432 79:180.83273 80:126.41574 81:128.07631 82:297.01028 83:64.871796 84:1055.2375 85:592.67035 86:881.22485 87:199.8114 88:174.99832 89:65.07991 90:244.61852 91:65.887939 92:1077.6528 93:657.86121 94:974.39197 95:215.86607 #
0.0057226372212893505952990835794481 20:185.80551 21:208.61674 22:826.49725 23:150.45027 24:121.45552 25:103.91681 26:284.73376 27:129.40346 28:152.58089 29:237.68748 30:1013.7257 31:136.50331 32:131.69429 33:116.6472 34:315.59338 35:132.79367 36:162.03529 37:107.90157 38:269.61414 39:132.87959 40:364.48447 41:375.4379 42:1132.6531 43:179.6756 44:219.98149 45:254.33681 46:514.22992 47:106.72201 48:175.93643 49:246.2227 50:1113.2756 51:227.30373 52:353.30768 53:331.39667 54:1206.1935 55:171.08466 56:262.46198 57:283.3139 58:645.57831 59:111.19912 60:299.35516 61:425.64221 62:862.93054 63:209.57076 64:342.26852 65:324.99979 66:1140.389 67:162.77225 68:208.05127 69:249.54222 70:575.16998 71:123.24403 72:134.48354 73:225.41446 74:915.47644 75:92.940605 76:145.52715 77:137.67195 78:318.42581 79:135.15271 80:143.08194 81:243.75481 82:952.84253 83:129.76596 84:128.79477 85:134.93066 86:339.79269 87:131.36839 88:167.62535 89:266.7114 90:959.32941 91:132.28175 92:118.53836 93:119.17396 94:359.08078 95:144.9895 #
0.0072993188846475331316154822047793 20:171.13033 21:264.10883 22:891.38983 23:140.24927 24:211.92647 25:115.21169 26:399.90195 27:111.56843 28:59.692352 29:120.47128 30:639.28198 31:97.869843 32:167.78702 33:128.73331 34:399.17459 35:104.91727 36:239.93953 37:51.818008 38:224.77812 39:86.411636 40:129.19014 41:211.44395 42:589.64227 43:63.227379 44:159.67773 45:71.143784 46:439.77393 47:115.26137 48:70.912758 49:240.06195 50:899.71075 51:128.44942 52:328.31277 53:106.73529 54:566.24823 55:100.11086 56:135.85747 57:123.77932 58:573.60938 59:89.497375 60:107.92213 61:147.62833 62:650.17584 63:136.83243 64:184.79553 65:89.79377 66:587.4494 67:107.29771 68:118.51487 69:117.92331 70:628.49054 71:106.32849 72:54.515842 73:132.84691 74:588.83502 75:99.069023 76:106.10984 77:178.76466 78:479.95319 79:113.86457 80:90.706245 81:127.33752 82:603.0542 83:84.64167 84:103.21574 85:212.27495 86:537.84351 87:116.91365 88:69.104149 89:117.9918 90:578.41302 91:73.3908 92:91.901878 93:226.0218 94:586.36572 95:113.26768 #
-0.0016201683571295359687081116817353 20:676.84833 21:375.98285 22:281.17493 23:121.94601 24:365.42871 25:252.92163 26:593.0896 27:112.52117 28:473.41397 29:437.68347 30:589.64087 31:200.57231 32:302.49014 33:251.91559 34:622.25061 35:106.5416 36:272.76138 37:247.0499 38:619.63477 39:129.25525 40:157.56447 41:118.72189 42:253.36081 43:81.037331 44:141.41017 45:346.88907 46:742.14923 47:144.73721 48:301.33832 49:312.10965 50:393.4108 51:120.57836 52:201.24136 53:158.91267 54:238.80733 55:130.68411 56:161.38095 57:324.71716 58:692.909 59:199.83237 60:154.81221 61:314.49326 62:459.62933 63:155.26363 64:226.99051 65:168.6163 66:214.54848 67:199.8121 68:139.62166 69:272.74362 70:558.99622 71:199.1586 72:380.50449 73:268.61261 74:308.39145 75:146.79973 76:260.48975 77:236.11494 78:656.39832 79:113.47589 80:375.03363 81:234.61436 82:336.07794 83:144.66336 84:238.15869 85:233.21623 86:677.84564 87:110.80516 88:349.41638 89:227.12866 90:338.41846 91:138.31583 92:195.13931 93:241.55298 94:690.21112 95:122.08206 #
-0.0018420817818193893633527125075489 20:213.13814 21:236.28008 22:538.91919 23:120.2962 24:154.31657 25:160.77121 26:258.46637 27:208.09332 28:90.731972 29:134.03018 30:343.64493 31:75.213242 32:136.14883 33:128.97209 34:228.70993 35:209.80237 36:213.60315 37:34.858929 38:455.60208 39:206.63719 40:145.00438 41:214.01363 42:472.34726 43:97.742645 44:79.154411 45:40.829487 46:363.33994 47:267.76981 48:146.63382 49:103.79752 50:438.79898 51:193.77029 52:169.10995 53:253.64139 54:498.12677 55:121.14429 56:116.0612 57:8.0229588 58:407.00305 59:304.37659 60:75.359871 61:163.41739 62:284.34567 63:260.99274 64:232.83884 65:263.3071 66:477.02481 67:149.26082 68:75.768974 69:32.010632 70:385.05246 71:321.50629 72:92.114609 73:129.56331 74:352.97174 75:83.734497 76:110.4137 77:129.95668 78:213.1105 79:222.8584 80:117.12276 81:181.60844 82:408.35815 83:98.154205 84:97.972252 85:113.73574 86:214.92311 87:229.41425 88:142.76158 89:199.31171 90:441.58145 91:103.4226 92:80.330193 93:93.799744 94:198.22775 95:248.17912 #
-0.0011661908959086572656893565635983 20:211.4707 21:313.46152 22:448.64606 23:92.389297 24:146.97205 25:28.067757 26:483.88159 27:250.1169 28:208.2971 29:255.54568 30:378.46182 31:165.81601 32:147.63147 33:31.062193 34:500.31085 35:219.66353 36:58.989914 37:93.428238 38:602.20148 39:196.66164 40:129.36615 41:224.07759 42:499.29965 43:162.79237 44:322.14578 45:134.4407 46:780.7959 47:243.8394 48:236.15906 49:318.67487 50:634.35126 51:191.96838 52:174.72104 53:234.52707 54:448.51233 55:157.75468 56:247.75323 57:224.72986 58:852.16132 59:342.30521 60:350.2356 61:157.99239 62:714.08087 63:241.3407 64:172.75244 65:260.28409 66:500.48782 67:142.42876 68:313.42886 69:310.33432 70:806.10156 71:423.9906 72:185.42343 73:186.53056 74:355.95679 75:130.42067 76:194.38109 77:85.513313 78:515.38531 79:215.51311 80:129.45702 81:187.12875 82:263.40866 83:149.4337 84:188.14168 85:96.810478 86:563.31531 87:220.85887 88:150.25677 89:207.22649 90:268.09354 91:160.94609 92:212.22876 93:116.3389 94:601.53467 95:223.22275 #
-0.0019325176241952977951310543858199 20:425.12137 21:334.22836 22:216.82535 23:52.794136 24:282.60059 25:170.59686 26:186.27969 27:149.87885 28:242.63977 29:184.03018 30:484.6767 31:102.90556 32:226.22173 33:126.92593 34:265.59195 35:115.63471 36:189.00255 37:159.36969 38:273.918 39:83.581467 40:274.73462 41:207.47443 42:645.30511 43:94.499191 44:148.10793 45:53.222553 46:218.06711 47:77.842285 48:406.68454 49:282.15439 50:438.52728 51:44.217937 52:302.43976 53:231.80629 54:552.867 55:116.54278 56:115.61672 57:27.004093 58:226.26183 59:58.757168 60:191.09657 61:137.59874 62:164.38655 63:91.238052 64:316.0589 65:247.34595 66:527.6358 67:174.88782 68:129.69157 69:48.734398 70:248.16721 71:72.439217 72:198.12268 73:121.4292 74:332.74423 75:88.26371 76:207.92963 77:111.61375 78:355.12549 79:104.93839 80:228.69914 81:143.52527 82:407.25049 83:106.32027 84:206.89204 85:111.06203 86:349.95657 87:105.75289 88:224.4767 89:142.15433 90:418.59314 91:103.65605 92:210.83786 93:109.19751 94:315.52734 95:93.124641 #
-0.0050473443570308584860129030857934 20:112.35773 21:491.32489 22:365.84793 23:119.52134 24:175.01717 25:182.30595 26:591.19904 27:258.8793 28:386.08502 29:478.6485 30:548.31116 31:112.18067 32:160.25046 33:176.24695 34:575.43353 35:267.65784 36:192.86554 37:265.32547 38:738.2699 39:272.0101 40:307.78687 41:640.01953 42:622.3338 43:172.48013 44:193.94855 45:244.00172 46:766.68805 47:235.6026 48:245.4993 49:626.78717 50:607.7995 51:150.76476 52:410.68527 53:628.92096 54:614.52673 55:163.53453 56:162.57681 57:190.16234 58:918.01019 59:201.51308 60:265.09109 61:487.35843 62:937.51801 63:310.99664 64:488.78458 65:577.15479 66:596.0166 67:154.3891 68:190.81155 69:145.90735 70:1000.68 71:244.12926 72:354.73981 73:491.15063 74:579.07336 75:105.12695 76:167.0722 77:166.19061 78:541.18781 79:280.69803 80:374.86472 81:504.77316 82:558.70111 83:117.09483 84:132.72925 85:174.7812 86:554.26208 87:277.71103 88:365.37854 89:518.73285 90:552.67889 91:122.02752 92:82.552002 93:192.17091 94:584.11469 95:277.99564 #
-9.3197927740300973153964037010155e-05 20:350.24646 21:459.34546 22:713.02502 23:88.205254 24:237.94412 25:257.2966 26:403.483 27:205.18179 28:366.12408 29:762.56104 30:678.81848 31:113.72318 32:230.13452 33:260.53268 34:338.8009 35:208.41429 36:242.8091 37:243.63086 38:251.9422 39:190.23016 40:274.93356 41:417.33749 42:442.60672 43:159.60094 44:353.31641 45:331.32172 46:762.30304 47:287.05655 48:554.20557 49:924.00531 50:1151.4091 51:115.7985 52:357.22916 53:504.66168 54:476.39212 55:214.30168 56:476.62225 57:308.69083 58:882.63171 59:410.99463 60:247.91663 61:166.21153 62:635.07111 63:435.69534 64:384.74826 65:574.08813 66:564.51086 67:265.56384 68:311.74429 69:312.49927 70:937.37341 71:500.9035 72:270.33038 73:514.43085 74:536.72211 75:130.86012 76:267.33417 77:257.20322 78:485.09106 79:200.57814 80:444.42773 81:794.2876 82:610.22913 83:104.04245 84:249.51978 85:235.95129 86:511.23578 87:216.2686 88:452.45749 89:786.23553 90:591.04553 91:105.33375 92:267.63431 93:240.64633 94:520.80609 95:226.68567 #
0.0076779346764658112922674604305939 20:531.01935 21:314.77844 22:591.88885 23:274.64917 24:300.68857 25:345.13376 26:374.39139 27:185.96616 28:520.68115 29:303.67957 30:559.19122 31:271.26334 32:300.13324 33:362.88815 34:418.06497 35:200.72739 36:372.46936 37:464.97293 38:465.60657 39:186.06268 40:515.51538 41:150.22406 42:451.90128 43:281.19568 44:354.9874 45:432.44168 46:422.86356 47:231.46829 48:424.40387 49:191.80713 50:552.97998 51:289.01584 52:532.02594 53:202.70201 54:554.19019 55:286.91644 56:298.41235 57:422.18521 58:415.34866 59:284.3353 60:530.32507 61:389.44727 62:324.4119 63:333.79514 64:341.85202 65:194.83739 66:711.84155 67:360.42239 68:339.90869 69:412.0744 70:388.00189 71:315.82526 72:425.67429 73:177.27034 74:512.17114 75:274.3866 76:335.1431 77:313.4852 78:324.19107 79:184.89323 80:459.38284 81:215.60822 82:577.79315 83:272.63998 84:331.173 85:328.14078 86:325.99606 87:194.50412 88:423.70093 89:249.66487 90:570.27197 91:276.6438 92:339.76678 93:336.29117 94:323.26074 95:202.74968 #
0.0024563987501532366652945427176746 20:104.43498 21:239.10385 22:548.03961 23:429.82788 24:97.697319 25:117.99924 26:749.71228 27:292.9472 28:296.6044 29:126.24693 30:462.66382 31:530.28845 32:157.17731 33:153.12047 34:782.91577 35:275.64725 36:211.06429 37:60.585884 38:883.24231 39:291.94586 40:286.16367 41:224.03308 42:512.62708 43:473.12823 44:440.59753 45:295.00113 46:1049.4883 47:293.04153 48:153.6864 49:178.83513 50:558.32953 51:529.5741 52:943.77716 53:237.60222 54:614.18048 55:491.99872 56:440.28687 57:276.74835 58:1061.4467 59:317.06894 60:287.00366 61:126.82607 62:1018.051 63:332.38815 64:408.71069 65:197.54239 66:701.26569 67:415.46902 68:500.70068 69:182.77492 70:968.04474 71:348.45493 72:280.72427 73:185.07817 74:422.94879 75:525.95715 76:115.85478 77:154.9893 78:844.44714 79:279.56155 80:671.97437 81:115.95606 82:461.56082 83:538.24792 84:95.082306 85:162.04083 86:799.25714 87:277.95514 88:314.8638 89:216.53638 90:435.40454 91:519.49341 92:92.713577 93:156.67358 94:743.43158 95:271.58411 #
0.0010572560999295710360001976368949 20:246.89154 21:167.27539 22:443.50247 23:172.35339 24:304.28659 25:192.28053 26:279.45355 27:69.903198 28:332.63586 29:178.40443 30:381.95676 31:117.23196 32:319.12656 33:198.24913 34:298.07892 35:80.433006 36:342.08167 37:229.42358 38:457.49384 39:70.811661 40:426.33765 41:247.88327 42:336.67819 43:137.66121 44:352.34894 45:285.28784 46:407.71719 47:64.903168 48:449.543 49:204.81293 50:414.78296 51:164.89836 52:373.79312 53:266.72205 54:390.40735 55:138.46608 56:454.71817 57:341.49991 58:417.7261 59:71.680382 60:271.84293 61:306.39819 62:394.83484 63:54.211151 64:340.43561 65:257.09225 66:344.18707 67:149.35045 68:418.86621 69:320.74539 70:380.05414 71:86.141022 72:306.25607 73:157.23581 74:340.82266 75:107.299 76:302.89618 77:187.81123 78:252.97473 79:78.260086 80:342.9473 81:195.79393 82:333.44989 83:116.86395 84:332.72791 85:205.93304 86:267.06668 87:78.822418 88:348.18146 89:201.55237 90:338.21829 91:111.77361 92:372.68918 93:233.58739 94:291.52509 95:69.105301 #
-0.00018712229211546621727990658001772 20:324.70175 21:203.20879 22:681.94177 23:109.40181 24:206.29329 25:69.613922 26:359.87695 27:98.392853 28:337.10007 29:226.04265 30:176.42453 31:92.740158 32:184.41452 33:75.975639 34:337.9129 35:93.638573 36:197.05199 37:73.9132 38:390.08798 39:114.06274 40:325.14612 41:240.19637 42:205.28812 43:97.436005 44:120.13094 45:66.730682 46:271.82281 47:109.00837 48:277.81354 49:254.51495 50:375.23529 51:87.13092 52:254.14151 53:149.51756 54:280.46899 55:125.7213 56:104.85837 57:23.583359 58:225.25171 59:121.65331 60:113.21515 61:20.22747 62:273.44928 63:121.84508 64:203.50914 65:105.86145 66:303.95541 67:152.83229 68:78.070396 69:15.240392 70:188.54605 71:136.0416 72:255.19958 73:129.26974 74:213.12419 75:91.710663 76:166.84154 77:87.764587 78:318.53735 79:107.26607 80:279.17575 81:191.0975 82:108.14497 83:81.94548 84:152.63037 85:85.798698 86:317.15561 87:112.7562 88:279.38501 89:186.18889 90:88.660332 91:81.087669 92:138.60335 93:90.142387 94:296.48938 95:101.23037 #
0.0026981949446294672088908495055648 20:129.89258 21:200.47462 22:807.68744 23:115.63255 24:124.85442 25:81.815254 26:468.5018 27:86.670753 28:323.47632 29:270.19928 30:327.45587 31:94.657555 32:134.12613 33:76.701721 34:440.63275 35:68.585968 36:210.6871 37:88.026375 38:382.72302 39:102.03893 40:339.22961 41:208.62856 42:392.00705 43:130.82378 44:167.43684 45:44.281693 46:396.72751 47:108.17874 48:231.32088 49:168.49272 50:529.12708 51:106.76218 52:291.26846 53:161.85719 54:457.83777 55:188.19875 56:162.50407 57:94.41745 58:403.57883 59:139.76921 60:225.36674 61:79.989449 62:349.1716 63:107.0041 64:248.05885 65:121.62112 66:468.74457 67:224.29547 68:152.50244 69:103.23905 70:381.44589 71:141.7679 72:269.89548 73:242.80727 74:314.45865 75:105.07532 76:143.49423 77:47.116638 78:426.95978 79:56.202606 80:328.64163 81:240.98438 82:314.38867 83:109.42873 84:152.13936 85:34.05666 86:448.10416 87:50.147835 88:313.29913 89:220.54749 90:303.85956 91:117.53633 92:154.76041 93:38.746201 94:458.79819 95:60.579849 #
-3.4097470548704461590361347589351e-07 20:538.35547 21:122.82557 22:572.16229 23:328.45416 24:405.53125 25:282.14844 26:841.39716 27:212.6907 28:1063.5551 29:53.435383 30:865.44775 31:850.08575 32:319.83401 33:326.8869 34:808.62372 35:232.8407 36:535.53473 37:325.70163 38:1177.2788 39:200.57346 40:283.9826 41:1342.4733 42:4031.2236 43:275.7941 44:598.99164 45:607.57294 46:2080.8464 47:290.30219 48:1071.2225 49:481.75616 50:1294.1661 51:529.78705 52:1783.2709 53:3020.8752 54:8365.4219 55:364.53152 56:1083.7047 57:854.97662 58:1662.8907 59:267.23184 60:360.19308 61:649.49854 62:2490.678 63:826.40692 64:1100.1639 65:1445.1741 66:3814.9822 67:322.4473 68:2297.2954 69:1483.1682 70:2499.064 71:583.97656 72:181.32115 73:476.30655 74:1226.1399 75:479.06348 76:527.40863 77:311.58755 78:665.31592 79:272.99963 80:848.81873 81:537.96716 82:832.43347 83:381.129 84:562.99738 85:329.56204 86:690.495 87:264.86673 88:590.64319 89:171.06219 90:558.24689 91:372.82373 92:666.00916 93:230.453 94:597.16223 95:277.29364 #
-0.0012674295929996654691551682958561 20:598.3479 21:511.55911 22:459.98297 23:277.81918 24:328.39636 25:239.46384 26:764.85364 27:250.55779 28:692.1272 29:611.97278 30:561.82416 31:354.19669 32:331.32236 33:235.12836 34:690.05304 35:261.74875 36:146.14339 37:40.452778 38:735.93121 39:228.45184 40:545.48376 41:456.97211 42:404.86826 43:246.73871 44:190.85027 45:130.46684 46:487.83264 47:227.53891 48:801.10144 49:637.54834 50:454.88995 51:314.48956 52:442.49857 53:396.0444 54:354.10217 55:249.86502 56:105.98749 57:31.047905 58:276.17123 59:218.18564 60:136.04449 61:127.94501 62:569.31573 63:291.4151 64:524.22363 65:459.79752 66:352.19803 67:271.88089 68:29.059532 69:87.23613 70:229.64174 71:273.41879 72:450.17178 73:352.99576 74:381.23462 75:235.74045 76:345.59595 77:249.52203 78:612.13 79:265.48035 80:572.47858 81:568.42163 82:494.3042 83:253.72226 84:327.85461 85:238.57309 86:580.91882 87:264.97662 88:581.07959 89:547.11517 90:481.16888 91:239.69768 92:352.63452 93:251.95697 94:475.02954 95:257.47122 #
0.0047316346210971998997862897340383 20:40.898121 21:176.88005 22:269.95883 23:42.861008 24:178.78018 25:132.28148 26:213.3369 27:186.97588 28:146.83968 29:137.96672 30:179.85039 31:104.00797 32:138.0799 33:120.36959 34:196.87085 35:160.30602 36:143.41486 37:85.658302 38:371.01306 39:207.07513 40:207.09744 41:227.37715 42:277.81409 43:65.887321 44:172.73146 45:152.44722 46:407.84955 47:185.70058 48:30.902384 49:158.74185 50:293.58298 51:56.615837 52:174.8192 53:189.7711 54:312.13589 55:101.49802 56:160.35606 57:157.84796 58:500.18503 59:188.70938 60:341.44156 61:334.2384 62:589.40118 63:218.1256 64:120.8828 65:132.50096 66:438.58823 67:119.05486 68:118.66981 69:137.77892 70:558.92932 71:208.62573 72:174.99297 73:163.80466 74:132.46429 75:104.16245 76:136.04077 77:89.27314 78:202.17201 79:165.41022 80:169.2603 81:146.9821 82:153.74115 83:98.04924 84:128.80214 85:75.664497 86:216.49652 87:140.98299 88:153.8204 89:147.97974 90:147.14821 91:97.662056 92:102.14284 93:52.542053 94:255.07863 95:135.47879 #
0.0026522396092616626339655283572938 20:160.01724 21:68.824059 22:155.51753 23:97.265068 24:194.40228 25:236.71063 26:479.60751 27:198.63962 28:24.907429 29:97.177322 30:373.22046 31:126.67519 32:149.23407 33:227.12471 34:529.34631 35:215.92595 36:136.06487 37:200.79863 38:438.7149 39:210.01373 40:38.320305 41:133.7471 42:395.02005 43:192.01067 44:139.91977 45:155.64009 46:695.48541 47:241.72992 48:96.032867 49:90.922829 50:312.94363 51:177.85675 52:101.22482 53:133.17802 54:501.93268 55:211.93071 56:150.79573 57:144.10683 58:756.14154 59:291.23303 60:533.86914 61:224.87834 62:694.80658 63:260.01517 64:163.95984 65:149.0726 66:403.13605 67:213.20338 68:169.74371 69:119.33596 70:687.04974 71:306.97134 72:50.050209 73:137.0195 74:483.93149 75:133.85696 76:102.72906 77:217.82845 78:552.28668 79:204.25574 80:45.910793 81:124.08977 82:491.86511 83:142.39177 84:104.03384 85:215.29228 86:550.9198 87:210.84563 88:59.614689 89:120.33636 90:507.38599 91:142.85493 92:85.55056 93:210.96535 94:543.30499 95:208.5006 #
-0.011923270485134647433955734641131 20:200.9355 21:119.31837 22:559.1922 23:186.84695 24:201.93216 25:231.76494 26:466.91299 27:99.96022 28:114.29431 29:127.37988 30:395.85266 31:132.30576 32:207.41409 33:242.47995 34:471.0694 35:105.09716 36:264.87143 37:237.58655 38:525.61292 39:87.470085 40:174.16846 41:126.39462 42:288.05988 43:172.60442 44:300.46979 45:334.57703 46:425.26117 47:116.36898 48:158.54549 49:64.577881 50:339.10107 51:165.08191 52:151.13155 53:79.23867 54:239.59782 55:182.98436 56:216.16174 57:259.14825 58:404.13803 59:118.51633 60:286.47522 61:237.90637 62:257.83011 63:112.46422 64:100.06316 65:21.673416 66:242.22385 67:189.27782 68:182.94733 69:208.9655 70:353.83145 71:109.17038 72:124.35822 73:136.64828 74:369.05484 75:111.00136 76:172.43427 77:206.02209 78:457.15009 79:120.43062 80:151.40909 81:141.92714 82:311.19968 83:145.28879 84:169.83067 85:219.4111 86:489.10239 87:117.17556 88:157.40292 89:143.01497 90:296.92157 91:145.7572 92:161.65082 93:219.77921 94:496.6116 95:111.92036 #
-0.00011844487417875942947276257655176 20:225.29831 21:247.16548 22:852.24457 23:107.39295 24:95.823334 25:216.69946 26:436.72095 27:107.47033 28:131.66156 29:86.770248 30:298.72348 31:113.78408 32:80.759697 33:202.77051 34:421.27325 35:97.366646 36:115.98144 37:237.57571 38:325.55881 39:124.64001 40:129.51996 41:84.787132 42:304.43069 43:96.622375 44:112.38658 45:196.2822 46:310.66898 47:53.564999 48:145.37723 49:137.64101 50:530.2254 51:101.59048 52:110.46053 53:118.6599 54:357.93362 55:102.86502 56:163.43277 57:214.94632 58:384.14816 59:46.592869 60:277.03961 61:300.987 62:439.48605 63:64.840584 64:99.886223 65:116.39235 66:390.24045 67:121.94583 68:162.65944 69:215.48503 70:440.89282 71:58.263927 72:152.90395 73:43.666466 74:209.03529 75:90.743423 76:68.367165 77:192.41896 78:374.13361 79:92.522903 80:131.30934 81:74.364006 82:209.36754 83:93.553123 84:52.912037 85:179.54446 86:359.35883 87:79.024467 88:119.12116 89:83.419846 90:213.31683 91:87.154503 92:61.595005 93:175.83382 94:352.67236 95:70.357407 #
-0.0042310337055421476382122136783437 20:489.1601 21:268.54874 22:867.38019 23:132.66032 24:271.66611 25:154.47397 26:673.97095 27:176.20461 28:205.78833 29:151.21425 30:482.59329 31:104.92631 32:232.78641 33:131.34695 34:674.34937 35:165.43028 36:372.56836 37:304.08337 38:753.44806 39:205.66374 40:296.12296 41:64.942276 42:451.43988 43:105.31763 44:265.46887 45:182.15019 46:778.86798 47:233.20932 48:319.89563 49:78.367996 50:457.07578 51:120.03908 52:261.6145 53:52.310539 54:422.60812 55:155.76859 56:221.58443 57:165.89581 58:839.7207 59:243.5477 60:483.92255 61:295.0831 62:912.76959 63:208.20103 64:234.68988 65:47.952866 66:372.53799 67:206.88356 68:242.15619 69:194.71516 70:743.11676 71:224.48436 72:303.47873 73:171.74391 74:436.2886 75:92.834785 76:220.2668 77:113.13272 78:665.56604 79:188.2547 80:242.52315 81:110.69281 82:490.61819 83:79.229271 84:188.49808 85:80.906364 86:648.31604 87:182.03888 88:252.96448 89:109.50892 90:512.36884 91:78.277924 92:157.88069 93:45.374027 94:654.99731 95:178.24248 #
0.0023153980218039798243123694732049 20:528.2464 21:235.94127 22:1048.0333 23:381.04666 24:33.473793 25:219.86826 26:803.72699 27:432.32901 28:526.60321 29:138.01376 30:850.91479 31:358.25327 32:75.917824 33:220.83524 34:784.71259 35:420.72418 36:131.58594 37:256.87628 38:802.73169 39:442.46722 40:315.57098 41:189.39059 42:709.43744 43:297.07666 44:126.37697 45:157.50389 46:571.55048 47:366.04486 48:498.98593 49:260.83215 50:1180.2803 51:399.28931 52:573.03992 53:265.52435 54:718.94757 55:312.94229 56:518.08252 57:154.54208 58:594.65057 59:372.57785 60:151.58533 61:236.48598 62:388.52188 63:371.42511 64:394.45816 65:260.74506 66:716.73792 67:275.03586 68:348.72742 69:122.91596 70:366.87204 71:425.65424 72:366.05203 73:161.30518 74:718.42419 75:344.91968 76:85.997917 77:185.1349 78:770.41321 79:417.6344 80:75.971344 81:69.464203 82:733.61121 83:321.41449 84:77.251984 85:170.38745 86:777.47534 87:421.09286 88:372.08026 89:139.91429 90:777.21667 91:283.2298 92:139.08971 93:169.19032 94:790.53198 95:433.88956 #
0.0021453861054411549336151665556827 20:240.81401 21:204.23149 22:718.58856 23:158.45511 24:193.11545 25:137.53348 26:390.26633 27:271.00229 28:266.51086 29:254.76125 30:877.1554 31:181.58539 32:179.92694 33:117.09214 34:361.20767 35:261.0434 36:348.83008 37:248.49438 38:425.98172 39:314.276 40:225.42778 41:231.37592 42:664.46796 43:170.49103 44:247.91159 45:134.48854 46:454.26654 47:344.14072 48:69.896301 49:215.96529 50:749.87103 51:167.76549 52:344.60321 53:244.04829 54:592.17371 55:165.07666 56:308.54037 57:81.80349 58:622.92847 59:397.17911 60:358.573 61:285.51639 62:466.14478 63:399.33453 64:212.45433 65:209.6582 66:519.90833 67:178.29776 68:341.48083 69:157.6012 70:557.3407 71:414.10397 72:195.85097 73:177.54668 74:791.29285 75:137.58191 76:95.747818 77:54.257309 78:394.34705 79:244.12688 80:449.0289 81:239.10995 82:876.82281 83:152.79514 84:78.634872 85:40.082161 86:421.89304 87:253.04272 88:216.07317 89:223.10921 90:847.43988 91:145.94305 92:69.157852 93:31.456589 94:458.25681 95:261.55127 #
-0.00057860854528926902035079748998214 20:1100.3 21:219.58569 22:664.97992 23:209.29558 24:253.67871 25:229.73459 26:368.22495 27:268.18073 28:1217.4014 29:157.73918 30:635.73602 31:433.8862 32:301.14328 33:229.00069 34:325.55542 35:281.96527 36:183.88834 37:246.84561 38:566.22485 39:261.23001 40:2153.093 41:628.70361 42:1254.8502 43:280.18405 44:818.97668 45:153.43712 46:649.61444 47:226.65767 48:962.85474 49:392.85883 50:964.38 51:298.86472 52:2956.0823 53:916.90503 54:1894.3481 55:482.94254 56:709.75348 57:228.72745 58:862.66309 59:280.83508 60:1667.9673 61:624.91742 62:548.7113 63:259.8187 64:1565.4645 65:731.35437 66:956.00555 67:389.91223 68:1157.4852 69:363.50516 70:910.63763 71:241.77081 72:1331.7736 73:25.099945 74:583.37762 75:427.27811 76:276.47452 77:227.56824 78:449.33667 79:253.46597 80:2303.3699 81:241.66415 82:964.26245 83:685.32916 84:324.96375 85:240.271 86:507.75052 87:264.79263 88:1836.1387 89:21.000534 90:1166.1804 91:710.18274 92:256.10352 93:309.14008 94:599.76575 95:309.45642 #
-0.00022831569966915701494492019207883 20:248.70013 21:288.67432 22:489.0491 23:70.166306 24:92.801971 25:206.20422 26:581.52075 27:111.59013 28:353.65298 29:305.52448 30:286.58148 31:82.766403 32:88.489174 33:203.4417 34:582.18494 35:115.31741 36:129.83981 37:214.22144 38:619.22864 39:128.70235 40:479.19577 41:397.23633 42:447.52731 43:106.33508 44:150.70541 45:183.16154 46:477.45099 47:95.878174 48:298.35806 49:166.58214 50:537.75317 51:111.38895 52:442.00836 53:378.0939 54:304.24094 55:133.9798 56:161.57339 57:213.23315 58:354.36664 59:98.980728 60:245.74442 61:201.1209 62:294.16757 63:94.832771 64:381.03613 65:313.88672 66:243.83809 67:161.39583 68:161.40584 69:190.36708 70:322.17453 71:97.96888 72:251.85004 73:225.60286 74:269.23621 75:79.718414 76:91.105919 77:210.94542 78:586.06073 79:97.62429 80:362.87903 81:309.73669 82:285.94391 83:93.100807 84:81.380058 85:218.49055 86:566.95966 87:82.797905 88:365.67288 89:315.47531 90:289.16412 91:92.30545 92:67.62719 93:222.44435 94:555.2984 95:84.450546 #
-0.0021828846316597101673284697653799 20:219.35173 21:650.23322 22:1040.0054 23:248.80545 24:179.76385 25:270.69797 26:473.25607 27:93.543083 28:201.46214 29:646.11371 30:1301.7761 31:341.00189 32:177.28795 33:294.67603 34:462.12936 35:105.11789 36:408.10934 37:481.11432 38:734.2041 39:103.93569 40:120.37278 41:998.92169 42:2315.0325 43:712.02777 44:149.98363 45:135.67711 46:438.88651 47:133.87143 48:733.36261 49:722.50415 50:1777.5544 51:361.47409 52:293.40152 53:694.49713 54:1386.6631 55:473.04019 56:185.18085 57:118.59166 58:373.10178 59:193.58127 60:897.38959 61:536.89001 62:656.01495 63:98.151581 64:308.93222 65:544.53461 66:1358.022 67:528.50262 68:96.553963 69:240.56493 70:387.72467 71:192.25035 72:223.25113 73:681.88599 74:1552.9213 75:424.59131 76:180.26311 77:223.98164 78:321.70163 79:82.322319 80:41.073681 81:436.24594 82:1147.5997 83:298.04633 84:164.98389 85:193.6396 86:296.52298 87:93.260445 88:33.073761 89:425.55072 90:1125.6298 91:292.21249 92:156.53963 93:161.9276 94:262.04617 95:118.06755 #
0.0062705304916196094588975995520741 20:390.73636 21:430.8923 22:875.30194 23:343.01331 24:561.06665 25:381.1875 26:934.9978 27:392.34805 28:339.32507 29:374.53577 30:658.99536 31:342.84476 32:655.87842 33:437.09866 34:903.98743 35:405.53244 36:597.29803 37:452.83981 38:1017.8184 39:476.97546 40:53.547955 41:402.46536 42:677.77863 43:444.086 44:821.86676 45:516.71082 46:920.19745 47:371.81369 48:240.43918 49:478.71509 50:860.40997 51:372.18961 52:175.6869 53:388.12253 54:763.05853 55:510.97464 56:840.55939 57:519.56207 58:986.67542 59:333.05743 60:660.25659 61:511.05109 62:1051.7819 63:409.68121 64:342.59344 65:396.17737 66:889.49335 67:563.91138 68:696.69147 69:488.99802 70:942.75165 71:374.65564 72:298.94742 73:295.22934 74:538.01874 75:304.01584 76:608.04163 77:409.75156 78:927.29352 79:404.65158 80:53.958439 81:333.78476 82:545.00037 83:348.10263 84:538.35229 85:342.32724 86:851.77722 87:370.31021 88:344.53806 89:285.41791 90:548.85162 91:361.01517 92:450.58643 93:306.62378 94:833.93176 95:362.61328 #
-0.0014440007639032505226683866794701 20:138.3121 21:82.749939 22:762.62646 23:138.51904 24:51.505737 25:89.90313 26:236.30449 27:109.80543 28:189.35126 29:108.6641 30:351.02481 31:152.72316 32:23.855919 33:69.620163 34:247.90723 35:110.61522 36:162.07974 37:138.24661 38:307.36948 39:102.72073 40:82.462273 41:170.5459 42:551.7951 43:134.17177 44:156.43925 45:109.17159 46:270.65417 47:144.25146 48:54.24128 49:72.091652 50:586.80396 51:109.52755 52:152.41121 53:136.1342 54:556.62854 55:124.95379 56:186.78633 57:100.2438 58:241.99605 59:184.74094 60:201.60323 61:89.857872 62:238.26048 63:160.60133 64:143.88644 65:113.36272 66:572.05359 67:132.54092 68:124.99802 69:108.3203 70:285.4584 71:193.0058 72:84.675529 73:102.36237 74:256.24338 75:136.8055 76:78.913971 77:90.838753 78:233.52908 79:123.33514 80:178.41748 81:137.79659 82:318.37225 83:133.15965 84:27.451654 85:55.934338 86:187.25722 87:132.34386 88:176.97112 89:148.86942 90:310.75269 91:137.38098 92:11.387964 93:30.163731 94:165.13571 95:140.30995 #
-0.00080165971237992905695790568643133 20:138.96045 21:8.9871473 22:488.36063 23:147.51347 24:114.25977 25:64.366829 26:267.11813 27:129.68571 28:216.06088 29:161.77304 30:542.97687 31:108.07313 32:143.06113 33:86.046196 34:238.8204 35:104.41241 36:193.0645 37:138.13147 38:251.66188 39:185.25981 40:248.12617 41:241.14502 42:526.42523 43:133.74693 44:338.27673 45:227.11143 46:297.25992 47:132.05045 48:289.4584 49:290.33438 50:542.86694 51:141.76358 52:360.3367 53:301.76404 54:497.82468 55:158.43295 56:408.20898 57:261.70654 58:346.69516 59:133.96271 60:564.61487 61:210.31102 62:257.50134 63:144.15656 64:365.05423 65:303.86325 66:491.99683 67:185.66589 68:417.81979 69:266.39386 70:327.06522 71:140.7357 72:91.311806 73:113.99705 74:520.19568 75:106.92435 76:158.21436 77:116.30934 78:205.4767 79:110.56469 80:94.651077 81:122.8793 82:534.1297 83:94.855713 84:181.17326 85:128.62337 86:232.39478 87:109.60011 88:113.40439 89:124.32518 90:518.59467 91:98.160789 92:207.18729 93:152.16463 94:254.52534 95:110.40498 #
0.0056020662265672659801962751657811 20:172.62869 21:303.26599 22:545.68201 23:75.975853 24:323.81525 25:295.40628 26:493.05466 27:49.890606 28:262.92908 29:223.76831 30:309.88278 31:94.230164 32:297.98294 33:268.65521 34:485.67764 35:63.334015 36:402.30484 37:371.48898 38:606.474 39:105.01273 40:144.3562 41:134.65889 42:526.34399 43:49.819191 44:191.32855 45:123.08062 46:282.58078 47:60.799866 48:303.69095 49:320.99969 50:587.79974 51:106.38588 52:69.434006 53:43.584721 54:718.48889 55:107.95032 56:183.03296 57:91.522995 58:312.1286 59:99.752953 60:589.32355 61:448.95374 62:443.22766 63:159.90915 64:143.86772 65:59.095493 66:491.32205 67:142.25233 68:126.53652 69:75.76268 70:344.43692 71:146.36711 72:157.68744 73:101.32764 74:179.6459 75:108.98978 76:303.59381 77:217.27078 78:366.6611 79:56.256798 80:170.77742 81:108.11016 82:230.3231 83:87.871597 84:290.93402 85:194.90547 86:377.97989 87:74.034653 88:168.09883 89:98.436752 90:234.95879 91:93.091202 92:273.63092 93:182.54393 94:382.31924 95:91.482689 #
-3.7839452055044020539753546472639e-07 20:188.4464 21:65.040581 22:224.11188 23:27.27046 24:179.50224 25:41.958073 26:163.84013 27:120.29925 28:197.73936 29:147.02888 30:212.23524 31:40.220982 32:163.16431 33:44.245224 34:154.5916 35:128.95535 36:172.10385 37:48.101437 38:354.87918 39:127.65191 40:184.86169 41:159.03755 42:206.14566 43:39.44445 44:130.22136 45:71.913734 46:175.3795 47:117.6181 48:203.37209 49:93.25354 50:214.507 51:29.586542 52:193.17999 53:188.22208 54:199.58421 55:59.478268 56:84.755508 57:52.789398 58:172.8783 59:119.60719 60:107.31176 61:73.427391 62:259.9826 63:176.5258 64:170.69588 65:178.86426 66:300.40845 67:80.346062 68:57.687229 69:32.181847 70:147.43318 71:126.84498 72:138.258 73:146.50473 74:223.15956 75:62.686531 76:167.38963 77:75.202454 78:167.37325 79:112.79595 80:192.9554 81:173.11357 82:236.05965 83:53.074726 84:152.99413 85:67.990234 86:173.76234 87:108.28861 88:195.84232 89:179.5316 90:236.23495 91:58.857445 92:145.00526 93:64.913628 94:149.21477 95:116.32804 #
-0.0052655702351074966383048803209022 20:247.03177 21:78.74221 22:656.72821 23:159.14117 24:329.69507 25:111.70172 26:540.53827 27:60.390038 28:145.40271 29:28.143169 30:478.18262 31:174.96449 32:326.4346 33:121.33694 34:602.29272 35:85.371124 36:317.35858 37:100.1972 38:842.98407 39:77.975998 40:88.598137 41:44.307163 42:416.94608 43:237.20293 44:161.56676 45:26.412668 46:527.84937 47:71.597839 48:132.90744 49:67.734283 50:599.36182 51:170.85066 52:135.06755 53:34.350964 54:385.04984 55:302.63495 56:288.15787 57:110.72427 58:556.00873 59:81.655312 60:327.76138 61:217.25294 62:428.42709 63:121.15337 64:169.7494 65:89.397339 66:459.88657 67:364.89032 68:279.73758 69:129.88737 70:534.85016 71:87.400475 72:133.63916 73:17.331503 74:535.7702 75:145.24471 76:275.09879 77:99.860054 78:461.41284 79:73.557953 80:168.82875 81:22.448517 82:412.50214 83:161.87215 84:274.83322 85:112.62671 86:462.50787 87:63.503319 88:172.77031 89:10.227321 90:409.71234 91:165.21187 92:290.58398 93:134.69257 94:477.65854 95:52.971252 #
-0.00025243665991569672057970308287622 20:78.394951 21:93.744156 22:289.56363 23:166.8396 24:158.02414 25:151.97719 26:506.21497 27:164.3065 28:55.388908 29:130.78618 30:596.68652 31:64.652702 32:156.86728 33:154.39244 34:525.29364 35:167.13655 36:237.80183 37:167.39645 38:591.29602 39:222.5072 40:109.78823 41:146.14549 42:592.19659 43:100.77595 44:173.36867 45:230.09892 46:573.30212 47:169.26796 48:51.651749 49:130.55957 50:489.68997 51:129.66708 52:144.25771 53:172.95265 54:588.16028 55:114.42017 56:226.14474 57:230.84807 58:545.67004 59:148.60251 60:235.05472 61:220.34384 62:772.61914 63:235.58971 64:174.85289 65:140.82851 66:340.78308 67:187.85138 68:286.73541 69:254.62271 70:555.70508 71:157.2765 72:92.706383 73:174.30423 74:653.61865 75:77.266266 76:133.35822 77:132.72531 78:445.8642 79:149.56589 80:54.585361 81:144.61659 82:662.79413 83:78.857117 84:143.62219 85:142.15372 86:450.57681 87:147.52582 88:52.899609 89:158.37079 90:691.01093 91:75.61898 92:162.32649 93:154.21429 94:461.45789 95:133.05681 #
-0.00070127203862460868281913928257154 20:99.449966 21:136.95998 22:644.11725 23:151.77885 24:110.71191 25:114.36954 26:208.26712 27:89.899254 28:166.2738 29:185.79956 30:406.86536 31:113.11089 32:65.999992 33:63.149307 34:237.75076 35:85.520393 36:735.45282 37:91.033623 38:1043.7216 39:437.91336 40:411.07465 41:91.270058 42:293.94669 43:166.97762 44:137.78276 45:80.610878 46:495.47522 47:98.476021 48:663.88538 49:518.25293 50:1135.0779 51:833.11151 52:473.15427 53:195.80499 54:389.37372 55:214.522 56:321.77026 57:191.57701 58:708.50397 59:184.71889 60:1358.6193 61:210.19601 62:2334.041 63:585.19757 64:684.96625 65:238.10529 66:394.50922 67:213.19287 68:211.13908 69:205.46503 70:789.23785 71:191.09378 72:150.73863 73:78.633102 74:216.69797 75:85.992294 76:10.355998 77:51.543705 78:268.72885 79:115.25494 80:140.06616 81:155.72789 82:302.04935 83:100.16022 84:36.726578 85:55.569351 86:309.6228 87:107.11021 88:180.82236 89:140.86722 90:297.22351 91:98.958778 92:51.531654 93:83.414276 94:335.32648 95:125.87895 #
-0.00078334761059544594230530378808908 20:437.32434 21:423.31921 22:381.47177 23:128.09039 24:272.65845 25:270.64093 26:312.11859 27:104.52576 28:156.93265 29:155.21252 30:227.79628 31:156.59877 32:251.96115 33:240.00475 34:309.23917 35:106.28548 36:344.13232 37:362.85663 38:369.90652 39:97.010193 40:205.29482 41:103.10652 42:243.50682 43:198.98618 44:164.54321 45:112.02177 46:396.92783 47:112.48327 48:391.02988 49:290.52002 50:150.04208 51:194.26353 52:180.88824 53:87.902931 54:197.53705 55:223.95024 56:130.58688 57:48.425133 58:486.5134 59:128.71547 60:202.38744 61:105.39074 62:423.91617 63:97.782143 64:181.50186 65:97.030411 66:260.65497 67:215.86795 68:130.44028 69:49.149643 70:453.15353 71:144.6579 72:102.13007 73:150.81166 74:224.60008 75:149.47556 76:220.5152 77:186.00891 78:263.39896 79:123.49043 80:96.309952 81:131.16949 82:206.95287 83:174.15349 84:217.53351 85:179.46437 86:271.86008 87:117.54612 88:97.484505 89:131.97147 90:214.74214 91:173.24194 92:197.95125 93:150.83333 94:292.75275 95:104.90992 #
-0.0045434262912739577927601075657549 20:521.84375 21:22.717192 22:699.33636 23:205.58466 24:410.00488 25:95.06723 26:722.599 27:113.30221 28:219.65897 29:131.89653 30:591.19293 31:157.38536 32:421.10089 33:134.94595 34:702.2019 35:109.27616 36:337.37213 37:169.14516 38:896.22089 39:89.454391 40:186.63792 41:310.33093 42:988.8338 43:138.67795 44:217.81831 45:194.15494 46:1052.7556 47:144.7155 48:394.45926 49:205.08884 50:1087.3086 51:153.51808 52:177.20988 53:330.02127 54:830.04462 55:147.88126 56:51.928471 57:241.94366 58:976.31659 59:158.4312 60:76.403633 61:359.06714 62:831.8183 63:131.20921 64:182.76349 65:290.11221 66:823.16687 67:152.39104 68:10.848795 69:242.06915 70:891.66595 71:136.40717 72:262.89716 73:28.439026 74:253.6557 75:150.15515 76:421.23404 77:195.04611 78:588.61096 79:137.40251 80:198.60503 81:134.73303 82:452.62326 83:159.98064 84:388.17773 85:193.66635 86:624.57483 87:131.32281 88:186.23988 89:152.56564 90:443.53925 91:164.06245 92:347.82742 93:177.30267 94:651.40601 95:134.42116 #
-0.0004080980559891672632133463594073 20:427.00137 21:135.24518 22:735.13165 23:116.13858 24:859.78436 25:230.53418 26:550.17236 27:132.55945 28:134.94417 29:312.54977 30:880.36078 31:194.7168 32:851.91064 33:215.55486 34:514.46033 35:146.71107 36:797.11218 37:214.60626 38:795.6449 39:161.44608 40:70.946465 41:417.76651 42:928.56769 43:109.10361 44:587.17529 45:163.07263 46:571.7948 47:122.25884 48:684.93549 49:376.70081 50:1154.4871 51:569.26367 52:205.54787 53:316.37595 54:819.15466 55:74.224808 56:649.55328 57:351.65027 58:553.61737 59:91.018021 60:1406.8977 61:927.8291 62:1031.667 63:188.34697 64:362.24796 65:198.20123 66:934.09979 67:120.55049 68:598.68408 69:342.30814 70:545.37903 71:107.33639 72:261.58337 73:226.424 74:953.07123 75:194.87918 76:824.23688 77:226.99933 78:467.95184 79:175.25957 80:108.03027 81:454.26605 82:903.7276 83:147.18228 84:755.31378 85:186.70876 86:453.59106 87:180.58902 88:172.94081 89:498.61017 90:957.2597 91:134.15639 92:673.21051 93:192.24072 94:445.89325 95:181.63385 #
-0.0025514433545208098710888044990952 20:178.27843 21:46.494522 22:628.60034 23:128.51909 24:114.93661 25:77.446938 26:452.03458 27:151.48109 28:277.9913 29:117.0131 30:482.16602 31:114.18222 32:119.73537 33:90.282654 34:489.23608 35:177.84003 36:358.52603 37:13.658543 38:418.03278 39:150.02242 40:258.92145 41:99.002563 42:565.32312 43:101.02402 44:87.696472 45:127.27271 46:436.01352 47:140.6297 48:263.59164 49:39.554455 50:646.40948 51:126.20059 52:225.16977 53:65.442734 54:597.34851 55:96.761978 56:137.91632 57:114.4859 58:431.24045 59:150.5851 60:728.43024 61:226.02376 62:410.12988 63:140.70851 64:231.62801 65:35.74461 66:486.21948 67:115.91479 68:135.74455 69:92.602676 70:425.77032 71:168.00658 72:258.6004 73:88.310349 74:326.27127 75:99.919952 76:127.41317 77:122.08608 78:523.67303 79:188.90215 80:258.35428 81:111.39835 82:410.08405 83:92.126167 84:121.342 85:117.09467 86:525.95959 87:195.91344 88:257.69708 89:107.9333 90:397.5733 91:89.759468 92:117.99567 93:118.41922 94:549.75647 95:201.84401 #
0.0030566204848612929523277159660211 20:95.04908 21:15.437883 22:524.47992 23:73.37973 24:194.72438 25:151.38864 26:325.25464 27:117.90733 28:139.50874 29:46.735565 30:470.1716 31:95.27803 32:190.28784 33:165.10016 34:336.25665 35:114.74959 36:187.83804 37:187.03502 38:408.57825 39:111.74095 40:151.55952 41:135.31853 42:362.89264 43:85.043533 44:234.06758 45:214.72745 46:271.95691 47:145.10233 48:134.18321 49:140.0867 50:493.27448 51:70.468842 52:166.44743 53:150.45341 54:332.43561 55:81.932793 56:204.11629 57:232.76801 58:279.79056 59:180.20467 60:574.77557 61:135.41634 62:529.58521 63:82.670715 64:171.2532 65:139.52765 66:354.84235 67:57.625935 68:181.30394 69:196.59253 70:294.74786 71:193.70461 72:131.62059 73:25.252062 74:348.41614 75:84.701035 76:188.56093 77:185.72206 78:372.82404 79:135.49425 80:149.56541 81:42.49741 82:338.04681 83:87.647865 84:194.13478 85:202.6076 86:371.62842 87:129.33846 88:169.8549 89:52.971565 90:303.32089 91:90.149147 92:180.26285 93:219.98709 94:368.86002 95:133.4832 #
-0.0039675689227977161549487661318381 20:278.68622 21:137.65387 22:651.93927 23:184.8931 24:22.68029 25:52.67189 26:248.04329 27:68.161041 28:121.74641 29:105.16679 30:381.06009 31:127.77369 32:7.7266698 33:42.486343 34:223.20573 35:52.679878 36:73.936424 37:106.93144 38:428.4017 39:70.999359 40:221.67183 41:165.24765 42:436.18826 43:134.17305 44:40.930725 45:40.60717 46:155.67917 47:104.26157 48:113.75495 49:311.42038 50:641.90063 51:131.91487 52:244.916 53:181.42976 54:395.96219 55:144.93094 56:31.030682 57:74.052933 58:204.7016 59:94.686836 60:398.59561 61:103.45245 62:326.33371 63:307.6973 64:184.81728 65:141.84631 66:450.11295 67:126.89521 68:25.025892 69:95.704002 70:268.19116 71:119.85159 72:156.65602 73:91.512939 74:246.0947 75:168.69525 76:42.659477 77:37.285095 78:223.76065 79:72.377876 80:146.78661 81:105.64326 82:261.08151 83:135.19621 84:59.262283 85:32.052185 86:225.76921 87:99.164223 88:131.49709 89:107.86124 90:246.96556 91:133.90649 92:42.351425 93:27.548162 94:257.33438 95:127.37611 #
-0.0022870962241175914197999219368285 20:64.216751 21:261.50897 22:1175.8557 23:159.15601 24:52.018002 25:227.77171 26:541.71265 27:148.49405 28:167.5979 29:209.02 30:1192.2705 31:132.29335 32:14.135363 33:209.77368 34:517.81964 35:134.47031 36:63.526535 37:422.42816 38:844.60187 39:145.17998 40:141.92664 41:188.37207 42:1176.1882 43:146.25897 44:125.71011 45:386.45709 46:778.22217 47:110.57831 48:208.02094 49:296.2294 50:1164.6953 51:210.95235 52:174.93178 53:196.84831 54:1111.7793 55:137.78992 56:58.362038 57:387.84613 58:813.96265 59:126.70164 60:87.961716 61:525.35059 62:880.16193 63:113.78954 64:218.04277 65:182.53636 66:968.56097 67:127.59496 68:32.754978 69:365.48843 70:714.39008 71:123.3504 72:96.571724 73:178.53542 74:959.71686 75:129.39911 76:9.0204916 77:172.26294 78:466.11932 79:143.61137 80:121.95273 81:171.43205 82:987.75079 83:115.55752 84:29.351925 85:166.35234 86:481.66174 87:144.67628 88:87.379822 89:162.32202 90:948.67639 91:112.60169 92:65.227882 93:151.0885 94:496.94986 95:129.8228 #
0.0011571615454321450625063683048666 20:378.51941 21:113.07938 22:589.14832 23:65.506477 24:305.7662 25:67.67672 26:316.52905 27:96.732666 28:231.36447 29:152.16867 30:303.53265 31:63.590866 32:309.77545 33:66.071899 34:280.71594 35:85.561653 36:172.05324 37:54.994316 38:397.99698 39:140.17058 40:369.99414 41:247.2123 42:470.05264 43:61.305126 44:275.40918 45:79.520294 46:294.06049 47:162.14577 48:120.5135 49:95.270981 50:526.37903 51:46.537235 52:200.05623 53:160.9959 54:465.04556 55:90.932663 56:199.47008 57:109.01283 58:340.45599 59:260.53516 60:520.55957 61:295.27759 62:403.17633 63:286.51727 64:139.63048 65:128.57266 66:407.13623 67:149.89024 68:155.34132 69:80.095284 70:328.71622 71:307.21249 72:94.456482 73:100.48817 74:243.19864 75:49.210033 76:292.09131 77:95.719109 78:329.01639 79:69.937241 80:156.49622 81:156.25119 82:279.69342 83:50.285637 84:267.96841 85:88.433784 86:315.87009 87:87.052917 88:164.85947 89:161.55911 90:278.19708 91:52.202026 92:231.07152 93:96.595367 94:279.71008 95:101.60795 #
-0.0031355685349656325922040878140251 20:124.59394 21:149.74202 22:211.33569 23:53.340797 24:53.866776 25:61.321236 26:350.41733 27:71.15274 28:227.6501 29:24.225021 30:296.66849 31:28.657501 32:49.078236 33:66.832756 34:352.2471 35:100.38114 36:108.07948 37:206.7394 38:494.07382 39:92.10701 40:9.7990456 41:99.101334 42:229.47057 43:65.30471 44:147.41676 45:73.897614 46:372.27228 47:33.419762 48:90.997726 49:98.613831 50:321.05667 51:108.51796 52:96.379883 53:69.139755 54:355.04498 55:94.656555 56:178.42117 57:57.408524 58:352.21561 59:69.195526 60:42.223644 61:242.61617 62:628.54553 63:103.34425 64:123.91986 65:100.4618 66:267.95029 67:101.28912 68:229.45842 69:69.556007 70:335.47226 71:80.129242 72:153.52499 73:49.397705 74:150.48546 75:37.552219 76:27.287041 77:63.941631 78:286.89639 79:64.904396 80:161.00575 81:29.229485 82:273.24142 83:27.613697 84:36.29882 85:54.282616 86:289.05817 87:66.932465 88:162.98412 89:26.492119 90:301.76831 91:34.984558 92:44.563969 93:55.865051 94:281.73138 95:63.87429 #
-1.973084446843520467496091441717e-05 20:426.46329 21:415.45029 22:680.16791 23:66.500954 24:168.39619 25:127.17899 26:212.93192 27:57.810013 28:178.24687 29:269.19626 30:478.57135 31:82.648628 32:138.14655 33:109.01269 34:219.97598 35:56.483719 36:194.58826 37:120.9581 38:234.91748 39:117.26526 40:218.09509 41:275.29501 42:503.77878 43:65.807312 44:68.526253 45:108.41772 46:391.51529 47:38.92168 48:233.4599 49:320.93207 50:541.54871 51:43.967167 52:210.24667 53:235.90611 54:643.53107 55:71.769463 56:65.553192 57:60.660835 58:367.82751 59:42.434296 60:123.27306 61:51.491802 62:479.87653 63:57.296192 64:195.81654 65:210.86562 66:649.35297 67:82.454033 68:88.17453 69:73.700645 70:375.25131 71:64.729065 72:107.71986 73:157.44365 74:293.26556 75:73.606613 76:64.664795 77:95.86264 78:249.97879 79:72.433647 80:110.55997 81:182.57599 82:343.72034 83:70.778267 84:47.827801 85:91.535248 86:255.34299 87:69.026894 88:129.80215 89:186.36018 90:343.72321 91:76.685905 92:31.888056 93:85.19693 94:242.13014 95:59.827595 #
-0.0054981364005156864102619174161646 20:150.99365 21:199.55872 22:381.33887 23:112.78551 24:40.312443 25:134.36507 26:481.90463 27:146.06752 28:62.540565 29:89.637825 30:308.94858 31:83.650108 32:40.129311 33:117.42235 34:481.86444 35:132.7502 36:234.6557 37:188.8577 38:468.04318 39:180.40382 40:118.00882 41:76.86969 42:489.05521 43:114.73667 44:113.9649 45:128.5043 46:553.94531 47:211.71457 48:210.03194 49:313.51074 50:432.89212 51:232.15784 52:154.54353 53:47.889763 54:417.85104 55:112.00034 56:182.87439 57:97.515953 58:487.63266 59:256.54459 60:519.35242 61:335.3147 62:519.30475 63:189.46376 64:224.90114 65:78.506432 66:298.67282 67:137.56798 68:235.66127 69:104.56868 70:406.51736 71:301.59744 72:76.110527 73:47.476463 74:249.58379 75:56.432648 76:28.653467 77:98.021751 78:531.83832 79:134.59795 80:77.915527 81:79.135941 82:402.39011 83:37.815422 84:41.737495 85:78.277245 86:543.00012 87:153.08771 88:78.499245 89:82.205574 90:429.32587 91:40.05558 92:57.090469 93:64.138016 94:574.81476 95:170.66734 #
-0.0034377784134551336858720560485381 20:152.65439 21:74.831268 22:271.22363 23:176.07147 24:193.14305 25:78.525177 26:366.82104 27:130.30682 28:84.113525 29:52.080051 30:233.64471 31:69.370926 32:187.34866 33:83.135086 34:382.82416 35:144.52257 36:166.9229 37:89.595055 38:360.69061 39:131.14163 40:38.623989 41:80.668121 42:270.44965 43:160.41272 44:177.36197 45:129.05878 46:387.72305 47:234.28018 48:178.49416 49:193.13649 50:222.03891 51:135.42447 52:57.621853 53:48.812122 54:276.98251 55:225.808 56:221.36436 57:141.21584 58:440.55988 59:292.9043 60:193.56178 61:68.071632 62:366.00446 63:270.97711 64:19.921089 65:25.447578 66:377.42776 67:245.55249 68:170.26364 69:85.039986 70:496.17145 71:310.93039 72:68.151604 73:38.227131 74:245.48586 75:58.888893 76:202.57478 77:81.524025 78:403.04712 79:128.96759 80:96.693642 81:58.606091 82:216.06482 83:85.848717 84:197.16109 85:83.899368 86:380.39307 87:138.78194 88:57.309727 89:54.486496 90:228.47746 91:98.218201 92:200.6275 93:94.078232 94:367.97986 95:153.29379 #
-0.0035349633024900541794499631009785 20:399.67175 21:134.06877 22:487.26114 23:236.08878 24:172.86803 25:139.24492 26:332.13507 27:132.27689 28:782.99969 29:380.58392 30:554.6665 31:193.63721 32:139.40608 33:135.21996 34:344.70831 35:137.45398 36:413.49759 37:162.97719 38:256.85388 39:106.70567 40:420.8364 41:266.09952 42:438.07422 43:256.87573 44:508.2453 45:357.28326 46:263.85992 47:128.55849 48:395.24307 49:294.42389 50:477.69827 51:309.98572 52:405.48676 53:198.6237 54:501.83505 55:318.17203 56:463.80621 57:418.78107 58:372.474 59:126.87104 60:465.65564 61:267.03079 62:313.21732 63:169.06596 64:400.4938 65:159.74417 66:554.01202 67:399.71164 68:244.36856 69:271.97833 70:414.2605 71:130.00876 72:417.1925 73:210.49066 74:368.67996 75:141.97775 76:115.98592 77:137.04826 78:375.27771 79:145.07155 80:604.255 81:267.57791 82:376.7645 83:195.39294 84:131.49585 85:143.79388 86:331.58719 87:145.32779 88:599.2951 89:271.50888 90:369.56912 91:204.50304 92:159.75812 93:151.58572 94:304.673 95:150.75348 #
-0.0016789057837357235225539398015826 20:67.648964 21:105.90881 22:190.92317 23:274.11734 24:94.089905 25:134.98178 26:444.16272 27:86.685448 28:59.581882 29:2.079942 30:192.98921 31:277.03928 32:118.88713 33:154.38853 34:434.97269 35:88.909142 36:81.153236 37:287.53482 38:740.30078 39:145.63283 40:92.503433 41:34.610847 42:170.38628 43:276.07202 44:114.45987 45:269.99185 46:630.14459 47:131.49707 48:123.1035 49:60.55949 50:204.80788 51:281.97659 52:215.91782 53:80.660645 54:251.45885 55:286.15656 56:132.39403 57:300.12366 58:657.15533 59:196.07185 60:289.39478 61:346.87112 62:729.43805 63:131.7789 64:163.57091 65:44.209896 66:381.92224 67:246.38754 68:52.300667 69:277.91681 70:563.40149 71:204.8732 72:137.20738 73:72.382011 74:255.96512 75:252.8625 76:139.93132 77:179.35741 78:413.85648 79:88.291405 80:98.011292 81:33.920376 82:224.85393 83:260.49338 84:133.08005 85:182.1122 86:392.92682 87:85.816628 88:102.02505 89:37.444408 90:223.47124 91:261.03381 92:144.08429 93:182.32619 94:383.90601 95:93.299858 #
-0.0062424098217414153433324486286438 20:163.91084 21:168.24257 22:596.24054 23:132.69077 24:232.06966 25:222.82556 26:459.35941 27:67.887558 28:68.920601 29:72.675667 30:244.11214 31:128.0188 32:219.70898 33:206.89525 34:470.47891 35:61.834175 36:271.78079 37:314.49988 38:481.26715 39:135.6122 40:85.047562 41:70.168694 42:269.79312 43:139.79381 44:244.6575 45:248.44632 46:459.1348 47:116.11396 48:183.17712 49:215.84775 50:493.95566 51:152.61507 52:68.110779 53:19.860615 54:145.9818 55:119.63274 56:217.78114 57:206.94992 58:355.60965 59:103.06538 60:270.2428 61:229.97397 62:406.8631 63:125.06386 64:42.227837 65:31.543396 66:176.33846 67:92.992432 68:198.7841 69:192.28674 70:320.07684 71:82.940842 72:63.526421 73:19.933399 74:135.07666 75:78.581299 76:214.28943 77:182.16454 78:454.99332 79:59.513191 80:50.508736 81:26.215269 82:137.22447 83:101.94687 84:209.23155 85:178.54739 86:446.07037 87:56.201218 88:39.868732 89:16.734426 90:111.20981 91:104.16284 92:202.74887 93:169.86411 94:418.02231 95:54.590714 #
-0.00013829065664948403391321107847034 20:139.81625 21:36.525993 22:227.97418 23:102.10199 24:151.55278 25:63.27808 26:217.02011 27:92.158592 28:151.18759 29:112.51054 30:375.45264 31:113.18378 32:151.41226 33:53.01263 34:159.24072 35:89.030106 36:280.45154 37:119.01086 38:335.06442 39:109.84979 40:103.15096 41:135.26729 42:365.51071 43:85.833496 44:179.04367 45:217.15546 46:345.6626 47:182.64195 48:172.1893 49:153.69958 50:214.71434 51:122.58202 52:205.96504 53:217.16031 54:551.74585 55:94.932144 56:358.9082 57:218.35773 58:418.26965 59:167.89392 60:356.25052 61:145.74643 62:550.23535 63:179.95445 64:308.02399 65:226.93124 66:585.96637 67:175.07144 68:225.77373 69:184.96001 70:386.65085 71:170.32353 72:120.54198 73:79.299095 74:330.60672 75:174.80772 76:117.85607 77:32.942871 78:137.88266 79:99.175415 80:150.47878 81:104.19539 82:337.62405 83:109.91742 84:106.81142 85:31.499622 86:213.42563 87:111.61755 88:169.85118 89:114.5348 90:349.11536 91:104.9654 92:88.518555 93:28.99003 94:237.7406 95:121.09674 #
0.004730485484688859779134340044493 20:144.06735 21:108.29414 22:873.4267 23:136.08011 24:64.023964 25:31.074434 26:327.73373 27:58.690674 28:125.47792 29:28.198477 30:662.78595 31:98.643929 32:44.612377 33:18.238787 34:292.1517 35:49.374863 36:72.219009 37:36.935261 38:451.86429 39:83.468086 40:130.72043 41:111.05499 42:634.66559 43:103.24094 44:75.589371 45:122.14842 46:490.55301 47:120.89284 48:128.00662 49:85.097778 50:693.42407 51:113.78194 52:119.30081 53:172.5174 54:629.02435 55:104.22949 56:46.197891 57:175.8474 58:747.00916 59:188.42398 60:151.36368 61:110.36634 62:753.45441 63:93.127571 64:128.05563 65:199.73062 66:574.95117 67:127.86832 68:47.456192 69:166.51338 70:786.22821 71:194.12343 72:112.85812 73:35.862186 74:548.38892 75:84.92791 76:37.515896 77:8.663331 78:214.10828 79:42.416962 80:160.84644 81:57.416256 82:553.5451 83:91.328392 84:34.277756 85:13.115835 86:188.74745 87:51.88953 88:155.27737 89:58.695637 90:555.41125 91:88.764038 92:47.205254 93:44.128513 94:196.20245 95:61.802727 #
-0.0014072370894966570314954523723827 20:236.04915 21:38.960403 22:332.8447 23:187.07016 24:133.90941 25:71.576759 26:252.90717 27:61.401989 28:89.575294 29:248.44411 30:363.49478 31:320.97906 32:122.52196 33:63.66296 34:171.39171 35:68.032715 36:284.31696 37:301.31351 38:559.34674 39:102.57407 40:433.60345 41:188.73489 42:543.82928 43:186.74959 44:202.26794 45:69.869133 46:358.30759 47:80.870285 48:388.43549 49:152.30052 50:640.16803 51:260.98172 52:309.00098 53:279.73016 54:642.22113 55:230.46025 56:112.9903 57:74.042358 58:350.95743 59:82.587837 60:560.08087 61:204.48413 62:649.3623 63:169.52367 64:12.099361 65:430.99643 66:789.78802 67:245.52045 68:158.46352 69:74.238434 70:227.02776 71:74.551353 72:53.874676 73:34.479465 74:445.24075 75:230.81174 76:67.760139 77:64.454315 78:226.84631 79:62.667213 80:19.649052 81:181.00681 82:498.4317 83:255.51187 84:50.201283 85:87.245216 86:226.3945 87:56.430096 88:62.94347 89:180.52721 90:445.50037 91:227.54282 92:47.863895 93:74.267555 94:235.19704 95:81.316154 #
-0.0042661596945145208170657724622288 20:142.95197 21:46.658367 22:206.67668 23:263.45001 24:319.57327 25:106.09702 26:212.44354 27:154.40857 28:53.602482 29:68.056747 30:422.49728 31:206.70586 32:334.80865 33:116.22726 34:226.99095 35:147.21317 36:317.56076 37:68.506699 38:280.22964 39:196.37061 40:95.706985 41:82.63726 42:383.53961 43:225.4384 44:259.64236 45:107.11706 46:223.49205 47:150.31885 48:72.795372 49:37.544392 50:252.35283 51:284.9855 52:99.17408 53:85.803261 54:280.68851 55:263.13068 56:230.59468 57:108.41097 58:292.82446 59:154.92244 60:229.24141 61:83.017555 62:300.54712 63:186.61116 64:101.74957 65:112.8183 66:212.4767 67:352.95389 68:214.99187 69:84.254044 70:356.68161 71:208.57791 72:53.997105 73:9.4182215 74:420.46124 75:187.35648 76:284.21725 77:124.64716 78:295.20511 79:122.77113 80:82.198586 81:44.086349 82:436.71899 83:166.88536 84:288.15527 85:126.80704 86:275.79858 87:111.09919 88:81.254837 89:26.53758 90:455.82059 91:158.00192 92:296.01495 93:129.93448 94:287.33682 95:108.62122 #
-2.8869115236272724356325625194586e-05 20:64.782341 21:91.91201 22:261.03983 23:175.40202 24:122.06973 25:59.230404 26:209.40228 27:42.781925 28:130.80208 29:266.96655 30:310.95755 31:69.002937 32:113.61216 33:22.906654 34:195.68333 35:62.137413 36:76.283005 37:92.18206 38:274.46805 39:46.563618 40:166.9147 41:184.10287 42:407.94659 43:111.9194 44:123.27032 45:29.260662 46:381.57339 47:89.913315 48:475.06577 49:350.84683 50:399.68085 51:148.05991 52:337.94269 53:273.22684 54:606.83569 55:103.29174 56:64.16507 57:62.891758 58:518.31738 59:134.45274 60:396.8222 61:101.68694 62:745.54468 63:110.80665 64:327.19086 65:250.08031 66:666.95648 67:143.09799 68:35.014309 69:41.610264 70:521.47906 71:163.19308 72:102.13251 73:245.98383 74:288.89569 75:178.89076 76:129.60138 77:26.645639 78:220.47781 79:54.908852 80:88.912193 81:240.72446 82:303.52322 83:100.06467 84:105.39557 85:24.376551 86:189.78003 87:52.931255 88:92.979729 89:228.19743 90:347.74734 91:97.350174 92:83.634933 93:41.698734 94:206.85631 95:54.731094 #
-2.5427115844800507460377048118971e-07 20:77.575363 21:86.485176 22:510.24393 23:91.234962 24:24.979588 25:87.757896 26:416.11453 27:77.254364 28:117.82778 29:51.012886 30:219.53999 31:154.45518 32:38.761169 33:84.61171 34:400.42877 35:75.246887 36:41.465813 37:124.36802 38:464.18362 39:102.58244 40:184.787 41:87.612747 42:238.65158 43:123.68481 44:94.751923 45:93.27314 46:390.38058 47:84.502068 48:165.91429 49:40.494682 50:336.26904 51:94.056206 52:206.03157 53:99.949677 54:264.5889 55:125.62522 56:106.83939 57:129.24416 58:370.53052 59:87.947578 60:135.93729 61:107.24171 62:452.49323 63:91.952888 64:242.89392 65:130.56459 66:284.92984 67:112.96245 68:103.92413 69:129.39795 70:366.86212 71:107.12552 72:107.96841 73:52.353264 74:218.39484 75:147.01968 76:34.381039 77:62.772636 78:364.37396 79:58.864544 80:130.1747 81:75.626358 82:178.089 83:137.26558 84:48.780865 85:72.729607 86:325.31299 87:43.046204 88:126.7927 89:79.186867 90:179.13962 91:139.88474 92:53.583031 93:75.461372 94:295.04541 95:50.172504 #
-0.0033755078391345502870912742565679 20:54.551025 21:183.09885 22:338.41443 23:65.724815 24:268.82397 25:78.047882 26:159.64789 27:51.717087 28:188.0056 29:187.16777 30:396.5372 31:62.610699 32:279.1647 33:91.398026 34:210.64449 35:62.881374 36:193.12099 37:99.746262 38:252.76031 39:61.854683 40:196.81503 41:117.36002 42:507.9711 43:96.589844 44:246.78342 45:63.049202 46:523.27167 47:69.805992 48:170.68442 49:184.38881 50:352.56836 51:106.14115 52:150.19466 53:192.94205 54:699.39752 55:120.51835 56:260.19296 57:103.11988 58:740.24902 59:85.390198 60:180.06267 61:46.869129 62:690.44098 63:161.34753 64:150.33273 65:265.09979 66:783.95001 67:136.76224 68:191.18352 69:105.08001 70:760.18762 71:106.9329 72:28.272907 73:120.98409 74:288.85962 75:62.510189 76:260.67172 77:113.00237 78:255.05563 79:68.565712 80:127.70064 81:157.65224 82:357.9198 83:65.329689 84:257.80545 85:112.90987 86:286.67029 87:61.239918 88:121.47462 89:151.70808 90:351.89081 91:71.627419 92:264.51566 93:122.05355 94:306.35696 95:49.887455 #
-0.00030131441563966613987612941372163 20:1348.4392 21:739.21521 22:1101.5541 23:337.54865 24:754.82373 25:18.116297 26:723.5437 27:177.17273 28:1168.1749 29:1058.8258 30:1500.0681 31:423.84006 32:897.4472 33:72.88887 34:761.06213 35:143.79024 36:2643.0715 37:531.78961 38:1710.6726 39:563.56744 40:601.83771 41:1171.6747 42:1570.0419 43:343.88425 44:460.58292 45:401.76709 46:1184.4736 47:320.63306 48:831.65997 49:1080.2051 50:1024.8336 51:508.87228 52:96.101013 53:863.05011 54:930.98682 55:463.65768 56:1298.511 57:615.72882 58:1035.0975 59:493.82523 60:4143.6953 61:1009.7913 62:2393.3745 63:631.73602 64:490.099 65:896.22839 66:976.42969 67:431.24838 68:995.42896 69:764.59424 70:896.64752 71:697.76294 72:1509.0802 73:742.42639 74:1352.3694 75:513.07172 76:785.74213 77:47.963619 78:561.51996 79:137.08316 80:1206.63 81:658.32355 82:1449.9012 83:443.78705 84:855.81073 85:60.255909 86:539.29675 87:156.99411 88:1505.9597 89:618.35883 90:1449.1328 91:431.27853 92:1117.1511 93:101.16812 94:388.23764 95:214.29265 #
0.0021477346702624133811809770122636 20:149.6982 21:154.74466 22:167.99841 23:84.194862 24:113.14193 25:121.31676 26:363.66437 27:127.75909 28:66.891167 29:44.868435 30:318.49887 31:73.910057 32:118.66533 33:137.74936 34:350.44244 35:117.6665 36:151.72961 37:101.31428 38:252.20004 39:142.82332 40:194.24312 41:107.24152 42:260.36905 43:124.68348 44:50.306099 45:102.72005 46:355.82629 47:115.42371 48:164.85945 49:107.64625 50:285.49805 51:85.091927 52:150.86304 53:73.756828 54:225.39755 55:129.68095 56:41.990059 57:114.34763 58:488.25565 59:139.81886 60:176.31894 61:199.9422 62:627.1236 63:105.68156 64:95.123154 65:71.06073 66:179.22762 67:116.27113 68:97.131813 69:150.619 70:542.92999 71:178.28917 72:63.740124 73:35.836376 74:298.27505 75:46.611553 76:110.53547 77:137.62074 78:373.18173 79:115.04196 80:93.05735 81:46.933266 82:253.91327 83:67.263893 84:103.84984 85:130.88168 86:379.12524 87:122.01642 88:96.751488 89:37.62244 90:231.12955 91:75.015045 92:125.65133 93:141.45872 94:400.21823 95:119.06893 #
-0.0043859225387921788388845278916506 20:199.18607 21:106.22511 22:238.95474 23:91.159836 24:214.06233 25:162.56795 26:333.78674 27:90.610573 28:352.34521 29:190.29561 30:190.06244 31:43.235031 32:215.69832 33:159.72133 34:319.6636 35:87.641846 36:231.65271 37:114.7951 38:306.3093 39:106.9463 40:224.26544 41:148.75908 42:231.72005 43:73.328506 44:216.84737 45:242.89786 46:343.49493 47:34.441509 48:187.55298 49:61.424191 50:226.48448 51:108.11871 52:136.46719 53:75.33046 54:297.71017 55:85.406136 56:202.14603 57:184.27086 58:346.90091 59:35.674282 60:555.30298 61:323.24759 62:445.83716 63:51.217953 64:121.40738 65:46.709492 66:471.33371 67:92.309753 68:256.47147 69:185.74272 70:354.88663 71:63.347843 72:268.33594 73:143.10864 74:220.52826 75:51.463207 76:189.81364 77:159.36235 78:294.67517 79:72.778 80:346.00186 81:160.28725 82:164.05882 83:61.671597 84:188.71561 85:144.06519 86:294.61578 87:78.618958 88:295.24249 89:160.05701 90:215.85568 91:53.814407 92:208.17459 93:130.69698 94:295.21008 95:86.075668 #
-2.736511218580633258978807020867e-06 20:290.90002 21:119.01868 22:267.96524 23:119.59605 24:141.40813 25:40.408806 26:387.2908 27:75.426353 28:208.96069 29:60.341915 30:225.36311 31:158.61749 32:148.34268 33:43.521885 34:413.35028 35:82.852089 36:221.20531 37:93.486801 38:273.16565 39:75.754639 40:198.04189 41:73.885109 42:285.98337 43:208.18576 44:143.27518 45:47.565243 46:429.48578 47:75.787392 48:332.66199 49:152.81276 50:178.40489 51:143.18826 52:172.99808 53:86.827034 54:304.68307 55:242.92352 56:81.961571 57:116.93732 58:536.7146 59:102.45568 60:211.36081 61:51.430546 62:290.10373 63:112.51149 64:159.02754 65:44.536617 66:329.30386 67:245.06198 68:58.526539 69:103.83698 70:510.49713 71:101.23496 72:164.07138 73:47.478477 74:217.82968 75:180.36925 76:133.69252 77:53.084068 78:411.61389 79:83.645485 80:185.28397 81:73.132462 82:262.02625 83:184.91739 84:133.1089 85:52.716965 86:405.16785 87:84.171906 88:174.30814 89:80.083321 90:272.73233 91:192.64384 92:125.3714 93:62.262634 94:415.4382 95:74.132423 #
-0.00075477569280738639363736997012211 20:337.94669 21:196.30437 22:483.68393 23:132.4066 24:28.784828 25:19.124973 26:372.68402 27:127.21654 28:220.43451 29:231.34203 30:312.71991 31:141.41 32:73.125252 33:52.78315 34:396.08206 35:118.80106 36:81.542671 37:106.32841 38:420.34286 39:230.57292 40:260.63556 41:255.18428 42:447.33383 43:141.75543 44:199.03893 45:112.15919 46:352.23044 47:161.09613 48:353.71338 49:220.89516 50:483.83014 51:128.60315 52:268.04028 53:253.65559 54:515.34875 55:162.54147 56:247.63622 57:164.23474 58:359.91919 59:208.30173 60:892.5755 61:197.83817 62:330.46469 63:263.42068 64:258.94443 65:241.65218 66:704.63641 67:197.86668 68:203.98459 69:148.21835 70:471.2644 71:249.96529 72:184.59004 73:194.5452 74:280.91556 75:133.57761 76:32.888931 77:40.829391 78:380.74152 79:91.388474 80:201.69878 81:198.12886 82:330.84164 83:129.85619 84:14.879162 85:35.496155 86:381.85498 87:83.71685 88:197.09537 89:202.98523 90:320.13177 91:137.09404 92:24.669456 93:37.273144 94:329.23752 95:97.135063 #
-3.6889877650169572431693154612731e-05 20:226.85129 21:85.170212 22:342.72958 23:166.97557 24:164.62889 25:72.336258 26:155.98523 27:219.84575 28:186.42543 29:80.974335 30:184.50638 31:83.84761 32:159.45097 33:62.846733 34:191.72185 35:224.08716 36:133.92061 37:66.224968 38:180.70128 39:190.20198 40:188.81265 41:143.48497 42:176.98447 43:111.20448 44:149.43875 45:79.755844 46:217.47034 47:278.01907 48:94.227776 49:100.69662 50:188.25027 51:115.19398 52:45.122238 53:137.95132 54:340.23538 55:143.33928 56:39.824619 57:32.66188 58:241.18484 59:322.86917 60:359.66208 61:35.413006 62:335.67249 63:312.02615 64:83.852219 65:181.74384 66:430.28952 67:202.64589 68:45.13903 69:28.744755 70:291.91663 71:336.10068 72:185.31544 73:92.119629 74:173.30956 75:98.942245 76:166.17891 77:51.106991 78:196.78185 79:230.50854 80:256.63678 81:106.49014 82:165.51247 83:95.060669 84:152.2399 85:42.037323 86:170.39624 87:239.78123 88:252.39464 89:115.99319 90:177.51097 91:95.419029 92:183.96445 93:24.39052 94:152.32436 95:243.3224 #
-0.00064248942562609295814368692845164 20:50.356709 21:186.05174 22:692.21857 23:94.299713 24:114.30145 25:37.598236 26:434.92307 27:200.7449 28:43.221313 29:106.91057 30:756.49915 31:70.532776 32:118.23247 33:36.483696 34:325.98584 35:218.48909 36:124.20374 37:32.536533 38:631.20538 39:128.53288 40:36.734074 41:137.26616 42:799.40417 43:125.4335 44:108.18548 45:20.705305 46:295.00754 47:196.91136 48:119.93035 49:137.79204 50:483.57465 51:96.489944 52:43.312767 53:115.53403 54:694.81049 55:165.5896 56:45.898495 57:48.609543 58:434.41074 59:208.67513 60:160.68822 61:21.093746 62:358.17444 63:98.86219 64:67.241119 65:119.19915 66:535.15686 67:192.13326 68:49.619274 69:37.074306 70:376.12094 71:181.84302 72:62.189571 73:61.366634 74:676.36963 75:84.184235 76:91.241547 77:32.393478 78:298.49188 79:237.96658 80:24.655449 81:79.46624 82:746.3111 83:65.909119 84:88.997108 85:31.831512 86:296.44012 87:230.82762 88:43.078098 89:72.200218 90:734.42102 91:74.00499 92:83.586967 93:28.960772 94:315.41183 95:228.3311 #
-0.0002664002825969735699374041359988 20:113.49704 21:87.202438 22:433.19724 23:60.808025 24:232.25819 25:134.06119 26:207.45758 27:108.41833 28:43.526718 29:46.913513 30:443.39026 31:86.947548 32:211.06218 33:129.27776 34:236.25711 35:123.18742 36:233.77487 37:139.67328 38:245.41035 39:93.22718 40:162.8241 41:13.55305 42:789.03784 43:106.84997 44:258.21008 45:162.99899 46:382.0726 47:140.89014 48:150.07637 49:92.107338 50:541.94635 51:94.962639 52:166.34651 53:25.336618 54:902.74231 55:89.68071 56:251.21085 57:158.26152 58:361.91965 59:178.3867 60:353.94336 61:123.90741 62:478.52075 63:135.97052 64:163.43159 65:62.081974 66:901.29211 67:80.399971 68:231.7137 69:144.8598 70:402.00449 71:192.17049 72:57.416519 73:17.768198 74:388.10446 75:90.608681 76:244.8149 77:136.63998 78:190.25354 79:113.452 80:34.017193 81:22.278456 82:505.24454 83:80.784599 84:233.67316 85:135.18382 86:176.70576 87:107.43789 88:28.06955 89:33.635895 90:532.52991 91:78.846313 92:229.56268 93:126.11027 94:189.71596 95:94.683228 #
-0.0014757016709264585401645275553051 20:321.72949 21:471.76822 22:623.0575 23:207.10428 24:375.60577 25:351.36615 26:720.12018 27:340.76398 28:1368.5205 29:671.47516 30:1208.0627 31:236.74196 32:302.1586 33:288.08777 34:707.45074 35:357.17331 36:234.54301 37:377.82339 38:871.86005 39:265.50967 40:341.46808 41:593.71747 42:749.22272 43:137.02626 44:109.90232 45:100.67822 46:586.14288 47:535.02777 48:754.9693 49:714.33978 50:725.92365 51:99.877785 52:283.07602 53:423.65613 54:550.72375 55:190.04179 56:137.96553 57:53.431267 58:592.76868 59:723.3222 60:196.06335 61:338.06827 62:922.52112 63:681.31952 64:232.8049 65:354.09143 66:503.75903 67:250.36365 68:149.76633 69:57.264942 70:581.34283 71:822.37744 72:505.80038 73:502.65656 74:880.81879 75:143.36966 76:418.21719 77:352.26395 78:696.41498 79:420.31064 80:1023.9991 81:702.05084 82:752.69891 83:156.03729 84:397.88361 85:334.72083 86:709.79413 87:455.53784 88:900.50934 89:670.16418 90:726.90131 91:151.78494 92:431.28656 93:360.94092 94:700.25342 95:506.84311 #
-0.00086590855198734328901366552599939 20:89.264763 21:215.92497 22:386.51334 23:175.17285 24:337.1106 25:485.96869 26:716.4256 27:145.89456 28:95.124138 29:144.17581 30:272.31985 31:166.81259 32:309.73505 33:463.09793 34:670.948 35:144.97368 36:432.05939 37:574.24249 38:876.78687 39:186.43886 40:107.77317 41:167.36052 42:347.56677 43:120.91782 44:197.42957 45:396.06235 46:643.96234 47:120.94363 48:331.91354 49:89.139053 50:410.97348 51:145.03012 52:163.28825 53:87.948448 54:292.93243 55:163.7334 56:87.040466 57:381.8089 58:685.00427 59:163.2099 60:369.29538 61:506.03427 62:533.23315 63:181.56656 64:133.7757 65:46.495853 66:251.74765 67:80.74572 68:127.64689 69:367.5842 70:673.86475 71:142.31586 72:99.627258 73:136.68829 74:314.48709 75:137.38451 76:201.2009 77:378.70779 78:598.04065 79:198.42346 80:85.07589 81:107.96381 82:248.69495 83:148.85435 84:191.34608 85:363.82211 86:579.33563 87:186.37885 88:113.12106 89:99.965309 90:264.07083 91:146.90697 92:177.38597 93:342.6748 94:556.08667 95:161.85394 #
-0.0055257753478543669700684404233471 20:101.21889 21:160.48436 22:773.41064 23:100.60098 24:73.93119 25:158.03882 26:598.89911 27:80.855247 28:235.88078 29:207.12144 30:833.30725 31:71.116188 32:78.536568 33:175.55435 34:607.71741 35:88.778969 36:76.490067 37:281.5863 38:883.27985 39:91.140717 40:105.35624 41:182.25502 42:632.92474 43:75.250015 44:167.16606 45:274.17548 46:628.52838 47:113.73328 48:139.40576 49:241.03847 50:901.92188 51:60.130684 52:103.51493 53:160.88361 54:450.51831 55:79.58503 56:120.32264 57:226.95435 58:622.33722 59:132.16222 60:454.11096 61:315.10809 62:954.11078 63:200.76407 64:112.69642 65:134.16467 66:419.7001 67:88.77536 68:106.0897 69:192.589 70:580.23993 71:148.5808 72:206.98351 73:165.78664 74:683.17322 75:66.792839 76:49.504959 77:127.87562 78:571.29218 79:102.40931 80:235.81538 81:177.60367 82:669.51831 83:64.679108 84:43.139469 85:135.12918 86:526.0564 87:103.85087 88:220.75378 89:164.03786 90:605.68323 91:63.325191 92:33.836227 93:106.35714 94:414.61017 95:98.299484 #
0.0059453827225228184083505311718909 20:193.43802 21:143.48122 22:433.56177 23:89.487312 24:125.51128 25:81.130325 26:282.48779 27:65.342667 28:197.76126 29:121.86021 30:289.06006 31:101.05605 32:120.31174 33:69.577812 34:296.82553 35:77.247131 36:188.38704 37:132.6687 38:412.08136 39:35.557884 40:181.70361 41:94.694359 42:554.49677 43:139.71019 44:167.87999 45:70.201851 46:391.10568 47:95.096733 48:303.09753 49:223.20778 50:344.52719 51:95.503296 52:188.07756 53:63.072517 54:546.19452 55:148.95711 56:245.60391 57:118.02034 58:381.12964 59:121.26154 60:136.71935 61:176.75357 62:614.60547 63:78.209564 64:192.41443 65:67.149567 66:425.95251 67:187.58067 68:250.13808 69:131.4483 70:454.12189 71:120.8177 72:146.11031 73:96.586159 74:223.43983 75:88.830978 76:123.63786 77:74.257614 78:331.04437 79:85.870285 80:191.44579 81:113.48238 82:295.75751 83:124.39643 84:128.19682 85:69.890541 86:286.13382 87:91.761269 88:189.46228 89:108.51415 90:306.68576 91:131.63937 92:136.08519 93:70.931541 94:237.74719 95:122.2569 #
0.0022736960173248303360149513707711 20:835.20886 21:365.87732 22:405.10782 23:195.75621 24:493.56604 25:237.11 26:372.57455 27:95.491341 28:417.48154 29:252.76704 30:433.62677 31:181.74397 32:434.75186 33:222.72185 34:373.60397 35:103.88022 36:483.84677 37:217.20786 38:479.93323 39:98.321846 40:395.02756 41:413.14941 42:572.43701 43:250.03897 44:283.79785 45:263.2739 46:464.80191 47:140.67734 48:498.97235 49:329.16077 50:369.20148 51:222.56723 52:448.60004 53:460.5918 54:581.94226 55:292.63611 56:318.82892 57:393.56662 58:561.51056 59:174.57663 60:349.76523 61:345.22696 62:586.49713 63:174.25182 64:364.19885 65:462.94507 66:591.33472 67:297.33505 68:294.80133 69:377.46484 70:491.22668 71:199.39391 72:411.17145 73:269.83231 74:517.37891 75:200.92383 76:373.91483 77:242.15199 78:376.06522 79:88.634621 80:411.37573 81:300.98148 82:442.86871 83:205.02829 84:361.92307 85:252.7243 86:414.52597 87:116.60205 88:355.80627 89:308.60849 90:434.4408 91:201.1438 92:344.30487 93:257.19604 94:435.96756 95:140.08147 #
-0.00030446916960438774601982458989369 20:641.65698 21:186.31204 22:435.34622 23:238.93951 24:447.29803 25:161.08974 26:188.56458 27:187.92249 28:321.26233 29:235.37181 30:312.95215 31:173.89029 32:386.68048 33:162.56392 34:193.94711 35:199.88239 36:422.18451 37:185.39949 38:162.32986 39:170.15332 40:262.47198 41:292.18762 42:401.50253 43:192.52303 44:110.04833 45:102.43325 46:246.97929 47:205.35632 48:234.8972 49:260.65967 50:333.8233 51:203.44048 52:212.50267 53:239.45543 54:450.30484 55:254.60707 56:147.93684 57:97.501083 58:258.1687 59:204.54706 60:149.802 61:162.43346 62:412.62939 63:178.49329 64:246.58418 65:203.91608 66:453.77689 67:310.47061 68:156.64436 69:81.691513 70:218.9451 71:240.24625 72:316.05685 73:200.35156 74:263.90872 75:131.66272 76:345.0264 77:177.36581 78:218.60629 79:234.81223 80:215.49527 81:203.73099 82:282.5538 83:166.7765 84:319.77991 85:167.60095 86:202.97797 87:244.19597 88:215.99423 89:201.78825 90:290.32132 91:166.25558 92:302.76788 93:153.28746 94:188.13501 95:234.82013 #
-0.0023892979958048837264839026062191 20:205.81955 21:198.46661 22:398.29767 23:167.01308 24:197.29282 25:74.933739 26:298.75107 27:163.37508 28:441.30966 29:161.06648 30:190.6561 31:249.81001 32:200.4651 33:59.318504 34:262.35455 35:161.38193 36:640.15118 37:286.70938 38:394.81744 39:132.33775 40:97.627853 41:160.63066 42:329.08234 43:280.68307 44:171.28329 45:68.04702 46:239.57304 47:319.3465 48:220.68526 49:209.46637 50:434.14313 51:231.55655 52:154.78641 53:190.1096 54:544.70892 55:345.07257 56:265.82016 57:103.24052 58:482.61182 59:481.12958 60:273.81937 61:58.270733 62:510.40198 63:379.74292 64:70.369972 65:248.1049 66:740.28101 67:430.19125 68:298.24835 69:139.62135 70:510.01416 71:545.08966 72:191.81494 73:149.32704 74:407.67499 75:230.55145 76:174.78821 77:46.213905 78:248.5153 79:198.63846 80:348.22531 81:175.41283 82:269.28912 83:232.27141 84:180.14429 85:43.502693 86:225.32329 87:212.71324 88:341.65973 89:176.8698 90:283.78433 91:238.19948 92:202.16476 93:72.909554 94:229.04466 95:232.04424 #
-0.0015855985393741524585448088302542 20:187.95724 21:158.1234 22:255.8685 23:187.46957 24:125.02473 25:148.42668 26:292.61224 27:39.055141 28:108.41254 29:114.48798 30:365.02878 31:138.25215 32:109.39634 33:128.60483 34:303.68289 35:39.560223 36:174.84161 37:185.78064 38:388.34494 39:53.472614 40:207.11659 41:233.72163 42:440.25098 43:167.64465 44:147.03146 45:159.67258 46:382.99191 47:70.443832 48:200.85106 49:174.96703 50:273.63159 51:179.59634 52:230.23022 53:243.89549 54:488.42773 55:181.99001 56:136.87921 57:219.37192 58:437.02484 59:90.464149 60:170.33281 61:195.96666 62:302.68069 63:85.420006 64:206.11168 65:208.64407 66:424.49976 67:196.71552 68:125.16705 69:191.13399 70:378.98175 71:84.83046 72:64.438545 73:74.622612 74:305.34186 75:112.10329 76:76.471123 77:94.383636 78:291.05963 79:53.091801 80:84.751862 81:132.10823 82:353.85535 83:127.88808 84:58.745251 85:67.787643 86:330.13263 87:56.638058 88:95.490646 89:142.72101 90:356.36868 91:132.5439 92:50.634426 93:49.761547 94:351.94537 95:68.867989 #
-0.0011548939477313523160884045637431 20:62.225712 21:388.64432 22:658.74152 23:151.69952 24:315.16376 25:499.20834 26:687.13245 27:153.11765 28:200.31552 29:235.69865 30:589.91534 31:83.515152 32:296.76041 33:470.10892 34:661.9176 35:125.36906 36:602.97858 37:737.20673 38:1132.1254 39:76.54258 40:235.89664 41:303.46997 42:536.29565 43:100.8531 44:355.52908 45:454.24313 46:721.62708 47:56.444935 48:416.23645 49:488.44431 50:832.45428 51:131.00992 52:217.80495 53:255.79811 54:336.65601 55:108.48364 56:496.3873 57:380.34058 58:390.0408 59:109.86672 60:556.62915 61:502.99945 62:534.93347 63:88.057961 64:65.44796 65:193.52037 66:258.40649 67:108.96606 68:509.42569 69:377.42838 70:376.27805 71:105.48551 72:166.33258 73:189.47182 74:585.1701 75:120.08445 76:231.00456 77:366.93491 78:538.79419 79:132.67255 80:142.4167 81:209.66853 82:542.09698 83:70.609039 84:200.24295 85:359.29382 86:532.05865 87:107.44669 88:159.98482 89:211.28038 90:530.61829 91:67.685219 92:197.67444 93:340.77139 94:466.37482 95:99.385086 #
-0.0058740784812521887325864611284487 20:266.79892 21:297.35379 22:538.77789 23:129.53871 24:220.3754 25:110.93681 26:255.54205 27:120.81403 28:358.25122 29:210.78284 30:576.67621 31:150.02872 32:216.10735 33:103.97779 34:256.21689 35:104.84438 36:263.77786 37:196.25226 38:333.0766 39:108.46677 40:184.74284 41:117.60521 42:635.49207 43:116.67994 44:217.21683 45:92.950623 46:421.43265 47:117.25211 48:204.77753 49:227.64015 50:727.69 51:127.91208 52:152.3864 53:30.991999 54:610.94745 55:91.221954 56:295.09601 57:226.56509 58:473.36804 59:90.376007 60:231.04169 61:91.696365 62:395.1676 63:196.49979 64:61.591225 65:16.344082 66:681.17767 67:172.25572 68:230.73494 69:193.73238 70:388.78412 71:102.57661 72:389.56485 73:218.21265 74:396.29013 75:208.53162 76:227.70892 77:91.48455 78:225.43692 79:100.81016 80:261.60559 81:139.85851 82:478.04242 83:173.47751 84:198.92105 85:75.255608 86:231.4639 87:98.489479 88:254.62267 89:129.83701 90:483.67941 91:172.88206 92:188.01425 93:52.157421 94:239.54887 95:107.3633 #
-1.5363068500008625338892898071208e-05 20:254.84564 21:47.283264 22:444.92325 23:109.18107 24:96.529518 25:46.306889 26:388.15436 27:80.032974 28:302.78275 29:34.948872 30:398.19904 31:89.421104 32:31.823404 33:63.330894 34:400.28485 35:91.656532 36:21.769876 37:167.30318 38:632.3465 39:84.634727 40:355.46497 41:91.161797 42:436.44965 43:74.687065 44:193.53226 45:64.679832 46:353.64984 47:73.222855 48:372.50479 49:120.45035 50:553.6665 51:85.177689 52:366.26544 53:148.4353 54:463.15784 55:72.794304 56:40.92662 57:32.143524 58:239.91563 59:71.037231 60:127.19716 61:161.48692 62:344.34039 63:90.973488 64:324.02652 65:134.62505 66:490.75861 67:83.918007 68:29.599789 69:106.55588 70:253.51128 71:81.15451 72:288.21829 73:58.706196 74:280.25058 75:78.954971 76:22.281368 77:64.058357 78:404.12897 79:80.764519 80:292.35309 81:60.308739 82:324.89038 83:79.600578 84:20.047018 85:43.932365 86:362.79214 87:69.023636 88:300.46396 89:59.230991 90:325.94827 91:83.71759 92:43.704796 93:40.252331 94:351.09232 95:66.50441 #
