SVM-light Version V6.02
0 # kernel type
3 # kernel parameter -d 
1 # kernel parameter -g 
1 # kernel parameter -s 
1 # kernel parameter -r 
empty# kernel parameter -u 
95 # highest feature index 
234 # number of training documents 
173 # number of support vectors plus 1 
0.97970263 # threshold b, each following line is a SV (starting with alpha*y)
-1.2794248852364356846353246697362e-07 1:0 2:0 3:0 4:0 5:0 6:0 7:0 8:0 9:0 10:0 11:0 12:0 13:0 14:0 15:0 16:0 17:0 18:0 19:0 20:426.46329 21:415.45029 22:680.16791 23:66.500954 24:168.39619 25:127.17899 26:212.93192 27:57.810013 28:178.24687 29:269.19626 30:478.57135 31:82.648628 32:138.14655 33:109.01269 34:219.97598 35:56.483719 36:194.58826 37:120.9581 38:234.91748 39:117.26526 40:218.09509 41:275.29501 42:503.77878 43:65.807312 44:68.526253 45:108.41772 46:391.51529 47:38.92168 48:233.4599 49:320.93207 50:541.54871 51:43.967167 52:210.24667 53:235.90611 54:643.53107 55:71.769463 56:65.553192 57:60.660835 58:367.82751 59:42.434296 60:123.27306 61:51.491802 62:479.87653 63:57.296192 64:195.81654 65:210.86562 66:649.35297 67:82.454033 68:88.17453 69:73.700645 70:375.25131 71:64.729065 72:107.71986 73:157.44365 74:293.26556 75:73.606613 76:64.664795 77:95.86264 78:249.97879 79:72.433647 80:110.55997 81:182.57599 82:343.72034 83:70.778267 84:47.827801 85:91.535248 86:255.34299 87:69.026894 88:129.80215 89:186.36018 90:343.72321 91:76.685905 92:31.888056 93:85.19693 94:242.13014 95:59.827595 #
-1.2794248852364356846353246697362e-07 1:0 2:0 3:0 4:0 5:0 6:0 7:0 8:0 9:0 10:0 11:0 12:0 13:0 14:0 15:0 16:0 17:0 18:0 19:0 20:266.79892 21:297.35379 22:538.77789 23:129.53871 24:220.3754 25:110.93681 26:255.54205 27:120.81403 28:358.25122 29:210.78284 30:576.67621 31:150.02872 32:216.10735 33:103.97779 34:256.21689 35:104.84438 36:263.77786 37:196.25226 38:333.0766 39:108.46677 40:184.74284 41:117.60521 42:635.49207 43:116.67994 44:217.21683 45:92.950623 46:421.43265 47:117.25211 48:204.77753 49:227.64015 50:727.69 51:127.91208 52:152.3864 53:30.991999 54:610.94745 55:91.221954 56:295.09601 57:226.56509 58:473.36804 59:90.376007 60:231.04169 61:91.696365 62:395.1676 63:196.49979 64:61.591225 65:16.344082 66:681.17767 67:172.25572 68:230.73494 69:193.73238 70:388.78412 71:102.57661 72:389.56485 73:218.21265 74:396.29013 75:208.53162 76:227.70892 77:91.48455 78:225.43692 79:100.81016 80:261.60559 81:139.85851 82:478.04242 83:173.47751 84:198.92105 85:75.255608 86:231.4639 87:98.489479 88:254.62267 89:129.83701 90:483.67941 91:172.88206 92:188.01425 93:52.157421 94:239.54887 95:107.3633 #
-6.7181014628555114367135236985717e-08 1:0 2:0 3:0 4:0 5:0 6:0 7:0 8:0 9:0 10:0 11:0 12:0 13:0 14:0 15:0 16:0 17:0 18:0 19:0 20:489.1601 21:268.54874 22:867.38019 23:132.66032 24:271.66611 25:154.47397 26:673.97095 27:176.20461 28:205.78833 29:151.21425 30:482.59329 31:104.92631 32:232.78641 33:131.34695 34:674.34937 35:165.43028 36:372.56836 37:304.08337 38:753.44806 39:205.66374 40:296.12296 41:64.942276 42:451.43988 43:105.31763 44:265.46887 45:182.15019 46:778.86798 47:233.20932 48:319.89563 49:78.367996 50:457.07578 51:120.03908 52:261.6145 53:52.310539 54:422.60812 55:155.76859 56:221.58443 57:165.89581 58:839.7207 59:243.5477 60:483.92255 61:295.0831 62:912.76959 63:208.20103 64:234.68988 65:47.952866 66:372.53799 67:206.88356 68:242.15619 69:194.71516 70:743.11676 71:224.48436 72:303.47873 73:171.74391 74:436.2886 75:92.834785 76:220.2668 77:113.13272 78:665.56604 79:188.2547 80:242.52315 81:110.69281 82:490.61819 83:79.229271 84:188.49808 85:80.906364 86:648.31604 87:182.03888 88:252.96448 89:109.50892 90:512.36884 91:78.277924 92:157.88069 93:45.374027 94:654.99731 95:178.24248 #
-1.2794248852364356846353246697362e-07 1:0 2:0 3:0 4:0 5:0 6:0 7:0 8:0 9:0 10:0 11:0 12:0 13:0 14:0 15:0 16:0 17:0 18:0 19:0 20:62.225712 21:388.64432 22:658.74152 23:151.69952 24:315.16376 25:499.20834 26:687.13245 27:153.11765 28:200.31552 29:235.69865 30:589.91534 31:83.515152 32:296.76041 33:470.10892 34:661.9176 35:125.36906 36:602.97858 37:737.20673 38:1132.1254 39:76.54258 40:235.89664 41:303.46997 42:536.29565 43:100.8531 44:355.52908 45:454.24313 46:721.62708 47:56.444935 48:416.23645 49:488.44431 50:832.45428 51:131.00992 52:217.80495 53:255.79811 54:336.65601 55:108.48364 56:496.3873 57:380.34058 58:390.0408 59:109.86672 60:556.62915 61:502.99945 62:534.93347 63:88.057961 64:65.44796 65:193.52037 66:258.40649 67:108.96606 68:509.42569 69:377.42838 70:376.27805 71:105.48551 72:166.33258 73:189.47182 74:585.1701 75:120.08445 76:231.00456 77:366.93491 78:538.79419 79:132.67255 80:142.4167 81:209.66853 82:542.09698 83:70.609039 84:200.24295 85:359.29382 86:532.05865 87:107.44669 88:159.98482 89:211.28038 90:530.61829 91:67.685219 92:197.67444 93:340.77139 94:466.37482 95:99.385086 #
-2.8044104701483348063024286789258e-08 1:0 2:0 3:0 4:0 5:0 6:0 7:0 8:0 9:0 10:0 11:0 12:0 13:0 14:0 15:0 16:0 17:0 18:0 19:0 20:89.264763 21:215.92497 22:386.51334 23:175.17285 24:337.1106 25:485.96869 26:716.4256 27:145.89456 28:95.124138 29:144.17581 30:272.31985 31:166.81259 32:309.73505 33:463.09793 34:670.948 35:144.97368 36:432.05939 37:574.24249 38:876.78687 39:186.43886 40:107.77317 41:167.36052 42:347.56677 43:120.91782 44:197.42957 45:396.06235 46:643.96234 47:120.94363 48:331.91354 49:89.139053 50:410.97348 51:145.03012 52:163.28825 53:87.948448 54:292.93243 55:163.7334 56:87.040466 57:381.8089 58:685.00427 59:163.2099 60:369.29538 61:506.03427 62:533.23315 63:181.56656 64:133.7757 65:46.495853 66:251.74765 67:80.74572 68:127.64689 69:367.5842 70:673.86475 71:142.31586 72:99.627258 73:136.68829 74:314.48709 75:137.38451 76:201.2009 77:378.70779 78:598.04065 79:198.42346 80:85.07589 81:107.96381 82:248.69495 83:148.85435 84:191.34608 85:363.82211 86:579.33563 87:186.37885 88:113.12106 89:99.965309 90:264.07083 91:146.90697 92:177.38597 93:342.6748 94:556.08667 95:161.85394 #
1.2794248852364356846353246697362e-07 1:0 2:0 3:0 4:0 5:0 6:0 7:0 8:0 9:0 10:0 11:0 12:0 13:0 14:0 15:0 16:0 17:0 18:0 19:0 20:66.257668 21:123.61446 22:296.87854 23:223.41849 24:148.41014 25:102.36372 26:294.99756 27:175.14 28:101.77328 29:25.824608 30:245.84811 31:134.16782 32:157.32185 33:94.735977 34:258.134 35:166.90527 36:195.06671 37:107.37335 38:354.95081 39:208.29901 40:167.25859 41:155.35118 42:123.20341 43:186.65829 44:278.00235 45:130.03279 46:232.32597 47:163.85814 48:196.56517 49:75.188538 50:313.10477 51:209.38837 52:279.58734 53:210.77666 54:275.22656 55:208.08603 56:333.9299 57:157.72295 58:162.32504 59:156.9277 60:470.22443 61:227.93178 62:330.22379 63:151.5511 64:132.73955 65:232.13025 66:310.00546 67:190.0038 68:328.38416 69:164.64531 70:156.07697 71:152.36627 72:116.31885 73:35.616978 74:262.15265 75:104.57502 76:175.80394 77:48.100819 78:221.03697 79:148.41057 80:106.71256 81:37.013294 82:195.17094 83:120.34576 84:168.45262 85:27.589865 86:206.25056 87:142.23647 88:155.76221 89:45.512234 90:173.88202 91:126.08707 92:175.93192 93:29.116922 94:203.25275 95:143.75215 #
1.2794248852364356846353246697362e-07 1:0 2:0 3:0 4:0 5:0 6:0 7:0 8:0 9:0 10:0 11:0 12:0 13:0 14:0 15:0 16:0 17:0 18:0 19:0 20:391.53076 21:470.57397 22:767.96191 23:87.550507 24:115.01324 25:159.93297 26:424.15192 27:50.887821 28:242.51141 29:217.32877 30:155.15031 31:87.379005 32:80.727753 33:123.50874 34:389.99527 35:46.598297 36:143.41954 37:160.14531 38:494.56085 39:82.683968 40:439.88712 41:520.69543 42:321.18829 43:52.243477 44:161.45834 45:174.01103 46:191.27507 47:65.239792 48:210.22461 49:193.02638 50:393.42029 51:107.84959 52:392.74393 53:499.50977 54:365.49475 55:111.70117 56:136.25041 57:192.20097 58:269.3479 59:108.18884 60:253.32443 61:428.48898 62:435.10864 63:141.40982 64:510.41315 65:410.68893 66:496.67288 67:116.77184 68:90.063004 69:173.69353 70:309.31711 71:149.56807 72:169.3932 73:177.54955 74:165.30359 75:37.219894 76:57.597366 77:59.265587 78:274.76443 79:46.027939 80:268.60458 81:277.53033 82:178.15762 83:36.876316 84:52.694885 85:53.925148 86:215.64236 87:39.456314 88:253.47035 89:302.84589 90:181.66739 91:44.233765 92:43.878048 93:59.886337 94:184.61353 95:47.78833 #
1.2794248852364356846353246697362e-07 1:0 2:0 3:0 4:0 5:0 6:0 7:0 8:0 9:0 10:0 11:0 12:0 13:0 14:0 15:0 16:0 17:0 18:0 19:0 20:377.85562 21:279.1893 22:305.67731 23:222.65591 24:146.55493 25:149.36375 26:309.79971 27:94.613678 28:572.32617 29:469.84656 30:233.31677 31:104.01818 32:107.20325 33:134.38745 34:275.25369 35:86.470276 36:220.39708 37:223.35921 38:385.70569 39:126.68592 40:582.64899 41:588.43719 42:469.76324 43:131.34833 44:227.04633 45:206.43814 46:373.69516 47:119.194 48:512.86639 49:452.32858 50:363.43216 51:197.40173 52:509.59399 53:501.17307 54:488.05411 55:108.36012 56:151.42873 57:204.17313 58:492.35458 59:169.27031 60:587.18713 61:438.91324 62:518.54956 63:101.79368 64:353.62473 65:449.74033 66:560.95795 67:159.17546 68:208.76256 69:204.51782 70:518.4455 71:217.31325 72:455.58267 73:368.86023 74:248.83344 75:99.959518 76:113.59366 77:116.0362 78:270.55032 79:91.446579 80:521.25305 81:441.952 82:244.95058 83:94.948975 84:93.232834 85:110.13287 86:280.39691 87:94.909111 88:522.00665 89:445.23627 90:274.71255 91:86.677338 92:94.978157 93:99.258896 94:286.77802 95:95.869537 #
1.2794248852364356846353246697362e-07 1:0 2:0 3:0 4:0 5:0 6:0 7:0 8:0 9:0 10:0 11:0 12:0 13:0 14:0 15:0 16:0 17:0 18:0 19:0 20:172.62869 21:303.26599 22:545.68201 23:75.975853 24:323.81525 25:295.40628 26:493.05466 27:49.890606 28:262.92908 29:223.76831 30:309.88278 31:94.230164 32:297.98294 33:268.65521 34:485.67764 35:63.334015 36:402.30484 37:371.48898 38:606.474 39:105.01273 40:144.3562 41:134.65889 42:526.34399 43:49.819191 44:191.32855 45:123.08062 46:282.58078 47:60.799866 48:303.69095 49:320.99969 50:587.79974 51:106.38588 52:69.434006 53:43.584721 54:718.48889 55:107.95032 56:183.03296 57:91.522995 58:312.1286 59:99.752953 60:589.32355 61:448.95374 62:443.22766 63:159.90915 64:143.86772 65:59.095493 66:491.32205 67:142.25233 68:126.53652 69:75.76268 70:344.43692 71:146.36711 72:157.68744 73:101.32764 74:179.6459 75:108.98978 76:303.59381 77:217.27078 78:366.6611 79:56.256798 80:170.77742 81:108.11016 82:230.3231 83:87.871597 84:290.93402 85:194.90547 86:377.97989 87:74.034653 88:168.09883 89:98.436752 90:234.95879 91:93.091202 92:273.63092 93:182.54393 94:382.31924 95:91.482689 #
1.2794248852364356846353246697362e-07 1:0 2:0 3:0 4:0 5:0 6:0 7:0 8:0 9:0 10:0 11:0 12:0 13:0 14:0 15:0 16:0 17:0 18:0 19:0 20:191.4655 21:245.89189 22:567.72052 23:115.73275 24:246.02202 25:169.71632 26:481.90182 27:112.72748 28:163.09331 29:74.65242 30:282.47888 31:81.924057 32:217.5327 33:142.4825 34:433.22369 35:110.42489 36:336.5874 37:212.39867 38:532.0755 39:106.46763 40:132.04225 41:129.62025 42:307.76685 43:115.7054 44:82.784241 45:93.649551 46:513.77069 47:121.50825 48:164.84633 49:157.10461 50:499.91537 51:162.74207 52:78.474983 53:128.55904 54:347.35556 55:125.08241 56:97.472557 57:168.50314 58:579.05054 59:122.09458 60:266.83646 61:111.07392 62:357.71756 63:106.1737 64:93.40432 65:88.0056 66:228.41737 67:99.244736 68:89.337791 69:177.74771 70:568.21527 71:128.69727 72:127.59916 73:48.804287 74:286.82654 75:63.875565 76:184.70448 77:117.13599 78:392.43298 79:113.94927 80:179.91901 81:88.655159 82:275.75012 83:79.624199 84:164.5598 85:85.643547 86:319.436 87:106.85909 88:165.48882 89:82.136703 90:267.03082 91:79.545265 92:134.22321 93:61.070644 94:275.18341 95:100.5281 #
-4.406529061617179903690560971441e-09 1:0 2:0 3:0 4:0 5:0 6:0 7:0 8:0 9:0 10:0 11:0 12:0 13:0 14:0 15:0 16:0 17:0 18:0 19:0 20:259.60779 21:266.43304 22:631.82648 23:234.6008 24:235.01601 25:10.281972 26:196.35335 27:108.8092 28:248.96893 29:243.66777 30:574.30884 31:247.22874 32:208.48682 33:27.27158 34:323.92847 35:107.36757 36:233.97453 37:201.27992 38:470.60007 39:113.88905 40:272.00177 41:226.82822 42:714.5636 43:294.26923 44:249.93787 45:79.622337 46:544.92432 47:127.25285 48:624.04736 49:539.0708 50:890.57184 51:208.54524 52:298.09387 53:237.64102 54:537.14758 55:293.33469 56:169.42638 57:92.229286 58:526.25061 59:183.28238 60:326.93488 61:83.949699 62:467.22748 63:163.22743 64:266.50436 65:203.41122 66:482.02731 67:322.84848 68:160.72849 69:101.35622 70:614.04608 71:198.12613 72:195.54715 73:127.75751 74:389.53262 75:240.18727 76:223.28346 77:27.358076 78:407.32019 79:139.61815 80:222.38441 81:189.49988 82:465.6958 83:241.15233 84:239.22099 85:59.884117 86:424.50198 87:119.31722 88:212.618 89:176.57497 90:445.62149 91:239.9736 92:281.53967 93:103.99123 94:396.76709 95:113.70393 #
-2.2654745941125246328309329746364e-08 1:0 2:0 3:0 4:0 5:0 6:0 7:0 8:0 9:0 10:0 11:0 12:0 13:0 14:0 15:0 16:0 17:0 18:0 19:0 20:152.63979 21:250.35179 22:663.29468 23:74.442955 24:190.5034 25:172.42693 26:371.68069 27:55.418652 28:45.025803 29:158.73717 30:667.30499 31:106.75015 32:177.91023 33:143.22363 34:365.14954 35:52.193684 36:196.47148 37:279.23676 38:315.99435 39:37.031036 40:138.44759 41:224.83037 42:610.73077 43:39.230446 44:140.98431 45:52.45686 46:209.09637 47:45.058323 48:267.70142 49:267.82877 50:540.78418 51:69.32785 52:152.4549 53:233.92844 54:657.14893 55:61.200115 56:110.81207 57:50.779675 58:176.57863 59:38.087395 60:231.29247 61:151.47563 62:168.04745 63:62.118378 64:142.99951 65:201.19276 66:580.39502 67:65.783379 68:94.983513 69:51.55801 70:142.60832 71:36.199272 72:92.958588 73:182.92593 74:692.25909 75:93.526657 76:159.43692 77:105.86623 78:358.72913 79:47.415546 80:73.731789 81:158.24747 82:680.65045 83:55.416527 84:154.94785 85:95.552399 86:387.81213 87:53.498447 88:68.724976 89:149.82704 90:684.43243 91:46.267406 92:132.57381 93:89.700134 94:372.17664 95:54.739464 #
-1.2794248852364356846353246697362e-07 1:0 2:0 3:0 4:0 5:0 6:0 7:0 8:0 9:0 10:0 11:0 12:0 13:0 14:0 15:0 16:0 17:0 18:0 19:0 20:383.76779 21:92.703072 22:110.96611 23:153.79965 24:103.71289 25:129.79355 26:343.47119 27:104.87663 28:535.79028 29:311.02039 30:431.2514 31:182.18674 32:78.351303 33:111.39565 34:399.42102 35:120.73952 36:228.12419 37:225.60342 38:350.00571 39:85.749046 40:387.57153 41:131.68156 42:281.74658 43:143.92522 44:291.13315 45:307.8728 46:513.84131 47:106.87254 48:415.61432 49:143.43317 50:408.64377 51:127.50503 52:352.99979 53:102.05434 54:220.53882 55:133.33693 56:157.69432 57:218.32309 58:445.15979 59:122.26941 60:460.28174 61:349.31854 62:440.46066 63:86.962692 64:231.62297 65:49.600121 66:180.25278 67:112.96659 68:206.082 69:204.50555 70:356.93954 71:113.9146 72:427.35767 73:234.38358 74:408.22559 75:172.00809 76:110.65572 77:93.781197 78:402.63849 79:122.33903 80:394.93243 81:217.9908 82:366.29706 83:153.23259 84:110.21609 85:96.122749 86:408.59314 87:118.3234 88:407.81757 89:219.66429 90:354.6947 91:149.21855 92:114.17056 93:118.36967 94:426.90677 95:128.22093 #
-1.2794248852364356846353246697362e-07 1:0 2:0 3:0 4:0 5:0 6:0 7:0 8:0 9:0 10:0 11:0 12:0 13:0 14:0 15:0 16:0 17:0 18:0 19:0 20:324.70175 21:203.20879 22:681.94177 23:109.40181 24:206.29329 25:69.613922 26:359.87695 27:98.392853 28:337.10007 29:226.04265 30:176.42453 31:92.740158 32:184.41452 33:75.975639 34:337.9129 35:93.638573 36:197.05199 37:73.9132 38:390.08798 39:114.06274 40:325.14612 41:240.19637 42:205.28812 43:97.436005 44:120.13094 45:66.730682 46:271.82281 47:109.00837 48:277.81354 49:254.51495 50:375.23529 51:87.13092 52:254.14151 53:149.51756 54:280.46899 55:125.7213 56:104.85837 57:23.583359 58:225.25171 59:121.65331 60:113.21515 61:20.22747 62:273.44928 63:121.84508 64:203.50914 65:105.86145 66:303.95541 67:152.83229 68:78.070396 69:15.240392 70:188.54605 71:136.0416 72:255.19958 73:129.26974 74:213.12419 75:91.710663 76:166.84154 77:87.764587 78:318.53735 79:107.26607 80:279.17575 81:191.0975 82:108.14497 83:81.94548 84:152.63037 85:85.798698 86:317.15561 87:112.7562 88:279.38501 89:186.18889 90:88.660332 91:81.087669 92:138.60335 93:90.142387 94:296.48938 95:101.23037 #
1.2794248852364356846353246697362e-07 1:0 2:0 3:0 4:0 5:0 6:0 7:0 8:0 9:0 10:0 11:0 12:0 13:0 14:0 15:0 16:0 17:0 18:0 19:0 20:425.7532 21:296.42682 22:1051.7793 23:253.02071 24:370.75098 25:357.29971 26:915.60284 27:397.01999 28:565.48486 29:244.28445 30:856.61102 31:206.8466 32:368.27008 33:369.26227 34:904.23303 35:375.88104 36:367.61429 37:371.96368 38:1107.6605 39:469.2261 40:344.97842 41:289.42413 42:735.37421 43:230.22586 44:75.040298 45:376.49881 46:1081.5533 47:392.54868 48:418.60883 49:340.45505 50:1008.5322 51:216.89444 52:515.41376 53:330.80246 54:660.53595 55:227.81996 56:247.25797 57:380.28644 58:1048.3993 59:384.34384 60:195.62019 61:327.1463 62:1291.485 63:483.80112 64:288.51532 65:247.83401 66:577.75549 67:278.47678 68:336.20688 69:274.79129 70:841.72412 71:377.16885 72:462.94507 73:313.45593 74:777.45483 75:136.48071 76:357.19278 77:346.90317 78:846.8045 79:407.31668 80:494.9902 81:291.82883 82:742.13214 83:141.13879 84:358.08282 85:358.31186 86:843.43201 87:391.83096 88:312.76663 89:288.642 90:846.19128 91:128.69577 92:359.86432 93:376.82095 94:853.15973 95:375.01172 #
1.2794248852364356846353246697362e-07 1:0 2:0 3:0 4:0 5:0 6:0 7:0 8:0 9:0 10:0 11:0 12:0 13:0 14:0 15:0 16:0 17:0 18:0 19:0 20:528.2464 21:235.94127 22:1048.0333 23:381.04666 24:33.473793 25:219.86826 26:803.72699 27:432.32901 28:526.60321 29:138.01376 30:850.91479 31:358.25327 32:75.917824 33:220.83524 34:784.71259 35:420.72418 36:131.58594 37:256.87628 38:802.73169 39:442.46722 40:315.57098 41:189.39059 42:709.43744 43:297.07666 44:126.37697 45:157.50389 46:571.55048 47:366.04486 48:498.98593 49:260.83215 50:1180.2803 51:399.28931 52:573.03992 53:265.52435 54:718.94757 55:312.94229 56:518.08252 57:154.54208 58:594.65057 59:372.57785 60:151.58533 61:236.48598 62:388.52188 63:371.42511 64:394.45816 65:260.74506 66:716.73792 67:275.03586 68:348.72742 69:122.91596 70:366.87204 71:425.65424 72:366.05203 73:161.30518 74:718.42419 75:344.91968 76:85.997917 77:185.1349 78:770.41321 79:417.6344 80:75.971344 81:69.464203 82:733.61121 83:321.41449 84:77.251984 85:170.38745 86:777.47534 87:421.09286 88:372.08026 89:139.91429 90:777.21667 91:283.2298 92:139.08971 93:169.19032 94:790.53198 95:433.88956 #
1.2794248852364356846353246697362e-07 1:0 2:0 3:0 4:0 5:0 6:0 7:0 8:0 9:0 10:0 11:0 12:0 13:0 14:0 15:0 16:0 17:0 18:0 19:0 20:303.52948 21:123.34554 22:837.70477 23:367.36011 24:219.36469 25:180.56392 26:281.45013 27:90.65937 28:305.13278 29:53.863239 30:705.1214 31:487.00729 32:262.7561 33:223.55957 34:298.33426 35:83.61145 36:592.14606 37:368.20413 38:751.77057 39:135.13092 40:375.90515 41:110.72684 42:817.41876 43:319.36859 44:797.55084 45:520.99878 46:740.0611 47:107.34524 48:983.27484 49:995.42218 50:2692.8792 51:385.2775 52:174.6636 53:154.2005 54:775.88458 55:279.19531 56:573.83563 57:338.79172 58:846.66779 59:186.05615 60:609.21838 61:511.52216 62:834.84119 63:395.71115 64:146.03476 65:139.10625 66:772.45789 67:277.05576 68:366.37811 69:216.66508 70:647.35925 71:179.0018 72:184.60353 73:117.8119 74:587.40594 75:293.98859 76:133.14868 77:171.1994 78:292.82788 79:87.211678 80:362.44977 81:169.30885 82:691.27405 83:327.5528 84:129.61902 85:163.33429 86:288.7811 87:95.746323 88:228.93706 89:115.19339 90:641.73187 91:328.22379 92:239.16838 93:188.72829 94:324.73822 95:124.16981 #
1.2794248852364356846353246697362e-07 1:0 2:0 3:0 4:0 5:0 6:0 7:0 8:0 9:0 10:0 11:0 12:0 13:0 14:0 15:0 16:0 17:0 18:0 19:0 20:104.43498 21:239.10385 22:548.03961 23:429.82788 24:97.697319 25:117.99924 26:749.71228 27:292.9472 28:296.6044 29:126.24693 30:462.66382 31:530.28845 32:157.17731 33:153.12047 34:782.91577 35:275.64725 36:211.06429 37:60.585884 38:883.24231 39:291.94586 40:286.16367 41:224.03308 42:512.62708 43:473.12823 44:440.59753 45:295.00113 46:1049.4883 47:293.04153 48:153.6864 49:178.83513 50:558.32953 51:529.5741 52:943.77716 53:237.60222 54:614.18048 55:491.99872 56:440.28687 57:276.74835 58:1061.4467 59:317.06894 60:287.00366 61:126.82607 62:1018.051 63:332.38815 64:408.71069 65:197.54239 66:701.26569 67:415.46902 68:500.70068 69:182.77492 70:968.04474 71:348.45493 72:280.72427 73:185.07817 74:422.94879 75:525.95715 76:115.85478 77:154.9893 78:844.44714 79:279.56155 80:671.97437 81:115.95606 82:461.56082 83:538.24792 84:95.082306 85:162.04083 86:799.25714 87:277.95514 88:314.8638 89:216.53638 90:435.40454 91:519.49341 92:92.713577 93:156.67358 94:743.43158 95:271.58411 #
-1.2794248852364356846353246697362e-07 1:0 2:0 3:0 4:0 5:0 6:0 7:0 8:0 9:0 10:0 11:0 12:0 13:0 14:0 15:0 16:0 17:0 18:0 19:0 20:691.85669 21:168.17357 22:287.67181 23:87.433685 24:520.58392 25:174.00465 26:295.0434 27:248.31277 28:376.31686 29:81.240082 30:226.85132 31:37.102699 32:456.35013 33:138.2653 34:285.11557 35:251.15567 36:458.21591 37:101.4735 38:325.31613 39:193.2655 40:308.65015 41:29.88225 42:296.52298 43:83.354584 44:369.66302 45:109.68147 46:167.80638 47:189.2438 48:440.36127 49:96.754227 50:346.78906 51:66.659363 52:296.55875 53:33.840843 54:276.19394 55:122.54919 56:323.63382 57:136.05241 58:210.57579 59:163.62096 60:261.2879 61:76.007423 62:239.37642 63:198.53209 64:287.54364 65:59.388561 66:229.56831 67:148.10287 68:269.8699 69:108.681 70:232.45073 71:202.89952 72:378.7085 73:90.688797 74:127.1398 75:40.033401 76:432.52719 77:150.87502 78:375.97504 79:277.59586 80:366.52438 81:65.724075 82:194.99937 83:49.480793 84:411.08545 85:138.67899 86:331.35992 87:266.67862 88:353.8277 89:63.932362 90:195.43961 91:52.846687 92:406.21844 93:138.93005 94:296.05042 95:249.92841 #
-1.2794248852364356846353246697362e-07 1:0 2:0 3:0 4:0 5:0 6:0 7:0 8:0 9:0 10:0 11:0 12:0 13:0 14:0 15:0 16:0 17:0 18:0 19:0 20:124.59394 21:149.74202 22:211.33569 23:53.340797 24:53.866776 25:61.321236 26:350.41733 27:71.15274 28:227.6501 29:24.225021 30:296.66849 31:28.657501 32:49.078236 33:66.832756 34:352.2471 35:100.38114 36:108.07948 37:206.7394 38:494.07382 39:92.10701 40:9.7990456 41:99.101334 42:229.47057 43:65.30471 44:147.41676 45:73.897614 46:372.27228 47:33.419762 48:90.997726 49:98.613831 50:321.05667 51:108.51796 52:96.379883 53:69.139755 54:355.04498 55:94.656555 56:178.42117 57:57.408524 58:352.21561 59:69.195526 60:42.223644 61:242.61617 62:628.54553 63:103.34425 64:123.91986 65:100.4618 66:267.95029 67:101.28912 68:229.45842 69:69.556007 70:335.47226 71:80.129242 72:153.52499 73:49.397705 74:150.48546 75:37.552219 76:27.287041 77:63.941631 78:286.89639 79:64.904396 80:161.00575 81:29.229485 82:273.24142 83:27.613697 84:36.29882 85:54.282616 86:289.05817 87:66.932465 88:162.98412 89:26.492119 90:301.76831 91:34.984558 92:44.563969 93:55.865051 94:281.73138 95:63.87429 #
1.2794248852364356846353246697362e-07 1:0 2:0 3:0 4:0 5:0 6:0 7:0 8:0 9:0 10:0 11:0 12:0 13:0 14:0 15:0 16:0 17:0 18:0 19:0 20:137.88257 21:30.223623 22:298.29962 23:96.933105 24:52.441067 25:114.12896 26:711.65887 27:78.229576 28:208.94597 29:167.41539 30:426.23328 31:86.649078 32:102.50009 33:110.98491 34:724.26385 35:58.801636 36:133.64053 37:160.59088 38:660.76898 39:116.7962 40:159.40207 41:262.21295 42:662.94196 43:97.18837 44:99.868912 45:116.68518 46:945.44812 47:88.458359 48:148.15814 49:102.12869 50:579.83203 51:73.124435 52:144.42633 53:294.03174 54:826.89624 55:108.6831 56:152.92892 57:199.84158 58:1089.3607 59:142.65593 60:223.06058 61:250.88821 62:939.56512 63:78.696968 64:196.05502 65:323.78763 66:692.00946 67:127.87711 68:144.02139 69:213.7841 70:1105.8423 71:156.48694 72:140.10159 73:190.2094 74:354.17865 75:115.42786 76:17.046968 77:106.88113 78:782.24573 79:75.907959 80:153.21497 81:215.87885 82:368.7413 83:90.386726 84:9.9288969 85:97.483505 86:793.03741 87:102.65046 88:139.34834 89:197.14996 90:416.2428 91:97.94236 92:26.514107 93:82.090279 94:827.685 95:117.52102 #
1.2794248852364356846353246697362e-07 1:0 2:0 3:0 4:0 5:0 6:0 7:0 8:0 9:0 10:0 11:0 12:0 13:0 14:0 15:0 16:0 17:0 18:0 19:0 20:227.02036 21:172.10147 22:327.93668 23:95.583061 24:9.0282288 25:24.25589 26:177.14302 27:69.899376 28:214.48016 29:102.53529 30:184.37547 31:111.49409 32:30.328178 33:14.748089 34:169.62383 35:61.75425 36:57.598244 37:15.9427 38:204.02043 39:86.317078 40:152.25905 41:74.743225 42:166.07629 43:121.90122 44:122.87033 45:63.197899 46:95.823288 47:90.485229 48:195.70628 49:119.19261 50:226.63167 51:102.45486 52:105.55139 53:64.881302 54:145.33313 55:122.35736 56:114.76381 57:79.503403 58:108.69656 59:79.48703 60:240.13445 61:96.741234 62:164.03172 63:109.13917 64:76.325157 65:47.006676 66:168.50917 67:122.72231 68:104.12955 69:49.344185 70:91.306396 71:77.804626 72:210.121 73:130.88116 74:216.7072 75:78.034416 76:17.171913 77:27.564878 78:200.645 79:59.979424 80:208.29311 81:139.80208 82:230.50844 83:120.4075 84:25.576736 85:16.979948 86:188.84879 87:71.468933 88:191.36595 89:133.00287 90:223.81821 91:129.61012 92:28.446451 93:7.3981528 94:212.98407 95:74.892174 #
-3.5357571259800301408712103201637e-08 1:0 2:0 3:0 4:0 5:0 6:0 7:0 8:0 9:0 10:0 11:0 12:0 13:0 14:0 15:0 16:0 17:0 18:0 19:0 20:521.84375 21:22.717192 22:699.33636 23:205.58466 24:410.00488 25:95.06723 26:722.599 27:113.30221 28:219.65897 29:131.89653 30:591.19293 31:157.38536 32:421.10089 33:134.94595 34:702.2019 35:109.27616 36:337.37213 37:169.14516 38:896.22089 39:89.454391 40:186.63792 41:310.33093 42:988.8338 43:138.67795 44:217.81831 45:194.15494 46:1052.7556 47:144.7155 48:394.45926 49:205.08884 50:1087.3086 51:153.51808 52:177.20988 53:330.02127 54:830.04462 55:147.88126 56:51.928471 57:241.94366 58:976.31659 59:158.4312 60:76.403633 61:359.06714 62:831.8183 63:131.20921 64:182.76349 65:290.11221 66:823.16687 67:152.39104 68:10.848795 69:242.06915 70:891.66595 71:136.40717 72:262.89716 73:28.439026 74:253.6557 75:150.15515 76:421.23404 77:195.04611 78:588.61096 79:137.40251 80:198.60503 81:134.73303 82:452.62326 83:159.98064 84:388.17773 85:193.66635 86:624.57483 87:131.32281 88:186.23988 89:152.56564 90:443.53925 91:164.06245 92:347.82742 93:177.30267 94:651.40601 95:134.42116 #
1.2794248852364356846353246697362e-07 1:0 2:0 3:0 4:0 5:0 6:0 7:0 8:0 9:0 10:0 11:0 12:0 13:0 14:0 15:0 16:0 17:0 18:0 19:0 20:154.49445 21:68.056572 22:158.00705 23:83.602386 24:255.35941 25:142.31641 26:267.11633 27:153.37007 28:165.80695 29:26.119255 30:197.30434 31:67.093185 32:239.55247 33:147.83424 34:261.7963 35:153.85333 36:320.2785 37:104.02792 38:221.09888 39:123.83057 40:188.49832 41:38.187939 42:207.93219 43:61.18285 44:318.26923 45:129.27773 46:308.93948 47:145.41458 48:106.18604 49:61.431236 50:299.50113 51:52.334885 52:156.06789 53:6.0952439 54:304.82498 55:66.454887 56:347.55746 57:147.89513 58:334.85217 59:150.74016 60:520.23309 61:156.28322 62:265.21088 63:130.28914 64:164.60275 65:21.558542 66:286.33838 67:64.834084 68:358.12042 69:141.00874 70:271.59424 71:157.32118 72:92.618423 73:20.544327 74:221.21414 75:62.710224 76:202.28778 77:80.397911 78:214.20551 79:177.57782 80:176.40295 81:20.280718 82:199.13939 83:63.927883 84:229.6151 85:73.127625 86:205.45116 87:178.37001 88:184.92896 89:20.738192 90:194.07172 91:63.545513 92:219.19321 93:63.203133 94:196.52583 95:176.9464 #
-1.2794248852364356846353246697362e-07 1:0 2:0 3:0 4:0 5:0 6:0 7:0 8:0 9:0 10:0 11:0 12:0 13:0 14:0 15:0 16:0 17:0 18:0 19:0 20:145.82942 21:23.096704 22:345.98492 23:118.53879 24:92.287224 25:66.493118 26:439.91711 27:100.76079 28:43.295761 29:80.417992 30:234.18803 31:118.18619 32:69.208275 33:65.051147 34:393.73129 35:91.475555 36:110.88103 37:60.245258 38:598.31195 39:111.00748 40:44.339413 41:66.48497 42:129.50258 43:130.01784 44:82.50486 45:85.860313 46:399.54037 47:70.741272 48:48.413025 49:88.294662 50:279.58356 51:111.01524 52:59.056297 53:67.249107 54:114.56666 55:138.28316 56:76.654671 57:87.332481 58:408.77847 59:79.171761 60:395.25552 61:201.84058 62:506.8728 63:107.69727 64:31.770741 65:83.836975 66:107.69844 67:138.15257 68:73.218094 69:91.112595 70:435.46213 71:85.104874 72:34.72633 73:45.079063 74:159.87868 75:116.45878 76:81.874039 77:74.533447 78:411.69302 79:114.24939 80:11.799312 81:52.552795 82:168.69508 83:107.03051 84:65.539169 85:63.121922 86:428.72284 87:107.21757 88:2.8875639 89:45.860306 90:165.62788 91:98.21344 92:47.033234 93:54.320129 94:405.68121 95:100.94292 #
-1.0591772475213522778508812294262e-07 1:0 2:0 3:0 4:0 5:0 6:0 7:0 8:0 9:0 10:0 11:0 12:0 13:0 14:0 15:0 16:0 17:0 18:0 19:0 20:187.95724 21:158.1234 22:255.8685 23:187.46957 24:125.02473 25:148.42668 26:292.61224 27:39.055141 28:108.41254 29:114.48798 30:365.02878 31:138.25215 32:109.39634 33:128.60483 34:303.68289 35:39.560223 36:174.84161 37:185.78064 38:388.34494 39:53.472614 40:207.11659 41:233.72163 42:440.25098 43:167.64465 44:147.03146 45:159.67258 46:382.99191 47:70.443832 48:200.85106 49:174.96703 50:273.63159 51:179.59634 52:230.23022 53:243.89549 54:488.42773 55:181.99001 56:136.87921 57:219.37192 58:437.02484 59:90.464149 60:170.33281 61:195.96666 62:302.68069 63:85.420006 64:206.11168 65:208.64407 66:424.49976 67:196.71552 68:125.16705 69:191.13399 70:378.98175 71:84.83046 72:64.438545 73:74.622612 74:305.34186 75:112.10329 76:76.471123 77:94.383636 78:291.05963 79:53.091801 80:84.751862 81:132.10823 82:353.85535 83:127.88808 84:58.745251 85:67.787643 86:330.13263 87:56.638058 88:95.490646 89:142.72101 90:356.36868 91:132.5439 92:50.634426 93:49.761547 94:351.94537 95:68.867989 #
-1.2794248852364356846353246697362e-07 1:0 2:0 3:0 4:0 5:0 6:0 7:0 8:0 9:0 10:0 11:0 12:0 13:0 14:0 15:0 16:0 17:0 18:0 19:0 20:229.43123 21:186.1483 22:638.44586 23:101.30572 24:167.31987 25:80.772308 26:544.56396 27:103.41792 28:121.53812 29:80.931381 30:442.90939 31:122.91365 32:145.57014 33:60.579079 34:569.03711 35:109.49825 36:247.87683 37:73.287613 38:594.08679 39:119.65128 40:140.42749 41:123.45465 42:517.74292 43:112.27261 44:104.24653 45:61.122826 46:731.46985 47:141.66347 48:186.88487 49:104.04736 50:511.62695 51:90.546265 52:77.189873 53:84.238403 54:497.63837 55:128.99701 56:64.675995 57:112.27142 58:915.66132 59:179.27838 60:78.696587 61:100.91308 62:781.35101 63:192.0526 64:61.15332 65:71.374153 66:475.54095 67:122.91512 68:57.186073 69:116.15049 70:883.27911 71:192.2606 72:114.12711 73:84.69931 74:376.65579 75:127.48888 76:139.20473 77:58.350479 78:555.86255 79:119.40288 80:96.304993 81:67.293243 82:371.78412 83:126.97906 84:118.92525 85:38.138569 86:547.04791 87:119.06453 88:93.984497 89:70.732841 90:386.22223 91:129.12836 92:104.62502 93:33.068722 94:549.35358 95:115.06985 #
-5.5783043932566083895614565679733e-08 1:0 2:0 3:0 4:0 5:0 6:0 7:0 8:0 9:0 10:0 11:0 12:0 13:0 14:0 15:0 16:0 17:0 18:0 19:0 20:121.47057 21:141.34155 22:631.25452 23:92.754662 24:109.95675 25:136.951 26:554.867 27:96.83812 28:124.36937 29:104.80067 30:193.11748 31:115.48668 32:71.629723 33:97.39566 34:594.13928 35:96.885323 36:243.15994 37:324.81757 38:615.93384 39:75.335304 40:227.45854 41:242.11745 42:413.3736 43:107.13038 44:68.5532 45:36.916744 46:670.27136 47:100.59868 48:99.627129 49:133.87068 50:639.84149 51:99.303741 52:302.19067 53:349.11612 54:602.84613 55:125.86544 56:87.185585 57:79.508896 58:597.37054 59:114.39588 60:148.05002 61:131.99652 62:318.18002 63:130.26131 64:298.36932 65:342.56516 66:571.41516 67:149.11 68:77.544098 69:53.578545 70:497.60767 71:112.11276 72:105.29491 73:84.455437 74:248.03917 75:116.271 76:27.453512 77:36.403881 78:533.94373 79:131.01634 80:176.28992 81:188.54774 82:293.81094 83:115.00253 84:37.02594 85:56.049606 86:558.35205 87:120.38742 88:195.41902 89:207.0719 90:314.82199 91:113.16412 92:55.909733 93:89.015549 94:594.94543 95:108.65234 #
-1.2794248852364356846353246697362e-07 1:0 2:0 3:0 4:0 5:0 6:0 7:0 8:0 9:0 10:0 11:0 12:0 13:0 14:0 15:0 16:0 17:0 18:0 19:0 20:225.29831 21:247.16548 22:852.24457 23:107.39295 24:95.823334 25:216.69946 26:436.72095 27:107.47033 28:131.66156 29:86.770248 30:298.72348 31:113.78408 32:80.759697 33:202.77051 34:421.27325 35:97.366646 36:115.98144 37:237.57571 38:325.55881 39:124.64001 40:129.51996 41:84.787132 42:304.43069 43:96.622375 44:112.38658 45:196.2822 46:310.66898 47:53.564999 48:145.37723 49:137.64101 50:530.2254 51:101.59048 52:110.46053 53:118.6599 54:357.93362 55:102.86502 56:163.43277 57:214.94632 58:384.14816 59:46.592869 60:277.03961 61:300.987 62:439.48605 63:64.840584 64:99.886223 65:116.39235 66:390.24045 67:121.94583 68:162.65944 69:215.48503 70:440.89282 71:58.263927 72:152.90395 73:43.666466 74:209.03529 75:90.743423 76:68.367165 77:192.41896 78:374.13361 79:92.522903 80:131.30934 81:74.364006 82:209.36754 83:93.553123 84:52.912037 85:179.54446 86:359.35883 87:79.024467 88:119.12116 89:83.419846 90:213.31683 91:87.154503 92:61.595005 93:175.83382 94:352.67236 95:70.357407 #
1.2794248852364356846353246697362e-07 1:0 2:0 3:0 4:0 5:0 6:0 7:0 8:0 9:0 10:0 11:0 12:0 13:0 14:0 15:0 16:0 17:0 18:0 19:0 20:346.05161 21:262.53949 22:323.06641 23:150.29536 24:190.21863 25:271.50311 26:373.34998 27:89.02636 28:386.746 29:466.0509 30:831.46442 31:128.87387 32:163.20433 33:253.76505 34:380.24155 35:90.259781 36:362.90881 37:484.31171 38:821.43304 39:148.03304 40:284.51498 41:451.02417 42:971.40686 43:171.97137 44:236.45538 45:338.33136 46:512.2265 47:122.12025 48:283.46588 49:361.00348 50:627.93188 51:199.12448 52:223.43552 53:378.52875 54:876.2804 55:160.22533 56:161.7529 57:238.37971 58:391.78262 59:121.0563 60:413.95563 61:369.94644 62:847.2384 63:131.1731 64:145.78281 65:306.64124 66:844.87524 67:201.19141 68:147.29059 69:204.22447 70:342.59912 71:101.80164 72:347.04868 73:468.55304 74:765.76672 75:118.52802 76:101.37009 77:196.05463 78:312.82626 79:82.773773 80:316.83655 81:447.10333 82:810.41449 83:116.42828 84:90.40937 85:185.76924 86:277.00818 87:77.960312 88:301.74863 89:446.29111 90:793.68018 91:112.80311 92:67.034866 93:167.80469 94:251.98112 95:76.345879 #
1.2794248852364356846353246697362e-07 1:0 2:0 3:0 4:0 5:0 6:0 7:0 8:0 9:0 10:0 11:0 12:0 13:0 14:0 15:0 16:0 17:0 18:0 19:0 20:835.20886 21:365.87732 22:405.10782 23:195.75621 24:493.56604 25:237.11 26:372.57455 27:95.491341 28:417.48154 29:252.76704 30:433.62677 31:181.74397 32:434.75186 33:222.72185 34:373.60397 35:103.88022 36:483.84677 37:217.20786 38:479.93323 39:98.321846 40:395.02756 41:413.14941 42:572.43701 43:250.03897 44:283.79785 45:263.2739 46:464.80191 47:140.67734 48:498.97235 49:329.16077 50:369.20148 51:222.56723 52:448.60004 53:460.5918 54:581.94226 55:292.63611 56:318.82892 57:393.56662 58:561.51056 59:174.57663 60:349.76523 61:345.22696 62:586.49713 63:174.25182 64:364.19885 65:462.94507 66:591.33472 67:297.33505 68:294.80133 69:377.46484 70:491.22668 71:199.39391 72:411.17145 73:269.83231 74:517.37891 75:200.92383 76:373.91483 77:242.15199 78:376.06522 79:88.634621 80:411.37573 81:300.98148 82:442.86871 83:205.02829 84:361.92307 85:252.7243 86:414.52597 87:116.60205 88:355.80627 89:308.60849 90:434.4408 91:201.1438 92:344.30487 93:257.19604 94:435.96756 95:140.08147 #
1.2794248852364356846353246697362e-07 1:0 2:0 3:0 4:0 5:0 6:0 7:0 8:0 9:0 10:0 11:0 12:0 13:0 14:0 15:0 16:0 17:0 18:0 19:0 20:416.13022 21:139.02512 22:525.18988 23:85.793182 24:243.94728 25:130.01216 26:216.03787 27:136.53853 28:453.05817 29:177.8799 30:599.08667 31:74.093613 32:216.48965 33:114.96613 34:222.28978 35:135.05792 36:280.263 37:150.39552 38:198.91255 39:141.59142 40:451.43018 41:216.11655 42:1167.2642 43:211.21065 44:374.74924 45:273.22089 46:394.40427 47:137.60098 48:447.29437 49:189.23398 50:559.38922 51:111.2165 52:364.52045 53:51.338043 54:601.90521 55:107.04601 56:358.30807 57:250.1792 58:473.01099 59:145.91866 60:384.69949 61:310.10779 62:637.44617 63:142.85062 64:327.95944 65:11.132377 66:475.19214 67:112.73664 68:305.10474 69:207.71893 70:409.2608 71:147.82156 72:343.73633 73:141.4007 74:479.95148 75:66.43605 76:235.06842 77:128.33066 78:232.98499 79:136.14578 80:403.25302 81:113.19212 82:406.57385 83:83.231903 84:228.08865 85:125.85918 86:262.18427 87:144.10544 88:386.42508 89:103.16825 90:395.01022 91:90.714287 92:239.14592 93:110.41901 94:266.6723 95:152.91675 #
1.2794248852364356846353246697362e-07 1:0 2:0 3:0 4:0 5:0 6:0 7:0 8:0 9:0 10:0 11:0 12:0 13:0 14:0 15:0 16:0 17:0 18:0 19:0 20:171.77361 21:199.76811 22:345.918 23:121.18821 24:454.03439 25:333.22131 26:398.62915 27:98.197144 28:202.74326 29:150.08211 30:285.11542 31:88.450645 32:458.85129 33:323.68427 34:365.0498 35:97.681252 36:507.78104 37:344.10373 38:552.87195 39:138.22525 40:131.82704 41:119.18243 42:361.3205 43:62.458614 44:384.28876 45:311.59384 46:296.60233 47:158.05263 48:324.91794 49:203.14699 50:339.40671 51:116.26289 52:194.74553 53:164.73178 54:597.04541 55:81.226173 56:475.33594 57:224.07216 58:323.83685 59:120.78598 60:243.93968 61:242.56134 62:263.04428 63:156.74692 64:228.08931 65:193.9146 66:562.89526 67:78.093193 68:466.27219 69:189.53148 70:404.14856 71:148.46965 72:143.63483 73:101.69432 74:349.28815 75:78.206276 76:503.84625 77:319.61707 78:343.29886 79:103.60468 80:165.26784 81:135.86671 82:344.91531 83:79.123322 84:519.62939 85:292.51147 86:303.12558 87:106.47373 88:163.45926 89:134.68707 90:351.66022 91:80.591362 92:546.12854 93:265.33099 94:263.90521 95:124.19514 #
1.2794248852364356846353246697362e-07 1:0 2:0 3:0 4:0 5:0 6:0 7:0 8:0 9:0 10:0 11:0 12:0 13:0 14:0 15:0 16:0 17:0 18:0 19:0 20:510.00427 21:238.26085 22:392.69299 23:91.400688 24:490.24231 25:255.29298 26:458.21078 27:126.26032 28:373.68991 29:130.12465 30:239.51964 31:61.712593 32:457.62827 33:254.87108 34:494.66727 35:132.91901 36:461.17734 37:290.27625 38:431.21896 39:126.50651 40:443.95795 41:171.4662 42:255.49902 43:68.946571 44:396.79718 45:279.25714 46:289.03677 47:112.3019 48:368.62091 49:159.97942 50:191.75101 51:71.717873 52:393.6059 53:175.18021 54:313.96817 55:97.661827 56:360.96964 57:227.13873 58:201.38918 59:104.81062 60:480.98154 61:372.35956 62:402.77023 63:138.22823 64:362.49469 65:160.77771 66:310.80267 67:92.86084 68:298.34497 69:191.07761 70:145.98981 71:125.53008 72:304.87347 73:64.418465 74:329.37976 75:54.737591 76:410.48578 77:243.73184 78:570.32141 79:132.10788 80:349.10254 81:100.60932 82:281.60873 83:64.875229 84:398.73203 85:235.98395 86:560.56311 87:132.43304 88:348.14609 89:93.657898 90:294.07101 91:69.409821 92:378.88647 93:226.15204 94:498.4491 95:138.83354 #
-1.2794248852364356846353246697362e-07 1:0 2:0 3:0 4:0 5:0 6:0 7:0 8:0 9:0 10:0 11:0 12:0 13:0 14:0 15:0 16:0 17:0 18:0 19:0 20:152.79436 21:162.32994 22:279.15839 23:145.18399 24:167.60652 25:155.09772 26:547.36652 27:129.76266 28:251.53781 29:120.92379 30:355.62448 31:176.65617 32:176.9713 33:149.22313 34:514.74811 35:110.25179 36:376.1539 37:240.29198 38:547.13354 39:179.54404 40:195.48116 41:163.3744 42:510.13599 43:166.08408 44:387.94025 45:221.18185 46:646.05554 47:241.20164 48:260.16666 49:149.94499 50:367.62497 51:146.8244 52:342.26105 53:263.33008 54:596.37518 55:175.44926 56:322.07529 57:193.49062 58:548.86298 59:331.08908 60:183.49654 61:129.21864 62:577.75946 63:295.8349 64:402.00854 65:383.69235 66:628.11212 67:117.67743 68:222.68774 69:92.629341 70:522.63336 71:383.44559 72:168.65518 73:142.72276 74:223.6669 75:117.19397 76:120.49312 77:141.68094 78:565.57941 79:131.37868 80:282.56958 81:188.92627 82:357.50128 83:145.20639 84:120.85928 85:133.38371 86:583.1626 87:145.22827 88:279.85724 89:196.57875 90:369.45908 91:145.7948 92:151.4873 93:140.12411 94:571.88928 95:159.9995 #
1.2794248852364356846353246697362e-07 1:0 2:0 3:0 4:0 5:0 6:0 7:0 8:0 9:0 10:0 11:0 12:0 13:0 14:0 15:0 16:0 17:0 18:0 19:0 20:256.11008 21:241.88257 22:570.40985 23:49.557671 24:47.588749 25:63.019321 26:197.11325 27:49.733994 28:174.49985 29:105.37115 30:208.55637 31:89.271713 32:59.955517 33:54.825226 34:243.99017 35:50.195755 36:90.135002 37:89.342606 38:201.37944 39:59.247269 40:195.51961 41:126.17455 42:172.78464 43:114.65348 44:132.78271 45:113.54279 46:481.84 47:64.95887 48:190.5257 49:154.83821 50:292.81668 51:105.16383 52:145.088 53:70.022453 54:176.9222 55:117.05665 56:136.80609 57:111.49938 58:674.12732 59:84.861328 60:128.10193 61:171.46429 62:632.85754 63:61.193203 64:112.38176 65:68.789658 66:241.23102 67:123.39452 68:141.6763 69:110.22555 70:619.77301 71:103.22093 72:127.48242 73:78.27021 74:170.09462 75:96.395462 76:65.60984 77:58.886986 78:315.42267 79:67.435059 80:183.59134 81:113.80633 82:127.68347 83:94.423164 84:98.647102 85:68.274277 86:341.65692 87:69.215668 88:177.77815 89:103.1861 90:114.469 91:90.426643 92:117.08101 93:77.748711 94:372.41672 95:69.607246 #
-1.2794248852364356846353246697362e-07 1:0 2:0 3:0 4:0 5:0 6:0 7:0 8:0 9:0 10:0 11:0 12:0 13:0 14:0 15:0 16:0 17:0 18:0 19:0 20:201.20164 21:198.58804 22:408.92032 23:111.05281 24:214.58051 25:133.73547 26:269.47549 27:211.57375 28:30.446823 29:148.51208 30:303.37561 31:56.960857 32:186.50624 33:117.6609 34:255.63879 35:231.30678 36:315.97745 37:209.78522 38:392.15753 39:126.1417 40:69.759277 41:137.76501 42:290.38239 43:60.107082 44:88.650864 45:36.038761 46:272.12589 47:133.09084 48:118.18049 49:65.624474 50:259.35626 51:90.635582 52:68.053329 53:91.984596 54:293.96976 55:88.547798 56:78.31559 57:21.560583 58:317.33765 59:112.44501 60:153.0553 61:45.6632 62:269.20398 63:129.23451 64:73.711464 65:76.496452 66:310.16876 67:129.81409 68:85.115646 69:9.8300648 70:291.40225 71:124.88337 72:67.600433 73:130.19867 74:291.49518 75:70.301903 76:144.32384 77:88.634666 78:287.7005 79:261.43924 80:38.568005 81:120.63171 82:305.49976 83:47.479012 84:123.99614 85:77.484108 86:303.48447 87:247.71727 88:30.258081 89:112.73974 90:316.15817 91:46.2537 92:115.65963 93:65.084396 94:287.52707 95:238.65572 #
-1.2794248852364356846353246697362e-07 1:0 2:0 3:0 4:0 5:0 6:0 7:0 8:0 9:0 10:0 11:0 12:0 13:0 14:0 15:0 16:0 17:0 18:0 19:0 20:146.69815 21:101.91906 22:354.9111 23:159.23949 24:106.85872 25:88.374557 26:397.94174 27:140.07323 28:94.44574 29:21.135223 30:318.77725 31:112.56736 32:97.996033 33:88.531311 34:385.87234 35:146.10977 36:113.3315 37:73.156517 38:329.61765 39:107.76443 40:113.3443 41:46.053085 42:234.39763 43:136.80595 44:63.983242 45:27.927477 46:249.82314 47:142.64076 48:80.206383 49:11.885406 50:346.2977 51:155.14955 52:116.3497 53:58.258884 54:206.92636 55:150.63193 56:72.865082 57:49.666164 58:292.1232 59:150.60309 60:144.98325 61:91.572563 62:197.25018 63:122.42308 64:103.57642 65:56.929512 66:301.04779 67:184.45792 68:101.05613 69:65.172203 70:256.7713 71:152.774 72:72.47979 73:26.085672 74:400.89655 75:105.09396 76:71.645271 77:69.736763 78:309.12424 79:166.3042 80:110.31441 81:17.3473 82:414.1347 83:117.44483 84:70.940483 85:64.459969 86:235.40321 87:157.34399 88:107.79761 89:9.5831451 90:406.37711 91:125.04192 92:57.460293 93:52.218922 94:246.91174 95:147.20332 #
-1.2794248852364356846353246697362e-07 1:0 2:0 3:0 4:0 5:0 6:0 7:0 8:0 9:0 10:0 11:0 12:0 13:0 14:0 15:0 16:0 17:0 18:0 19:0 20:152.65439 21:74.831268 22:271.22363 23:176.07147 24:193.14305 25:78.525177 26:366.82104 27:130.30682 28:84.113525 29:52.080051 30:233.64471 31:69.370926 32:187.34866 33:83.135086 34:382.82416 35:144.52257 36:166.9229 37:89.595055 38:360.69061 39:131.14163 40:38.623989 41:80.668121 42:270.44965 43:160.41272 44:177.36197 45:129.05878 46:387.72305 47:234.28018 48:178.49416 49:193.13649 50:222.03891 51:135.42447 52:57.621853 53:48.812122 54:276.98251 55:225.808 56:221.36436 57:141.21584 58:440.55988 59:292.9043 60:193.56178 61:68.071632 62:366.00446 63:270.97711 64:19.921089 65:25.447578 66:377.42776 67:245.55249 68:170.26364 69:85.039986 70:496.17145 71:310.93039 72:68.151604 73:38.227131 74:245.48586 75:58.888893 76:202.57478 77:81.524025 78:403.04712 79:128.96759 80:96.693642 81:58.606091 82:216.06482 83:85.848717 84:197.16109 85:83.899368 86:380.39307 87:138.78194 88:57.309727 89:54.486496 90:228.47746 91:98.218201 92:200.6275 93:94.078232 94:367.97986 95:153.29379 #
-1.2794248852364356846353246697362e-07 1:0 2:0 3:0 4:0 5:0 6:0 7:0 8:0 9:0 10:0 11:0 12:0 13:0 14:0 15:0 16:0 17:0 18:0 19:0 20:142.95197 21:46.658367 22:206.67668 23:263.45001 24:319.57327 25:106.09702 26:212.44354 27:154.40857 28:53.602482 29:68.056747 30:422.49728 31:206.70586 32:334.80865 33:116.22726 34:226.99095 35:147.21317 36:317.56076 37:68.506699 38:280.22964 39:196.37061 40:95.706985 41:82.63726 42:383.53961 43:225.4384 44:259.64236 45:107.11706 46:223.49205 47:150.31885 48:72.795372 49:37.544392 50:252.35283 51:284.9855 52:99.17408 53:85.803261 54:280.68851 55:263.13068 56:230.59468 57:108.41097 58:292.82446 59:154.92244 60:229.24141 61:83.017555 62:300.54712 63:186.61116 64:101.74957 65:112.8183 66:212.4767 67:352.95389 68:214.99187 69:84.254044 70:356.68161 71:208.57791 72:53.997105 73:9.4182215 74:420.46124 75:187.35648 76:284.21725 77:124.64716 78:295.20511 79:122.77113 80:82.198586 81:44.086349 82:436.71899 83:166.88536 84:288.15527 85:126.80704 86:275.79858 87:111.09919 88:81.254837 89:26.53758 90:455.82059 91:158.00192 92:296.01495 93:129.93448 94:287.33682 95:108.62122 #
1.2794248852364356846353246697362e-07 1:0 2:0 3:0 4:0 5:0 6:0 7:0 8:0 9:0 10:0 11:0 12:0 13:0 14:0 15:0 16:0 17:0 18:0 19:0 20:357.48596 21:37.373138 22:570.27905 23:154.76288 24:318.13538 25:89.047661 26:218.48209 27:127.09995 28:218.55534 29:111.84425 30:658.61761 31:148.89638 32:287.07837 33:96.495682 34:238.38809 35:136.91043 36:435.31711 37:78.592857 38:742.37427 39:134.90126 40:225.48212 41:79.057434 42:737.8175 43:204.21013 44:355.85342 45:107.78365 46:770.01288 47:135.0719 48:704.40332 49:70.849167 50:1861.7169 51:218.5988 52:79.136436 53:57.306934 54:794.38098 55:282.87994 56:409.46704 57:290.50156 58:787.07391 59:113.88778 60:314.32849 61:173.18742 62:828.94653 63:165.9648 64:279.83127 65:32.751324 66:796.07684 67:225.14758 68:413.77444 69:299.54694 70:716.37494 71:116.55383 72:423.23734 73:111.87213 74:586.85754 75:120.35554 76:295.72278 77:117.56326 78:236.1412 79:127.68554 80:482.59857 81:79.55899 82:667.57111 83:154.48228 84:296.35791 85:120.04765 86:292.29565 87:137.22984 88:441.25049 89:51.46003 90:661.32031 91:171.77596 92:290.04108 93:128.56909 94:352.70825 95:128.82378 #
1.2794248852364356846353246697362e-07 1:0 2:0 3:0 4:0 5:0 6:0 7:0 8:0 9:0 10:0 11:0 12:0 13:0 14:0 15:0 16:0 17:0 18:0 19:0 20:112.22289 21:59.437557 22:269.27686 23:89.196274 24:208.028 25:161.47638 26:651.88959 27:122.81519 28:382.2944 29:348.73773 30:533.6496 31:79.406075 32:211.782 33:149.24924 34:661.53467 35:131.10991 36:237.20108 37:145.84935 38:703.65582 39:99.028755 40:470.04413 41:389.7196 42:573.42291 43:110.9351 44:300.33759 45:262.22504 46:965.35162 47:187.83022 48:344.39597 49:258.47717 50:479.50403 51:114.98132 52:447.46344 53:321.23654 54:457.00269 55:163.77113 56:357.99408 57:242.74974 58:1051.6224 59:188.99762 60:135.88577 61:81.693558 62:612.99164 63:179.76949 64:371.36478 65:253.68161 66:444.53055 67:154.55707 68:340.02844 69:211.1786 70:963.29755 71:207.0007 72:302.39944 73:236.30576 74:442.10944 75:62.583477 76:231.11235 77:157.05475 78:720.50061 79:140.59595 80:382.34933 81:322.98093 82:512.85663 83:87.732735 84:256.97482 85:177.62016 86:807.0069 87:137.19339 88:384.72351 89:309.39059 90:498.10013 91:89.740852 92:270.85278 93:183.60385 94:873.5484 95:121.38087 #
-1.1370903073225077698865615946633e-07 1:0 2:0 3:0 4:0 5:0 6:0 7:0 8:0 9:0 10:0 11:0 12:0 13:0 14:0 15:0 16:0 17:0 18:0 19:0 20:168.95776 21:102.35663 22:476.09818 23:140.89552 24:1101.0411 25:613.23096 26:748.44543 27:189.76485 28:198.19638 29:254.91043 30:461.65765 31:36.864048 32:1095.9187 33:661.08936 34:758.80957 35:179.94945 36:1146.6327 37:716.00836 38:905.17889 39:239.11642 40:290.14227 41:269.38989 42:596.25842 43:115.53097 44:951.25818 45:572.49323 46:1309.2786 47:291.00708 48:425.62662 49:329.84012 50:467.9418 51:131.41966 52:219.09604 53:239.35599 54:684.05188 55:111.35578 56:890.47272 57:693.09406 58:1405.3542 59:315.53549 60:841.77179 61:996.16986 62:1615.9594 63:339.82135 64:337.60364 65:380.99411 66:726.97241 67:141.57037 68:719.79816 69:743.05273 70:1909.0868 71:413.38953 72:162.91167 73:80.86058 74:374.59152 75:90.807869 76:1048.1057 77:571.98267 78:829.74432 79:180.83273 80:126.41574 81:128.07631 82:297.01028 83:64.871796 84:1055.2375 85:592.67035 86:881.22485 87:199.8114 88:174.99832 89:65.07991 90:244.61852 91:65.887939 92:1077.6528 93:657.86121 94:974.39197 95:215.86607 #
-5.2041691035427180655309996326618e-08 1:0 2:0 3:0 4:0 5:0 6:0 7:0 8:0 9:0 10:0 11:0 12:0 13:0 14:0 15:0 16:0 17:0 18:0 19:0 20:350.24646 21:459.34546 22:713.02502 23:88.205254 24:237.94412 25:257.2966 26:403.483 27:205.18179 28:366.12408 29:762.56104 30:678.81848 31:113.72318 32:230.13452 33:260.53268 34:338.8009 35:208.41429 36:242.8091 37:243.63086 38:251.9422 39:190.23016 40:274.93356 41:417.33749 42:442.60672 43:159.60094 44:353.31641 45:331.32172 46:762.30304 47:287.05655 48:554.20557 49:924.00531 50:1151.4091 51:115.7985 52:357.22916 53:504.66168 54:476.39212 55:214.30168 56:476.62225 57:308.69083 58:882.63171 59:410.99463 60:247.91663 61:166.21153 62:635.07111 63:435.69534 64:384.74826 65:574.08813 66:564.51086 67:265.56384 68:311.74429 69:312.49927 70:937.37341 71:500.9035 72:270.33038 73:514.43085 74:536.72211 75:130.86012 76:267.33417 77:257.20322 78:485.09106 79:200.57814 80:444.42773 81:794.2876 82:610.22913 83:104.04245 84:249.51978 85:235.95129 86:511.23578 87:216.2686 88:452.45749 89:786.23553 90:591.04553 91:105.33375 92:267.63431 93:240.64633 94:520.80609 95:226.68567 #
-1.0603452128475351695039569088763e-07 1:0 2:0 3:0 4:0 5:0 6:0 7:0 8:0 9:0 10:0 11:0 12:0 13:0 14:0 15:0 16:0 17:0 18:0 19:0 20:142.56337 21:94.362625 22:659.80872 23:72.193642 24:250.70923 25:123.95991 26:348.26743 27:149.10448 28:308.05804 29:160.0918 30:665.55945 31:199.68633 32:231.63097 33:101.15202 34:363.91888 35:162.54955 36:180.49426 37:81.291405 38:451.05142 39:126.32368 40:82.534081 41:191.99533 42:867.38171 43:200.74487 44:289.81186 45:86.424835 46:439.97342 47:98.122498 48:84.506393 49:291.24347 50:883.06421 51:262.44791 52:96.139832 53:177.59926 54:817.19971 55:193.02901 56:144.87599 57:37.274441 58:224.04263 59:145.28912 60:556.61908 61:436.48532 62:432.09195 63:118.76399 64:114.71423 65:171.13876 66:873.28064 67:222.51541 68:289.05881 69:159.69366 70:250.80296 71:190.85666 72:235.24602 73:146.13509 74:540.40631 75:155.02322 76:201.29662 77:78.512764 78:287.17557 79:174.58488 80:211.43446 81:90.7556 82:784.58752 83:211.78883 84:196.53931 85:68.627708 86:269.90222 87:162.22542 88:220.1378 89:110.41317 90:838.69202 91:235.82129 92:186.90521 93:84.976311 94:292.13342 95:179.60495 #
1.2794248852364356846353246697362e-07 1:0 2:0 3:0 4:0 5:0 6:0 7:0 8:0 9:0 10:0 11:0 12:0 13:0 14:0 15:0 16:0 17:0 18:0 19:0 20:78.486732 21:42.508842 22:298.5473 23:146.83469 24:177.349 25:81.97448 26:174.13568 27:67.88578 28:198.90312 29:63.145321 30:246.19345 31:69.95713 32:158.89899 33:85.630661 34:157.45377 35:69.805634 36:222.69594 37:76.212341 38:246.49881 39:121.32961 40:87.471695 41:114.01745 42:212.66132 43:84.558121 44:166.46799 45:149.81071 46:207.63882 47:229.78247 48:178.36931 49:175.78935 50:151.96239 51:115.40511 52:100.68726 53:145.72005 54:273.21344 55:82.91465 56:153.01131 57:102.83724 58:330.83621 59:206.22021 60:243.52354 61:197.02351 62:333.76242 63:132.54961 64:97.441513 65:148.11566 66:310.07132 67:104.38648 68:161.98241 69:92.978928 70:377.64178 71:232.17377 72:137.30524 73:60.36478 74:201.97704 75:74.887863 76:172.17535 77:50.581253 78:216.82799 79:89.923355 80:159.46472 81:53.095924 82:204.68837 83:75.519249 84:158.61481 85:54.04929 86:205.91302 87:96.520027 88:116.07782 89:40.185032 90:227.86684 91:67.270569 92:148.61284 93:65.07328 94:247.36357 95:102.62826 #
1.2794248852364356846353246697362e-07 1:0 2:0 3:0 4:0 5:0 6:0 7:0 8:0 9:0 10:0 11:0 12:0 13:0 14:0 15:0 16:0 17:0 18:0 19:0 20:116.40239 21:155.0994 22:581.47839 23:48.766548 24:45.649761 25:76.494133 26:271.07748 27:102.30728 28:187.5739 29:144.81921 30:185.33768 31:32.986237 32:106.12197 33:112.28014 34:307.64377 35:114.78896 36:141.41165 37:196.05959 38:339.0405 39:100.28171 40:167.70454 41:170.10677 42:359.42673 43:31.076908 44:43.651367 45:47.123665 46:243.06949 47:140.29857 48:67.24131 49:78.086082 50:162.80536 51:58.602997 52:182.99556 53:201.00998 54:377.31033 55:37.778221 56:30.461882 57:58.016251 58:270.68613 59:205.48502 60:225.39478 61:106.27727 62:448.80771 63:133.8942 64:141.33842 65:218.60475 66:422.80554 67:56.480961 68:32.516998 69:63.700249 70:382.98682 71:215.43311 72:122.65372 73:111.00285 74:163.04623 75:39.51543 76:75.411888 77:71.239967 78:310.67911 79:126.87727 80:166.7654 81:136.45934 82:219.12634 83:28.480606 84:106.35951 85:81.599426 86:312.23358 87:120.36099 88:159.79445 89:140.29466 90:231.38393 91:23.734961 92:144.14803 93:82.693619 94:287.63458 95:126.42403 #
-1.2794248852364356846353246697362e-07 1:0 2:0 3:0 4:0 5:0 6:0 7:0 8:0 9:0 10:0 11:0 12:0 13:0 14:0 15:0 16:0 17:0 18:0 19:0 20:205.97702 21:132.58807 22:257.4144 23:77.879662 24:119.4371 25:101.08448 26:372.69455 27:110.84956 28:112.00616 29:87.74324 30:250.60812 31:51.862534 32:108.40347 33:93.477921 34:361.77808 35:121.6739 36:123.23441 37:132.27402 38:504.27451 39:51.68 40:175.93916 41:159.60141 42:366.31128 43:45.323357 44:39.067574 45:47.657875 46:334.15979 47:103.99244 48:123.62354 49:122.37997 50:524.61145 51:62.499508 52:153.20078 53:149.39523 54:282.46689 55:55.4786 56:41.735607 57:41.908424 58:237.61441 59:153.78995 60:157.17683 61:182.4489 62:305.02676 63:119.68401 64:129.67503 65:130.8913 66:239.04733 67:58.14518 68:58.293205 69:34.314823 70:187.50157 71:164.62227 72:87.686569 73:36.388622 74:147.51776 75:93.636169 76:115.20229 77:96.066666 78:325.21057 79:122.10818 80:106.25121 81:81.883179 82:171.62337 83:76.150635 84:104.34261 85:91.058533 86:307.75095 87:129.97191 88:107.30297 89:88.53582 90:176.61893 91:76.020714 92:100.53126 93:86.697861 94:286.39432 95:121.62997 #
1.2794248852364356846353246697362e-07 1:0 2:0 3:0 4:0 5:0 6:0 7:0 8:0 9:0 10:0 11:0 12:0 13:0 14:0 15:0 16:0 17:0 18:0 19:0 20:390.73636 21:430.8923 22:875.30194 23:343.01331 24:561.06665 25:381.1875 26:934.9978 27:392.34805 28:339.32507 29:374.53577 30:658.99536 31:342.84476 32:655.87842 33:437.09866 34:903.98743 35:405.53244 36:597.29803 37:452.83981 38:1017.8184 39:476.97546 40:53.547955 41:402.46536 42:677.77863 43:444.086 44:821.86676 45:516.71082 46:920.19745 47:371.81369 48:240.43918 49:478.71509 50:860.40997 51:372.18961 52:175.6869 53:388.12253 54:763.05853 55:510.97464 56:840.55939 57:519.56207 58:986.67542 59:333.05743 60:660.25659 61:511.05109 62:1051.7819 63:409.68121 64:342.59344 65:396.17737 66:889.49335 67:563.91138 68:696.69147 69:488.99802 70:942.75165 71:374.65564 72:298.94742 73:295.22934 74:538.01874 75:304.01584 76:608.04163 77:409.75156 78:927.29352 79:404.65158 80:53.958439 81:333.78476 82:545.00037 83:348.10263 84:538.35229 85:342.32724 86:851.77722 87:370.31021 88:344.53806 89:285.41791 90:548.85162 91:361.01517 92:450.58643 93:306.62378 94:833.93176 95:362.61328 #
1.2794248852364356846353246697362e-07 1:0 2:0 3:0 4:0 5:0 6:0 7:0 8:0 9:0 10:0 11:0 12:0 13:0 14:0 15:0 16:0 17:0 18:0 19:0 20:411.47794 21:500.48224 22:526.18854 23:128.98714 24:223.85747 25:124.9549 26:145.01591 27:115.54179 28:256.34161 29:317.48795 30:438.96646 31:113.46836 32:197.92686 33:108.87067 34:144.62007 35:113.90756 36:271.92715 37:209.92657 38:318.58054 39:101.24344 40:227.94102 41:284.97638 42:682.66577 43:110.41866 44:282.40799 45:207.5097 46:616.77649 47:85.57106 48:300.40921 49:370.12112 50:500.45013 51:104.81899 52:236.68475 53:302.96576 54:757.5871 55:136.67308 56:320.39545 57:207.64169 58:757.24518 59:123.67516 60:276.11469 61:191.67241 62:1071.9479 63:123.85342 64:222.18898 65:274.91428 66:666.64862 67:143.82275 68:293.41287 69:202.23734 70:655.93762 71:146.19347 72:190.43999 73:206.39973 74:267.97821 75:91.095085 76:187.12529 77:65.162781 78:126.1053 79:123.27548 80:212.28856 81:216.647 82:429.27078 83:97.688965 84:210.35704 85:64.131424 86:180.24634 87:122.29825 88:198.29318 89:208.67058 90:462.60721 91:95.759964 92:209.06937 93:67.121582 94:240.47662 95:121.56334 #
1.2794248852364356846353246697362e-07 1:0 2:0 3:0 4:0 5:0 6:0 7:0 8:0 9:0 10:0 11:0 12:0 13:0 14:0 15:0 16:0 17:0 18:0 19:0 20:201.56882 21:108.535 22:410.5621 23:192.50122 24:161.97415 25:118.81222 26:294.491 27:115.34409 28:92.195992 29:69.803314 30:422.27661 31:121.6832 32:168.39609 33:119.85287 34:271.77676 35:117.72593 36:85.235542 37:65.656616 38:406.72543 39:160.6741 40:123.22441 41:100.36189 42:428.78149 43:83.916008 44:179.39268 45:163.72356 46:397.42865 47:118.76845 48:178.15036 49:116.00717 50:596.73676 51:119.05547 52:170.7755 53:84.522079 54:421.24722 55:83.084877 56:192.91975 57:136.8499 58:398.26038 59:131.55275 60:280.79745 61:271.23032 62:487.6705 63:189.92148 64:194.17426 65:64.957726 66:469.27957 67:100.6568 68:184.79556 69:98.539764 70:298.78714 71:128.44781 72:116.79887 73:96.311295 74:410.44009 75:74.69632 76:146.63457 77:128.88297 78:216.47459 79:93.092926 80:49.855488 81:22.47473 82:356.70508 83:87.052734 84:113.62892 85:114.18909 86:221.87012 87:102.28041 88:83.150322 89:46.305492 90:353.57916 91:77.837036 92:81.737877 93:103.87907 94:230.33543 95:102.7391 #
-5.25820600310831378138882877607e-08 1:0 2:0 3:0 4:0 5:0 6:0 7:0 8:0 9:0 10:0 11:0 12:0 13:0 14:0 15:0 16:0 17:0 18:0 19:0 20:1080.2799 21:249.01265 22:284.3602 23:210.46977 24:785.85468 25:184.27014 26:332.79526 27:307.66214 28:615.36865 29:136.50809 30:417.84326 31:345.73715 32:766.57397 33:184.57257 34:339.64594 35:297.38065 36:390.90622 37:201.28104 38:681.51819 39:431.15903 40:1202.2738 41:270.35062 42:453.86862 43:315.17334 44:993.35327 45:338.92172 46:731.45703 47:440.13342 48:1317.1754 49:573.66034 50:685.00458 51:316.91595 52:1474.9747 53:261.15695 54:562.48047 55:478.00342 56:1079.0569 57:433.9808 58:1323.2573 59:599.47467 60:910.56158 61:325.40936 62:657.26208 63:695.4657 64:1131.958 65:387.23492 66:992.91858 67:609.00171 68:1252.0901 69:624.21167 70:1908.9886 71:775.44568 72:678.30408 73:207.18532 74:378.22717 75:412.77094 76:666.93207 77:177.82597 78:295.34634 79:290.82104 80:718.21851 81:85.023033 82:491.54651 83:337.52383 84:631.45441 85:177.33434 86:301.73834 87:290.89285 88:701.65332 89:125.77473 90:468.41177 91:313.84464 92:613.44232 93:168.2308 94:290.06961 95:295.66858 #
1.2794248852364356846353246697362e-07 1:0 2:0 3:0 4:0 5:0 6:0 7:0 8:0 9:0 10:0 11:0 12:0 13:0 14:0 15:0 16:0 17:0 18:0 19:0 20:185.9794 21:132.59364 22:303.19464 23:86.182549 24:128.85152 25:7.0808201 26:231.61774 27:96.906998 28:151.0369 29:105.21703 30:366.15222 31:57.838604 32:145.51021 33:19.512493 34:250.77278 35:82.635941 36:127.8079 37:14.912201 38:221.64351 39:76.632462 40:159.82863 41:137.83165 42:304.14111 43:53.629601 44:87.994957 45:79.660233 46:269.974 47:69.450554 48:73.413109 49:115.63048 50:254.73674 51:40.509804 52:188.23758 53:151.93015 54:375.24768 55:80.130501 56:100.54292 57:150.58655 58:374.03647 59:116.4013 60:532.40979 61:308.85623 62:668.03082 63:93.299934 64:178.95512 65:158.37009 66:510.043 67:93.112076 68:118.1425 69:144.19189 70:374.3613 71:134.1879 72:184.06683 73:120.81755 74:416.45178 75:58.972057 76:97.889069 77:31.103485 78:286.84595 79:71.870384 80:183.3192 81:131.81607 82:397.07114 83:70.427704 84:83.724152 85:49.085442 86:286.2392 87:66.421593 88:179.164 89:142.90813 90:380.35834 91:66.345413 92:67.867065 93:51.441711 94:258.95941 95:66.756599 #
1.2794248852364356846353246697362e-07 1:0 2:0 3:0 4:0 5:0 6:0 7:0 8:0 9:0 10:0 11:0 12:0 13:0 14:0 15:0 16:0 17:0 18:0 19:0 20:134.60237 21:137.6767 22:289.43872 23:69.764397 24:152.57204 25:126.29196 26:190.69351 27:152.03329 28:114.99381 29:48.983711 30:508.72891 31:70.946144 32:148.98245 33:123.99215 34:248.94684 35:133.40363 36:158.56671 37:55.961758 38:300.40076 39:152.88423 40:165.66496 41:152.30002 42:604.91925 43:83.51384 44:167.05061 45:40.966137 46:328.72977 47:157.22935 48:83.084625 49:154.86894 50:282.19012 51:84.391258 52:143.25688 53:161.02168 54:657.61523 55:84.516769 56:100.16 57:42.334465 58:387.4093 59:145.74042 60:235.99583 61:74.678787 62:692.31573 63:169.5439 64:141.22908 65:163.02588 66:559.49567 67:90.600746 68:100.99866 69:46.711227 70:374.4183 71:165.38594 72:61.092201 73:53.475956 74:486.54321 75:56.456867 76:140.72641 77:110.56812 78:291.3186 79:165.29439 80:111.25825 81:58.437698 82:540.82196 83:57.747032 84:124.30967 85:93.97818 86:281.42337 87:177.27901 88:114.94919 89:62.360249 90:537.36597 91:61.463593 92:105.63528 93:91.557114 94:277.62482 95:192.06366 #
1.2794248852364356846353246697362e-07 1:0 2:0 3:0 4:0 5:0 6:0 7:0 8:0 9:0 10:0 11:0 12:0 13:0 14:0 15:0 16:0 17:0 18:0 19:0 20:78.651535 21:128.43056 22:484.91599 23:56.886967 24:140.57449 25:104.62006 26:211.1982 27:87.391991 28:112.12738 29:79.922012 30:161.31918 31:71.252815 32:143.08565 33:119.78281 34:226.69183 35:74.644417 36:116.04165 37:35.979191 38:336.85919 39:49.387596 40:99.50766 41:16.29484 42:484.99057 43:72.208855 44:89.790215 45:112.52704 46:380.43707 47:134.69806 48:105.87862 49:72.308594 50:377.72794 51:86.453087 52:127.62128 53:83.249756 54:629.91333 55:100.11588 56:119.96227 57:161.87509 58:554.6507 59:143.37885 60:407.50055 61:220.66243 62:248.23412 63:136.849 64:173.29604 65:68.710747 66:519.73322 67:144.47377 68:109.03188 69:153.14563 70:494.57248 71:138.17369 72:90.405891 73:75.46106 74:117.75529 75:47.120319 76:141.03819 77:137.63751 78:240.27728 79:93.050323 80:108.06625 81:105.21638 82:247.62096 83:57.877499 84:123.04482 85:130.03629 86:232.78719 87:104.72833 88:126.58044 89:100.22325 90:286.02466 91:58.059544 92:108.22599 93:133.68604 94:244.72871 95:106.10487 #
-1.2794248852364356846353246697362e-07 1:0 2:0 3:0 4:0 5:0 6:0 7:0 8:0 9:0 10:0 11:0 12:0 13:0 14:0 15:0 16:0 17:0 18:0 19:0 20:43.615021 21:84.201668 22:462.56528 23:94.910027 24:88.882874 25:133.92853 26:227.49019 27:86.755074 28:74.948189 29:57.245399 30:136.64244 31:94.601578 32:80.180077 33:123.53731 34:251.90924 35:100.27452 36:115.55988 37:218.50336 38:277.42343 39:87.305573 40:112.4009 41:78.859482 42:187.08772 43:99.576401 44:88.461571 45:153.32912 46:332.37289 47:91.747841 48:74.090645 49:15.815152 50:330.01178 51:88.707191 52:131.67781 53:121.62365 54:222.25043 55:92.25959 56:99.257599 57:135.70204 58:382.14789 59:120.25071 60:24.987156 61:83.769836 62:507.25262 63:124.66311 64:123.60886 65:99.4188 66:163.0547 67:74.683006 68:102.40438 69:126.65234 70:379.94876 71:134.86656 72:64.812065 73:51.814232 74:200.28349 75:102.21223 76:53.119125 77:89.776871 78:251.82253 79:119.30217 80:69.466492 81:81.592834 82:166.80353 83:92.541946 84:60.232124 85:93.93589 86:226.12367 87:97.442619 88:76.472626 89:94.295753 90:185.93962 91:93.253166 92:61.011089 93:89.826096 94:227.43112 95:120.20321 #
-6.0532351470105646550762257263045e-08 1:0 2:0 3:0 4:0 5:0 6:0 7:0 8:0 9:0 10:0 11:0 12:0 13:0 14:0 15:0 16:0 17:0 18:0 19:0 20:168.97021 21:161.22078 22:618.44275 23:86.858894 24:73.34021 25:115.65733 26:249.27835 27:89.892563 28:108.84705 29:74.600403 30:394.43231 31:86.184792 32:57.139713 33:94.398071 34:217.09793 35:95.53257 36:207.65262 37:229.21088 38:381.44037 39:112.45901 40:126.69263 41:31.343592 42:341.06738 43:82.477051 44:89.869568 45:48.566395 46:211.84033 47:64.615639 48:224.00838 49:70.688408 50:382.10037 51:84.329575 52:154.02802 53:47.992081 54:289.70737 55:81.874702 56:139.93941 57:108.95213 58:245.47694 59:45.689877 60:165.65752 61:33.07494 62:295.79514 63:104.08164 64:138.78851 65:62.639874 66:260.82114 67:65.049393 68:136.33209 69:99.409111 70:203.14418 71:55.774609 72:135.55991 73:48.503193 74:277.1973 75:51.077538 76:26.708696 77:67.73333 78:179.50185 79:113.68029 80:129.92206 81:47.867504 82:315.11444 83:71.093025 84:11.093577 85:67.527733 86:169.78888 87:83.500854 88:124.7106 89:52.29916 90:311.37122 91:69.726318 92:14.479027 93:69.697159 94:153.12335 95:61.281067 #
1.2794248852364356846353246697362e-07 1:0 2:0 3:0 4:0 5:0 6:0 7:0 8:0 9:0 10:0 11:0 12:0 13:0 14:0 15:0 16:0 17:0 18:0 19:0 20:306.22293 21:73.788811 22:467.73563 23:172.09149 24:224.19501 25:265.00595 26:474.9133 27:199.62665 28:316.10416 29:118.61526 30:331.94772 31:83.404205 32:202.18512 33:264.20242 34:514.52502 35:188.48073 36:183.07336 37:341.93182 38:541.00909 39:203.68185 40:437.50009 41:178.13872 42:925.17468 43:250.95274 44:91.185623 45:302.94019 46:948.40149 47:229.39186 48:443.01685 49:391.9339 50:555.04474 51:285.09921 52:333.87186 53:77.591728 54:550.14948 55:180.74478 56:72.817596 57:331.95367 58:1147.4713 59:189.974 60:485.535 61:482.59961 62:976.31757 63:281.6124 64:281.28656 65:53.394047 66:653.75488 67:165.75319 68:30.744637 69:297.71994 70:1163.4081 71:179.63037 72:168.6757 73:63.601189 74:164.58034 75:102.01586 76:185.09845 77:244.17928 78:480.14447 79:171.63597 80:204.84734 81:53.068691 82:246.28429 83:148.34132 84:136.95152 85:243.46034 86:518.19257 87:159.16422 88:197.06891 89:74.392815 90:230.95348 91:142.02419 92:149.61728 93:269.83856 94:541.50067 95:142.65427 #
-1.2794248852364356846353246697362e-07 1:0 2:0 3:0 4:0 5:0 6:0 7:0 8:0 9:0 10:0 11:0 12:0 13:0 14:0 15:0 16:0 17:0 18:0 19:0 20:247.03177 21:78.74221 22:656.72821 23:159.14117 24:329.69507 25:111.70172 26:540.53827 27:60.390038 28:145.40271 29:28.143169 30:478.18262 31:174.96449 32:326.4346 33:121.33694 34:602.29272 35:85.371124 36:317.35858 37:100.1972 38:842.98407 39:77.975998 40:88.598137 41:44.307163 42:416.94608 43:237.20293 44:161.56676 45:26.412668 46:527.84937 47:71.597839 48:132.90744 49:67.734283 50:599.36182 51:170.85066 52:135.06755 53:34.350964 54:385.04984 55:302.63495 56:288.15787 57:110.72427 58:556.00873 59:81.655312 60:327.76138 61:217.25294 62:428.42709 63:121.15337 64:169.7494 65:89.397339 66:459.88657 67:364.89032 68:279.73758 69:129.88737 70:534.85016 71:87.400475 72:133.63916 73:17.331503 74:535.7702 75:145.24471 76:275.09879 77:99.860054 78:461.41284 79:73.557953 80:168.82875 81:22.448517 82:412.50214 83:161.87215 84:274.83322 85:112.62671 86:462.50787 87:63.503319 88:172.77031 89:10.227321 90:409.71234 91:165.21187 92:290.58398 93:134.69257 94:477.65854 95:52.971252 #
-1.2794248852364356846353246697362e-07 1:0 2:0 3:0 4:0 5:0 6:0 7:0 8:0 9:0 10:0 11:0 12:0 13:0 14:0 15:0 16:0 17:0 18:0 19:0 20:159.74028 21:134.94508 22:391.9165 23:53.499516 24:124.49176 25:144.42075 26:610.53046 27:150.32437 28:162.77577 29:181.39566 30:437.77972 31:76.363533 32:116.78753 33:137.46138 34:627.17126 35:133.40355 36:198.64899 37:212.63303 38:886.98517 39:245.85547 40:278.63663 41:380.30295 42:757.03339 43:79.4534 44:315.81561 45:373.63223 46:1234.4847 47:154.77727 48:100.12538 49:182.33002 50:887.58356 51:49.525639 52:312.13992 53:436.43674 54:800.24585 55:109.80187 56:339.36777 57:449.17407 58:1402.8826 59:133.74899 60:419.26526 61:535.26105 62:1339.4652 63:112.56192 64:308.56293 65:403.56708 66:777.15405 67:137.56018 68:323.54807 69:409.48083 70:1286.4608 71:112.89439 72:170.90256 73:162.20987 74:353.47223 75:84.770187 76:116.13123 77:133.69969 78:593.42371 79:117.69032 80:236.65958 81:246.27994 82:436.65497 83:94.516777 84:129.11484 85:154.02501 86:662.6377 87:125.49224 88:236.80557 89:255.97598 90:454.39798 91:81.870399 92:136.00784 93:178.54968 94:716.46326 95:144.76167 #
1.2794248852364356846353246697362e-07 1:0 2:0 3:0 4:0 5:0 6:0 7:0 8:0 9:0 10:0 11:0 12:0 13:0 14:0 15:0 16:0 17:0 18:0 19:0 20:437.47919 21:158.31718 22:249.42662 23:94.447914 24:498.02679 25:131.26755 26:130.15729 27:118.43054 28:331.00519 29:95.934586 30:305.39368 31:123.23638 32:436.07645 33:111.74027 34:126.64785 35:110.76565 36:451.19543 37:33.953171 38:281.1882 39:126.30432 40:356.78519 41:107.73828 42:221.76489 43:165.86324 44:207.20483 45:81.864677 46:505.14743 47:242.03694 48:380.26065 49:92.124161 50:390.45435 51:100.47066 52:317.07376 53:100.31522 54:242.0479 55:172.18291 56:413.17133 57:79.679466 58:492.62503 59:255.81024 60:204.17723 61:150.61403 62:249.03589 63:180.33987 64:228.42995 65:56.423084 66:247.64816 67:141.40623 68:399.38354 69:62.424633 70:424.42563 71:267.77988 72:267.69409 73:88.852386 74:360.39978 75:113.7536 76:456.97427 77:116.17316 78:81.637009 79:133.66396 80:372.99768 81:137.00645 82:285.90726 83:137.7702 84:466.36734 85:111.17112 86:100.85416 87:151.68623 88:384.07227 89:129.37166 90:261.94128 91:141.94922 92:457.54343 93:101.75209 94:114.41028 95:149.93025 #
-5.8106271586696743590200100321175e-09 1:0 2:0 3:0 4:0 5:0 6:0 7:0 8:0 9:0 10:0 11:0 12:0 13:0 14:0 15:0 16:0 17:0 18:0 19:0 20:581.28204 21:305.90433 22:459.55707 23:213.73166 24:565.19037 25:734.29547 26:1034.9789 27:419.5304 28:938.44611 29:492.31818 30:688.93274 31:300.76419 32:594.2821 33:746.95856 34:1097.6075 35:452.25861 36:693.20428 37:622.32819 38:777.74084 39:263.40918 40:556.69727 41:818.74805 42:1435.7826 43:431.37708 44:893.61609 45:1112.5116 46:1590.7179 47:330.74384 48:319.91226 49:898.10022 50:1649.1744 51:278.45636 52:482.12848 53:533.99805 54:2166.4031 55:622.67316 56:841.08185 57:909.85437 58:1049.2611 59:415.09567 60:760.94318 61:564.70892 62:1080.6533 63:650.25385 64:191.71597 65:64.332748 66:692.85358 67:477.33878 68:1013.6586 69:1197.7059 70:1520.6377 71:382.55496 72:985.28986 73:529.77527 74:1004.3646 75:343.60416 76:644.12604 77:823.22131 78:1273.6075 79:509.77197 80:843.84509 81:359.17587 82:1010.723 83:416.88092 84:705.39435 85:855.32007 86:1319.7283 87:539.36951 88:897.70355 89:415.07111 90:1036.1337 91:455.98013 92:746.57635 93:896.59845 94:1412.4055 95:580.99713 #
1.2794248852364356846353246697362e-07 1:0 2:0 3:0 4:0 5:0 6:0 7:0 8:0 9:0 10:0 11:0 12:0 13:0 14:0 15:0 16:0 17:0 18:0 19:0 20:194.04117 21:143.77425 22:212.85934 23:147.49516 24:291.53583 25:161.38165 26:517.02612 27:102.4311 28:58.793056 29:120.62279 30:271.33322 31:80.048286 32:266.51157 33:155.14276 34:519.9765 35:114.53138 36:292.15173 37:189.89384 38:639.48169 39:102.12017 40:41.001411 41:145.5938 42:230.47897 43:48.649326 44:165.43465 45:139.40674 46:335.31989 47:66.750717 48:127.29397 49:84.482216 50:174.00835 51:94.922142 52:90.398399 53:169.01375 54:363.59442 55:88.721947 56:112.81331 57:129.70209 58:351.99554 59:67.436943 60:242.12155 61:130.39146 62:334.51266 63:131.7075 64:101.8938 65:160.27338 66:444.06607 67:136.98302 68:97.252274 69:96.353386 70:367.73868 71:83.486 72:135.14694 73:150.21756 74:248.57428 75:84.052711 76:236.32173 77:105.19783 78:506.66608 79:97.723106 80:60.786324 81:137.72162 82:232.75798 83:73.611427 84:228.3118 85:92.762268 86:510.15833 87:92.775505 88:67.297005 89:140.69748 90:215.61833 91:61.225399 92:229.44655 93:96.89563 94:545.2652 95:80.308258 #
-1.0531662921976496814302839966082e-07 1:0 2:0 3:0 4:0 5:0 6:0 7:0 8:0 9:0 10:0 11:0 12:0 13:0 14:0 15:0 16:0 17:0 18:0 19:0 20:641.65698 21:186.31204 22:435.34622 23:238.93951 24:447.29803 25:161.08974 26:188.56458 27:187.92249 28:321.26233 29:235.37181 30:312.95215 31:173.89029 32:386.68048 33:162.56392 34:193.94711 35:199.88239 36:422.18451 37:185.39949 38:162.32986 39:170.15332 40:262.47198 41:292.18762 42:401.50253 43:192.52303 44:110.04833 45:102.43325 46:246.97929 47:205.35632 48:234.8972 49:260.65967 50:333.8233 51:203.44048 52:212.50267 53:239.45543 54:450.30484 55:254.60707 56:147.93684 57:97.501083 58:258.1687 59:204.54706 60:149.802 61:162.43346 62:412.62939 63:178.49329 64:246.58418 65:203.91608 66:453.77689 67:310.47061 68:156.64436 69:81.691513 70:218.9451 71:240.24625 72:316.05685 73:200.35156 74:263.90872 75:131.66272 76:345.0264 77:177.36581 78:218.60629 79:234.81223 80:215.49527 81:203.73099 82:282.5538 83:166.7765 84:319.77991 85:167.60095 86:202.97797 87:244.19597 88:215.99423 89:201.78825 90:290.32132 91:166.25558 92:302.76788 93:153.28746 94:188.13501 95:234.82013 #
-1.2794248852364356846353246697362e-07 1:0 2:0 3:0 4:0 5:0 6:0 7:0 8:0 9:0 10:0 11:0 12:0 13:0 14:0 15:0 16:0 17:0 18:0 19:0 20:399.67175 21:134.06877 22:487.26114 23:236.08878 24:172.86803 25:139.24492 26:332.13507 27:132.27689 28:782.99969 29:380.58392 30:554.6665 31:193.63721 32:139.40608 33:135.21996 34:344.70831 35:137.45398 36:413.49759 37:162.97719 38:256.85388 39:106.70567 40:420.8364 41:266.09952 42:438.07422 43:256.87573 44:508.2453 45:357.28326 46:263.85992 47:128.55849 48:395.24307 49:294.42389 50:477.69827 51:309.98572 52:405.48676 53:198.6237 54:501.83505 55:318.17203 56:463.80621 57:418.78107 58:372.474 59:126.87104 60:465.65564 61:267.03079 62:313.21732 63:169.06596 64:400.4938 65:159.74417 66:554.01202 67:399.71164 68:244.36856 69:271.97833 70:414.2605 71:130.00876 72:417.1925 73:210.49066 74:368.67996 75:141.97775 76:115.98592 77:137.04826 78:375.27771 79:145.07155 80:604.255 81:267.57791 82:376.7645 83:195.39294 84:131.49585 85:143.79388 86:331.58719 87:145.32779 88:599.2951 89:271.50888 90:369.56912 91:204.50304 92:159.75812 93:151.58572 94:304.673 95:150.75348 #
-1.2794248852364356846353246697362e-07 1:0 2:0 3:0 4:0 5:0 6:0 7:0 8:0 9:0 10:0 11:0 12:0 13:0 14:0 15:0 16:0 17:0 18:0 19:0 20:68.793297 21:39.111732 22:129.90936 23:41.403954 24:110.37181 25:55.902882 26:206.21805 27:52.17083 28:93.849251 29:59.056313 30:179.71609 31:72.713875 32:126.14754 33:79.748474 34:243.03824 35:60.859207 36:142.90547 37:75.816727 38:284.20734 39:52.191051 40:110.84321 41:84.75367 42:252.58499 43:77.056236 44:177.14645 45:101.33183 46:213.37233 47:84.576462 48:144.9182 49:110.37769 50:211.98535 51:64.891296 52:78.861511 53:80.200432 54:292.59537 55:90.831757 56:100.48861 57:38.316486 58:219.72856 59:127.0543 60:55.59787 61:39.097462 62:340.72177 63:83.309799 64:57.159012 65:63.033768 66:325.65701 67:110.91826 68:75.885216 69:27.827963 70:233.24223 71:148.95375 72:122.87311 73:85.26741 74:259.57269 75:68.039375 76:124.5818 77:67.147339 78:226.23073 79:51.760818 80:95.388885 81:66.707809 82:219.80606 83:99.773743 84:118.64455 85:68.607635 86:196.59378 87:49.088165 88:96.049698 89:67.241104 90:232.78856 91:104.34609 92:112.69153 93:61.983181 94:175.41443 95:57.588165 #
-1.2794248852364356846353246697362e-07 1:0 2:0 3:0 4:0 5:0 6:0 7:0 8:0 9:0 10:0 11:0 12:0 13:0 14:0 15:0 16:0 17:0 18:0 19:0 20:266.20624 21:78.426117 22:372.11383 23:69.8778 24:205.17139 25:56.104164 26:284.67819 27:133.80534 28:260.87988 29:90.66787 30:348.25992 31:89.682053 32:213.82344 33:104.82958 34:311.04114 35:126.88802 36:340.27185 37:117.92794 38:285.72958 39:127.70531 40:234.02898 41:172.3423 42:466.1525 43:132.56346 44:328.10425 45:178.50438 46:253.93912 47:118.51858 48:362.87637 49:196.01447 50:417.4873 51:63.203419 52:296.95724 53:200.79404 54:461.83777 55:85.138901 56:295.33475 57:166.70044 58:172.09639 59:138.85262 60:360.14233 61:128.71968 62:282.71915 63:124.69891 64:247.44472 65:171.52199 66:458.30997 67:99.934982 68:267.53522 69:150.81982 70:171.51768 71:146.14214 72:322.95685 73:181.48291 74:561.52277 75:144.00777 76:199.35887 77:134.9106 78:352.5936 79:142.46909 80:382.44073 81:100.85677 82:386.04617 83:92.513786 84:196.5799 85:123.18286 86:329.1174 87:143.63867 88:358.94867 89:105.25797 90:414.88989 91:92.555634 92:184.30315 93:118.2243 94:313.04941 95:132.5128 #
1.2794248852364356846353246697362e-07 1:0 2:0 3:0 4:0 5:0 6:0 7:0 8:0 9:0 10:0 11:0 12:0 13:0 14:0 15:0 16:0 17:0 18:0 19:0 20:144.06735 21:108.29414 22:873.4267 23:136.08011 24:64.023964 25:31.074434 26:327.73373 27:58.690674 28:125.47792 29:28.198477 30:662.78595 31:98.643929 32:44.612377 33:18.238787 34:292.1517 35:49.374863 36:72.219009 37:36.935261 38:451.86429 39:83.468086 40:130.72043 41:111.05499 42:634.66559 43:103.24094 44:75.589371 45:122.14842 46:490.55301 47:120.89284 48:128.00662 49:85.097778 50:693.42407 51:113.78194 52:119.30081 53:172.5174 54:629.02435 55:104.22949 56:46.197891 57:175.8474 58:747.00916 59:188.42398 60:151.36368 61:110.36634 62:753.45441 63:93.127571 64:128.05563 65:199.73062 66:574.95117 67:127.86832 68:47.456192 69:166.51338 70:786.22821 71:194.12343 72:112.85812 73:35.862186 74:548.38892 75:84.92791 76:37.515896 77:8.663331 78:214.10828 79:42.416962 80:160.84644 81:57.416256 82:553.5451 83:91.328392 84:34.277756 85:13.115835 86:188.74745 87:51.88953 88:155.27737 89:58.695637 90:555.41125 91:88.764038 92:47.205254 93:44.128513 94:196.20245 95:61.802727 #
1.2794248852364356846353246697362e-07 1:0 2:0 3:0 4:0 5:0 6:0 7:0 8:0 9:0 10:0 11:0 12:0 13:0 14:0 15:0 16:0 17:0 18:0 19:0 20:240.81401 21:204.23149 22:718.58856 23:158.45511 24:193.11545 25:137.53348 26:390.26633 27:271.00229 28:266.51086 29:254.76125 30:877.1554 31:181.58539 32:179.92694 33:117.09214 34:361.20767 35:261.0434 36:348.83008 37:248.49438 38:425.98172 39:314.276 40:225.42778 41:231.37592 42:664.46796 43:170.49103 44:247.91159 45:134.48854 46:454.26654 47:344.14072 48:69.896301 49:215.96529 50:749.87103 51:167.76549 52:344.60321 53:244.04829 54:592.17371 55:165.07666 56:308.54037 57:81.80349 58:622.92847 59:397.17911 60:358.573 61:285.51639 62:466.14478 63:399.33453 64:212.45433 65:209.6582 66:519.90833 67:178.29776 68:341.48083 69:157.6012 70:557.3407 71:414.10397 72:195.85097 73:177.54668 74:791.29285 75:137.58191 76:95.747818 77:54.257309 78:394.34705 79:244.12688 80:449.0289 81:239.10995 82:876.82281 83:152.79514 84:78.634872 85:40.082161 86:421.89304 87:253.04272 88:216.07317 89:223.10921 90:847.43988 91:145.94305 92:69.157852 93:31.456589 94:458.25681 95:261.55127 #
1.2794248852364356846353246697362e-07 1:0 2:0 3:0 4:0 5:0 6:0 7:0 8:0 9:0 10:0 11:0 12:0 13:0 14:0 15:0 16:0 17:0 18:0 19:0 20:55.199875 21:129.68802 22:514.70331 23:100.10038 24:149.47081 25:262.35144 26:481.68326 27:127.60154 28:150.56679 29:178.66217 30:590.58728 31:62.867523 32:155.84094 33:250.94266 34:452.18057 35:144.6416 36:214.33684 37:341.83264 38:762.26892 39:129.38289 40:112.36595 41:126.06854 42:434.81967 43:64.36985 44:207.21484 45:310.52658 46:536.00995 47:142.00706 48:145.40706 49:161.5302 50:553.73627 51:74.430809 52:144.23892 53:136.54501 54:423.18243 55:86.82296 56:206.66565 57:296.05994 58:545.07391 59:173.23582 60:238.81386 61:282.86423 62:506.36304 63:139.25224 64:168.53951 65:161.46249 66:503.87961 67:111.71031 68:208.04488 69:274.39072 70:537.50757 71:184.16989 72:69.863159 73:108.19051 74:539.02008 75:59.992245 76:121.25457 77:197.98965 78:383.04471 79:140.7056 80:113.25082 81:150.86316 82:532.65631 83:65.806068 84:114.20509 85:183.20213 86:348.10867 87:146.18874 88:133.18295 89:151.35887 90:516.17896 91:68.042519 92:121.08828 93:167.46844 94:348.09308 95:143.19255 #
1.2794248852364356846353246697362e-07 1:0 2:0 3:0 4:0 5:0 6:0 7:0 8:0 9:0 10:0 11:0 12:0 13:0 14:0 15:0 16:0 17:0 18:0 19:0 20:360.4733 21:176.11931 22:516.16656 23:112.994 24:197.72655 25:120.13269 26:693.61285 27:79.888481 28:177.10878 29:136.13298 30:600.04272 31:152.96117 32:206.81857 33:129.06255 34:718.93121 35:78.762535 36:196.74686 37:114.47908 38:822.34369 39:100.7981 40:284.31454 41:124.73866 42:576.74646 43:198.0379 44:228.09117 45:86.74514 46:628.42377 47:64.816299 48:206.72643 49:123.49702 50:716.5918 51:128.23019 52:213.43509 53:62.255089 54:495.15646 55:187.76244 56:93.533531 57:141.48695 58:567.41846 59:87.886299 60:299.21024 61:46.12402 62:354.85141 63:146.36342 64:175.76671 65:27.791262 66:450.81393 67:187.65697 68:67.272377 69:177.19431 70:550.25055 71:106.89183 72:217.31561 73:72.010262 74:692.8075 75:144.28773 76:194.6853 77:172.57556 78:729.84174 79:84.272163 80:148.92007 81:52.689083 82:599.26678 83:121.74972 84:181.41843 85:194.561 86:705.35199 87:74.027756 88:150.21797 89:47.121223 90:590.71667 91:127.31176 92:169.474 93:221.28798 94:685.96448 95:74.603378 #
1.2794248852364356846353246697362e-07 1:0 2:0 3:0 4:0 5:0 6:0 7:0 8:0 9:0 10:0 11:0 12:0 13:0 14:0 15:0 16:0 17:0 18:0 19:0 20:171.13033 21:264.10883 22:891.38983 23:140.24927 24:211.92647 25:115.21169 26:399.90195 27:111.56843 28:59.692352 29:120.47128 30:639.28198 31:97.869843 32:167.78702 33:128.73331 34:399.17459 35:104.91727 36:239.93953 37:51.818008 38:224.77812 39:86.411636 40:129.19014 41:211.44395 42:589.64227 43:63.227379 44:159.67773 45:71.143784 46:439.77393 47:115.26137 48:70.912758 49:240.06195 50:899.71075 51:128.44942 52:328.31277 53:106.73529 54:566.24823 55:100.11086 56:135.85747 57:123.77932 58:573.60938 59:89.497375 60:107.92213 61:147.62833 62:650.17584 63:136.83243 64:184.79553 65:89.79377 66:587.4494 67:107.29771 68:118.51487 69:117.92331 70:628.49054 71:106.32849 72:54.515842 73:132.84691 74:588.83502 75:99.069023 76:106.10984 77:178.76466 78:479.95319 79:113.86457 80:90.706245 81:127.33752 82:603.0542 83:84.64167 84:103.21574 85:212.27495 86:537.84351 87:116.91365 88:69.104149 89:117.9918 90:578.41302 91:73.3908 92:91.901878 93:226.0218 94:586.36572 95:113.26768 #
1.2794248852364356846353246697362e-07 1:0 2:0 3:0 4:0 5:0 6:0 7:0 8:0 9:0 10:0 11:0 12:0 13:0 14:0 15:0 16:0 17:0 18:0 19:0 20:333.20282 21:157.35771 22:586.66595 23:136.6358 24:410.75934 25:165.73849 26:219.47752 27:123.87485 28:93.7388 29:90.253853 30:135.42926 31:82.814545 32:378.05481 33:123.596 34:228.74464 35:128.0882 36:639.3891 37:337.70688 38:360.2247 39:163.27072 40:244.68494 41:114.90477 42:325.94043 43:97.087463 44:519.90674 45:215.81203 46:310.82306 47:116.84019 48:351.45709 49:80.609344 50:505.26886 51:108.6228 52:200.93517 53:41.150562 54:419.73889 55:112.65967 56:449.20822 57:295.64447 58:368.34814 59:116.68023 60:835.46228 61:300.97583 62:492.76645 63:160.50731 64:189.1749 65:34.918297 66:472.3042 67:121.92179 68:452.74652 69:303.36801 70:409.67941 71:123.12853 72:56.509953 73:54.210442 74:152.00845 75:128.02374 76:278.68793 77:89.795555 78:200.94145 79:104.27199 80:83.512184 81:56.944023 82:85.189514 83:107.05133 84:303.1492 85:97.293106 86:203.73332 87:94.871468 88:90.569588 89:52.513336 90:109.56907 91:105.20959 92:284.10989 93:104.78008 94:211.02568 95:98.801575 #
1.2794248852364356846353246697362e-07 1:0 2:0 3:0 4:0 5:0 6:0 7:0 8:0 9:0 10:0 11:0 12:0 13:0 14:0 15:0 16:0 17:0 18:0 19:0 20:258.80206 21:187.61375 22:340.19354 23:102.67325 24:305.58575 25:180.64786 26:355.78625 27:143.13441 28:269.09558 29:82.093193 30:192.30742 31:84.558296 32:319.86316 33:173.82515 34:342.27753 35:149.59369 36:352.95123 37:133.12227 38:303.36832 39:102.13046 40:348.70605 41:124.50932 42:269.22778 43:137.95111 44:420.30594 45:182.43301 46:353.65042 47:176.70393 48:352.69034 49:151.93567 50:446.30124 51:107.86379 52:339.01752 53:142.56285 54:231.87692 55:161.59596 56:525.72095 57:137.41417 58:289.98483 59:189.95563 60:345.71201 61:85.551964 62:332.15717 63:177.3541 64:350.51782 65:174.52966 66:368.12677 67:200.62727 68:479.54852 69:98.176964 70:352.06619 71:223.71953 72:151.23177 73:39.973431 74:235.92395 75:101.93726 76:316.55228 77:180.09134 78:300.8093 79:149.09785 80:195.04506 81:58.785748 82:191.15266 83:97.661957 84:346.20578 85:184.88754 86:314.40829 87:161.22092 88:172.78107 89:54.566814 90:180.23376 91:101.55311 92:373.7261 93:178.82671 94:314.68204 95:183.8143 #
-1.2794248852364356846353246697362e-07 1:0 2:0 3:0 4:0 5:0 6:0 7:0 8:0 9:0 10:0 11:0 12:0 13:0 14:0 15:0 16:0 17:0 18:0 19:0 20:205.81955 21:198.46661 22:398.29767 23:167.01308 24:197.29282 25:74.933739 26:298.75107 27:163.37508 28:441.30966 29:161.06648 30:190.6561 31:249.81001 32:200.4651 33:59.318504 34:262.35455 35:161.38193 36:640.15118 37:286.70938 38:394.81744 39:132.33775 40:97.627853 41:160.63066 42:329.08234 43:280.68307 44:171.28329 45:68.04702 46:239.57304 47:319.3465 48:220.68526 49:209.46637 50:434.14313 51:231.55655 52:154.78641 53:190.1096 54:544.70892 55:345.07257 56:265.82016 57:103.24052 58:482.61182 59:481.12958 60:273.81937 61:58.270733 62:510.40198 63:379.74292 64:70.369972 65:248.1049 66:740.28101 67:430.19125 68:298.24835 69:139.62135 70:510.01416 71:545.08966 72:191.81494 73:149.32704 74:407.67499 75:230.55145 76:174.78821 77:46.213905 78:248.5153 79:198.63846 80:348.22531 81:175.41283 82:269.28912 83:232.27141 84:180.14429 85:43.502693 86:225.32329 87:212.71324 88:341.65973 89:176.8698 90:283.78433 91:238.19948 92:202.16476 93:72.909554 94:229.04466 95:232.04424 #
-1.2794248852364356846353246697362e-07 1:0 2:0 3:0 4:0 5:0 6:0 7:0 8:0 9:0 10:0 11:0 12:0 13:0 14:0 15:0 16:0 17:0 18:0 19:0 20:45.832569 21:13.308989 22:480.70081 23:159.82048 24:83.278557 25:54.910084 26:330.38559 27:67.801071 28:54.973778 29:72.811089 30:280.12949 31:86.274834 32:82.817062 33:54.863163 34:358.69675 35:72.522095 36:105.83854 37:106.87475 38:472.70193 39:43.48613 40:106.26198 41:149.94029 42:382.92468 43:97.414452 44:105.88824 45:62.659496 46:383.98422 47:54.373112 48:52.551704 49:137.23315 50:498.77115 51:110.51128 52:162.62964 53:122.62252 54:400.43814 55:116.51316 56:128.36232 57:27.495216 58:379.30878 59:51.393524 60:127.97477 61:157.28044 62:551.29846 63:49.454361 64:153.59889 65:88.776253 66:402.39691 67:159.91568 68:149.99774 69:42.165337 70:454.25461 71:58.920341 72:63.890694 73:47.91967 74:250.60667 75:99.813477 76:105.00684 77:32.964691 78:331.35516 79:74.967026 80:89.250839 81:86.146706 82:297.2095 83:76.193741 84:122.32712 85:32.51228 86:353.02701 87:77.389748 88:96.505974 89:94.8144 90:316.03558 91:80.781731 92:119.35504 93:33.526787 94:372.24045 95:56.041306 #
-1.2794248852364356846353246697362e-07 1:0 2:0 3:0 4:0 5:0 6:0 7:0 8:0 9:0 10:0 11:0 12:0 13:0 14:0 15:0 16:0 17:0 18:0 19:0 20:225.15736 21:223.46873 22:474.75037 23:117.0367 24:34.09042 25:66.919189 26:372.13525 27:103.43113 28:154.14098 29:120.95719 30:355.50696 31:172.63025 32:46.099693 33:65.351257 34:375.23505 35:98.340477 36:109.26455 37:149.47238 38:571.59448 39:111.51918 40:134.02385 41:60.755619 42:613.79822 43:179.62996 44:128.85509 45:42.316906 46:458.22403 47:73.485321 48:235.66202 49:153.38031 50:623.44403 51:154.19072 52:104.77834 53:26.053513 54:550.19379 55:180.31921 56:99.544617 57:54.268448 58:351.39023 59:68.479744 60:94.534698 61:64.453026 62:411.4006 63:96.744019 64:76.425117 65:18.026815 66:480.8783 67:212.00064 68:87.263954 69:58.373745 70:282.21591 71:80.045448 72:134.96255 73:114.60732 74:304.21835 75:259.99927 76:26.079166 77:54.986256 78:359.73743 79:123.96965 80:127.50426 81:92.311012 82:372.44373 83:190.77141 84:37.931995 85:49.287968 86:359.97485 87:129.33852 88:123.481 89:83.252487 90:392.5307 91:183.06592 92:54.904507 93:44.515186 94:376.82965 95:106.99865 #
1.2794248852364356846353246697362e-07 1:0 2:0 3:0 4:0 5:0 6:0 7:0 8:0 9:0 10:0 11:0 12:0 13:0 14:0 15:0 16:0 17:0 18:0 19:0 20:246.89154 21:167.27539 22:443.50247 23:172.35339 24:304.28659 25:192.28053 26:279.45355 27:69.903198 28:332.63586 29:178.40443 30:381.95676 31:117.23196 32:319.12656 33:198.24913 34:298.07892 35:80.433006 36:342.08167 37:229.42358 38:457.49384 39:70.811661 40:426.33765 41:247.88327 42:336.67819 43:137.66121 44:352.34894 45:285.28784 46:407.71719 47:64.903168 48:449.543 49:204.81293 50:414.78296 51:164.89836 52:373.79312 53:266.72205 54:390.40735 55:138.46608 56:454.71817 57:341.49991 58:417.7261 59:71.680382 60:271.84293 61:306.39819 62:394.83484 63:54.211151 64:340.43561 65:257.09225 66:344.18707 67:149.35045 68:418.86621 69:320.74539 70:380.05414 71:86.141022 72:306.25607 73:157.23581 74:340.82266 75:107.299 76:302.89618 77:187.81123 78:252.97473 79:78.260086 80:342.9473 81:195.79393 82:333.44989 83:116.86395 84:332.72791 85:205.93304 86:267.06668 87:78.822418 88:348.18146 89:201.55237 90:338.21829 91:111.77361 92:372.68918 93:233.58739 94:291.52509 95:69.105301 #
1.2794248852364356846353246697362e-07 1:0 2:0 3:0 4:0 5:0 6:0 7:0 8:0 9:0 10:0 11:0 12:0 13:0 14:0 15:0 16:0 17:0 18:0 19:0 20:155.82671 21:135.49724 22:321.716 23:280.86911 24:405.42603 25:245.9856 26:591.95728 27:194.14088 28:347.1889 29:64.473961 30:245.57826 31:348.41891 32:396.68051 33:235.99779 34:583.53784 35:191.033 36:453.29553 37:267.00232 38:766.84943 39:196.21936 40:324.34241 41:36.713955 42:416.01202 43:302.52826 44:185.46365 45:142.6982 46:718.54926 47:219.58701 48:354.96628 49:304.9194 50:835.16742 51:197.18634 52:175.39661 53:42.796425 54:470.95358 55:332.04141 56:177.20351 57:210.2097 58:663.87494 59:237.37799 60:136.90884 61:263.56601 62:297.44998 63:417.46844 64:349.71823 65:130.43584 66:397.65372 67:374.24109 68:61.999332 69:218.17346 70:592.58527 71:268.94131 72:292.90573 73:56.451637 74:156.69975 75:249.28192 76:352.11343 77:161.35628 78:443.17108 79:201.63925 80:237.42587 81:109.92675 82:241.4579 83:275.67169 84:347.50714 85:161.20799 86:431.62534 87:205.45421 88:266.73007 89:59.8521 90:233.66068 91:262.16129 92:345.98587 93:147.92252 94:410.3544 95:207.00142 #
1.2794248852364356846353246697362e-07 1:0 2:0 3:0 4:0 5:0 6:0 7:0 8:0 9:0 10:0 11:0 12:0 13:0 14:0 15:0 16:0 17:0 18:0 19:0 20:228.43533 21:186.39383 22:346.29138 23:149.3559 24:241.2442 25:271.15826 26:534.32562 27:117.88913 28:269.93109 29:207.45015 30:305.89111 31:113.29351 32:197.23865 33:266.86743 34:563.12817 35:140.75868 36:260.35049 37:291.55045 38:622.03156 39:127.27425 40:422.88986 41:249.78954 42:315.34753 43:95.313988 44:189.73167 45:198.99376 46:350.21429 47:159.34634 48:239.93454 49:245.31496 50:356.4494 51:127.65904 52:463.47565 53:234.39601 54:413.5564 55:114.69965 56:109.5944 57:169.19263 58:328.19724 59:163.89946 60:137.34891 61:174.46968 62:406.20749 63:232.82852 64:316.26761 65:256.66632 66:440.78467 67:99.159653 68:37.12999 69:121.84077 70:324.3735 71:186.0515 72:335.46631 73:198.97182 74:345.46411 75:141.19037 76:179.65154 77:203.38785 78:510.17365 79:138.97569 80:490.7782 81:241.6113 82:372.28171 83:146.3145 84:172.23677 85:212.25801 86:508.91049 87:153.42645 88:341.58188 89:238.54131 90:308.96811 91:135.23943 92:195.17526 93:233.07248 94:527.46509 95:160.97433 #
-1.2794248852364356846353246697362e-07 1:0 2:0 3:0 4:0 5:0 6:0 7:0 8:0 9:0 10:0 11:0 12:0 13:0 14:0 15:0 16:0 17:0 18:0 19:0 20:72.007286 21:180.38126 22:386.33957 23:74.422829 24:451.03635 25:406.51035 26:828.84955 27:266.57645 28:93.663277 29:102.01081 30:389.28897 31:100.29343 32:397.36295 33:372.81256 34:719.25525 35:228.31067 36:328.91983 37:302.95697 38:583.97931 39:190.27272 40:114.78249 41:165.20102 42:614.07672 43:98.663467 44:317.20432 45:416.25125 46:1111.1654 47:182.72701 48:106.73612 49:165.63287 50:566.77271 51:98.580322 52:90.470543 53:240.49983 54:788.66089 55:100.22531 56:293.92645 57:470.63519 58:1339.1628 59:201.99911 60:320.74191 61:568.80908 62:1444.0261 63:174.04712 64:37.422218 65:265.56143 66:867.50098 67:140.50369 68:294.82544 69:448.0011 70:1250.7203 71:208.20801 72:93.124245 73:149.14278 74:435.6351 75:137.29309 76:372.84787 77:353.29745 78:718.48846 79:212.31001 80:76.922119 81:88.927399 82:362.48196 83:97.240402 84:369.42542 85:349.03894 86:742.27771 87:207.75635 88:65.311623 89:100.63489 90:392.93558 91:102.71455 92:370.64679 93:349.34256 94:740.4671 95:209.70123 #
-1.2794248852364356846353246697362e-07 1:0 2:0 3:0 4:0 5:0 6:0 7:0 8:0 9:0 10:0 11:0 12:0 13:0 14:0 15:0 16:0 17:0 18:0 19:0 20:209.18752 21:190.35524 22:629.66248 23:224.15996 24:164.59425 25:247.18044 26:619.70172 27:119.11297 28:241.85248 29:143.25313 30:391.03366 31:203.81845 32:194.46948 33:266.56207 34:565.72369 35:126.93182 36:473.90601 37:288.70224 38:678.28748 39:200.3768 40:208.90005 41:109.98128 42:420.5784 43:225.37753 44:415.79999 45:260.7067 46:549.9306 47:183.74965 48:297.84418 49:213.85361 50:652.2843 51:202.42307 52:300.13123 53:138.8661 54:401.5708 55:283.03522 56:492.50101 57:280.45016 58:603.88263 59:179.89731 60:431.75235 61:313.01331 62:412.85318 63:231.89156 64:407.86057 65:219.3309 66:425.93362 67:301.8519 68:319.46399 69:208.91971 70:564.87439 71:196.96629 72:224.14737 73:104.74583 74:441.95041 75:176.75023 76:109.59254 77:227.08235 78:521.08575 79:104.88996 80:189.13478 81:114.20811 82:344.51651 83:199.5179 84:111.54066 85:221.59346 86:486.78433 87:112.0451 88:179.64885 89:102.51319 90:342.34079 91:207.60559 92:93.274452 93:232.97403 94:503.82529 95:114.12396 #
1.2794248852364356846353246697362e-07 1:0 2:0 3:0 4:0 5:0 6:0 7:0 8:0 9:0 10:0 11:0 12:0 13:0 14:0 15:0 16:0 17:0 18:0 19:0 20:287.59717 21:173.55727 22:262.85147 23:165.66681 24:54.322121 25:81.91188 26:157.76189 27:39.573666 28:296.01117 29:124.06461 30:276.83972 31:158.43661 32:46.109894 33:68.945061 34:157.24472 35:63.652729 36:77.025696 37:67.439407 38:155.03612 39:61.101391 40:276.51736 41:127.8296 42:308.01184 43:195.50256 44:67.192261 45:82.793945 46:66.879471 47:43.297283 48:282.95459 49:104.60246 50:188.73598 51:128.70351 52:178.8378 53:41.39019 54:409.82367 55:219.66003 56:16.292698 57:71.489677 58:138.55424 59:82.045364 60:328.18503 61:184.83795 62:115.56467 63:98.74868 64:131.42804 65:10.439906 66:527.16339 67:228.40033 68:32.152794 69:38.386856 70:194.07962 71:100.9739 72:307.63086 73:145.4639 74:207.15775 75:135.71655 76:37.633297 77:83.525948 78:130.90915 79:67.254547 80:281.26447 81:110.03775 82:217.62704 83:155.97171 84:24.890308 85:73.440727 86:88.891388 87:82.677933 88:281.94873 89:115.81675 90:216.46716 91:163.70267 92:41.379986 93:78.795273 94:100.73591 95:80.153717 #
-1.2794248852364356846353246697362e-07 1:0 2:0 3:0 4:0 5:0 6:0 7:0 8:0 9:0 10:0 11:0 12:0 13:0 14:0 15:0 16:0 17:0 18:0 19:0 20:164.94847 21:98.766914 22:619.83862 23:82.302338 24:118.32963 25:84.859772 26:282.67841 27:162.77393 28:140.43687 29:109.40694 30:511.42859 31:95.571724 32:99.440178 33:75.893211 34:314.54727 35:179.306 36:173.20583 37:127.15399 38:286.9462 39:140.5563 40:75.803062 41:50.168697 42:518.48901 43:112.83418 44:175.97697 45:117.03228 46:263.38754 47:174.45996 48:165.59698 49:81.408257 50:529.85962 51:109.50199 52:57.688984 53:4.364882 54:451.04062 55:149.92564 56:254.51195 57:123.52823 58:308.54611 59:190.94096 60:158.3792 61:60.155067 62:225.96051 63:132.9906 64:52.050919 65:36.148575 66:393.05942 67:199.78894 68:277.98984 69:113.98198 70:315.66238 71:217.07597 72:137.5202 73:118.84467 74:480.80081 75:132.29422 76:92.243469 77:57.424133 78:310.63239 79:178.52397 80:150.84953 81:105.6028 82:438.11243 83:120.14383 84:110.95388 85:64.892128 86:343.0921 87:184.40236 88:141.33327 89:103.99454 90:449.69849 91:126.3541 92:127.43874 93:69.710747 94:361.50696 95:175.81351 #
1.2794248852364356846353246697362e-07 1:0 2:0 3:0 4:0 5:0 6:0 7:0 8:0 9:0 10:0 11:0 12:0 13:0 14:0 15:0 16:0 17:0 18:0 19:0 20:193.43802 21:143.48122 22:433.56177 23:89.487312 24:125.51128 25:81.130325 26:282.48779 27:65.342667 28:197.76126 29:121.86021 30:289.06006 31:101.05605 32:120.31174 33:69.577812 34:296.82553 35:77.247131 36:188.38704 37:132.6687 38:412.08136 39:35.557884 40:181.70361 41:94.694359 42:554.49677 43:139.71019 44:167.87999 45:70.201851 46:391.10568 47:95.096733 48:303.09753 49:223.20778 50:344.52719 51:95.503296 52:188.07756 53:63.072517 54:546.19452 55:148.95711 56:245.60391 57:118.02034 58:381.12964 59:121.26154 60:136.71935 61:176.75357 62:614.60547 63:78.209564 64:192.41443 65:67.149567 66:425.95251 67:187.58067 68:250.13808 69:131.4483 70:454.12189 71:120.8177 72:146.11031 73:96.586159 74:223.43983 75:88.830978 76:123.63786 77:74.257614 78:331.04437 79:85.870285 80:191.44579 81:113.48238 82:295.75751 83:124.39643 84:128.19682 85:69.890541 86:286.13382 87:91.761269 88:189.46228 89:108.51415 90:306.68576 91:131.63937 92:136.08519 93:70.931541 94:237.74719 95:122.2569 #
1.2794248852364356846353246697362e-07 1:0 2:0 3:0 4:0 5:0 6:0 7:0 8:0 9:0 10:0 11:0 12:0 13:0 14:0 15:0 16:0 17:0 18:0 19:0 20:132.81848 21:280.1608 22:713.24493 23:132.57939 24:232.98463 25:220.04742 26:447.543 27:141.2628 28:168.41196 29:251.27628 30:640.38373 31:116.79607 32:194.31976 33:212.79987 34:472.75189 35:142.71118 36:236.83762 37:285.77731 38:465.86011 39:153.64163 40:287.61487 41:364.52383 42:516.61884 43:141.03516 44:270.45441 45:249.51091 46:487.27783 47:111.59538 48:211.89809 49:337.22781 50:698.38916 51:111.69276 52:263.08878 53:312.8631 54:368.14008 55:167.47629 56:262.87433 57:220.53558 58:366.69388 59:115.60307 60:229.89946 61:237.09387 62:351.88373 63:105.07979 64:229.89262 65:273.60278 66:344.74936 67:179.7397 68:235.77023 69:222.88484 70:359.30566 71:110.27475 72:158.93559 73:178.87125 74:575.68384 75:129.9417 76:207.95659 77:224.88882 78:444.87436 79:115.18417 80:153.6519 81:208.15054 82:578.42175 83:128.85538 84:203.68628 85:224.60515 86:421.8569 87:100.53152 88:151.35268 89:204.39705 90:555.00232 91:133.48383 92:191.37421 93:223.77156 94:404.45087 95:108.89727 #
-1.2794248852364356846353246697362e-07 1:0 2:0 3:0 4:0 5:0 6:0 7:0 8:0 9:0 10:0 11:0 12:0 13:0 14:0 15:0 16:0 17:0 18:0 19:0 20:84.149986 21:107.97729 22:312.83005 23:59.422539 24:161.49216 25:110.38256 26:263.67654 27:130.43513 28:75.574158 29:108.68649 30:277.92072 31:93.469749 32:161.57658 33:110.45623 34:264.5054 35:122.43224 36:173.74292 37:139.49963 38:278.49643 39:109.97616 40:85.370758 41:113.79474 42:310.366 43:57.272869 44:91.283279 45:36.452011 46:296.51462 47:131.21541 48:75.744186 49:92.011612 50:255.92603 51:52.375423 52:81.810692 53:95.095963 54:342.39056 55:63.646252 56:59.934578 57:10.683319 58:289.61691 59:148.79715 60:110.64523 61:72.978462 62:483.43274 63:155.5688 64:78.122154 65:72.451263 66:372.5574 67:84.981064 68:53.387909 69:15.035126 70:323.09961 71:167.95866 72:54.337181 73:106.55024 74:294.69321 75:134.28841 76:119.44203 77:83.391235 78:256.51849 79:131.93771 80:46.614311 81:92.657753 82:273.68567 83:92.354752 84:120.87087 85:76.606461 86:239.52774 87:139.50839 88:45.929356 89:92.880531 90:285.5022 91:86.886017 92:114.81988 93:71.626503 94:217.96526 95:134.84351 #
-5.3465036906060563250153196135361e-08 1:0 2:0 3:0 4:0 5:0 6:0 7:0 8:0 9:0 10:0 11:0 12:0 13:0 14:0 15:0 16:0 17:0 18:0 19:0 20:178.15407 21:148.45224 22:578.06372 23:139.87372 24:117.79388 25:91.611168 26:350.96564 27:133.42691 28:118.70361 29:120.85195 30:583.23627 31:139.13481 32:102.3428 33:83.940865 34:356.77026 35:146.91614 36:284.16876 37:242.16875 38:473.87717 39:188.6189 40:178.5166 41:251.34512 42:704.86584 43:41.167809 44:211.96657 45:243.02913 46:367.9035 47:128.98956 48:251.87228 49:287.1026 50:696.09412 51:113.21398 52:211.02303 53:269.5878 54:566.6239 55:75.374992 56:222.62479 57:287.1055 58:359.47736 59:101.95869 60:293.36279 61:326.11465 62:480.66467 63:114.60572 64:215.67516 65:283.39328 66:458.79846 67:109.61042 68:231.00249 69:290.09317 70:365.57452 71:96.047272 72:137.49649 73:120.21777 74:442.38043 75:123.42542 76:89.448982 77:71.82901 78:280.89163 79:130.36545 80:96.14698 81:103.47078 82:434.81863 83:101.73662 84:76.683014 85:72.998154 86:255.177 87:122.43513 88:79.217628 89:80.749886 90:390.17099 91:97.582512 92:75.030579 93:82.705482 94:263.28754 95:114.11374 #
-1.2794248852364356846353246697362e-07 1:0 2:0 3:0 4:0 5:0 6:0 7:0 8:0 9:0 10:0 11:0 12:0 13:0 14:0 15:0 16:0 17:0 18:0 19:0 20:278.68622 21:137.65387 22:651.93927 23:184.8931 24:22.68029 25:52.67189 26:248.04329 27:68.161041 28:121.74641 29:105.16679 30:381.06009 31:127.77369 32:7.7266698 33:42.486343 34:223.20573 35:52.679878 36:73.936424 37:106.93144 38:428.4017 39:70.999359 40:221.67183 41:165.24765 42:436.18826 43:134.17305 44:40.930725 45:40.60717 46:155.67917 47:104.26157 48:113.75495 49:311.42038 50:641.90063 51:131.91487 52:244.916 53:181.42976 54:395.96219 55:144.93094 56:31.030682 57:74.052933 58:204.7016 59:94.686836 60:398.59561 61:103.45245 62:326.33371 63:307.6973 64:184.81728 65:141.84631 66:450.11295 67:126.89521 68:25.025892 69:95.704002 70:268.19116 71:119.85159 72:156.65602 73:91.512939 74:246.0947 75:168.69525 76:42.659477 77:37.285095 78:223.76065 79:72.377876 80:146.78661 81:105.64326 82:261.08151 83:135.19621 84:59.262283 85:32.052185 86:225.76921 87:99.164223 88:131.49709 89:107.86124 90:246.96556 91:133.90649 92:42.351425 93:27.548162 94:257.33438 95:127.37611 #
-1.2794248852364356846353246697362e-07 1:0 2:0 3:0 4:0 5:0 6:0 7:0 8:0 9:0 10:0 11:0 12:0 13:0 14:0 15:0 16:0 17:0 18:0 19:0 20:138.3121 21:82.749939 22:762.62646 23:138.51904 24:51.505737 25:89.90313 26:236.30449 27:109.80543 28:189.35126 29:108.6641 30:351.02481 31:152.72316 32:23.855919 33:69.620163 34:247.90723 35:110.61522 36:162.07974 37:138.24661 38:307.36948 39:102.72073 40:82.462273 41:170.5459 42:551.7951 43:134.17177 44:156.43925 45:109.17159 46:270.65417 47:144.25146 48:54.24128 49:72.091652 50:586.80396 51:109.52755 52:152.41121 53:136.1342 54:556.62854 55:124.95379 56:186.78633 57:100.2438 58:241.99605 59:184.74094 60:201.60323 61:89.857872 62:238.26048 63:160.60133 64:143.88644 65:113.36272 66:572.05359 67:132.54092 68:124.99802 69:108.3203 70:285.4584 71:193.0058 72:84.675529 73:102.36237 74:256.24338 75:136.8055 76:78.913971 77:90.838753 78:233.52908 79:123.33514 80:178.41748 81:137.79659 82:318.37225 83:133.15965 84:27.451654 85:55.934338 86:187.25722 87:132.34386 88:176.97112 89:148.86942 90:310.75269 91:137.38098 92:11.387964 93:30.163731 94:165.13571 95:140.30995 #
