SVM-light Version V6.02
0 # kernel type
3 # kernel parameter -d 
1 # kernel parameter -g 
1 # kernel parameter -s 
1 # kernel parameter -r 
empty# kernel parameter -u 
19 # highest feature index 
17999 # number of training documents 
12066 # number of support vectors plus 1 
0.99962667 # threshold b, each following line is a SV (starting with alpha*y)
-0.00015991232340113167636683200178993 1:-20.67 2:-5.8200002 3:-19.17 4:-2.99 5:-16.59 6:-6.9200001 7:-2.4200001 8:-14 9:-4.4200001 10:-4.2399998 11:8.5200005 12:-0.25 13:-5.48 14:-16.209999 15:0.46000001 16:-15.12 17:1.6 18:-15.05 19:2.3599999 #
0.00015991232340113167636683200178993 1:3.6600001 2:2.8399999 3:2.6800001 4:10.86 5:3.21 6:5.0300002 7:7.0999999 8:0.94999999 9:9.2399998 10:4.0999999 11:1.8099999 12:11.14 13:5.8200002 14:2.5899999 15:11.62 16:3.46 17:12.16 18:3.8399999 19:9.9899998 #
-0.00015991232340113167636683200178993 1:-74.120003 2:-10.75 3:-108.69 4:-24.67 5:-37.349998 6:-47.91 7:-88.730003 8:-183.03 9:-22.790001 10:-16.32 11:-413.42001 12:-43.299999 13:5.02 14:-82.269997 15:3.96 16:-81.379997 17:13.51 18:-81.949997 19:32.509998 #
0.00015991232340113167636683200178993 1:4.6599998 2:9.8500004 3:-2.74 4:10.18 5:5.1999998 6:13.78 7:15.44 8:5.8000002 9:15.76 10:20.540001 11:6.3400002 12:13.8 13:20.27 14:1.5599999 15:11.51 16:2.0699999 17:12.65 18:2.8399999 19:14.3 #
-0.00015991232340113167636683200178993 1:12.87 2:26.059999 3:-84.309998 4:26.27 5:48.990002 6:-42.860001 7:128.13 8:-16.309999 9:-18.879999 10:167.98 11:162.08 12:6.1300001 13:230.78 14:-76.080002 15:22.73 16:-61.779999 17:24.030001 18:-87.599998 19:29.549999 #
0.00015991232340113167636683200178993 1:8.5200005 2:-11.28 3:2.3199999 4:-17.299999 5:-56.91 6:-3.01 7:-83.379997 8:-68.540001 9:8.46 10:-75.82 11:-54.220001 12:18.209999 13:-36.07 14:20.51 15:-6.7800002 16:24.299999 17:-5.8499999 18:27.59 19:10.05 #
-0.00015991232340113167636683200178993 1:-53.91 2:0.22 3:-74.790001 4:-8.1400003 5:-19.870001 6:-26.32 7:-77.480003 8:-145.06 9:10.15 10:14.79 11:-375.5 12:-7.8400002 13:46.330002 14:-58.32 15:11.74 16:-60.23 17:19.83 18:-59.779999 19:39.009998 #
-0.00015991232340113167636683200178993 1:-17.860001 2:-3.6099999 3:-12.22 4:-2.8900001 5:-4.3800001 6:-4.5 7:10.91 8:-11.58 9:-0.050000001 10:15.59 11:5.7199998 12:4.02 13:14.92 14:-8.9799995 15:-3.1900001 16:-17.5 17:-3.0899999 18:-11.04 19:-1.99 #
0.00015991232340113167636683200178993 1:80.830002 2:59.889999 3:48.279999 4:57.009998 5:61.5 6:64.300003 7:52.880001 8:57.580002 9:93.480003 10:59.41 11:55.150002 12:65.080002 13:61.5 14:49.689999 15:55.310001 16:62.66 17:54.110001 18:47.130001 19:53.619999 #
0.00015991232340113167636683200178993 1:1.58 2:-11.61 3:-6 4:-11.28 5:-8.2399998 6:-17.01 7:17.07 8:-20.34 9:-39.880001 10:8.3800001 11:-23.23 12:35.470001 13:-20.01 14:-9.46 15:-16.290001 16:-7.27 17:-13.96 18:-15.41 19:-14.77 #
0.00015991232340113167636683200178993 1:-14.97 2:-22.33 3:-17.82 4:-28.57 5:-57.290001 6:-38.509998 7:-70.949997 8:-125.75 9:-23.76 10:-62.540001 11:-70.919998 12:-14.83 13:-18.48 14:2.4000001 15:-17.59 16:-4.6999998 17:-18.01 18:5.2199998 19:-10.76 #
-0.00015991232340113167636683200178993 1:-52.98 2:-44.240002 3:-103.31 4:-37.32 5:-68.639999 6:-150.06 7:-105.58 8:-119.51 9:-121.98 10:-178.46001 11:-88.330002 12:-113.1 13:-295.01001 14:-49.09 15:-35.189999 16:-25.290001 17:-36.84 18:-56.139999 19:-35.209999 #
-0.00015991232340113167636683200178993 1:-31.549999 2:-18.129999 3:-6.54 4:-14.72 5:-9.2600002 6:-23.67 7:-36.5 8:-25.629999 9:-25.6 10:-25.459999 11:-30.190001 12:-12.58 13:-41.389999 14:-9.0699997 15:-12.77 16:-18.780001 17:-12.58 18:-14.24 19:-12.51 #
-0.00015991232340113167636683200178993 1:8.2200003 2:-8.8400002 3:11.84 4:-8.0900002 5:-3.0899999 6:13.71 7:-1.6 8:12.99 9:18.49 10:2.6800001 11:-27.09 12:26.540001 13:4.71 14:10.41 15:-5.1199999 16:13.45 17:-3.79 18:11.58 19:-1.24 #
-0.00015991232340113167636683200178993 1:7.6199999 2:106.93 3:-1.79 4:108.68 5:105.07 6:6.9499998 7:100.81 8:14.06 9:-2.23 10:88.610001 11:111.73 12:6.9000001 13:105.26 14:-3.6700001 15:107.03 16:-11.36 17:108.44 18:-13.72 19:112 #
0.00015991232340113167636683200178993 1:-8.79 2:-9.0900002 3:-4.9899998 4:-5.7399998 5:-2.8699999 6:-30.33 7:39.349998 8:-33 9:-50.490002 10:23.59 11:15.55 12:31.469999 13:-11.04 14:-12.14 15:-9.8199997 16:-10.28 17:-6.9899998 18:-17.870001 19:-7.5900002 #
0.00015991232340113167636683200178993 1:9.5299997 2:12.18 3:28.35 4:15.59 5:26.799999 6:26.32 7:26.93 8:28.700001 9:65.160004 10:25.799999 11:51.799999 12:36.73 13:40.150002 14:17.110001 15:18.530001 16:-4.29 17:19.219999 18:13.23 19:20.74 #
-0.00015991232340113167636683200178993 1:-10.08 2:-17 3:-6.2399998 4:-15.27 5:-57 6:-117.75 7:-95.900002 8:-117.56 9:-143.06 10:-102.48 11:17.370001 12:-98.830002 13:-102.71 14:8.3699999 15:-20.48 16:14.62 17:-18.969999 18:-24.950001 19:-19.52 #
0.00015991232340113167636683200178993 1:83.220001 2:58.43 3:49.950001 4:54.959999 5:60.27 6:65.18 7:51.48 8:58.939999 9:93.220001 10:58.080002 11:53.68 12:65.580002 13:60.880001 14:50.950001 15:53.950001 16:62.810001 17:52.049999 18:47.290001 19:51.459999 #
-0.00015991232340113167636683200178993 1:-29.950001 2:-9.8299999 3:-42.099998 4:-9.2799997 5:-41.91 6:-171.46001 7:-79.620003 8:-122.4 9:-197.52 10:-86.830002 11:5.5599999 12:-115.8 13:-82.220001 14:-26.639999 15:-11.7 16:-15.75 17:-11.7 18:-58.509998 19:-13.55 #
0.00015991232340113167636683200178993 1:-64.07 2:2.26 3:-58.970001 4:-4.48 5:-6.8899999 6:-51.549999 7:-1.23 8:-55.299999 9:-140.32001 10:-14.11 11:5.4099998 12:-77.360001 13:-31.92 14:-64.739998 15:-7.0999999 16:-78.669998 17:-1.72 18:-66.540001 19:-7.73 #
0.00015991232340113167636683200178993 1:34.400002 2:6.8099999 3:38.93 4:11.01 5:21.030001 6:56 7:30.18 8:21.76 9:64.849998 10:43.849998 11:28.309999 12:45.040001 13:41.139999 14:43.349998 15:2.3299999 16:79.860001 17:3.1199999 18:46.810001 19:3.04 #
-0.00015991232340113167636683200178993 1:-13.84 2:-5.5599999 3:-11.55 4:-5.5999999 5:-8.3999996 6:-3.3099999 7:1.78 8:-8.5200005 9:3.3699999 10:11.76 11:15.26 12:6.1999998 13:13.31 14:-11.77 15:-5.6700001 16:-5.79 17:-2.98 18:-6.6399999 19:-2.8099999 #
-0.00015991232340113167636683200178993 1:145.21001 2:101.33 3:109.07 4:100.28 5:116.98 6:214.23 7:187.81 8:123.09 9:257.48001 10:206.13 11:203.28 12:208.75999 13:256.72 14:98.919998 15:89.75 16:165.95 17:83.160004 18:140.34 19:80.839996 #
0.00015991232340113167636683200178993 1:8.6899996 2:-18.780001 3:21.33 4:-18.450001 5:-28.030001 6:-31.4 7:-21.51 8:-12.9 9:-25.09 10:-30.83 11:8.3699999 12:-12.22 13:-7.0599999 14:13.17 15:-16.6 16:-3.3199999 17:-24.209999 18:12.56 19:-23.200001 #
0.00015991232340113167636683200178993 1:-2.02 2:-25.200001 3:22.43 4:-21.6 5:-12.05 6:28.91 7:-2.77 8:14.26 9:65.669998 10:4.0500002 11:15.3 12:41.119999 13:16.709999 14:24.559999 15:-21.110001 16:13.87 17:-21.43 18:22.530001 19:-21.43 #
0.00015991232340113167636683200178993 1:2.03 2:-18.77 3:1.7 4:-23.42 5:-41.09 6:-26.790001 7:-49.830002 8:-64.059998 9:-10.06 10:-53.169998 11:-53.740002 12:-0.86000001 13:-4.4699998 14:16.780001 15:-13.95 16:7.8600001 17:-13.94 18:19.889999 19:-9.8999996 #
-0.00015991232340113167636683200178993 1:140.74001 2:101.26 3:110.6 4:100.53 5:119.36 6:214.72 7:181.78999 8:125.89 9:261.78 10:196.75 11:191.60001 12:209.09 13:242.71001 14:101.24 15:90.32 16:169.13 17:83.739998 18:142.3 19:81.919998 #
0.00015991232340113167636683200178993 1:-21.68 2:-17.209999 3:4.0900002 4:-13.92 5:-5.23 6:4.6399999 7:-1.01 8:-12.85 9:41.220001 10:6.9400001 11:18.190001 12:15.91 13:22.65 14:5.6900001 15:-14.05 16:-7.9099998 17:-14.36 18:3.1900001 19:-13.21 #
-0.00015991232340113167636683200178993 1:152.60001 2:104.44 3:104.4 4:103.42 5:112.6 6:210.46001 7:199.37 8:111.35 9:245.03999 10:221 11:231.13 12:195.8 13:273.59 14:88.940002 15:92.419998 16:160.95 17:86.040001 18:136.84 19:82.949997 #
0.00015991232340113167636683200178993 1:12.16 2:-18.34 3:24.299999 4:-17.860001 5:-26.129999 6:-25.92 7:-17.68 8:-1 9:-18.120001 10:-28.379999 11:11.16 12:-5.6300001 13:-4.6300001 14:16.540001 15:-16.01 16:1.99 17:-23.450001 18:17.559999 19:-22.26 #
0.00015991232340113167636683200178993 1:-2.1600001 2:-20.870001 3:-2.04 4:-25.870001 5:-46.439999 6:-30.459999 7:-55.279999 8:-82.599998 9:-14.27 10:-56.200001 11:-61.810001 12:-5.46 13:-8.4899998 14:13.41 15:-16.040001 16:4.5799999 17:-16.07 18:16.25 19:-11.44 #
-0.00015991232340113167636683200178993 1:28.129999 2:15.33 3:111.16 4:8.2399998 5:-78.970001 6:163.05 7:105.95 8:134.35001 9:281.60001 10:126.11 11:88.099998 12:272.35001 13:119.47 14:85.029999 15:22.370001 16:133.57001 17:33.720001 18:105.08 19:41.360001 #
-0.00015991232340113167636683200178993 1:-2.6400001 2:0.74000001 3:-0.18000001 4:-0.12 5:-9.1800003 6:-0.62 7:4.3200002 8:-9.0699997 9:6.3299999 10:15.27 11:3.3399999 12:9.1099997 13:16.549999 14:-1.25 15:4.25 16:0.88 17:3.6700001 18:2.28 19:5.4000001 #
0.00015991232340113167636683200178993 1:36.34 2:4.7199998 3:40.52 4:9.1400003 5:18.74 6:57.119999 7:27.1 8:23.68 9:65.760002 10:40.290001 11:24.719999 12:45.310001 13:37.599998 14:44.68 15:0.38 16:81.550003 17:1.12 18:48.279999 19:0.85000002 #
-0.00015991232340113167636683200178993 1:-75.18 2:-34.220001 3:-64.669998 4:-28.129999 5:-61.66 6:-190.96001 7:-107.54 8:-140.03 9:-173.60001 10:-106.99 11:-31.34 12:-155.83 13:-97.32 14:-43.560001 15:-25.129999 16:-21.629999 17:-22.700001 18:-63.369999 19:-28.25 #
-0.00015991232340113167636683200178993 1:7.0599999 2:-0.88 3:-1.13 4:-2.49 5:2.0599999 6:-5.8400002 7:-7.3899999 8:5.1900001 9:-3.5 10:-9.5900002 11:-4.71 12:0.23999999 13:-5.9000001 14:-2.3699999 15:0.30000001 16:-5.6599998 17:-1.83 18:-6.1399999 19:-1.79 #
0.00015991232340113167636683200178993 1:-6.5 2:-17.82 3:6.8899999 4:-17.129999 5:-28.6 6:-51.73 7:-28.41 8:-46.16 9:-49.880001 10:-37.41 11:0.54000002 12:-34.060001 13:-12.95 14:0.50999999 15:-15.83 16:-22.1 17:-23.879999 18:-4.4099998 19:-23.65 #
0.00015991232340113167636683200178993 1:71.400002 2:40.419998 3:47.189999 4:38.209999 5:49.619999 6:58.049999 7:41.93 8:47.830002 9:85.120003 10:40.43 11:40.509998 12:54.419998 13:42.41 14:51.099998 15:34.130001 16:63.799999 17:32.630001 18:44.720001 19:31.43 #
-0.00015991232340113167636683200178993 1:226.78999 2:118.16 3:185.62 4:112.11 5:342.39999 6:192.98 7:184.3 8:-164 9:199.82001 10:159.73 11:239.91 12:139.62 13:208.33 14:181.92 15:88.519997 16:220.39 17:72.419998 18:206.13 19:48.73 #
0.00015991232340113167636683200178993 1:-78.699997 2:39.650002 3:-91.769997 4:39.66 5:27.26 6:-57.189999 7:55.639999 8:-61.98 9:-69.25 10:51.259998 11:39.59 12:-77.739998 13:29.67 14:-71.860001 15:33.16 16:-49.950001 17:31.58 18:-72.260002 19:23.290001 #
-0.00015991232340113167636683200178993 1:-3.78 2:-1.28 3:38.639999 4:1.97 5:12.62 6:9.6800003 7:0.23999999 8:-5.0999999 9:18.18 10:-2.01 11:-7.1599998 12:14.94 13:-8.5699997 14:7.4299998 15:-6.7600002 16:10.18 17:-6.4699998 18:7.9699998 19:-3.8499999 #
0.00015991232340113167636683200178993 1:75.209999 2:45.639999 3:46.27 4:42.110001 5:56.02 6:57.709999 7:45.52 8:50.34 9:85.07 10:44.169998 11:46.290001 12:53.380001 13:45.080002 14:48.889999 15:37.959999 16:62.18 17:36.150002 18:43.59 19:34.07 #
0.00015991232340113167636683200178993 1:9.6000004 2:14.63 3:21.639999 4:19.26 5:22.09 6:34.91 7:33.16 8:24.360001 9:66.099998 10:36.970001 11:38.099998 12:38.18 13:41.209999 14:21.559999 15:20.02 16:30.030001 17:21.32 18:20.35 19:22.700001 #
0.00015991232340113167636683200178993 1:-39.189999 2:-35.880001 3:-43.84 4:-34.290001 5:-31.99 6:-56.57 7:-26.190001 8:-20.860001 9:-77.440002 10:-38.299999 11:-36.290001 12:-52.360001 13:-49.060001 14:-41.689999 15:-37.509998 16:-48.169998 17:-40.139999 18:-29.65 19:-40.799999 #
-0.00015991232340113167636683200178993 1:-11.14 2:-7.4699998 3:-4.4899998 4:-6.04 5:-7.8800001 6:4.4299998 7:-4.1300001 8:-4.4299998 9:1.98 10:-7.5 11:-4.8499999 12:2.45 13:-4.9200001 14:-2.9000001 15:-1.16 16:-2.53 17:-0.38 18:-3.1099999 19:-1.5599999 #
0.00015991232340113167636683200178993 1:38.509998 2:-8.3599997 3:36.57 4:-2.4000001 5:1.46 6:54.540001 7:11.13 8:23.59 9:63.939999 10:23.48 11:6.6500001 12:42.93 13:21.040001 14:41.759998 15:-10.1 16:78.699997 17:-9.4499998 18:45.099998 19:-10.1 #
-0.00015991232340113167636683200178993 1:-21.389999 2:-2.21 3:-21.280001 4:-0.17 5:-1.97 6:-13 7:2.49 8:-16.459999 9:-8.71 10:4.6799998 11:8.8100004 12:-8.7799997 13:5.3499999 14:-22.780001 15:1.4400001 16:-19.469999 17:0.63999999 18:-18.110001 19:2.1400001 #
-0.00015991232340113167636683200178993 1:-10.39 2:-50.57 3:-0.99000001 4:-47.48 5:-64.389999 6:-43.73 7:-137.27 8:4.1700001 9:-91.580002 10:-111.8 11:-0.94999999 12:-84.470001 13:-117.67 14:30.219999 15:-60.830002 16:20.01 17:-60.189999 18:-26.15 19:-69.389999 #
-0.00015991232340113167636683200178993 1:14.36 2:10 3:4.1300001 4:9.96 5:12.13 6:3.4100001 7:9.9200001 8:7.02 9:-2.51 10:6.7199998 11:5.5300002 12:-1.36 13:4.54 14:2.47 15:8.6000004 16:1.9 17:9.3400002 18:0.37 19:9.1400003 #
0.00015991232340113167636683200178993 1:75.260002 2:49.48 3:44.200001 4:45.669998 5:59.279999 6:56.02 7:46.009998 8:50.84 9:83.68 10:45.490002 11:48.02 12:51.389999 13:45.889999 14:46.02 15:41.619999 16:60.369999 17:39.16 18:42.41 19:36.259998 #
0.00015991232340113167636683200178993 1:50.970001 2:40.740002 3:24.6 4:38.860001 5:41.82 6:29.52 7:36.490002 8:30.459999 9:58.029999 10:44.240002 11:30.32 12:31.85 13:44.779999 14:28.52 15:39.169998 16:33.5 17:37.450001 18:19.99 19:36.900002 #
0.00015991232340113167636683200178993 1:-78.559998 2:-7.3299999 3:-80.790001 4:-19.5 5:-32.490002 6:-60.23 7:-14.1 8:-77.870003 9:-77.959999 10:-12.49 11:-20.950001 12:-84.830002 13:-22.73 14:-70.739998 15:-20.51 16:-42.82 17:-12.39 18:-75.889999 19:-17.790001 #
-0.00015991232340113167636683200178993 1:-9.6899996 2:-34.93 3:54.040001 4:-30.67 5:-14.44 6:-3.78 7:-5.5799999 8:20.120001 9:13.27 10:10.01 11:-2.8800001 12:14.61 13:7.6799998 14:13.54 15:-36.389999 16:40.360001 17:-34.220001 18:34.18 19:-31.82 #
-0.00015991232340113167636683200178993 1:35.439999 2:26.049999 3:-4.6599998 4:24.129999 5:53.450001 6:25.719999 7:109.42 8:-6.3899999 9:86 10:135.2 11:149.09 12:42.630001 13:188.66 14:-26.299999 15:17.190001 16:21.51 17:17.360001 18:-24.41 19:16.790001 #
-0.00015991232340113167636683200178993 1:-6.5900002 2:-11.17 3:-12.01 4:-11.08 5:-9 6:-11.96 7:-5.1700001 8:-4.1199999 9:-8.5900002 10:-3.75 11:3.3900001 12:-0.34999999 13:-1.9 14:-10.38 15:-7.2800002 16:-13.24 17:-8.75 18:-13.21 19:-7.5700002 #
-0.00015991232340113167636683200178993 1:3.76 2:-0.91000003 3:6.9699998 4:-0.18000001 5:0.41 6:10.96 7:4.6999998 8:3.26 9:6.9899998 10:14.93 11:-6.29 12:9.71 13:6.6199999 14:10.69 15:-5.21 16:5.8800001 17:-3.72 18:5.6199999 19:-4.98 #
-0.00015991232340113167636683200178993 1:-6.5900002 2:9.3900003 3:1.45 4:8.6400003 5:9.4099998 6:-4.1100001 7:18.700001 8:-0.64999998 9:-6.3699999 10:18.67 11:6.7399998 12:-2.48 13:17.42 14:3.02 15:11.49 16:-2.4200001 17:11.2 18:-2.04 19:13.01 #
0.00015991232340113167636683200178993 1:62.830002 2:45.849998 3:38.939999 4:41.82 5:49.119999 6:44.630001 7:37.360001 8:40.369999 9:69.029999 10:40.689999 11:39.540001 12:38.360001 13:41.740002 14:43.060001 15:41.529999 16:51.66 17:38.330002 18:36.84 19:35.580002 #
0.00015991232340113167636683200178993 1:68.620003 2:38.279999 3:46.279999 4:36.599998 5:47.049999 6:56.66 7:39.880001 8:45.720001 9:83.650002 10:38.299999 11:37.75 12:53.369999 13:40.77 14:50.509998 15:32.57 16:63.220001 17:30.99 18:43.98 19:29.98 #
-0.00015991232340113167636683200178993 1:17.440001 2:-5.3899999 3:13.63 4:-7.6599998 5:-8.0500002 6:67.610001 7:-31.27 8:9.3500004 9:62.639999 10:-1.6 11:-133.31 12:52.380001 13:19.620001 14:12.42 15:-2.8800001 16:9.8199997 17:0.25999999 18:13.93 19:12.84 #
-0.00015991232340113167636683200178993 1:-1.77 2:6.79 3:-6.6300001 4:4.8499999 5:15.91 6:-10.96 7:1.97 8:-2.3399999 9:-12.28 10:-0.62 11:-14.7 12:-10.15 13:0.75 14:-12.38 15:5.5900002 16:-8.29 17:5.96 18:-10.46 19:4.4200001 #
0.00015991232340113167636683200178993 1:-18.280001 2:-45.040001 3:-2.21 4:-43.220001 5:-51.259998 6:-5.5700002 7:-31.469999 8:-29.73 9:-3.8900001 10:-30.809999 11:-12.9 12:-0.059999999 13:-28.040001 14:-2.96 15:-45.849998 16:0.11 17:-47.080002 18:0.46000001 19:-46.360001 #
0.00015991232340113167636683200178993 1:14.28 2:1.48 3:10.43 4:-1.22 5:2.04 6:15.74 7:-4.4699998 8:7.48 9:9.7200003 10:-7.2600002 11:0.99000001 12:5.4099998 13:-6.71 14:8.3000002 15:-1.83 16:5.4899998 17:-2.47 18:5.4899998 19:-2.3800001 #
-0.00015991232340113167636683200178993 1:10.69 2:5.73 3:7.6300001 4:5.46 5:13.96 6:13.68 7:9.2399998 8:10.74 9:13.27 10:10.69 11:17.48 12:14.68 13:11.19 14:8.3699999 15:4.27 16:9.3100004 17:5.21 18:9.4099998 19:3.6700001 #
0.00015991232340113167636683200178993 1:-72.709999 2:4.2399998 3:-67.889999 4:-2.73 5:-11.14 6:-51.860001 7:-3.3900001 8:-67.489998 9:-114 10:-29.360001 11:0.94999999 12:-77.449997 13:-28.190001 14:-67.230003 15:-1.54 16:-46.060001 17:4.9000001 18:-63.68 19:0.93000001 #
-0.00015991232340113167636683200178993 1:-77.220001 2:-12.65 3:-114.68 4:-27.459999 5:-42.080002 6:-51.740002 7:-91.330002 8:-190.78 9:-28.049999 10:-21.33 11:-404.56 12:-50.02 13:0.17 14:-87.989998 15:2.6400001 16:-84.720001 17:12.11 18:-85.260002 19:30.6 #
0.00015991232340113167636683200178993 1:-15.32 2:-23.110001 3:-2.8699999 4:-26.18 5:-20.379999 6:-2.76 7:-10.09 8:-3.77 9:-1.36 10:-4.6599998 11:-33.419998 12:2.9300001 13:-4.6500001 14:-6.27 15:-21.870001 16:-5.3499999 17:-21.530001 18:-4.2600002 19:-18.360001 #
0.00015991232340113167636683200178993 1:37.959999 2:1.76 3:41.18 4:6.48 5:15.19 6:57.57 7:23.120001 8:24.93 9:66.089996 10:35.830002 11:20.129999 12:45.119999 13:33.150002 14:45.259998 15:-2.2 16:82.339996 17:-1.52 18:48.919998 19:-1.96 #
-0.00015991232340113167636683200178993 1:-3.8 2:-6.27 3:-6.71 4:-5.4200001 5:-10.98 6:-7.3800001 7:-6.4499998 8:-11.35 9:-6.5799999 10:-7.77 11:-0.82999998 12:-2.52 13:-13.01 14:-8.5500002 15:-5.5599999 16:-11.12 17:-6.8200002 18:-9.0900002 19:-8.1000004 #
-0.00015991232340113167636683200178993 1:-34.02 2:11.55 3:-46.09 4:16.690001 5:-22.98 6:-84.639999 7:-41.27 8:-40.290001 9:-118.08 10:-34.009998 11:38.400002 12:-71.620003 13:-22.610001 14:-23.870001 15:12.51 16:-40.240002 17:17.76 18:-88.769997 19:13.99 #
0.00015991232340113167636683200178993 1:39.23 2:-5.2199998 3:39.220001 4:0.30000001 5:6.0300002 6:56.27 7:14.58 8:24.940001 9:65.099998 10:26.75 11:10.45 12:43.799999 13:24.190001 14:43.810001 15:-7.8299999 16:80.919998 17:-7.1900001 18:47.330002 19:-7.8400002 #
0.00015991232340113167636683200178993 1:-42.150002 2:-43.970001 3:-43.060001 4:-40.830002 5:-40.889999 6:-55.540001 7:-30.16 8:-19.440001 9:-74.959999 10:-39.220001 11:-35.43 12:-49.279999 13:-51.68 14:-45.43 15:-44.389999 16:-50.07 17:-47.02 18:-34.349998 19:-47.34 #
-0.00015991232340113167636683200178993 1:-72.300003 2:-24.620001 3:-77.110001 4:-21.200001 5:-45.639999 6:-208.50999 7:-85.900002 8:-142.49001 9:-205.36 10:-87.900002 11:-25.629999 12:-156.07001 13:-74.419998 14:-54.240002 15:-18.52 16:-36.07 17:-17.65 18:-80.43 19:-22.42 #
0.00015991232340113167636683200178993 1:19.629999 2:11.27 3:12.94 4:9.2600002 5:9.3999996 6:12.25 7:-5.46 8:8.8900003 9:6.8699999 10:-12.05 11:1.87 12:4.6999998 13:-9.3900003 14:8.9899998 15:2.24 16:12.47 17:2.8599999 18:10.68 19:1.3200001 #
0.00015991232340113167636683200178993 1:-74.300003 2:-1.66 3:-76.330002 4:-14.8 5:-25.65 6:-57.790001 7:-9.4200001 8:-71.949997 9:-76.25 10:-7.25 11:-15.66 12:-84.620003 13:-26.040001 14:-66.059998 15:-16.57 16:-37.849998 17:-8.5200005 18:-71.07 19:-13.4 #
0.00015991232340113167636683200178993 1:-66.050003 2:9.5100002 3:-63.09 4:2.3900001 5:-5.5500002 6:-47.860001 7:0.20999999 8:-60.07 9:-111.65 10:-25.799999 11:3.3199999 12:-73.68 13:-25.91 14:-62.220001 15:3.5 16:-43.360001 17:9.9799995 18:-59.209999 19:6.1900001 #
0.00015991232340113167636683200178993 1:-40.98 2:-42.880001 3:-42.880001 4:-40.23 5:-39.889999 6:-55.849998 7:-30.42 8:-19.940001 9:-75.940002 10:-40.119999 11:-37.689999 12:-50.02 13:-52.060001 14:-44.02 15:-43.689999 16:-49.200001 17:-46.259998 18:-32.5 19:-46.639999 #
0.00015991232340113167636683200178993 1:-75.5 2:-3.6300001 3:-77.529999 4:-16.52 5:-27.879999 6:-58.68 7:-11.26 8:-73.32 9:-76.919998 10:-9.3100004 11:-17.82 12:-84.989998 13:-25.709999 14:-67.43 15:-17.9 16:-39.290001 17:-9.7600002 18:-72.43 19:-14.77 #
0.00015991232340113167636683200178993 1:-12.47 2:-3.1300001 3:-3.6500001 4:1.89 5:9.0200005 6:-52.509998 7:-25.76 8:14.94 9:-55.990002 10:-29.99 11:-6.5500002 12:-52.240002 13:-31.879999 14:-17.41 15:-4.8099999 16:-25.27 17:-9.7700005 18:-18.110001 19:-9.1800003 #
0.00015991232340113167636683200178993 1:-10.59 2:-13.05 3:7.1599998 4:-12.42 5:-16.559999 6:7.96 7:-5.1700001 8:-16.27 9:6.5 10:-7.02 11:-12.52 12:20.51 13:-7.0799999 14:1.1799999 15:-10.35 16:0.80000001 17:-8.9799995 18:2.5799999 19:-9.0100002 #
0.00015991232340113167636683200178993 1:-17.41 2:-16.67 3:-26.280001 4:-23.77 5:-62.009998 6:-30.209999 7:-84.559998 8:-127.52 9:-15.85 10:-67.959999 11:-58.380001 12:-5.0100002 13:-26.26 14:-0.38 15:-11.9 16:-2.77 17:-12.09 18:4.1599998 19:0.46000001 #
0.00015991232340113167636683200178993 1:-19.299999 2:-19.91 3:-25.790001 4:-26.790001 5:-60.639999 6:-37.41 7:-79.139999 8:-135.27 9:-22.940001 10:-65.099998 11:-66.040001 12:-13.05 13:-22.74 14:-1.67 15:-15.17 16:-6.6500001 17:-15.62 18:1.8099999 19:-5.8200002 #
0.00015991232340113167636683200178993 1:-17.82 2:-21.34 3:-22.51 4:-27.940001 5:-59.27 6:-38.77 7:-75.360001 8:-132.75999 9:-24.219999 10:-63.880001 11:-69.220001 12:-14.85 13:-20.799999 14:-0.20999999 15:-16.610001 16:-6.3299999 17:-17.08 18:2.8800001 19:-8.6199999 #
0.00015991232340113167636683200178993 1:-23.719999 2:-2.9000001 3:-12.2 4:-2.3199999 5:10.56 6:-54.66 7:-18.16 8:-6.79 9:-60.18 10:-24.049999 11:-3.5 12:-49.23 13:-26.51 14:-17.370001 15:-6.0799999 16:-25.799999 17:-11.65 18:-17.059999 19:-12.67 #
0.00015991232340113167636683200178993 1:-65.059998 2:-18.469999 3:-86.760002 4:-15.69 5:-36.939999 6:-61.610001 7:-8.8800001 8:-53.75 9:-79.5 10:-26.969999 11:-31.48 12:-84.620003 13:-42.25 14:-65.989998 15:-25.18 16:-54.41 17:-24.879999 18:-62.139999 19:-30.459999 #
0.00015991232340113167636683200178993 1:-18.84 2:-12.77 3:-37.470001 4:-14.84 5:-23.049999 6:-27.309999 7:-17.5 8:-25.049999 9:-99.959999 10:-11.59 11:-21.02 12:-44.700001 13:-49.860001 14:-33.299999 15:-14.05 16:-63.799999 17:-8.5200005 18:-39.619999 19:-8 #
-0.00015991232340113167636683200178993 1:17.25 2:59.349998 3:98.919998 4:54.66 5:-64.730003 6:165.66 7:138.63 8:140.85001 9:269.01999 10:163.08 11:165.95 12:258.14999 13:171.35001 14:76.220001 15:62.349998 16:137.14 17:71.360001 18:100.13 19:79.400002 #
0.00015991232340113167636683200178993 1:-11.7 2:-14.32 3:-2.6400001 4:-9.4200001 5:-2.8599999 6:-50.529999 7:-33.990002 8:9.4799995 9:-53.650002 10:-38.099998 11:-18.24 12:-47.279999 13:-39.27 14:-15.68 15:-16.58 16:-23.120001 17:-20.98 18:-15.78 19:-19.629999 #
0.00015991232340113167636683200178993 1:-13.01 2:-18.709999 3:-3.45 4:-14.81 5:-6.8800001 6:-50.049999 7:-35.93 8:3.48 9:-52.849998 10:-40.48 11:-22.379999 12:-43.950001 13:-40.889999 14:-14.52 15:-21.700001 16:-21.83 17:-25.940001 18:-14.26 19:-24.66 #
0.00015991232340113167636683200178993 1:-43.610001 2:-43.139999 3:-43.759998 4:-39.59 5:-39.560001 6:-55.509998 7:-28.09 8:-19.129999 9:-74.059998 10:-36.919998 11:-31.08 12:-49.09 13:-49.860001 14:-46.970001 15:-43.220001 16:-51.150002 17:-45.970001 18:-36.380001 19:-46.27 #
-0.00015991232340113167636683200178993 1:-12.82 2:-5.0100002 3:-25.219999 4:-4.9899998 5:5.73 6:-17.870001 7:-9.6599998 8:-36.549999 9:-23.299999 10:-11.97 11:-0.54000002 12:-22.809999 13:-11.91 14:-13.92 15:-8.0900002 16:-29.6 17:-8.0799999 18:-29.41 19:-8.0299997 #
-0.00015991232340113167636683200178993 1:-10.07 2:-34.860001 3:-14.52 4:-33.049999 5:-62.709999 6:-80.620003 7:-76.099998 8:-21 9:-157.03999 10:-73.410004 11:-4.6199999 12:-92.25 13:-55.529999 14:-5.6399999 15:-47.709999 16:-8.8999996 17:-46.630001 18:-55.849998 19:-52.759998 #
-0.00015991232340113167636683200178993 1:17.959999 2:54.77 3:91.519997 4:49.73 5:-68.169998 6:163.81 7:135.66 8:139.45 9:265.91 10:158.47 11:160.61 12:259.47 13:167.33 14:73.470001 15:58.119999 16:129.37 17:67.099998 18:92.269997 19:74.910004 #
0.00015991232340113167636683200178993 1:-12.88 2:3.8900001 3:-4.2199998 4:8.6599998 5:16.74 6:-53.43 7:-20.1 8:17.65 9:-56.880001 10:-24.809999 11:0.73000002 12:-54.119999 13:-26.870001 14:-17.860001 15:2.3199999 16:-25.959999 17:-2.99 18:-18.870001 19:-2.97 #
-0.00015991232340113167636683200178993 1:-27.040001 2:61.330002 3:-16.790001 4:70.269997 5:58.130001 6:-17.66 7:67.379997 8:-21.16 9:-13.01 10:60.290001 11:75.419998 12:-6.0799999 13:103.64 14:-20.17 15:70.809998 16:-24.950001 17:74.040001 18:-24.110001 19:76.790001 #
-0.00015991232340113167636683200178993 1:-21.1 2:-7.8499999 3:-16.190001 4:-5.4899998 5:-11.79 6:-10.41 7:-1.3099999 8:-20.16 9:-11.9 10:2.6700001 11:-3 12:-11.07 13:3.99 14:-12.94 15:-0.37 16:-14.35 17:0.69999999 18:-15.29 19:0.82999998 #
0.00015991232340113167636683200178993 1:-11.96 2:-9.3900003 3:-3.03 4:-4.3200002 5:2.28 6:-51.439999 7:-30.530001 8:12.25 9:-54.790001 10:-34.59 11:-13.11 12:-49.790001 13:-36.16 14:-16.6 15:-11.32 16:-24.23 17:-15.96 18:-16.99 19:-14.9 #
0.00015991232340113167636683200178993 1:-14.04 2:-15.22 3:-23.17 4:-22.26 5:-62.09 6:-24.940001 7:-86.089996 8:-118.46 9:-10.78 10:-69.75 11:-55.34 12:0.28999999 13:-28.16 14:2.3900001 15:-10.45 16:1.36 17:-10.44 18:7.5300002 19:3.3199999 #
0.00015991232340113167636683200178993 1:79.540001 2:59.709999 3:47.48 4:57.009998 5:61.549999 6:63.459999 7:52.43 8:56.799999 9:92.870003 10:58.5 11:54.669998 12:63.869999 13:60.110001 14:49.09 15:54.98 16:62.630001 17:53.869999 18:47.009998 19:53.16 #
-0.00015991232340113167636683200178993 1:-55 2:-12.52 3:-72.440002 4:-11.89 5:-34.98 6:-209.10001 7:-70.480003 8:-134.31 9:-225.72 10:-76.57 11:-9.2600002 12:-139.3 13:-65.849998 14:-53.189999 15:-11.09 16:-39.580002 17:-11.52 18:-84.75 19:-15.07 #
0.00015991232340113167636683200178993 1:-17.139999 2:-15.58 3:-6.6999998 4:-13.21 5:-2.8099999 6:-51.720001 7:-31.4 8:-2.52 9:-54.91 10:-36.380001 11:-17.950001 12:-44.389999 13:-36.700001 14:-15.14 15:-19.030001 16:-22.73 17:-23.6 18:-14.8 19:-23.129999 #
-0.00015991232340113167636683200178993 1:45.389999 2:-35.650002 3:86.68 4:-35.09 5:-13.68 6:45.759998 7:-23.049999 8:30.190001 9:55.91 10:-29.24 11:-28.34 12:54.650002 13:-25.209999 14:42.41 15:-36.360001 16:74.110001 17:-35.130001 18:72.349998 19:-35.560001 #
-0.00015991232340113167636683200178993 1:-3.52 2:11.1 3:57.509998 4:4.96 5:-45.639999 6:57.75 7:80.900002 8:36.23 9:160.13 10:94.300003 11:25.790001 12:156.78999 13:79.660004 14:56.400002 15:17.24 16:106.2 17:22.65 18:83.57 19:23.98 #
0.00015991232340113167636683200178993 1:83.599998 2:53.029999 3:51.32 4:48.59 5:56 6:63.549999 7:44.43 8:58.779999 9:88.779999 10:49.110001 11:46.369999 12:60.619999 13:51.720001 14:52.240002 15:48.52 16:63.040001 17:44.889999 18:47.41 19:43.02 #
0.00015991232340113167636683200178993 1:38.990002 2:-1.7 3:40.779999 4:3.3900001 5:10.79 6:57.299999 7:18.75 8:25.389999 9:65.849998 10:31.08 11:15.15 12:44.580002 13:28.440001 14:44.990002 15:-5.0700002 16:82.150002 17:-4.4200001 18:48.619999 19:-5 #
0.00015991232340113167636683200178993 1:76.510002 2:56.470001 3:45.380001 4:53.709999 5:60.700001 6:59.93 7:48.810001 8:54.32 9:88.919998 10:52.330002 11:50.889999 12:57.880001 13:52.779999 14:47.299999 15:50.73 16:62.099998 17:48.98 18:45.779999 19:46.990002 #
-0.00015991232340113167636683200178993 1:5.4200001 2:5.3499999 3:-2.3900001 4:4.9099998 5:3.29 6:-8.2399998 7:-2.8299999 8:-9.96 9:-11.99 10:-1.1799999 11:-8.79 12:-8.9200001 13:-2.1500001 14:-2.54 15:4.1700001 16:-2.28 17:2.8099999 18:-2.1099999 19:1.8200001 #
0.00015991232340113167636683200178993 1:-92.760002 2:-5.77 3:-104.89 4:-2.8199999 5:-20.77 6:-75.220001 7:15.29 8:-77.529999 9:-91.699997 10:4.8000002 11:-2.21 12:-99.650002 13:-10.71 14:-82.019997 15:-13.28 16:-64.040001 17:-9.5799999 18:-77.029999 19:-15.64 #
-0.00015991232340113167636683200178993 1:-142.78999 2:-47.619999 3:-103.63 4:-46.110001 5:2.5999999 6:-213.14 7:-73.209999 8:-7.54 9:-366.04001 10:-95.629997 11:9.4499998 12:-267.67999 13:-145 14:-129.17 15:-57.740002 16:-184.78999 17:-60.779999 18:-142.77 19:-71.589996 #
-0.00015991232340113167636683200178993 1:19.91 2:20.040001 3:13 4:17.700001 5:19.120001 6:9.9399996 7:15.37 8:7.6100001 9:9.25 10:13.83 11:17.77 12:10.06 13:14.71 14:14.06 15:16.57 16:12.39 17:16.780001 18:11.27 19:15.81 #
0.00015991232340113167636683200178993 1:-79.800003 2:-7.4299998 3:-82.419998 4:-17.83 5:-34.25 6:-57.860001 7:-11.18 8:-84.639999 9:-77.129997 10:-12.35 11:-18.74 12:-83.029999 13:-12.86 14:-72.199997 15:-20.879999 16:-44.540001 17:-13.46 18:-78.160004 19:-20.09 #
0.00015991232340113167636683200178993 1:-80.279999 2:-8.4700003 3:-82.900002 4:-19.799999 5:-34.639999 6:-60.23 7:-14.07 8:-82.410004 9:-78 10:-12.92 11:-21.02 12:-83.75 13:-17.139999 14:-72.709999 15:-21.26 16:-45.040001 17:-13.4 18:-78.230003 19:-19.309999 #
0.00015991232340113167636683200178993 1:-80.089996 2:-7.6399999 3:-82.860001 4:-18.27 5:-34.400002 6:-58.709999 7:-12.04 8:-84.589996 9:-77.339996 10:-12.12 11:-19.290001 12:-82.940002 13:-12.93 14:-72.599998 15:-20.77 16:-45.009998 17:-13.24 18:-78.480003 19:-19.66 #
0.00015991232340113167636683200178993 1:79.959999 2:49.48 3:50.110001 4:44.720001 5:53.099998 6:59.849998 7:39.450001 8:55.709999 9:83.470001 10:42.439999 11:41.400002 12:54.040001 13:44.189999 14:51.630001 15:44.93 16:62.080002 17:40.529999 18:46.529999 19:37.689999 #
0.00015991232340113167636683200178993 1:-78.639999 2:-1.99 3:-71.980003 4:-8.8500004 5:-17.66 6:-55.27 7:-7.5900002 8:-74.150002 9:-115.5 10:-33.529999 11:-2.1199999 12:-80.360001 13:-31.18 14:-71.389999 15:-7.6500001 16:-48.279999 17:-1.3 18:-67.669998 19:-5.52 #
0.00015991232340113167636683200178993 1:-83.440002 2:-8.4799995 3:-75.120003 4:-15.32 5:-24.42 6:-57.82 7:-11.93 8:-79.589996 9:-116.06 10:-37.970001 11:-5.6100001 12:-82.269997 13:-34.599998 14:-74.339996 15:-14.14 16:-49.759998 17:-7.9200001 18:-70.839996 19:-12.47 #
-9.866789571307796368263010045041e-05 1:-82.300003 2:-18.309999 3:-127.47 4:-34.880001 5:-55.59 6:-57.400002 7:-99.360001 8:-205.81 9:-36.490002 10:-36.220001 11:-368.84 12:-63.77 13:-13.36 14:-100.52 15:-1.9 16:-90.989998 17:6.98 18:-91.360001 19:23.93 #
0.00015991232340113167636683200178993 1:-19.719999 2:-11.9 3:-8.8000002 4:-10.28 5:1.29 6:-52.970001 7:-27.389999 8:-4.8899999 9:-56.709999 10:-32.57 11:-13.45 12:-45.82 13:-33.290001 14:-15.96 15:-15.39 16:-23.82 17:-20.26 18:-15.65 19:-20.33 #
0.00015991232340113167636683200178993 1:-22.07 2:-7.4899998 3:-10.75 4:-6.4899998 5:5.96 6:-54.07 7:-22.809999 8:-6.4099998 9:-58.59 10:-28.27 11:-8.3599997 12:-47.59 13:-29.709999 14:-16.799999 15:-10.88 16:-24.959999 17:-16.1 18:-16.51 19:-16.690001 #
0.00015991232340113167636683200178993 1:15.68 2:20.879999 3:16.200001 4:21.18 5:23.120001 6:33.540001 7:35.259998 8:31.25 9:32.970001 10:45.700001 11:9.9700003 12:28.6 13:44.560001 14:13.86 15:25.309999 16:19.26 17:28.59 18:20.190001 19:31.450001 #
-0.00015991232340113167636683200178993 1:20.08 2:45.990002 3:78.860001 4:39.810001 5:-74.620003 6:160.47 7:128.75999 8:135.98 9:259.92001 10:148.73 11:149.91 12:260.59 13:158.52 14:68.459999 15:50.52 16:114.54 17:59.639999 18:77.5 19:66.970001 #
0.00015991232340113167636683200178993 1:-77.059998 2:-5.6799998 3:-79.139999 4:-18.24 5:-30.34 6:-59.57 7:-12.95 8:-75.400002 9:-77.529999 10:-11.19 11:-19.709999 12:-85.07 13:-24.65 14:-69.110001 15:-19.34 16:-41.07 17:-11.18 18:-74.160004 19:-16.360001 #
-0.00015991232340113167636683200178993 1:-51.049999 2:-45.669998 3:-103.42 4:-38.540001 5:-72.050003 6:-140.27 7:-105.69 8:-125.2 9:-115.92 10:-178.87 11:-90.690002 12:-111.87 13:-290.63 14:-47.07 15:-38.09 16:-24.59 17:-39.799999 18:-57.119999 19:-38.09 #
-0.00015991232340113167636683200178993 1:-4.9699998 2:-43.619999 3:-86.190002 4:-36.77 5:-62.52 6:-104.26 7:-50.84 8:-82.959999 9:-230.49001 10:-50.57 11:8.8100004 12:-133.10001 13:-29.32 14:0.15000001 15:-47.060001 16:-46.860001 17:-47.740002 18:-61.279999 19:-55.5 #
0.00015991232340113167636683200178993 1:84.160004 2:55.02 3:51.18 4:50.869999 5:57.59 6:64.580002 7:47.16 8:59.330002 9:90.800003 10:52.669998 11:49.169998 12:63.040001 13:55.529999 14:52.009998 15:50.529999 16:63.07 17:47.470001 18:47.459999 19:46.119999 #
0.00015991232340113167636683200178993 1:-21.959999 2:-10.53 3:-41.09 4:-12.08 5:-22.51 6:-30.549999 7:-14.16 8:-28.73 9:-101.05 10:-7.6700001 11:-18.08 12:-45.450001 13:-46.509998 14:-37.630001 15:-11.16 16:-67.209999 17:-5.7600002 18:-43.939999 19:-5.3400002 #
-0.00015991232340113167636683200178993 1:-1.65 2:0.19 3:-0.52999997 4:1.17 5:3.5999999 6:5.6399999 7:7.02 8:2.8499999 9:3.8800001 10:5.4699998 11:10.77 12:8.4300003 13:4.4099998 14:2.6199999 15:1.7 16:1.72 17:3.6700001 18:1.6 19:2.54 #
0.00015991232340113167636683200178993 1:-9.1999998 2:-17.200001 3:3.8399999 4:-16.219999 5:-27.67 6:-54.540001 7:-28.15 8:-47.720001 9:-53 10:-38.130001 11:-0.41999999 12:-36.57 13:-13.47 14:-1.5 15:-15.1 16:-25 17:-23.23 18:-6.73 19:-23.18 #
-0.00015991232340113167636683200178993 1:-140.73 2:-51.59 3:-105.69 4:-50.259998 5:-1.67 6:-214.3 7:-76.300003 8:-4.5300002 9:-368.84 10:-98.690002 11:5.0300002 12:-261.42999 13:-147.83 14:-131.02 15:-62.610001 16:-189.19 17:-65.849998 18:-147.92 19:-76.910004 #
0.00015991232340113167636683200178993 1:-13.14 2:-8.79 3:-1.36 4:-12.1 5:-18.799999 6:-1.75 7:-5.9200001 8:-18.610001 9:-3.27 10:-4.0100002 11:6.3699999 12:21.959999 13:-3.1099999 14:4.1199999 15:-5.3000002 16:3.2 17:-4.04 18:3.0599999 19:-2.6199999 #
0.00015991232340113167636683200178993 1:83.980003 2:56.900002 3:50.68 4:53.080002 5:59.07 6:65.099998 7:49.599998 8:59.330002 9:92.290001 10:55.779999 11:51.720001 12:64.699997 13:58.709999 14:51.540001 15:52.41 16:62.959999 17:49.959999 18:47.389999 19:49.049999 #
0.00015991232340113167636683200178993 1:0.82999998 2:-18.700001 3:14.12 4:-18.4 5:-29.41 6:-42.740002 7:-26.66 8:-33.900002 9:-39.169998 10:-34.82 11:3.6600001 12:-24.91 13:-10.78 14:6.25 15:-16.75 16:-13.78 17:-24.610001 18:2.8800001 19:-24 #
0.00015991232340113167636683200178993 1:4.8400002 2:-18.879999 3:17.85 4:-18.620001 5:-29.07 6:-37.16 7:-24.530001 8:-24.139999 9:-32.299999 10:-32.990002 11:5.8299999 12:-18.809999 13:-9.1199999 14:9.6599998 15:-16.84 16:-8.6899996 17:-24.59 18:7.5500002 19:-23.77 #
0.00015991232340113167636683200178993 1:-26.93 2:-3.55 3:-45.66 4:-4.4499998 5:-17.26 6:-34.610001 7:-4.29 8:-33.939999 9:-101.16 10:3.22 11:-9.0100002 12:-45.310001 13:-36.549999 14:-43.73 15:-3.21 16:-71.43 17:1.62 18:-49.970001 19:1.5 #
-0.00015991232340113167636683200178993 1:-30.549999 2:-7.5500002 3:-56.400002 4:-7.8499999 5:9.5100002 6:-20.219999 7:-0.12 8:-67 9:-17.040001 10:-20.549999 11:-1.38 12:-18.780001 13:-15.6 14:-34.939999 15:-9.0100002 16:-51.16 17:-8.4399996 18:-46.509998 19:-8.5799999 #
0.00015991232340113167636683200178993 1:-13.91 2:-8.2700005 3:-10.21 4:-7.9699998 5:-24.92 6:-9.0900002 7:-8.6000004 8:-12.71 9:-10.37 10:-5.8000002 11:-18.59 12:1.97 13:-9.3800001 14:-10.8 15:-5.3000002 16:-13.39 17:-3.96 18:-13.34 19:-3.6199999 #
0.00015991232340113167636683200178993 1:-45.349998 2:-40.450001 3:-44.900002 4:-36.580002 5:-35.98 6:-55.799999 7:-24.309999 8:-19.01 9:-73.290001 10:-33.290001 11:-24.91 12:-49.459999 13:-46.709999 14:-48.52 15:-40.27 16:-52.32 17:-43.169998 18:-38.419998 19:-43.48 #
-0.00015991232340113167636683200178993 1:-154.25 2:-70.230003 3:-133.52 4:-65.830002 5:-24.379999 6:-288.48001 7:-116.79 8:-58.779999 9:-408.34 10:-121.01 11:32.290001 12:-255.99001 13:-170.3 14:-165.47 15:-68.059998 16:-293.73001 17:-71.489998 18:-191.28999 19:-70.830002 #
0.00015991232340113167636683200178993 1:13.96 2:-10.49 3:8.1599998 4:-16.15 5:-54.009998 6:0.79000002 7:-80.550003 8:-56.599998 9:11.31 10:-75.610001 11:-55.529999 12:20.34 13:-37.110001 14:24.469999 15:-6.1100001 16:29.07 17:-4.98 18:31.74 19:10.7 #
-0.00015991232340113167636683200178993 1:-5.4000001 2:-5.6199999 3:-5.0599999 4:-5.0100002 5:-8 6:-0.079999998 7:-10.47 8:-6.2800002 9:-3.73 10:-11.83 11:-9.8199997 12:-2.8599999 13:-10.31 14:-5.6199999 15:-4.3299999 16:-4.1700001 17:-5.8699999 18:-4.4499998 19:-7.0500002 #
-0.00015991232340113167636683200178993 1:-9 2:-35.630001 3:-89.459999 4:-26.889999 5:-53.189999 6:-59.189999 7:-27.610001 8:-96.620003 9:-143.28999 10:-41.5 11:26.68 12:-87.720001 13:-30.809999 14:-12.55 15:-40.91 16:-38.75 17:-41.860001 18:-58.700001 19:-54.919998 #
0.00015991232340113167636683200178993 1:-11.44 2:-15.6 3:-0.47999999 4:-13.98 5:-24.82 6:-56.279999 7:-25.700001 8:-41.43 9:-54.290001 10:-38.209999 11:-1.21 12:-37.09 13:-13.19 14:-3.47 15:-13.12 16:-28.16 17:-21.360001 18:-8.71 19:-21.76 #
-0.00015991232340113167636683200178993 1:-52.279999 2:0.88 3:-48.400002 4:1.51 5:-5.3600001 6:-79.379997 7:-8.2700005 8:-35.889999 9:-75.629997 10:-5.9499998 11:-19.99 12:-57.869999 13:22.17 14:-60.130001 15:-0.63 16:-47.240002 17:1.36 18:-42.240002 19:0.5 #
0.00015991232340113167636683200178993 1:-3.0599999 2:-18.32 3:10.38 4:-17.870001 5:-29.200001 6:-47.709999 7:-27.93 8:-41.439999 9:-45.169998 10:-36.290001 11:1.9 12:-30.1 13:-12.05 14:3.1400001 15:-16.389999 16:-18.32 17:-24.360001 18:-1.17 19:-23.940001 #
0.00015991232340113167636683200178993 1:5.1300001 2:14.82 3:24.309999 4:17.74 5:30.540001 6:21.209999 7:28.73 8:22.77 9:58.25 10:25.92 11:53.5 12:30.35 13:40.93 14:13.56 15:19.83 16:-6.6599998 17:20.35 18:9.8599997 19:21.549999 #
0.00015991232340113167636683200178993 1:-83.209999 2:16.74 3:-86.349998 4:10.77 5:5.0900002 6:-50.419998 7:22.07 8:-65.970001 9:-72.18 10:27.52 11:10.24 12:-86.839996 13:6.9099998 14:-71.07 15:10.8 16:-42.27 17:15.05 18:-72.889999 19:8.4099998 #
-0.00015991232340113167636683200178993 1:-6.7800002 2:-21.73 3:-0.28 4:-20.34 5:-15.51 6:-16.059999 7:-32.470001 8:-8.0799999 9:-40.639999 10:-40.049999 11:-48.77 12:-28.969999 13:-49.290001 14:2.98 15:-22.799999 16:-16.92 17:-23.540001 18:-6.4499998 19:-23.02 #
-0.00015991232340113167636683200178993 1:-15.83 2:-33.73 3:-102.95 4:-23.299999 5:-53.240002 6:-28.889999 7:-14.36 8:-108.66 9:-66.580002 10:-41.610001 11:32.799999 12:-56.57 13:-42.610001 14:-25.360001 15:-36.740002 16:-36.470001 17:-37.990002 18:-60.73 19:-53.02 #
-0.00015991232340113167636683200178993 1:-2.04 2:-4.9299998 3:0.91000003 4:-3.6600001 5:3.6400001 6:10.02 7:3.1099999 8:-1.91 9:8.4099998 10:6.8299999 11:8.7600002 12:7.5900002 13:7.3600001 14:6.25 15:-0.11 16:1.6900001 17:0.02 18:1.55 19:0.67000002 #
-0.00015991232340113167636683200178993 1:-10.74 2:52.799999 3:-32.549999 4:58.099998 5:42.59 6:-21.209999 7:44.490002 8:-31.51 9:-26.77 10:23.049999 11:64 12:-29.209999 13:58.32 14:-19.629999 15:57.049999 16:-31.57 17:55.919998 18:-31.09 19:54.330002 #
0.00015991232340113167636683200178993 1:-115.21 2:-8.7200003 3:-111.59 4:-23.34 5:-31.700001 6:-78.169998 7:-13.29 8:-98.330002 9:-97.309998 10:-5.6199999 11:-23.59 12:-108.63 13:-26.73 14:-94.480003 15:-22.969999 16:-66.440002 17:-13.83 18:-98 19:-17.870001 #
0.00015991232340113167636683200178993 1:2.47 2:-12.09 3:-4.5500002 4:-18.440001 5:-59.18 6:-7.77 7:-85.400002 8:-81.32 9:4.6100001 10:-75.040001 11:-53.139999 12:14.99 13:-34.41 14:15.85 15:-7.48 16:18.620001 17:-6.77 18:22.6 19:9.0699997 #
-0.00015991232340113167636683200178993 1:-19.290001 2:-34.5 3:-110.18 4:-23.27 5:-55.68 6:-16.030001 7:-10.46 8:-114.36 9:-29.530001 10:-43.759998 11:34.5 12:-43.66 13:-50.889999 14:-30.790001 15:-35.389999 16:-35.029999 17:-36.759998 18:-61.529999 19:-51.939999 #
0.00015991232340113167636683200178993 1:-86.910004 2:-14.48 3:-77.290001 4:-21.360001 5:-30.620001 6:-59.419998 7:-15.89 8:-83.639999 9:-115.71 10:-42.25 11:-9.1199999 12:-83.239998 13:-38.07 14:-75.949997 15:-20.23 16:-50.43 17:-14.16 18:-73.080002 19:-19.09 #
-0.00015991232340113167636683200178993 1:-2.5599999 2:-8.1400003 3:-1.85 4:-9.4700003 5:2.54 6:-4.1700001 7:-2.23 8:2.1900001 9:-4.9699998 10:3.28 11:5.1500001 12:-0.76999998 13:6.5500002 14:-3.97 15:-9.6700001 16:-1.1799999 17:-10.74 18:-0.88 19:-9.5 #
-0.00015991232340113167636683200178993 1:-38.650002 2:6.5100002 3:-32.860001 4:5.9699998 5:6.3800001 6:-48.849998 7:-2.3800001 8:-28.879999 9:-61.099998 10:-0.91000003 11:-10.88 12:-46.110001 13:26.27 14:-40.029999 15:2.73 16:-34.060001 17:3.96 18:-29.08 19:2.8099999 #
-0.00015991232340113167636683200178993 1:-48.009998 2:-27.59 3:-51.32 4:-25.91 5:-30.68 6:-56.59 7:-35.310001 8:-63.990002 9:-61.150002 10:-46.619999 11:-42.490002 12:-53.91 13:-36.639999 14:-48.389999 15:-36.259998 16:-51.619999 17:-31.25 18:-50.610001 19:-32.650002 #
-0.00015991232340113167636683200178993 1:-43.529999 2:4.8600001 3:-38.290001 4:4.79 5:3 6:-58.619999 7:-3.97 8:-31.52 9:-66.080002 10:-2.3 11:-13.52 12:-50.130001 13:25.16 14:-46.900002 15:1.84 16:-38.669998 17:3.3599999 18:-33.810001 19:2.3599999 #
-0.00015991232340113167636683200178993 1:-27.059999 2:60.59 3:-20.92 4:69.300003 5:56.950001 6:-20.98 7:64.129997 8:-25.540001 9:-18.35 10:54.130001 11:73.589996 12:-13.99 13:94.879997 14:-20.370001 15:69.480003 16:-27.43 17:72.120003 18:-26.540001 19:74.5 #
-0.00015991232340113167636683200178993 1:-9.5600004 2:3.1099999 3:-11.03 4:1.5599999 5:-13.01 6:-13.37 7:-18.110001 8:-25.26 9:-13.19 10:-8.4499998 11:-11.08 12:-7.5300002 13:-12.94 14:-10.63 15:2.8499999 16:-8.6199999 17:2.6500001 18:-9.1899996 19:1.99 #
-0.00015991232340113167636683200178993 1:-50.290001 2:-29.67 3:-54.369999 4:-28.07 5:-35.150002 6:-59.740002 7:-39.830002 8:-65.480003 9:-64.18 10:-47.389999 11:-46.5 12:-55.689999 13:-36.32 14:-51.209999 15:-35.240002 16:-55.16 17:-32.360001 18:-54.330002 19:-33.970001 #
-0.00015991232340113167636683200178993 1:-58.279999 2:-6.75 3:-54.16 4:-6.0599999 5:-20.139999 6:-98.589996 7:-16.17 8:-40.16 9:-82.290001 10:-12.29 11:-33.77 12:-61.43 13:17.9 14:-69.040001 15:-6.4699998 16:-52.169998 17:-4.0999999 18:-46.549999 19:-5.0300002 #
-0.00015991232340113167636683200178993 1:6.04 2:107.48 3:-2.8599999 4:109.1 5:104.36 6:7.1100001 7:101.56 8:13.02 9:-2.6900001 10:88.379997 11:114.08 12:6.8000002 13:105.12 14:-4.9299998 15:107.68 16:-12.3 17:108.95 18:-14.22 19:112.46 #
0.00015991232340113167636683200178993 1:-90.830002 2:-21.790001 3:-80.779999 4:-29.73 5:-38.119999 6:-59.98 7:-19.48 8:-88.959999 9:-110.04 10:-48.950001 11:-15.43 12:-82.889999 13:-44.299999 14:-73.230003 15:-29.030001 16:-48.799999 17:-23.360001 18:-75.360001 19:-29.780001 #
0.00015991232340113167636683200178993 1:45.959999 2:13.16 3:35.48 4:12.63 5:23.01 6:49.52 7:14.44 8:51.060001 9:76.480003 10:15.02 11:13.32 12:45.27 13:17.459999 14:31.73 15:12.33 16:43.66 17:11.89 18:31.93 19:11.39 #
0.00015991232340113167636683200178993 1:17.18 2:6.8000002 3:32.720001 4:10.49 5:18.15 6:31.75 7:20.6 8:34.849998 9:73.470001 10:22.49 11:44.849998 12:43.490002 13:36.169998 14:21.360001 15:13.73 16:0.33000001 17:13.99 18:17.99 19:15.39 #
-0.00015991232340113167636683200178993 1:4.1799998 2:106.9 3:-4.4099998 4:108.37 5:102.31 6:6.4899998 7:100.93 8:11.45 9:-4 10:86.559998 11:114.47 12:5.7600002 13:103.16 14:-6.6199999 15:107.25 16:-13.61 17:108.33 18:-14.97 19:111.68 #
-0.00015991232340113167636683200178993 1:0.62 2:103.37 3:-8.4200001 4:104.32 5:95.529999 6:3.71 7:96.790001 8:7.7600002 9:-8.2600002 10:79.849998 11:111.05 12:1.74 13:95.940002 14:-10.52 15:104.05 16:-16.75 17:104.68 18:-16.690001 19:107.49 #
0.00015991232340113167636683200178993 1:7.0100002 2:13.66 3:26.209999 4:16.85 5:28.99 6:23.67 7:28.16 8:25.629999 9:61.59 10:26.110001 11:53.049999 12:33.529999 13:40.759998 14:15.2 15:19.41 16:-5.7600002 17:20.059999 18:11.35 19:21.450001 #
-0.00015991232340113167636683200178993 1:-14.01 2:53.860001 3:-32.02 4:59.84 5:44.959999 6:-22.469999 7:47.099998 8:-32.080002 9:-27.370001 10:26.450001 11:65.400002 12:-29.549999 13:61.349998 14:-19.219999 15:58.700001 16:-31.59 17:58.040001 18:-30.969999 19:57.060001 #
-0.00015991232340113167636683200178993 1:-23.190001 2:-12.22 3:-6.3800001 4:-8.5100002 5:-14.92 6:10.23 7:5.9499998 8:-6.6199999 9:9.1000004 10:5.1700001 11:10.07 12:8.9799995 13:6.7600002 14:-3.5799999 15:-3.25 16:-0.23999999 17:-0.94999999 18:-0.14 19:-0.25 #
-0.00015991232340113167636683200178993 1:20.48 2:13.62 3:108.97 4:5.9699998 5:-71.459999 6:145.03 7:107.62 8:122.05 9:270.32001 10:116.08 11:77.68 12:262.48001 13:109.19 14:74.919998 15:20.700001 16:124.41 17:31.57 18:98.120003 19:37.939999 #
0.00015991232340113167636683200178993 1:5.77 2:16.059999 3:5.0799999 4:11.26 5:18.68 6:-0.66000003 7:8.2600002 8:-11.95 9:-1.87 10:16.75 11:-4.5999999 12:23.74 13:12.57 14:2.6400001 15:14.8 16:1.55 17:14.6 18:2.4200001 19:14.48 #
0.00015991232340113167636683200178993 1:18.459999 2:5.0700002 3:32.419998 4:8.6700001 5:15.25 6:31.639999 7:18.129999 8:34.5 9:74.32 10:20.879999 11:42.119999 12:44 13:34.360001 14:21.280001 15:11.74 16:0.81 17:11.73 18:18.219999 19:12.92 #
0.00015991232340113167636683200178993 1:37.610001 2:8.6999998 3:35.650002 4:9.5600004 5:17.43 6:52.740002 7:17.610001 8:50.040001 9:81.120003 10:19.370001 11:21.59 12:51.98 13:24.5 14:31.66 15:10.48 16:43.880001 17:10.76 18:32.700001 19:11.1 #
0.00015991232340113167636683200178993 1:18.65 2:3.5 3:30.92 4:6.9299998 5:12.62 6:30.290001 7:15.7 8:32.509998 9:73.860001 10:19.15 11:39.459999 12:43.439999 13:32.439999 14:20.18 15:9.7200003 16:0.34999999 17:9.4300003 18:17.440001 19:10.37 #
-0.00015991232340113167636683200178993 1:4.3400002 2:11.12 3:13.08 4:10.3 5:18.51 6:4.0799999 7:3.8900001 8:5.3699999 9:7.5900002 10:10.73 11:7.9699998 12:7.8200002 13:8.8299999 14:-7.4400001 15:9.0699997 16:9.6199999 17:8 18:8.6599998 19:8.3999996 #
0.00015991232340113167636683200178993 1:28.42 2:16.18 3:31.68 4:18.15 5:24.030001 6:57.75 7:36.360001 8:29.4 9:91.230003 10:47.18 11:33.209999 12:63.75 13:52.02 14:38.279999 15:20.610001 16:57.75 17:20.440001 18:39.5 19:20.82 #
-0.00015991232340113167636683200178993 1:46.360001 2:-37.220001 3:86.779999 4:-37.049999 5:-14.39 6:46.509998 7:-23.780001 8:32.73 9:56.740002 10:-30.41 11:-30.66 12:55.5 13:-26.59 14:42.790001 15:-38.240002 16:75.580002 17:-36.93 18:74.07 19:-37.740002 #
-0.00015991232340113167636683200178993 1:1.5599999 2:-2.6099999 3:-4.4099998 4:-2.3800001 5:4.3699999 6:7.5599999 7:1.98 8:0.91000003 9:26.190001 10:12.99 11:-2.73 12:24.209999 13:5.9499998 14:-2.8800001 15:-1.87 16:-4.3000002 17:0.12 18:0 19:3.1300001 #
-0.00015991232340113167636683200178993 1:-6.5300002 2:1.35 3:-6.2399998 4:1.5599999 5:0.52999997 6:-3.6500001 7:-3.3800001 8:-9.7799997 9:-2.46 10:0.19 11:4.6399999 12:-0.37 13:-0.41 14:-5.9400001 15:0.23999999 16:-1.3099999 17:0.28 18:-2.5999999 19:0.13 #
0.00015991232340113167636683200178993 1:50.18 2:39.32 3:24.17 4:37.669998 5:40.970001 6:28.969999 7:34.549999 8:30.940001 9:57.32 10:41.540001 11:26.860001 12:30.85 13:41.189999 14:27.549999 15:38.009998 16:32.700001 17:36.259998 18:19.43 19:35.700001 #
-0.00015991232340113167636683200178993 1:6.8099999 2:-1.49 3:6.3899999 4:-1.33 5:9.1599998 6:11.43 7:6.4099998 8:10.81 9:10.12 10:7.23 11:15.49 12:13.15 13:5.6999998 14:4.7800002 15:-1.87 16:8.2299995 17:-1.66 18:8.6199999 19:-3.0999999 #
0.00015991232340113167636683200178993 1:24.16 2:9.8699999 3:31.24 4:12.75 5:17.280001 6:47.709999 7:25.190001 8:40.349998 9:77.489998 10:27.889999 11:30.950001 12:48.689999 13:32.939999 14:28.75 15:14.33 16:39.779999 17:15.3 18:29.27 19:16.34 #
-0.00015991232340113167636683200178993 1:-8.9300003 2:-4.73 3:-4.6300001 4:-3.98 5:-10.89 6:0.18000001 7:1.89 8:-3.6400001 9:6.4400001 10:10.43 11:12.71 12:10.18 13:11.4 14:-6.5599999 15:-3.3599999 16:-0.61000001 17:-0.52999997 18:-1.62 19:0 #
-0.00015991232340113167636683200178993 1:-14.98 2:-4.7600002 3:-5.2399998 4:-3.3399999 5:4.6399999 6:-11.83 7:2.3099999 8:-11.25 9:-14.36 10:0.91000003 11:4 12:-10.46 13:3.53 14:-3.28 15:-3.46 16:-4.8099999 17:-1.75 18:-5.6900001 19:-0.79000002 #
0.00015991232340113167636683200178993 1:48.41 2:32.740002 3:25.85 4:31.51 5:37.740002 6:31.41 7:26.6 8:35.330002 9:58.619999 10:30 11:16.799999 12:29.33 13:27.65 14:27.02 15:31.459999 16:34 17:29.799999 18:21.389999 19:28.959999 #
0.00015991232340113167636683200178993 1:16.209999 2:19.92 3:13.45 4:19.99 5:21.08 6:31.07 7:33.790001 8:31.01 9:31.959999 10:44.509998 11:8.71 12:27.93 13:43.830002 14:11.47 15:24.379999 16:16.639999 17:27.309999 18:17.75 19:29.780001 #
-0.00015991232340113167636683200178993 1:-25.780001 2:-6.6799998 3:-12.73 4:-3.24 5:-29.280001 6:-0.079999998 7:-3.1099999 8:-44.310001 9:1.74 10:2.71 11:-70.309998 12:32.380001 13:-13.79 14:-15.74 15:-3.4400001 16:-9.6800003 17:0.75999999 18:-10.34 19:0.55000001 #
0.00015991232340113167636683200178993 1:33.400002 2:8.5900002 3:34.599998 4:10.09 5:16.790001 6:51.869999 7:19.9 8:47.529999 9:80.75 10:22.030001 11:24.879999 12:51.939999 13:27.41 14:30.969999 15:11.36 16:42.919998 17:11.89 18:31.959999 19:12.5 #
-0.00015991232340113167636683200178993 1:50.200001 2:-19.65 3:120.48 4:-17.190001 5:2.1500001 6:48.52 7:-6.96 8:82.589996 9:53.860001 10:1.72 11:-16.040001 12:59.259998 13:-0.25 14:69.639999 15:-16.360001 16:103.95 17:-17.780001 18:101.04 19:-13 #
-0.00015991232340113167636683200178993 1:50.330002 2:-15.52 3:114.83 4:-12.82 5:2.1500001 6:51.330002 7:-5.7399998 8:78.379997 9:56.599998 10:3.9000001 11:-13.94 12:61.279999 13:1.3 14:70.870003 15:-11.6 16:103.31 17:-13.41 18:101.53 19:-7.4000001 #
0.00015991232340113167636683200178993 1:39.810001 2:2.98 3:43.5 4:9.6899996 5:12.26 6:61.32 7:25.65 8:26.690001 9:62.189999 10:31.93 11:18.280001 12:49.91 13:21.33 14:39.259998 15:3.04 16:67.019997 17:4.6999998 18:39.77 19:4.52 #
0.00015991232340113167636683200178993 1:-90.699997 2:-23.08 3:-80.059998 4:-30.629999 5:-39.419998 6:-60.130001 7:-20.870001 8:-88.629997 9:-111.53 10:-49.450001 11:-15.54 12:-83.010002 13:-44.459999 14:-74.540001 15:-29.77 16:-49.27 17:-24.059999 18:-75.290001 19:-30.18 #
-0.00015991232340113167636683200178993 1:-19.59 2:59.110001 3:-2.97 4:67.870003 5:56.290001 6:-4.4499998 7:71.489998 8:-3.0999999 9:4.8600001 10:70.940002 11:76.190002 12:19.09 13:121.15 14:-17.129999 15:68.75 16:-14.99 17:72.730003 18:-14.61 19:75.050003 #
0.00015991232340113167636683200178993 1:29.24 2:15.36 3:32 4:17.219999 5:23.01 6:58.630001 7:36.080002 8:30.07 9:92.639999 10:47.439999 11:33.169998 12:66.160004 13:52.689999 14:39.029999 15:19.41 16:58.889999 17:19.059999 18:40.459999 19:19.5 #
0.00015991232340113167636683200178993 1:-11.09 2:22.799999 3:-3.6199999 4:26.15 5:37.93 6:-53.009998 7:-3.02 8:26.49 9:-54.860001 10:-11.15 11:19.469999 12:-52.720001 13:-12.65 14:-15.92 15:20.82 16:-24.450001 17:14.76 18:-17.26 19:13.27 #
-0.00015991232340113167636683200178993 1:-8.1199999 2:7.2199998 3:-4.23 4:6.96 5:7.1900001 6:-7.5300002 7:14.73 8:-5.8400002 9:-7.9200001 10:16.35 11:7.1300001 12:-5.0100002 13:15.19 14:-3.5699999 15:10.2 16:-7.9899998 17:10.13 18:-8.4300003 19:10.21 #
0.00015991232340113167636683200178993 1:44 2:10.97 3:36.119999 4:10.79 5:20.610001 6:51.549999 7:14.73 8:51.860001 9:78.93 10:15.67 11:15.59 12:48.48 13:19.27 14:32.049999 15:10.86 16:44.279999 17:10.66 18:32.709999 19:10.42 #
-0.00015991232340113167636683200178993 1:21.34 2:41.939999 3:74.160004 4:35.060001 5:-77.279999 6:159.3 7:124.89 8:134.14 9:257.70001 10:144.06 11:144.28999 12:260.51999 13:153.95 14:66.779999 15:47.18 16:108.65 17:56.43 18:71.879997 19:63.59 #
-0.00015991232340113167636683200178993 1:-14.04 2:3.54 3:-17.049999 4:3.23 5:-5.4299998 6:-18.469999 7:-2.97 8:-20.5 9:-22.209999 10:-7.5700002 11:-6.8400002 12:-19.1 13:-2.6300001 14:-18.280001 15:4.1399999 16:-17.66 17:2.1900001 18:-16.860001 19:-0.31 #
-0.00015991232340113167636683200178993 1:4.5599999 2:2.3 3:14.46 4:1.48 5:11.06 6:-3.1500001 7:8.21 8:-0.66000003 9:-6.23 10:14.53 11:12.54 12:-3.8 13:14.37 14:0.61000001 15:2.9000001 16:11.64 17:2.97 18:9.04 19:3.4300001 #
0.00015991232340113167636683200178993 1:24.75 2:-19.780001 3:25.299999 4:-12.84 5:-17.610001 6:55.540001 7:6.9200001 8:26.940001 9:71.410004 10:26.26 11:-4.6300001 12:49.330002 13:27.030001 14:35.450001 15:-12.69 16:69.230003 17:-10.36 18:38.360001 19:-10.47 #
0.00015991232340113167636683200178993 1:-91.599998 2:6.5999999 3:-100.85 4:9.0900002 5:-8.1700001 6:-68.139999 7:30.17 8:-74.93 9:-82.089996 10:23.1 11:15.19 12:-89.290001 13:6.4299998 14:-78.059998 15:-0.79000002 16:-58.34 17:3.4300001 18:-73.440002 19:-2.74 #
0.00015991232340113167636683200178993 1:48.849998 2:35.380001 3:24.809999 4:34.049999 5:39.060001 6:29.85 7:29.5 8:33.349998 9:57.490002 10:34.169998 11:19.889999 12:29.34 13:32.23 14:26.809999 15:34.200001 16:32.990002 17:32.459999 18:20.18 19:31.73 #
0.00015991232340113167636683200178993 1:-15.53 2:-14.66 3:-9.0799999 4:-15.88 5:-19.280001 6:-4.6300001 7:-0.44999999 8:-24.41 9:-2.71 10:-0.41999999 11:-12.41 12:23.16 13:0.31 14:-3.23 15:-8.6199999 16:-7.4000001 17:-6.8099999 18:-5.8099999 19:-5.6300001 #
0.00015991232340113167636683200178993 1:-120.24 2:-0.81 3:-114.24 4:-15.02 5:-23.120001 6:-82.190002 7:-5.8600001 8:-106.98 9:-96.800003 10:-6.1399999 11:-10.69 12:-111.16 13:-23.040001 14:-98.230003 15:-15.34 16:-69.019997 17:-6.48 18:-100.97 19:-11.49 #
-0.00015991232340113167636683200178993 1:-0.68000001 2:101 3:-10.62 4:101.58 5:91.519997 6:1.9400001 7:93.980003 8:6.0100002 9:-10.72 10:75.860001 11:108.27 12:-0.83999997 13:91.779999 14:-12.31 15:101.82 16:-18.25 17:102.25 18:-17.370001 19:104.71 #
0.00015991232340113167636683200178993 1:14.73 2:21.65 3:18.84 4:22.18 5:24.85 6:35.57 7:36.049999 8:30.959999 9:33.650002 10:45.630001 11:10.3 12:28.860001 13:43.919998 14:16.25 15:25.959999 16:21.83 17:29.51 18:22.549999 19:32.66 #
0.00015991232340113167636683200178993 1:25.09 2:-18.75 3:25.889999 4:-11.82 5:-16.66 6:55.619999 7:8.1499996 8:26.370001 9:71.639999 10:28.34 11:-3.3 12:50.060001 13:29.620001 14:36.68 15:-12.21 16:70.160004 17:-9.8699999 18:39.150002 19:-9.9399996 #
0.00015991232340113167636683200178993 1:49.459999 2:37.560001 3:24.24 4:36.09 5:40.099998 6:29.059999 7:32.189999 8:31.889999 9:57.09 10:38.110001 11:23.309999 12:29.93 13:36.880001 14:26.98 15:36.380001 16:32.540001 17:34.610001 18:19.5 19:33.990002 #
-0.00015991232340113167636683200178993 1:12.44 2:19.41 3:13.05 4:20.83 5:31.950001 6:37.849998 7:23.129999 8:32.91 9:31.08 10:17.190001 11:17.129999 12:23.639999 13:15.99 14:11.35 15:17.99 16:17.91 17:21.049999 18:15.45 19:21.01 #
0.00015991232340113167636683200178993 1:16.780001 2:-29.25 3:23.57 4:-25.950001 5:-17.09 6:31.65 7:-13.2 8:26.059999 9:65.25 10:-3.73 11:-1.9299999 12:38.130001 13:5.0500002 14:24.629999 15:-25.610001 16:20.35 17:-25.209999 18:24.719999 19:-23.870001 #
0.00015991232340113167636683200178993 1:1.78 2:-12 3:-11.1 4:-11.39 5:-6.7600002 6:-17.950001 7:12.33 8:-18.860001 9:-40.490002 10:1.8200001 11:-24.450001 12:31.450001 13:-25.940001 14:-15.88 15:-15.01 16:-12.49 17:-12.4 18:-20.16 19:-13.72 #
-0.00015991232340113167636683200178993 1:44.619999 2:18.42 3:44.470001 4:13.46 5:26.030001 6:17.879999 7:8.8699999 8:43.380001 9:31.93 10:13.42 11:27.290001 12:30.690001 13:9.29 14:46.639999 15:7.2199998 16:43.700001 17:6.8699999 18:42.080002 19:5.6999998 #
-0.00015991232340113167636683200178993 1:1.66 2:-18.360001 3:5.4000001 4:-18.309999 5:-4.1199999 6:9.5500002 7:-24.190001 8:23.450001 9:7.8299999 10:-21.15 11:-22.030001 12:8.1700001 13:-26.15 14:-9.6499996 15:-20.73 16:-3.71 17:-21.370001 18:-6.6999998 19:-23.85 #
0.00015991232340113167636683200178993 1:18.35 2:-9.6899996 3:12.32 4:-14.96 5:-50.630001 6:3.52 7:-77.050003 8:-45.790001 9:13.14 10:-74.209999 11:-56.59 12:21.469999 13:-37.310001 14:27.370001 15:-5.4400001 16:32.59 17:-4.1100001 18:34.669998 19:11.1 #
-0.00015991232340113167636683200178993 1:-9.3999996 2:10.77 3:-7.8499999 4:13.38 5:15.99 6:-3.5 7:15.23 8:-4.8899999 9:-5.8499999 10:8.1700001 11:13.09 12:-5.6799998 13:10.1 14:-7.9400001 15:9.9499998 16:-9.6700001 17:9.4499998 18:-9.9700003 19:9.5299997 #
-0.00015991232340113167636683200178993 1:-7.4499998 2:-11.66 3:13.53 4:-16.33 5:-7.1900001 6:-9.3599997 7:11.19 8:-11.04 9:17.75 10:1.8200001 11:-21.15 12:39.279999 13:-15.69 14:11.95 15:-14.71 16:16.280001 17:-15.44 18:13.76 19:-15.43 #
-0.00015991232340113167636683200178993 1:-1.1 2:-4.3400002 3:2.46 4:-2.0699999 5:19.24 6:-20.280001 7:-21.969999 8:22.75 9:-13.62 10:-2.6600001 11:-46.349998 12:-0.93000001 13:-16.030001 14:16.43 15:-7.04 16:29.120001 17:-10.87 18:27.389999 19:-12.26 #
0.00015991232340113167636683200178993 1:28.82 2:9.0200005 3:33.099998 4:11.22 5:16.77 6:50.139999 7:22.51 8:44.200001 9:79.489998 10:24.940001 11:28.059999 12:50.759998 13:30.26 14:29.99 15:12.72 16:41.529999 17:13.48 18:30.799999 19:14.33 #
-0.00015991232340113167636683200178993 1:-14.1 2:-11.48 3:-17.5 4:-10.92 5:-12.99 6:-10.83 7:-10.72 8:-22.91 9:-18.620001 10:-18.530001 11:-10.42 12:-15.56 13:-16.93 14:-14.49 15:-12.28 16:-17.629999 17:-14.14 18:-16.620001 19:-15.74 #
0.00015991232340113167636683200178993 1:-9.6999998 2:-17.5 3:11.44 4:-16.92 5:-19.15 6:14.19 7:-11.65 8:-9.8900003 9:12.79 10:-12.54 11:-11.07 12:27.629999 13:-10.8 14:4.27 15:-14.56 16:5.4499998 17:-13.23 18:6.6900001 19:-12.58 #
-0.00015991232340113167636683200178993 1:0.41 2:9.4700003 3:6.0799999 4:8.6800003 5:14.23 6:11.97 7:15.31 8:2.8199999 9:17.85 10:14.68 11:18.92 12:15.23 13:14.88 14:-1.17 15:11 16:1.5 17:11.75 18:0.22 19:10.82 #
0.00015991232340113167636683200178993 1:-6.2199998 2:-11.52 3:-1.84 4:-9.3100004 5:-17.27 6:-50.860001 7:-18.040001 8:-15.36 9:-46.380001 10:-34.049999 11:0.56999999 12:-28.709999 13:-8.8699999 14:-1.92 15:-8.5100002 16:-27.620001 17:-16.58 18:-6.7199998 19:-17.879999 #
-0.00015991232340113167636683200178993 1:41.5 2:16.290001 3:40.09 4:11.71 5:22.66 6:15.68 7:5.3099999 8:40.119999 9:30.379999 10:10.3 11:23.57 12:30.450001 13:6.02 14:43.689999 15:5.5900002 16:40.48 17:5.1100001 18:39.18 19:3.9300001 #
0.00015991232340113167636683200178993 1:-6.1700001 2:-3.54 3:-0.77999997 4:-1.83 5:-2.01 6:6.1799998 7:8.6800003 8:-24.09 9:-16.299999 10:8.1199999 11:-17.15 12:38.959999 13:-14.24 14:-4.79 15:-10.52 16:-5.8299999 17:-8.8999996 18:-12.63 19:-10.11 #
-0.00015991232340113167636683200178993 1:-54.610001 2:-42.150002 3:-94.769997 4:-35.619999 5:-63.110001 6:-164.45 7:-104.14 8:-109.93 9:-126.08 10:-170.78999 11:-66.639999 12:-108.9 13:-287.38 14:-52.490002 15:-30.139999 16:-27.049999 17:-31.549999 18:-54.189999 19:-31.57 #
0.00015991232340113167636683200178993 1:75.870003 2:54.970001 3:44.790001 4:52.009998 5:60.419998 6:58.650002 7:47.650002 8:53.450001 9:87.300003 10:50.18 11:49.73 12:55.720001 13:50.439999 14:46.689999 15:48.740002 16:61.650002 17:46.669998 18:45 19:44.25 #
-0.00015991232340113167636683200178993 1:-4.73 2:-16.799999 3:19.5 4:-21.969999 5:-13.49 6:-6.6999998 7:6.3299999 8:-5.25 9:23.73 10:-3.25 11:-26.469999 12:40.689999 13:-20.719999 14:18.01 15:-19.67 16:25.93 17:-20.07 18:23.799999 19:-19.77 #
0.00015991232340113167636683200178993 1:-4.3499999 2:-4.7199998 3:-3.1700001 4:-4.3299999 5:-7.8299999 6:1.02 7:5.46 8:-1.99 9:0.17 10:7 11:6.7600002 12:5.4499998 13:8.0900002 14:3.1800001 15:-2.9100001 16:2.95 17:-3.8199999 18:2.5799999 19:-2.6800001 #
-0.00015991232340113167636683200178993 1:-6.4299998 2:-14.55 3:16.120001 4:-19.51 5:-10.68 6:-8.4499998 7:8.4700003 8:-8.6999998 9:20.360001 10:-1.17 11:-24.15 12:39.669998 13:-18.84 14:14.67 15:-17.57 16:20.700001 17:-18.17 18:18.309999 19:-18.02 #
-0.00015991232340113167636683200178993 1:16.219999 2:3.1199999 3:-10.5 4:3.52 5:-5.5799999 6:27.75 7:-1.92 8:38.049999 9:23.58 10:15.07 11:-3.97 12:31.68 13:6.3800001 14:7.71 15:3.6400001 16:-4.7800002 17:4.27 18:-2.0899999 19:4.6900001 #
0.00015991232340113167636683200178993 1:-86.769997 2:-14.83 3:-103.19 4:-11.78 5:-30.98 6:-76.510002 7:1.48 8:-73.489998 9:-95.019997 10:-12.78 11:-19.049999 12:-103.34 13:-27.93 14:-80.739998 15:-22.16 16:-65.32 17:-19.790001 18:-76.260002 19:-25.84 #
-0.00015991232340113167636683200178993 1:36.240002 2:-34.709999 3:70.080002 4:-36.080002 5:-8.3100004 6:36.060001 7:-18.32 8:23.040001 9:47.169998 10:-27.969999 11:-29.950001 12:47.66 13:-26.389999 14:31.73 15:-38 16:64.18 17:-36.09 18:63.75 19:-38.57 #
-0.00015991232340113167636683200178993 1:-54.009998 2:-40.790001 3:-65.910004 4:-34.209999 5:-63.380001 6:-171.53999 7:-107.53 8:-100.58 9:-119.62 10:-153.84 11:-17.290001 12:-97.389999 13:-249.14 14:-50.889999 15:-26.68 16:-24.690001 17:-26.84 18:-47.950001 19:-31.65 #
0.00015991232340113167636683200178993 1:75.449997 2:53.470001 3:44.310001 4:50.279999 5:60.209999 6:57.5 7:46.779999 8:52.610001 9:85.830002 10:48.369999 11:48.900002 12:53.830002 13:48.57 14:46.150002 15:46.73 16:61.139999 17:44.400002 18:44.130001 19:41.650002 #
0.00015991232340113167636683200178993 1:28.58 2:20.74 3:3.0599999 4:15.24 5:26.780001 6:-16.889999 7:3.03 8:-6.4299998 9:-18.959999 10:3.6300001 11:-7.6999998 12:14.72 13:-2.6800001 14:-0.11 15:14.08 16:-7.5700002 17:13.35 18:-7.77 19:12.67 #
-0.00015991232340113167636683200178993 1:38.970001 2:30.120001 3:33.18 4:29.549999 5:67.629997 6:157.17999 7:121.51 8:63.130001 9:266.72 10:162.27 11:142.17999 12:170.23 13:219.12 14:19.280001 15:30.299999 16:135.5 17:29.35 18:76.730003 19:35.540001 #
0.00015991232340113167636683200178993 1:17.32 2:1.23 3:15.93 4:7.3899999 5:2.4100001 6:44.849998 7:19.950001 8:18.940001 9:65.849998 10:43.080002 11:16.66 12:43.419998 13:43.84 14:22.129999 15:4.4000001 16:56.77 17:7.9400001 18:28.360001 19:8.3599997 #
0.00015991232340113167636683200178993 1:0.41 2:-3.8900001 3:1.96 4:-1.97 5:9.54 6:-14.85 7:44.970001 8:-0.74000001 9:-38.150002 10:31.549999 11:13.46 12:41.919998 13:-2.72 14:-4.4400001 15:-5.71 16:-1.04 17:-2.8299999 18:-8.8999996 19:-3.72 #
0.00015991232340113167636683200178993 1:26.049999 2:6.1500001 3:5.6199999 4:2.4300001 5:26.33 6:-58.259998 7:8.6300001 8:48.75 9:-21.15 10:-27.030001 11:24.530001 12:0.74000001 13:14.01 14:23.780001 15:2.3499999 16:10.4 17:-6.3899999 18:24.719999 19:-9.3500004 #
-0.00015991232340113167636683200178993 1:15.58 2:29.139999 3:-75.730003 4:29.24 5:52.529999 6:-42.369999 7:129.38 8:-17.6 9:-31.41 10:169.00999 11:165.14 12:1.4299999 13:230.25999 14:-68.589996 15:25.84 16:-57.52 17:27.18 18:-83.059998 19:32.290001 #
-0.00015991232340113167636683200178993 1:-5.5599999 2:-0.38999999 3:2.8499999 4:1.58 5:-0.37 6:12.62 7:8.1800003 8:6.02 9:14.54 10:7.9000001 11:12.63 12:15.32 13:8 14:0.47999999 15:5.4899998 16:3.4000001 17:6.5999999 18:3.04 19:7.1300001 #
0.00015991232340113167636683200178993 1:15.43 2:0.88 3:24.67 4:3.75 5:8.4700003 6:24.200001 7:11.21 8:23.84 9:69.07 10:15.56 11:34.610001 12:39.240002 13:28.610001 14:15.24 15:5.7800002 16:-3.3499999 17:4.9699998 18:13.02 19:5.4299998 #
-0.00015991232340113167636683200178993 1:23.23 2:13.97 3:111.47 4:6.5700002 5:-73.099998 6:150.25 7:107.73 8:126.82 9:274.19 10:117.76 11:80.309998 12:267.04999 13:110.85 14:78.269997 15:21.049999 16:127.39 17:32.099998 18:100.33 19:38.599998 #
-0.00015991232340113167636683200178993 1:-62.18 2:-8.5 3:-52.630001 4:-8.71 5:-19.559999 6:-115.99 7:-7.0100002 8:-62.630001 9:-97.120003 10:3.1900001 11:5.0599999 12:-73.739998 13:19.549999 14:-63.07 15:-7.9899998 16:-63.349998 17:-4.0900002 18:-58.459999 19:-1.33 #
0.00015991232340113167636683200178993 1:-17.629999 2:5.3699999 3:-14.26 4:6.7199998 5:9.6000004 6:-18.809999 7:14.24 8:-14.96 9:-16.16 10:12.7 11:27.610001 12:-16.24 13:12.61 14:-11.1 15:3.73 16:-11.26 17:2.9000001 18:-10.3 19:0.38 #
-0.00015991232340113167636683200178993 1:-38.310001 2:-9.5100002 3:-53.98 4:-9.1999998 5:-38.200001 6:-187.3 7:-74.720001 8:-125.98 9:-211.67 10:-81.900002 11:1.0700001 12:-123.37 13:-75.260002 14:-37.560001 15:-10.49 16:-25.799999 17:-10.8 18:-69.599998 19:-13.24 #
0.00015991232340113167636683200178993 1:-38.57 2:-11.02 3:-2.1099999 4:-3.8599999 5:-14.22 6:2.7 7:2.76 8:-33.919998 9:-5.5300002 10:12.78 11:-2.46 12:31.57 13:-1.67 14:-5.1799998 15:-3.71 16:-3.1500001 17:-1.9 18:-5.98 19:-3.3900001 #
0.00015991232340113167636683200178993 1:-73.82 2:40.389999 3:-88.110001 4:39.990002 5:29.73 6:-52.619999 7:55.34 8:-56.209999 9:-64.809998 10:51.32 11:38.84 12:-73.360001 13:29.719999 14:-70 15:34.099998 16:-46.259998 17:30.950001 18:-70.059998 19:22.09 #
0.00015991232340113167636683200178993 1:37.389999 2:-2.79 3:22.65 4:-4.96 5:-19.24 6:46.959999 7:-50.790001 8:-6.0599999 9:27.6 10:-47.419998 11:-69.389999 12:25.370001 13:-39.299999 14:30.68 15:0.090000004 16:36.849998 17:0.19 18:34.279999 19:10.33 #
-0.00015991232340113167636683200178993 1:3.6800001 2:-4.04 3:12.34 4:-6.52 5:-2.3399999 6:16.719999 7:2.9100001 8:11.53 9:19.92 10:6.1100001 11:11.06 12:21.360001 13:4.8600001 14:8.7700005 15:-2.1099999 16:14.16 17:-2.3099999 18:14.93 19:-1.64 #
0.00015991232340113167636683200178993 1:-80.379997 2:37.639999 3:-92.519997 4:37.91 5:24.389999 6:-58.02 7:54.759998 8:-63.810001 9:-69.940002 10:50.41 11:39.16 12:-78.300003 13:29.059999 14:-71.860001 15:31.040001 16:-50.57 17:30.540001 18:-72 19:22.6 #
-0.00015991232340113167636683200178993 1:24.01 2:11.45 3:0.77999997 4:10.13 5:7.6199999 6:24.91 7:7.5500002 8:13.31 9:15.33 10:4.3299999 11:-1.23 12:15.7 13:-4.1700001 14:8.54 15:7.0799999 16:6.75 17:5.9699998 18:7.7199998 19:5.5300002 #
0.00015991232340113167636683200178993 1:35.900002 2:0.17 3:27.389999 4:0.56 5:14.53 6:-30.629999 7:14.87 8:64.169998 9:-6.1100001 10:-23.26 11:30.469999 12:17.65 13:18.4 14:44.57 15:2.22 16:35.959999 17:-4.21 18:45.330002 19:-7.6900001 #
-0.00015991232340113167636683200178993 1:-46.84 2:-10.41 3:-64.370003 4:-10.09 5:-35.740002 6:-200.17999 7:-71.400002 8:-130.10001 9:-221.39999 10:-78.230003 11:-3.8699999 12:-131.38 13:-69.5 14:-46.66 15:-10.28 16:-34.060001 17:-10.74 18:-78.690002 19:-13.76 #
0.00015991232340113167636683200178993 1:75.18 2:50.73 3:43.959999 4:47.060001 5:59.73 6:56.099998 7:46.040001 8:51.259998 9:83.93 10:46.080002 11:48.169998 12:51.59 13:46.369999 14:45.73 15:43.119999 16:60.380001 17:40.580002 18:42.700001 19:37.59 #
0.00015991232340113167636683200178993 1:37.779999 2:0.2 3:28.51 4:0.37 5:16.23 6:-29.49 7:16.059999 8:67.089996 9:-3.7 10:-21.08 11:29.75 12:20.290001 13:21.870001 14:46.080002 15:2.1600001 16:37.84 17:-4.3499999 18:47.41 19:-7.5799999 #
0.00015991232340113167636683200178993 1:-49.970001 2:2.1400001 3:-52.41 4:-3.7 5:-20.690001 6:-48.77 7:-0.79000002 8:-49.889999 9:-157.37 10:-0.83999997 11:-11.58 12:-75.589996 13:-26.690001 14:-51.110001 15:0.28999999 16:-75.879997 17:5.8600001 18:-53.93 19:3.4100001 #
0.00015991232340113167636683200178993 1:19.700001 2:26.07 3:21.969999 4:27.59 5:37.169998 6:43.150002 7:40.43 8:19.440001 9:72.269997 10:45.209999 11:39.389999 12:41.32 13:45.849998 14:26.129999 15:29.379999 16:45.27 17:28.700001 18:27.120001 19:28.389999 #
0.00015991232340113167636683200178993 1:30.530001 2:0.13 3:24.129999 4:0.95999998 5:10.04 6:-35.07 7:11.49 8:53.759998 9:-13.04 10:-28.450001 11:31.43 12:11.03 13:10.7 14:39.880001 15:2.25 16:30.450001 17:-4.1199999 18:39.5 19:-8.0900002 #
0.00015991232340113167636683200178993 1:38.849998 2:0.95999998 3:28.76 4:0.73000002 5:18.809999 6:-30.26 7:17.709999 8:67.529999 9:-2.29 10:-17.709999 11:28.92 12:22.799999 13:27.41 14:46.529999 15:2.79 16:38.810001 17:-3.9400001 18:48.740002 19:-6.79 #
0.00015991232340113167636683200178993 1:0.02 2:-35.240002 3:18.93 4:-30.809999 5:-26.059999 6:26.43 7:-21.190001 8:14.89 9:57.349998 10:-9.4399996 11:-2.02 12:36.630001 13:3.4300001 14:16.870001 15:-28.129999 16:15.3 17:-28.41 18:17.09 19:-27.18 #
-0.00015991232340113167636683200178993 1:219.44 2:116.09 3:175.73 4:109.63 5:303.92001 6:200.98 7:196.44 8:-175.22 9:217.21001 10:168.37 11:256.82999 12:145.39 13:205.17999 14:177.71001 15:86.379997 16:223.28 17:70.589996 18:207.66 19:48.099998 #
-0.00015991232340113167636683200178993 1:224 2:116.28 3:184.21001 4:110.11 5:331.78 6:196.71001 7:188.7 8:-173.00999 9:206.38 10:162.98 11:238.89 12:140.3 13:208.3 14:182.09 15:86.190002 16:222.91 17:69.980003 18:208.24001 19:46.349998 #
-0.00015991232340113167636683200178993 1:261.22 2:146.73 3:180.86 4:136.28 5:288.04999 6:198.31 7:143.44 8:70.690002 9:183.74001 10:85.919998 11:441.67001 12:136.73 13:125.64 14:220.82001 15:113.85 16:243.91 17:95.870003 18:239.7 19:76.860001 #
-0.00015991232340113167636683200178993 1:-15.82 2:-11.58 3:-2.7 4:-9.5600004 5:-11.15 6:0.81 7:-6.8200002 8:-11.47 9:4.6700001 10:-4.9099998 11:5.5500002 12:5.9299998 13:-4.0700002 14:-0.090000004 15:-8.7799997 16:-0.14 17:-8.1899996 18:0.56 19:-8.7600002 #
0.00015991232340113167636683200178993 1:1.08 2:-1.58 3:20.379999 4:2.7 5:6.8099999 6:29.879999 7:28.43 8:19.76 9:59.880001 10:33.900002 11:37.790001 12:34.380001 13:43.82 14:16.58 15:6.7399998 16:26.02 17:8.2299995 18:16.91 19:10.44 #
-0.00015991232340113167636683200178993 1:-31.92 2:10.72 3:-43.889999 4:15.55 5:-27 6:-86.720001 7:-40.209999 8:-41.049999 9:-122.62 10:-33.220001 11:36.860001 12:-72.809998 13:-21.129999 14:-23.709999 15:10.76 16:-40.540001 17:15.72 18:-88.43 19:12.24 #
-0.00015991232340113167636683200178993 1:27.24 2:24.309999 3:76.510002 4:14.82 5:-84.07 6:162.67 7:103.33 8:127.59 9:264.73001 10:131.58 11:109.81 12:260.45001 13:134.17 14:74.040001 15:31.719999 16:110.39 17:42.18 18:78.459999 19:50.52 #
0.00015991232340113167636683200178993 1:-0.43000001 2:34.080002 3:10.86 4:33.439999 5:51.32 6:-45.93 7:24.959999 8:30.190001 9:-36.639999 10:20.309999 11:39.34 12:-30.469999 13:27.51 14:-1.4299999 15:36.68 16:-14.28 17:33.419998 18:-0.75999999 19:34.130001 #
0.00015991232340113167636683200178993 1:-3.05 2:31.02 3:7.3200002 4:30.389999 5:48.77 6:-47.110001 7:23.57 8:27.83 9:-38.02 10:18.549999 11:36.82 12:-32.07 13:24.690001 14:-3.8499999 15:34.25 16:-16.620001 17:31.33 18:-3.05 19:32.560001 #
0.00015991232340113167636683200178993 1:73.559998 2:47.279999 3:46.740002 4:42.57 5:51.139999 6:54.290001 7:36.75 8:50.200001 9:77.309998 10:38.810001 11:38.93 12:46.68 13:39.759998 14:49.279999 15:42.689999 16:59.299999 17:38.290001 18:44 19:34.990002 #
0.00015991232340113167636683200178993 1:19.82 2:-8.7600002 3:18.469999 4:-2.25 5:-7.77 6:49.27 7:11.66 8:23.16 9:67.790001 10:32.419998 11:6.0599999 12:44.82 13:31.93 14:25.75 15:-2.7 16:60.240002 17:0.23999999 18:30.809999 19:0.51999998 #
0.00015991232340113167636683200178993 1:12.3 2:13.45 3:24.219999 4:17.879999 5:20.719999 6:38.200001 7:31.809999 8:28.08 9:69.029999 10:35.34 11:36.970001 12:40.470001 13:39.509998 14:23.610001 15:18.92 16:32.759998 17:20.23 18:22.879999 19:21.59 #
0.00015991232340113167636683200178993 1:16.74 2:6.29 3:13.84 4:12.39 5:8.54 6:40.84 7:24.42 8:15.75 9:63.529999 10:47.080002 11:19.969999 12:41.549999 13:48.830002 14:19.540001 15:7.4200001 16:54.400002 17:11.71 18:26.66 19:12.47 #
-0.00015991232340113167636683200178993 1:28.34 2:20.75 3:87.059998 4:11.82 5:-84.059998 6:165.98 7:101.04 8:129.28999 9:272.45001 10:132.39999 11:101.47 12:263.48999 13:131.10001 14:79.970001 15:28.049999 16:120.66 17:38.93 18:90.300003 19:47.77 #
0.00015991232340113167636683200178993 1:38.810001 2:0.43000001 3:29.02 4:0.38999999 5:17.620001 6:-29.35 7:16.98 8:68.209999 9:-2.3800001 10:-19.23 11:29.18 12:22.07 13:24.889999 14:46.77 15:2.3099999 16:38.84 17:-4.3099999 18:48.59 19:-7.3299999 #
0.00015991232340113167636683200178993 1:21.790001 2:10.02 3:22.5 4:7.0999999 5:3.45 6:58.240002 7:10.05 8:21.120001 9:33.150002 10:11.98 11:-2.6300001 12:26.219999 13:11.94 14:18.33 15:8.6400003 16:21.92 17:8.6199999 18:23.17 19:10.21 #
0.00015991232340113167636683200178993 1:26.459999 2:-6.8099999 3:28.129999 4:-1.21 5:-1.88 6:55.509998 7:8.1199999 8:26.07 9:77.949997 10:21.34 11:8.6300001 12:51.189999 13:27.540001 14:36.220001 15:-1.13 16:67.279999 17:2.3399999 18:39.349998 19:2.6500001 #
0.00015991232340113167636683200178993 1:69.879997 2:46.650002 3:44.389999 4:42.110001 5:50.459999 6:51.099998 7:36.450001 8:46.919998 9:74.309998 10:38.560001 11:38.740002 12:43.360001 13:39.349998 14:47.5 15:42.09 16:57.16 17:37.98 18:42.02 19:34.709999 #
-0.00015991232340113167636683200178993 1:-28.32 2:-4.8800001 3:-21.940001 4:-4.0700002 5:-12.28 6:-27.51 7:-11.28 8:-33.48 9:-25.26 10:-7.7600002 11:-8.5699997 12:-23.23 13:-4.3200002 14:-17.5 15:-2.8399999 16:-20.690001 17:-4.1500001 18:-20.91 19:-3.3499999 #
-0.00015991232340113167636683200178993 1:-64.989998 2:-75.269997 3:-68.239998 4:-74.93 5:-57.889999 6:-96.989998 7:-112.2 8:33.360001 9:-223.89999 10:-118.49 11:-104.04 12:-165.41 13:-132.12 14:-53.630001 15:-77.629997 16:-71.510002 17:-72.709999 18:-110.89 19:-78.860001 #
-0.00015991232340113167636683200178993 1:255.03 2:147.57001 3:175.56 4:137.09 5:306.98999 6:191.10001 7:144.62 8:28.040001 9:187.25 10:101.41 11:433.82001 12:148.12 13:143.12 14:204.2 15:118.68 16:235.39999 17:102.34 18:230.42 19:85.129997 #
0.00015991232340113167636683200178993 1:-0.22 2:-2.71 3:19.6 4:1.34 5:4.4699998 6:28.33 7:27.780001 8:17.48 9:60.23 10:33.810001 11:38.220001 12:36.099998 13:44.77 14:15.71 15:6.1999998 16:24.84 17:7.8200002 18:16.139999 19:9.7600002 #
0.00015991232340113167636683200178993 1:35.880001 2:3 3:25.59 4:2.46 5:21.09 6:-34.860001 7:18.84 8:61.59 9:-5.6100001 10:-15.51 11:29.51 12:20.83 13:30.83 14:43.220001 15:4.9000001 16:35.59 17:-2.0999999 18:45.860001 19:-4.7600002 #
-0.00015991232340113167636683200178993 1:-70.650002 2:-81.419998 3:-69.010002 4:-82.07 5:-66.209999 6:-104.84 7:-109.87 8:26.49 9:-236.84 10:-118.71 11:-110.05 12:-169.48 13:-134.41 14:-58.860001 15:-83.32 16:-78.209999 17:-78.82 18:-117.14 19:-85.720001 #
0.00015991232340113167636683200178993 1:9.6099997 2:4.9499998 3:-8.2200003 4:3.25 5:-4.4099998 6:-6.9000001 7:-4.6700001 8:0.44999999 9:-4.8099999 10:-7.8200002 11:11.88 12:-1.61 13:-5.6100001 14:-10.82 15:3.5599999 16:-10.2 17:1.63 18:-10.51 19:-0.73000002 #
-0.00015991232340113167636683200178993 1:-0.85000002 2:7.73 3:-9.6199999 4:8.6300001 5:11.58 6:-3.8 7:10.77 8:-2.8099999 9:-4.6599998 10:13.15 11:12.2 12:-3 13:13.66 14:-8.7600002 15:7.0100002 16:-8.4099998 17:8.7399998 18:-9.0299997 19:9.0100002 #
0.00015991232340113167636683200178993 1:20.809999 2:-12.26 3:19.450001 4:-5.6100001 5:-11.14 6:50.619999 7:9.0299997 8:24.440001 9:68.339996 10:28.83 11:2.1400001 12:45.23 13:28.040001 14:27.09 15:-5.3400002 16:61.580002 17:-2.5599999 18:31.84 19:-2.3399999 #
0.00015991232340113167636683200178993 1:-31.860001 2:0.87 3:-41.799999 4:-5.4699998 5:-14.67 6:-38.830002 7:-2.46 8:-29.879999 9:-148.69 10:-7.2600002 11:-19.809999 12:-65.599998 13:-35.349998 14:-44.330002 15:-5.02 16:-68.860001 17:1.59 18:-45.23 19:-1.7 #
-0.00015991232340113167636683200178993 1:-113.11 2:-92.050003 3:-107.51 4:-96.080002 5:-77.629997 6:-147.82001 7:-111.4 8:19.9 9:-299.10001 10:-111.77 11:-114.54 12:-218.99001 13:-138.85001 14:-77.949997 15:-92.139999 16:-103.41 17:-85.610001 18:-129.87 19:-103.08 #
-0.00015991232340113167636683200178993 1:258.01001 2:147.34 3:178.36 4:136.73 5:297.14001 6:194.78999 7:143.52 8:48.540001 9:186.03999 10:93.459999 11:440.06 12:142.39 13:134.11 14:212.83 15:116.51 16:240.45 17:99.379997 18:236.03999 19:81.440002 #
0.00015991232340113167636683200178993 1:29.18 2:14.49 3:30.709999 4:16.17 5:22.01 6:58.040001 7:35.939999 8:29.73 9:92.199997 10:48.060001 11:33.630001 12:67.470001 13:53.279999 14:38.330002 15:17.84 16:59.400002 17:17.059999 18:40.509998 19:17.559999 #
-0.00015991232340113167636683200178993 1:1.6799999 2:5.0900002 3:-7.27 4:6.5999999 5:-12.05 6:8.3299999 7:13.87 8:-1.6900001 9:4.5599999 10:13.54 11:42.209999 12:7.8000002 13:8.21 14:0.87 15:8.46 16:-1.85 17:8.46 18:0.25999999 19:8.1199999 #
0.00015991232340113167636683200178993 1:-16.700001 2:-2.71 3:-0.86000001 4:4.5700002 5:-4.5500002 6:15.73 7:12.59 8:-21.549999 9:6.6700001 10:22.68 11:10.55 12:47.41 13:7.6100001 14:-5.71 15:-0.25999999 16:0.89999998 17:2.21 18:-1.91 19:2.1099999 #
0.00015991232340113167636683200178993 1:16.860001 2:3.6199999 3:15.19 4:9.7200003 5:5.0599999 6:43.400002 7:22.049999 8:17.66 9:65.089996 10:45.419998 11:18.75 12:42.830002 13:46.580002 14:21.120001 15:5.96 16:55.849998 17:9.75 18:27.74 19:10.25 #
0.00015991232340113167636683200178993 1:24.42 2:-6.1799998 3:27.09 4:-0.57999998 5:-1.61 6:54.580002 7:7.9299998 8:25.139999 9:77.43 10:21.690001 11:8.9399996 12:50.139999 13:27.719999 14:34.470001 15:-0.64999998 16:65.730003 17:3.04 18:38.110001 19:3.6400001 #
0.00015991232340113167636683200178993 1:29.459999 2:14.82 3:31.639999 4:16.59 5:22.379999 6:58.689999 7:35.959999 8:30.120001 9:92.940002 10:47.75 11:33.369999 12:67.400002 13:53.139999 14:39.02 15:18.49 16:59.419998 17:17.93 18:40.77 19:18.41 #
0.00015991232340113167636683200178993 1:18.860001 2:-5.1700001 3:17.549999 4:1.21 5:-4.21 6:47.830002 7:14.53 8:21.77 9:67.199997 10:36.259998 11:10.03 12:44.400002 13:36.16 14:24.469999 15:-0.07 16:58.98 17:3.05 18:29.879999 19:3.3699999 #
0.00015991232340113167636683200178993 1:18 2:-1.76 3:16.709999 4:4.5 5:-0.74000001 6:46.34 7:17.370001 8:20.34 9:66.559998 10:39.93 11:13.68 12:43.939999 13:40.259998 14:23.26 15:2.3499999 16:57.810001 17:5.6700001 18:29.07 19:6.0300002 #
-0.00015991232340113167636683200178993 1:-9.5799999 2:-1.12 3:-13.12 4:-1.03 5:-13.99 6:-15.37 7:-18.34 8:-26.65 9:-16.4 10:-7.3299999 11:-12.51 12:-10.79 13:-14.38 14:-14.16 15:-1.39 16:-11.75 17:-2.3499999 18:-12.83 19:-2.28 #
0.00015991232340113167636683200178993 1:3.49 2:9.4300003 3:3.52 4:11.42 5:9.0500002 6:9.6000004 7:24.719999 8:-14.77 9:-8.6000004 10:28.15 11:-4.4499998 12:39.330002 13:6.3699999 14:3.6600001 15:6.1199999 16:2.53 17:8.4899998 18:-4.7800002 19:6.2199998 #
0.00015991232340113167636683200178993 1:17.030001 2:6.5999999 3:13.25 4:12.75 5:9.3599997 6:39.84 7:24.65 8:15.25 9:62.82 10:46.389999 11:19.24 12:40.889999 13:48.32 14:19.01 15:7.3299999 16:53.84 17:11.85 18:26.129999 19:12.78 #
0.00015991232340113167636683200178993 1:-2.8299999 2:-7.2800002 3:-1.8 4:-10.49 5:-5.9699998 6:6.6700001 7:-7.0799999 8:-13.93 9:5.0100002 10:-2.1300001 11:-6.5500002 12:24.809999 13:-4.9299998 14:-2.3099999 15:-7.3499999 16:-1.51 17:-6.4200001 18:-0.25999999 19:-4.52 #
-0.00015991232340113167636683200178993 1:-136.59 2:-61.779999 3:-118.91 4:-60.619999 5:-16.82 6:-218.59 7:-81.129997 8:6.0300002 9:-374.31 10:-97.889999 11:-3.54 12:-242.97 13:-148.71001 14:-144.00999 15:-70.57 16:-210.27 17:-73.32 18:-171.05 19:-82.510002 #
-0.00015991232340113167636683200178993 1:-61.830002 2:-4.4000001 3:-53.970001 4:-6.0300002 5:-17.92 6:-117.27 7:-0.91000003 8:-67.919998 9:-95.540001 10:9.5799999 11:16.209999 12:-70.080002 13:26.43 14:-63.330002 15:-3.6199999 16:-62.84 17:0.47 18:-58.369999 19:2.54 #
0.00015991232340113167636683200178993 1:33.139999 2:4.4200001 3:22.780001 4:3.73 5:22.43 6:-38.110001 7:19.360001 8:57.110001 9:-8.5699997 10:-14.72 11:30.27 12:18.33 13:31.82 14:40.389999 15:6.4099998 16:32.650002 17:-0.74000001 18:43.080002 19:-3.3800001 #
-0.00015991232340113167636683200178993 1:-116.18 2:-101.23 3:-113.55 4:-105.53 5:-85.720001 6:-155.31 7:-126.93 8:11.15 9:-305.42999 10:-120.95 11:-100.07 12:-209.61 13:-148.39 14:-78.629997 15:-103.41 16:-112.09 17:-98 18:-135.98 19:-117.45 #
0.00015991232340113167636683200178993 1:15.69 2:12.21 3:26.73 4:16.25 5:19.389999 6:41.549999 7:29.98 8:32.07 9:72.040001 10:33.23 11:35.43 12:43.18 13:37.57 14:25.530001 15:17.559999 16:35.34 17:18.82 18:25.26 19:20.120001 #
-0.00015991232340113167636683200178993 1:96.629997 2:125.27 3:77.57 4:125.53 5:273.95001 6:103.02 7:34.68 8:37.52 9:88.169998 10:-24.51 11:-266.73999 12:-4.1999998 13:29.860001 14:30.540001 15:123.99 16:60.299999 17:122.58 18:18.01 19:133.86 #
0.00015991232340113167636683200178993 1:-85.849998 2:-15.13 3:-87.360001 4:-25.719999 5:-40.619999 6:-60.919998 7:-14.13 8:-82.480003 9:-82.379997 10:-25.549999 11:-23.41 12:-87.449997 13:-33.279999 14:-76.589996 15:-29.530001 16:-48.389999 17:-22.040001 18:-81.669998 19:-28.76 #
-0.00015991232340113167636683200178993 1:-9.1899996 2:6.1700001 3:-4.3499999 4:6.0599999 5:8.8599997 6:-7.1700001 7:12.65 8:-5.8499999 9:-7.6399999 10:14.62 11:8.1899996 12:-5.9899998 13:14.23 14:-4.1500001 15:8.3400002 16:-8.8299999 17:8.1499996 18:-9.25 19:8 #
0.00015991232340113167636683200178993 1:-70.610001 2:39.07 3:-85.120003 4:38.459999 5:29.049999 6:-48.869999 7:54 8:-52.330002 9:-61.110001 10:50.450001 11:37.509998 12:-69.709999 13:28.950001 14:-68 15:32.830002 16:-43.16 17:29.34 18:-67.610001 19:20.309999 #
-0.00015991232340113167636683200178993 1:-5.9200001 2:-46.59 3:-90.860001 4:-40.080002 5:-66.879997 6:-115.46 7:-56.790001 8:-81.839996 9:-244.72 10:-55.060001 11:1.74 12:-143.23 13:-32.900002 14:-0.33000001 15:-48.459999 16:-52.240002 17:-49.200001 18:-64.879997 19:-55.299999 #
0.00015991232340113167636683200178993 1:-76.550003 2:40.57 3:-90.349998 4:40.369999 5:29.08 6:-55.439999 7:55.849998 8:-59.48 9:-67.580002 10:51.560001 11:39.48 12:-76.129997 13:29.9 14:-71.290001 15:34.200001 16:-48.57 17:31.700001 18:-71.650002 19:23.09 #
-0.00015991232340113167636683200178993 1:-63.25 2:-6.2399998 3:-90.779999 4:-17.42 5:-28.059999 6:-34.959999 7:-84.040001 8:-161.75999 9:-4.8400002 10:-3.3900001 11:-407.84 12:-23.690001 13:21.110001 14:-67.389999 15:6.7399998 16:-69.620003 17:15.79 18:-70.080002 19:35.389999 #
0.00015991232340113167636683200178993 1:74.580002 2:44.099998 3:46.98 4:40.93 5:54.189999 6:58.32 7:44.759998 8:49.970001 9:85.589996 10:43.330002 11:44.849998 12:54.189999 13:44.52 14:50.029999 15:36.790001 16:63.029999 17:35.169998 18:44.279999 19:33.41 #
-0.00015991232340113167636683200178993 1:214.46001 2:121.53 3:153.28999 4:115.16 5:252.88 6:195.69 7:202.17999 8:-143.27 9:217.87 10:172.44 11:312.25 12:151.5 13:196.83 14:160.41 15:94.559998 16:209.50999 17:80.739998 18:191.67999 19:61.810001 #
0.00015991232340113167636683200178993 1:20.58 2:4.54 3:13.4 4:5.3299999 5:5.3800001 6:6.3600001 7:0.87 8:7.3699999 9:-3.5599999 10:-7.8200002 11:26.43 12:-7.4899998 13:-9.96 14:6.2399998 15:-0.029999999 16:10.13 17:-0.47999999 18:6.6999998 19:-3.3599999 #
-0.00015991232340113167636683200178993 1:-48.32 2:-47.41 3:-101.08 4:-40.080002 5:-75.519997 6:-128.89 7:-104.8 8:-131.32001 9:-106.64 10:-176.49001 11:-86.550003 12:-108.01 13:-280.66 14:-45.27 15:-41 16:-24.32 17:-42.790001 18:-58.23 19:-41.490002 #
0.00015991232340113167636683200178993 1:-113.47 2:-8.9300003 3:-107.74 4:-22.26 5:-32.060001 6:-75.989998 7:-12.79 8:-100.46 9:-88.629997 10:-14.41 11:-15.12 12:-101.04 13:-30.9 14:-93.080002 15:-22.52 16:-63.23 17:-14.27 18:-95.709999 19:-20.1 #
0.00015991232340113167636683200178993 1:-61.110001 2:3.04 3:-58.82 4:-3.9400001 5:-6.0300002 6:-52.77 7:-0.33000001 8:-52.34 9:-143.78 10:-12.05 11:3.26 12:-77.32 13:-30.43 14:-64.459999 15:-6.3200002 16:-80.910004 17:-0.88999999 18:-66.650002 19:-6.9299998 #
0.00015991232340113167636683200178993 1:21.559999 2:22.620001 3:25.15 4:24.48 5:32.360001 6:48.060001 7:39.18 8:22.139999 9:78.309998 10:46.509998 11:36.939999 12:47.810001 13:48.310001 14:30.08 15:27.030001 16:49.119999 17:26.809999 18:31.1 19:26.75 #
-0.00015991232340113167636683200178993 1:-6.8800001 2:7.2600002 3:-6.2600002 4:11.14 5:4.8299999 6:2.28 7:16.17 8:10.95 9:-2.76 10:10.9 11:0.43000001 12:-0.41999999 13:9.1899996 14:-4.8499999 15:13.88 16:-5.1100001 17:14.25 18:-6.2800002 19:12.7 #
-0.00015991232340113167636683200178993 1:-15.6 2:-0.72000003 3:-3.4000001 4:1.45 5:6.54 6:3.9200001 7:10.02 8:-8.1499996 9:-3.0899999 10:10.68 11:12.39 12:-3.9200001 13:12.01 14:0.25 15:3.3499999 16:-2.3 17:4.25 18:-3.0799999 19:4.7600002 #
0.00015991232340113167636683200178993 1:1.98 2:-0.02 3:-4.1700001 4:-4.0300002 5:-5.73 6:2.9300001 7:-6.9000001 8:-12.02 9:4.1999998 10:-10.28 11:-19.799999 12:21.450001 13:-9.5600004 14:-4.1900001 15:1.25 16:-6.7600002 17:1.13 18:-5.1799998 19:-0.14 #
0.00015991232340113167636683200178993 1:-47.75 2:3.49 3:-53.560001 4:-3.5999999 5:-6.0500002 6:-49.900002 7:0.44 8:-40.099998 9:-148.35001 10:-7.98 11:-6.2399998 12:-72.059998 13:-29.9 14:-57.720001 15:-4.96 16:-80.620003 17:0.83999997 18:-60.220001 19:-4.4099998 #
-0.00015991232340113167636683200178993 1:134.11 2:99.169998 3:107.01 4:98.910004 5:118.2 6:210.69 7:176.16 8:121.97 9:259.56 10:188.37 11:183.33 12:199.78999 13:228.84 14:96.449997 15:89.5 16:167.64999 17:83.160004 18:139.44 19:82.260002 #
0.00015991232340113167636683200178993 1:18.969999 2:-4.73 3:16.34 4:-3.3499999 5:-2.96 6:-45.330002 7:-1.26 8:20.42 9:-26.07 10:-42.490002 11:21.209999 12:-1.34 13:-5.7199998 14:27.02 15:-3.1199999 16:17.33 17:-10.35 18:26.58 19:-15 #
-0.00015991232340113167636683200178993 1:23.809999 2:34.759998 3:69.010002 4:26.459999 5:-81.120003 6:158.45 7:116.71 8:130.7 9:256.01999 10:136.41 11:132.41 12:259.78 13:145.36 14:65.970001 15:41.23 16:101.97 17:50.830002 18:66.349998 19:57.970001 #
-0.00015991232340113167636683200178993 1:-22.17 2:-36.549999 3:-116.18 4:-24.610001 5:-59.639999 6:-5.46 7:-9.0299997 8:-119.83 9:3.6800001 10:-47.25 11:35.84 12:-33.27 13:-60.09 14:-34.959999 15:-34.849998 16:-33.209999 17:-36.32 18:-61.869999 19:-51.09 #
0.00015991232340113167636683200178993 1:-10.91 2:37.540001 3:-16.860001 4:39.970001 5:22.65 6:-13.34 7:36.139999 8:10.05 9:-8.4300003 10:40.23 11:43.68 12:-4.9899998 13:41.549999 14:-10.55 15:40.110001 16:-12 17:41.119999 18:-10.78 19:44.799999 #
-0.00015991232340113167636683200178993 1:-13.18 2:-0.72000003 3:-4.1100001 4:1.15 5:-6.9699998 6:-21.799999 7:4.5500002 8:-18.9 9:-19.309999 10:32.580002 11:-0.94999999 12:-10.05 13:-8.9099998 14:-7.9099998 15:-2.26 16:-13.83 17:-2.2 18:-14.09 19:-3.4100001 #
0.00015991232340113167636683200178993 1:23.709999 2:21.530001 3:8.8400002 4:19.639999 5:22.459999 6:-2.3099999 7:16.74 8:21.07 9:4.25 10:10.97 11:46.849998 12:4.8099999 13:8.1800003 14:4.6199999 15:19.690001 16:4.98 17:19.93 18:3.77 19:16.09 #
0.00015991232340113167636683200178993 1:47.259998 2:-0.27000001 3:30.26 4:-3.04 5:-22.379999 6:58.549999 7:-46.150002 8:0.07 9:39.93 10:-42.509998 11:-79.970001 12:37.029999 13:-31.25 14:36.240002 15:0.63999999 16:45.209999 17:0.52999997 18:42.849998 19:11.03 #
0.00015991232340113167636683200178993 1:-6.9000001 2:-16.690001 3:-8.0600004 4:-15.07 5:-16.9 6:-8.96 7:10.97 8:-23.190001 9:-25.299999 10:1.59 11:-19.860001 12:49.16 13:-21.059999 14:-11.67 15:-17.459999 16:-5.3699999 17:-14.06 18:-12.32 19:-13.78 #
0.00015991232340113167636683200178993 1:-15.99 2:-13.83 3:-33.900002 4:-16.52 5:-22.02 6:-24.08 7:-19.549999 8:-21.549999 9:-98.910004 10:-14.23 11:-22.57 12:-43.950001 13:-51.779999 14:-29.08 15:-15.86 16:-60.48 17:-10.29 18:-35.360001 19:-9.79 #
0.00015991232340113167636683200178993 1:-12.16 2:-12.99 3:-7.1700001 4:-11.43 5:-9.1400003 6:-15.01 7:4.8200002 8:-34.98 9:-36.639999 10:-0.95999998 11:-11.88 12:31.559999 13:-21.530001 14:-8.9700003 15:-12.78 16:-5.52 17:-10.98 18:-12.1 19:-11.36 #
0.00015991232340113167636683200178993 1:23.540001 2:8.6700001 3:7.5100002 4:4.9499998 5:22.08 6:-56.630001 7:6.0100002 8:28.9 9:-25.77 10:-29.639999 11:30.469999 12:-1.9 13:10.88 14:23.700001 15:3.73 16:9.0600004 17:-4.1700001 18:23.639999 19:-6.8899999 #
0.00015991232340113167636683200178993 1:17.4 2:-16.49 3:27.879999 4:-15.49 5:-19.639999 6:-17.389999 7:-8.3100004 8:21.790001 9:-6.9699998 10:-23.15 11:16.68 12:5.6900001 13:0.88 14:22.09 15:-13.95 16:11.2 17:-20.959999 18:26.219999 19:-19.58 #
0.00015991232340113167636683200178993 1:-79.800003 2:-7.8499999 3:-82.129997 4:-18.110001 5:-34.580002 6:-57.330002 7:-10.87 8:-84.190002 9:-77.260002 10:-13.49 11:-18.85 12:-83.550003 13:-14.6 14:-71.970001 15:-21.620001 16:-44.18 17:-14.26 18:-77.919998 19:-21.049999 #
0.00015991232340113167636683200178993 1:3.75 2:-17.440001 3:-7.6599998 4:-17.58 5:-20.549999 6:-6.1900001 7:-10.99 8:-15.92 9:-21.959999 10:-38.259998 11:3.01 12:-23.940001 13:-43.09 14:-6.25 15:-22.360001 16:-8.6300001 17:-29.33 18:-9.46 19:-33.419998 #
-0.00015991232340113167636683200178993 1:-1.4299999 2:5.9899998 3:-4.1999998 4:6.1300001 5:8.8699999 6:-5.1799998 7:10.06 8:-4.5500002 9:-6.27 10:12.72 11:8.6000004 12:-4.5999999 13:14.46 14:-3.71 15:5.3899999 16:-5.9400001 17:7.27 18:-6.3699999 19:7.0300002 #
-0.00014288960811171294270141562954279 1:96.220001 2:129.7 3:87.220001 4:130.03999 5:276.09 6:119.2 7:42.34 8:37.830002 9:95.550003 10:-32.75 11:-278.64999 12:-2.0899999 13:21.93 14:36.419998 15:126.76 16:68.230003 17:125.43 18:25.68 19:136.53 #
0.00015991232340113167636683200178993 1:18.08 2:-10.8 3:12.54 4:-9.6300001 5:-5.9099998 6:-43.869999 7:-8.3599997 8:12.76 9:-24.690001 10:-48.84 11:7.3400002 12:-3.0899999 13:-10.9 14:22.59 15:-9.0600004 16:13.84 17:-17.09 18:23.940001 19:-21.66 #
-0.00015991232340113167636683200178993 1:-23.68 2:58.029999 3:-27.299999 4:65.889999 5:52.799999 6:-24.24 7:56.889999 8:-30.85 9:-25.4 10:41.419998 11:69.830002 12:-25.030001 13:78.110001 14:-19.790001 15:65.309998 16:-30.469999 17:66.57 18:-29.59 19:67.709999 #
0.00015991232340113167636683200178993 1:-10.62 2:-40.48 3:-7.5100002 4:-39.18 5:-43.110001 6:-5.0700002 7:-28.49 8:-23.07 9:-6.71 10:-38.560001 11:-9.9899998 12:-8.2399998 13:-38.5 14:-11.98 15:-41.459999 16:-8.4399996 17:-45.41 18:-7.9400001 19:-46.549999 #
-0.00015991232340113167636683200178993 1:22.32 2:19.299999 3:30.65 4:18.370001 5:23.1 6:15.27 7:18.17 8:20.610001 9:10.75 10:4.6300001 11:43.560001 12:9.8699999 13:1.85 14:23.299999 15:18.66 16:26.07 17:17.370001 18:22.09 19:13.37 #
0.00015991232340113167636683200178993 1:18.68 2:-12.79 3:11.25 4:-11.75 5:-5.5700002 6:-42.279999 7:-9.9799995 8:13.67 9:-23.389999 10:-50.189999 11:2.9100001 12:-3.29 13:-11.98 14:21.790001 15:-10.9 16:13.28 17:-19.08 18:23.66 19:-23.57 #
-0.00015991232340113167636683200178993 1:-21.33 2:11.76 3:0.20999999 4:7.5 5:14.24 6:-16.42 7:28.690001 8:-15.54 9:-10.27 10:4.73 11:6.6100001 12:-6.5599999 13:47.490002 14:-9.1000004 15:11.12 16:-9.3299999 17:11.92 18:-7.5700002 19:11.22 #
-0.00015991232340113167636683200178993 1:-44.860001 2:-49.52 3:-96.980003 4:-41.990002 5:-78.910004 6:-116.04 7:-102.68 8:-137.66 9:-93.940002 10:-171.38 11:-76.290001 12:-101.64 13:-265.76001 14:-43.880001 15:-43.810001 16:-24.450001 17:-45.720001 18:-59.360001 19:-45.23 #
0.00015991232340113167636683200178993 1:-80.769997 2:-17.49 3:-99.330002 4:-14.49 5:-34.490002 6:-73.650002 7:-3.75 8:-68.370003 9:-92.519997 10:-19.639999 11:-25.49 12:-100.4 13:-34.810001 14:-77.309998 15:-24.629999 16:-63.27 17:-23.01 18:-73.169998 19:-29 #
0.00015991232340113167636683200178993 1:52.810001 2:42.849998 3:26.92 4:40.41 5:43.790001 6:32.099998 7:38.900002 8:30.860001 9:60.310001 10:46.889999 11:36.110001 12:33.57 13:48.73 14:31.540001 15:40.470001 16:36.900002 17:38.790001 18:22.92 19:37.970001 #
-0.00015991232340113167636683200178993 1:-8.0600004 2:-40.110001 3:-11.52 4:-38.299999 5:-65.199997 6:-78.029999 7:-83.480003 8:-16.129999 9:-154.71001 10:-80.07 11:-5.9099998 12:-92.75 13:-63.130001 14:-1.96 15:-53.59 16:-3.3299999 17:-52.73 18:-50.84 19:-59.369999 #
-0.00015991232340113167636683200178993 1:-15.9 2:-3.49 3:-25.709999 4:-2.48 5:-18.24 6:11.6 7:-6.9099998 8:12.08 9:9.0900002 10:18.57 11:13.26 12:11.4 13:7.5100002 14:-1 15:2.96 16:-19.440001 17:4.2600002 18:-18.360001 19:6.3699999 #
-0.00015991232340113167636683200178993 1:2.3 2:-13.43 3:7.5999999 4:-14.91 5:-1.63 6:5.9200001 7:-3.9400001 8:-1.04 9:3.8699999 10:2.0699999 11:2.78 12:6.3899999 13:5.5700002 14:7.4299998 15:-14.51 16:9.25 17:-14.24 18:9.5299997 19:-13.68 #
-0.00015991232340113167636683200178993 1:19.08 2:20.809999 3:80.279999 4:11.63 5:-28.200001 6:57.209999 7:61.209999 8:27.83 9:139.66 10:57.290001 11:-53.049999 12:132.78 13:31.17 14:66.309998 15:22.559999 16:111.08 17:24.01 18:96.18 19:24.040001 #
-0.00015991232340113167636683200178993 1:29.01 2:18.01 3:98.730003 4:10 5:-83.029999 6:167.59 7:101.99 8:132.38 9:278.98999 10:132 11:95.379997 12:267.88 13:127.65 14:84.360001 15:25.139999 16:129.46001 17:36.330002 18:100.09 19:45.099998 #
-0.00015991232340113167636683200178993 1:-0.56 2:8.9099998 3:-10.59 4:9.9799995 5:17.709999 6:1.47 7:15.54 8:1.02 9:-2.5 10:13.24 11:13.12 12:-2.9100001 13:12.7 14:-11.69 15:9.6499996 16:-13.85 17:8.8900003 18:-13.32 19:9.8100004 #
-0.00015991232340113167636683200178993 1:-6.6100001 2:0.41 3:-6.25 4:1.65 5:7.5 6:-0.1 7:8.0699997 8:-3.4400001 9:-0.58999997 10:7.21 11:14.24 12:0.090000004 13:5.27 14:-4.8200002 15:-0.34999999 16:-5.1399999 17:1.17 18:-5.6300001 19:1.88 #
0.00015991232340113167636683200178993 1:55.810001 2:31.17 3:38.509998 4:30.700001 5:39.139999 6:46.439999 7:32.169998 8:34.98 9:73.300003 10:29.73 11:28.27 12:44.209999 13:33.689999 14:42.779999 15:27.059999 16:56.139999 17:24.85 18:36.490002 19:24.02 #
-0.00015991232340113167636683200178993 1:-16.1 2:8.7600002 3:-15.98 4:10.4 5:8.29 6:-10.51 7:4.3099999 8:-13.73 9:-19.370001 10:-0.54000002 11:-0.23 12:-16.1 13:-0.31999999 14:-13.26 15:5.5700002 16:-14.62 17:5.1399999 18:-13.33 19:3.1800001 #
0.00015991232340113167636683200178993 1:-51.110001 2:-33.380001 3:-71.589996 4:-26.75 5:-37.639999 6:-49.970001 7:-11.85 8:-28.780001 9:-63.43 10:-17.639999 11:-26.09 12:-47.02 13:-37.150002 14:-56.509998 15:-37.439999 16:-56.18 17:-37.150002 18:-50.369999 19:-37.52 #
0.00015991232340113167636683200178993 1:51.830002 2:41.889999 3:25.530001 4:39.740002 5:42.75 6:30.59 7:37.959999 8:30.440001 9:59.060001 10:46.049999 11:33.459999 12:32.779999 13:47.360001 14:29.860001 15:39.950001 16:34.919998 17:38.27 18:21.16 19:37.630001 #
0.00015991232340113167636683200178993 1:36.759998 2:-10.76 3:32.939999 4:-4.3899999 5:-2.48 6:52.25 7:8.8400002 8:21.41 9:62.48 10:21.75 11:4.1900001 12:42.049999 13:19.42 14:38.950001 15:-11.59 16:75.610001 17:-10.9 18:42.029999 19:-11.49 #
0.00015991232340113167636683200178993 1:8.1499996 2:-1.39 3:15.76 4:0.77999997 5:5.6500001 6:15.25 7:7.3000002 8:10.84 9:60.34 10:12.11 11:30.219999 12:31.940001 13:25.219999 14:8.2600002 15:2 16:-9.4300003 17:0.88 18:6.2399998 19:1.1 #
0.00015991232340113167636683200178993 1:-48.950001 2:-30.66 3:-47.619999 4:-26.51 5:-23.559999 6:-57.009998 7:-12.89 8:-18.75 9:-71.919998 10:-23.139999 11:-9.21 12:-51.23 13:-37.580002 14:-51.040001 15:-30.299999 16:-54.189999 17:-33.52 18:-41.599998 19:-33.900002 #
0.00015991232340113167636683200178993 1:6.4699998 2:38.080002 3:17.75 4:37.720001 5:53.110001 6:-43.220001 7:22.66 8:37.419998 9:-32.529999 10:17.639999 11:37.07 12:-26.66 13:26.450001 14:4.46 15:38.279999 16:-9.0299997 17:33.93 18:4.21 19:33.330002 #
0.00015991232340113167636683200178993 1:46.98 2:-10.42 3:41.099998 4:-10.15 5:-6.2399998 6:62.23 7:3.6700001 8:37.189999 9:30.959999 10:24.57 11:-19.65 12:45.049999 13:-1.1 14:36.75 15:-14.7 16:40.740002 17:-11.19 18:33.509998 19:-10.47 #
0.00015991232340113167636683200178993 1:-12.9 2:10.99 3:-4.48 4:15.36 5:24.66 6:-53.93 7:-14.07 8:20.48 9:-57.130001 10:-19.620001 11:7.96 12:-54.98 13:-21.66 14:-17.790001 15:9.3900003 16:-26.09 17:3.76 18:-19.030001 19:3.1700001 #
0.00015991232340113167636683200178993 1:16.93 2:37.900002 3:19.76 4:37.240002 5:49.18 6:-50.860001 7:15.17 8:42.560001 9:-35.98 10:-1.13 11:21.309999 12:-35.75 13:7.9099998 14:12.35 15:31.940001 16:-2.8599999 17:26.360001 18:8.3500004 19:25.299999 #
0.00015991232340113167636683200178993 1:-2.5999999 2:-12.63 3:-2 4:-9.3299999 5:-7 6:-0.57999998 7:-1.65 8:-2.3299999 9:-3.3800001 10:-3.01 11:0.69999999 12:0.95999998 13:-1.02 14:-4.79 15:-9.8000002 16:-3.8599999 17:-9.4399996 18:-4.1399999 19:-8.1199999 #
-0.00015991232340113167636683200178993 1:-19.09 2:-1.39 3:3.1500001 4:-3.72 5:14.25 6:-15.49 7:-3.55 8:-14.68 9:-10.72 10:-11.04 11:-18.290001 12:-10.76 13:1.0599999 14:-12.42 15:-5.48 16:-6.8000002 17:-5.25 18:-7.3800001 19:-8.96 #
-0.00015991232340113167636683200178993 1:229.81 2:121.14 3:185.14999 4:115.13 5:350.31 6:188.84 7:179.69 8:-150.33 9:193.56 10:156.06 11:248.00999 12:140.59 13:206.98 14:180.60001 15:92.339996 16:217.06 17:76.489998 18:203.24001 19:53.099998 #
0.00015991232340113167636683200178993 1:0.69 2:13.22 3:-5.5700002 4:8.1700001 5:18.629999 6:-23.950001 7:2.77 8:-5.5999999 9:-20.280001 10:-2.5899999 11:5.23 12:-26.99 13:-3.1300001 14:-18.040001 15:6.73 16:-28.809999 17:6.4699998 18:-24.040001 19:2.1500001 #
0.00015991232340113167636683200178993 1:-37.119999 2:-25.59 3:-45.52 4:-24.790001 5:-20.07 6:-56.119999 7:-18.219999 8:-20.370001 9:-77.120003 10:-33.709999 11:-29.73 12:-53.950001 13:-43.32 14:-39.830002 15:-28.07 16:-47.66 17:-30.91 18:-27.809999 19:-31.83 #
0.00015991232340113167636683200178993 1:0.44999999 2:11.16 3:-5.6300001 4:6.4499998 5:16.809999 6:-24.629999 7:-0.039999999 8:-6.6300001 9:-20.940001 10:-5.5700002 11:1.59 12:-27.719999 13:-6.25 14:-17.889999 15:4.9400001 16:-28.290001 17:4.8299999 18:-23.6 19:0.56 #
-0.00015991232340113167636683200178993 1:-2.3800001 2:93.790001 3:-16.82 4:92.910004 5:79.669998 6:-3.4300001 7:85.07 8:1.66 9:-17.639999 10:64.43 11:99.949997 12:-9.1899996 13:80.559998 14:-14.84 15:94.910004 16:-21.25 17:94.940002 18:-17.879999 19:96.330002 #
0.00015991232340113167636683200178993 1:-38.25 2:-30.860001 3:-44.68 4:-29.73 5:-26.18 6:-56.57 7:-22.43 8:-20.870001 9:-77.580002 10:-36.18 11:-33.380001 12:-53.380001 13:-46.330002 14:-40.720001 15:-32.919998 16:-47.889999 17:-35.639999 18:-28.629999 19:-36.450001 #
-0.00015991232340113167636683200178993 1:-17.77 2:-17.42 3:-15.45 4:-15.61 5:-21.17 6:-16.98 7:-16.5 8:-20.309999 9:-14.03 10:-14.62 11:-20.75 12:-11.02 13:-14.6 14:-16.25 15:-13.66 16:-14.61 17:-12.92 18:-14.6 19:-14.98 #
0.00015991232340113167636683200178993 1:-90.949997 2:-18.629999 3:-81.779999 4:-27.02 5:-34.970001 6:-60.07 7:-16.709999 8:-89.139999 9:-108.84 10:-46.950001 11:-14.2 12:-83.099998 13:-42.900002 14:-72.150002 15:-26.51 16:-48.669998 17:-20.82 18:-75.5 19:-27.469999 #
0.00015991232340113167636683200178993 1:-19.200001 2:-18.280001 3:-27.15 4:-25.33 5:-61.529999 6:-34.490002 7:-82.230003 8:-133.37 9:-20.049999 10:-66.419998 11:-62.16 12:-9.6300001 13:-24.5 14:-1.76 15:-13.53 16:-5.48 17:-13.88 18:2.22 19:-2.6800001 #
-0.00015991232340113167636683200178993 1:-154.00999 2:-72.290001 3:-130.88 4:-69.309998 5:-24.5 6:-288.45999 7:-120.96 8:-6.27 9:-424.67001 10:-141.06 11:38.240002 12:-256.14001 13:-155.56 14:-159.53999 15:-77 16:-282.79001 17:-84.410004 18:-193.36 19:-90.660004 #
0.00015991232340113167636683200178993 1:38.23 2:1.89 3:41.349998 4:8.5699997 5:11.26 6:59.900002 7:25.24 8:24.610001 9:61.540001 10:31.9 11:19.030001 12:48.98 13:21.9 14:37.810001 15:2.0799999 16:66.139999 17:3.5599999 18:38.509998 19:3.3099999 #
-0.00015991232340113167636683200178993 1:249.66 2:146.23 3:171.10001 4:136.7 5:327.48001 6:183.75999 7:149.41 8:-10.37 9:186.11 10:117.07 11:405.85999 12:156.42999 13:161.72 14:188.00999 15:120.35 16:222.87 17:105.23 18:215.86 19:88.129997 #
0.00015991232340113167636683200178993 1:-0.63999999 2:-12.28 3:-6.4099998 4:-11.73 5:-9.2700005 6:-17.969999 7:17.629999 8:-21.52 9:-40.549999 10:9 11:-23.129999 12:35.540001 13:-19.75 14:-9.3699999 15:-16.85 16:-7.3699999 17:-14.58 18:-15.63 19:-15.4 #
0.00015991232340113167636683200178993 1:-92.699997 2:-12.34 3:-97.169998 4:-23.379999 5:-35.889999 6:-66.18 7:-9.6300001 8:-86.449997 9:-88 10:-30.540001 11:-14.71 12:-84.089996 13:-38.34 14:-83.279999 15:-26.610001 16:-56.32 17:-19.77 18:-87.599998 19:-25.639999 #
-0.00015991232340113167636683200178993 1:-32.41 2:-30.91 3:-26.18 4:-27.33 5:-20.91 6:-11.36 7:-14.63 8:-35.889999 9:-1.53 10:-22.92 11:-33.119999 12:2.5999999 13:-26.51 14:-22.870001 15:-30.09 16:-19.030001 17:-32.290001 18:-17.379999 19:-26.1 #
-0.00015991232340113167636683200178993 1:-18.5 2:-11.22 3:-9.0100002 4:-10.68 5:-10.07 6:-4.4200001 7:-13.71 8:-16.879999 9:-9.8599997 10:-5.98 11:-34.349998 12:-7.6999998 13:-10.13 14:-17.540001 15:-11.27 16:-14.74 17:-9.6400003 18:-16.27 19:-7.8000002 #
-0.00015991232340113167636683200178993 1:-1.5599999 2:98.559998 3:-12.8 4:98.690002 5:87.470001 6:0.11 7:91.050003 8:4.4499998 9:-13.17 10:71.900002 11:105.36 12:-3.5699999 13:87.779999 14:-13.71 15:99.489998 16:-19.549999 17:99.739998 18:-17.809999 19:101.83 #
0.00015991232340113167636683200178993 1:-31.74 2:-10.25 3:-48.639999 4:-8.5699997 5:-4.1900001 6:-49.650002 7:-2.95 8:-13.76 9:-69.760002 10:-22.4 11:-16.74 12:-50.310001 13:-33.77 14:-37.450001 15:-15.14 16:-45.91 17:-17.74 18:-25.690001 19:-17.959999 #
-0.00015991232340113167636683200178993 1:-93.849998 2:-86.510002 3:-79.349998 4:-88.550003 5:-78.019997 6:-123.41 7:-99.379997 8:17.129999 9:-269.92001 10:-106.04 11:-131.03999 12:-199.25 13:-135.41 14:-69.050003 15:-84.739998 16:-90.129997 17:-78.099998 18:-122.66 19:-88.610001 #
