SVM-light Version V6.02
0 # kernel type
3 # kernel parameter -d 
1 # kernel parameter -g 
1 # kernel parameter -s 
1 # kernel parameter -r 
empty# kernel parameter -u 
38 # highest feature index 
13199 # number of training documents 
9646 # number of support vectors plus 1 
0.99974157 # threshold b, each following line is a SV (starting with alpha*y)
-3.9704544832378143375223138178409e-06 1:30.440001 2:-26.209999 3:7.1399999 4:-29.889999 5:-147.49001 6:175.72 7:-59.23 8:-23.67 9:279.04001 10:-14.12 11:69.519997 12:-265.04999 13:39.709999 14:-4.5799999 15:-30.309999 16:15.43 17:-33.040001 18:20.299999 19:-54.98 #
-3.9704544832378143375223138178409e-06 1:276.89001 2:78.389999 3:371.95001 4:65.379997 5:185.89999 6:524.28998 7:314.72 8:376.76999 9:684.84998 10:80.25 11:258.44 12:320.95001 13:82.510002 14:372.20001 15:83.150002 16:516.14001 17:85.139999 18:442.54999 19:97.18 #
-3.9704544832378143375223138178409e-06 1:-1009.36 2:-87.239998 3:-1132.62 4:-64.779999 5:7.8400002 6:-941.07001 7:-3.5999999 8:-977.96997 9:-935.21997 10:-79.690002 11:46.240002 12:-912.13 13:-85.379997 14:-1019.6 15:-88.389999 16:-1120.96 17:-80.389999 18:-1108.13 19:-69.480003 #
3.9704544832378143375223138178409e-06 1:578.62 2:61.529999 3:539.34998 4:7.9699998 5:56.25 6:768.79999 7:-38.060001 8:873.98999 9:909.44 10:67.190002 11:-123.7 12:342.22 13:-137.17999 14:754.28003 15:113.55 16:589.94 17:115.36 18:596.27002 19:111.49 #
-3.9704544832378143375223138178409e-06 1:1064.51 2:-63.720001 3:521.75 4:-94.410004 5:-225.95 6:544.77002 7:-179.94 8:791.47998 9:95.900002 10:-183.07001 11:-706.88 12:875.90002 13:95.199997 14:1010.45 15:-63.529999 16:710.25 17:-37.060001 18:833.90997 19:-72.209999 #
3.9704544832378143375223138178409e-06 1:-186 2:151.63 3:-192.78999 4:138.88 5:149 6:-110.24 7:96.220001 8:-296.70999 9:19.91 10:97.260002 11:-107.44 12:-584.28998 13:197.72 14:-217.84 15:146.59 16:-219.84 17:148.10001 18:-224.48 19:141.39 #
3.9704544832378143375223138178409e-06 1:7.4899998 2:37.439999 3:20.07 4:40.970001 5:25.860001 6:10.01 7:26.790001 8:31.35 9:24.99 10:48.32 11:33.18 12:-1.6900001 13:49.849998 14:22.84 15:37.360001 16:12.2 17:35.950001 18:10.23 19:28.200001 #
-3.9704544832378143375223138178409e-06 1:549.21002 2:-53.939999 3:458.78 4:-59.720001 5:-47.150002 6:534.04999 7:-105.21 8:465.85001 9:443.10001 10:-190.64999 11:-139.66 12:355.04999 13:-5.3000002 14:614.76001 15:-46.130001 16:636.28998 17:-42.02 18:624.88 19:-62.799999 #
-3.9704544832378143375223138178409e-06 1:327.92001 2:35.830002 3:766.39001 4:-45.700001 5:-241.21001 6:468.07999 7:-186.24001 8:678.07001 9:732.65002 10:76.550003 11:102.11 12:-235.39 13:-205.12 14:419.07001 15:62.330002 16:422.39999 17:79.150002 18:429.22 19:94.769997 #
3.9704544832378143375223138178409e-06 1:-287.64999 2:-150 3:-285.73999 4:-126.48 5:-131.35001 6:-332.26001 7:-172.64 8:-354.5 9:-250.14 10:-156.3 11:-79.470001 12:0.95999998 13:-58.419998 14:-222.52 15:-171.7 16:-272.01001 17:-166.46001 18:-283.64001 19:-182.33 #
-3.9704544832378143375223138178409e-06 1:328.14999 2:31.77 3:677.08002 4:-57.720001 5:-208.34 6:544.53998 7:-263.07001 8:813.66998 9:789.25 10:91.470001 11:-21.530001 12:-239.83 13:-208.75 14:386.10001 15:52.099998 16:377.92001 17:65.080002 18:385.53 19:79.370003 #
3.9704544832378143375223138178409e-06 1:-151.96001 2:145.41 3:-220.86 4:143.28 5:169.85001 6:-179.33 7:150.73 8:-133.58 9:-292.20001 10:100.53 11:159.10001 12:-364.66 13:133.89 14:-187.7 15:148.55 16:-221.86 17:147.25 18:-216.02 19:150.41 #
-3.9704544832378143375223138178409e-06 1:673.97998 2:91.900002 3:392.09 4:96.43 5:212.53 6:798.88 7:376.35001 8:845.42999 9:670.92999 10:291.51999 11:287.26999 12:508.28 13:215.89999 14:560.29999 15:91.300003 16:521.06 17:59.16 18:542.90002 19:60.310001 #
3.9704544832378143375223138178409e-06 1:582.53003 2:59.970001 3:586.77002 4:6.04 5:136.17 6:753.02002 7:-56.389999 8:931.42999 9:841.42999 10:101.69 11:-118.07 12:354.38 13:-114.13 14:789.78998 15:109.51 16:621.72998 17:112.93 18:623.70001 19:107.99 #
-3.9704544832378143375223138178409e-06 1:323.72 2:30.01 3:658.82001 4:-61.049999 5:-194.11 6:549.76001 7:-272.73999 8:820.01001 9:796.77002 10:94.230003 11:-47.240002 12:-241.22 13:-206.52 14:378.03 15:48.59 16:371.20001 17:61.009998 18:379.51999 19:74.029999 #
3.9704544832378143375223138178409e-06 1:-279.81 2:-151.07001 3:-274.28 4:-126.91 5:-134.82001 6:-324.97 7:-175.08 8:-380.04999 9:-242.89999 10:-157.52 11:-70.790001 12:13.1 13:-58.939999 14:-210.12 15:-172.64999 16:-260.89001 17:-168.02 18:-272.48999 19:-182.78999 #
3.9704544832378143375223138178409e-06 1:-166.03 2:11.76 3:-210.78 4:26.34 5:4.1700001 6:-238.37 7:-129.17999 8:-133.24001 9:-284.73001 10:-94.339996 11:34.459999 12:-8.8000002 13:249.19 14:-201.94 15:22.57 16:-199.19 17:31.65 18:-190.53999 19:11.84 #
3.9704544832378143375223138178409e-06 1:-171.61 2:13.09 3:-211.64 4:26.85 5:9.9499998 6:-243.28999 7:-122.58 8:-128.82001 9:-291.12 10:-86.449997 11:29.700001 12:-10.23 13:253.61 14:-201.05 15:23.83 16:-201.07001 17:33.139999 18:-193.34 19:12.9 #
-3.9704544832378143375223138178409e-06 1:311.54999 2:29.379999 3:613.28998 4:-69.269997 5:-146.36 6:534.37 7:-286.34 8:802.58002 9:810.20001 10:99.019997 11:-96.720001 12:-243.53999 13:-192.50999 14:358.75 15:40.259998 16:359.54999 17:49.5 18:371.14999 19:59.040001 #
-3.9704544832378143375223138178409e-06 1:-1005.63 2:-85.910004 3:-1129.6899 4:-63.880001 5:3.97 6:-943.5 7:-15.57 8:-975.44 9:-936.65997 10:-82.330002 11:55.23 12:-914.94 13:-86.760002 14:-1011.73 15:-86.980003 16:-1100.04 17:-79.779999 18:-1092.77 19:-69.07 #
-3.9704544832378143375223138178409e-06 1:307.70999 2:89.550003 3:439.35999 4:75.529999 5:172.16 6:546.09003 7:232.25999 8:462.85999 9:692.06 10:63.82 11:278.01999 12:384.64999 13:87.419998 14:410.20999 15:101.61 16:533.21002 17:107.41 18:471.26999 19:121.81 #
3.9704544832378143375223138178409e-06 1:439.82999 2:32.939999 3:480.67999 4:-18.440001 5:81.190002 6:583.02002 7:-167.74001 8:810.96997 9:514.98999 10:-25.469999 11:140.23 12:297.98001 13:-207.81 14:509.07999 15:77.629997 16:499.95999 17:77.449997 18:495.23999 19:79.790001 #
3.9704544832378143375223138178409e-06 1:19.370001 2:-32.369999 3:29.98 4:-43.720001 5:-329.92001 6:138.27 7:-104.33 8:-486.98999 9:203.06 10:-31.190001 11:359.69 12:47.029999 13:187.38 14:61.080002 15:-58.91 16:-24.059999 17:-77.459999 18:-20.08 19:-145.2 #
-3.9704544832378143375223138178409e-06 1:1036.77 2:-42.529999 3:556.22998 4:-69.879997 5:-137.14999 6:644.19 7:-115.99 8:685.82001 9:492.51999 10:-88.389999 11:-515.44 12:1078.0601 13:82.019997 14:708.15002 15:-80.290001 16:519.32001 17:-54.34 18:603.69 19:-104.13 #
-3.9704544832378143375223138178409e-06 1:-911.21002 2:-50.040001 3:-852.5 4:-27.700001 5:-55.200001 6:-917.90997 7:-139.64999 8:-870.72998 9:-875.53998 10:-92.230003 11:122.54 12:-880.81 13:-72.129997 14:-875.59003 15:-50.560001 16:-865.5 17:-47.23 18:-885.16998 19:-40.450001 #
3.9704544832378143375223138178409e-06 1:575.44 2:58.07 3:609.56 4:4.2600002 5:197.31 6:747.16998 7:-69.209999 8:920 9:793.21997 10:115.74 11:-116.85 12:346.51001 13:-110.26 14:775.09998 15:104.62 16:631.88 17:108.03 18:632.64001 19:101.16 #
3.9704544832378143375223138178409e-06 1:-327.09 2:-149.48 3:-233.63 4:-106.8 5:-158.77 6:-405.07999 7:-175.97 8:-197.48 9:-382.64999 10:-164.49001 11:-103.47 12:-66.790001 13:-102.29 14:-248.48 15:-165.5 16:-292.60001 17:-153.45 18:-303.92001 19:-173.60001 #
-3.9704544832378143375223138178409e-06 1:666.57001 2:-57.66 3:605.58002 4:-67.349998 5:-47.110001 6:616.39001 7:-109.3 8:553.09003 9:601.35999 10:-192.28 11:-138.24001 12:491.59 13:-13.66 14:715.37 15:-52.139999 16:754.63 17:-54.18 18:744.65002 19:-80.199997 #
3.9704544832378143375223138178409e-06 1:-176.50999 2:22.299999 3:-175.7 4:38.110001 5:39.060001 6:-269.79001 7:-28.68 8:-79.32 9:-264.51001 10:-30.59 11:-17.67 12:28.73 13:253.38 14:-213.82001 15:29.129999 16:-197.74001 17:38.02 18:-194.42 19:9.9300003 #
-3.9704544832378143375223138178409e-06 1:-90.550003 2:-47.720001 3:33.799999 4:-48.84 5:121.71 6:-80.739998 7:-99.410004 8:-63.360001 9:-36.049999 10:-15.21 11:-83.519997 12:118.41 13:-111.92 14:-27.360001 15:-41.009998 16:-24.51 17:-21.469999 18:-31.6 19:2.9400001 #
-3.9704544832378143375223138178409e-06 1:1067.9399 2:-64.18 3:552.03998 4:-95.970001 5:-229.10001 6:538.71002 7:-178.49001 8:762.59003 9:97.550003 10:-198.82001 11:-727.85999 12:839.06 13:91.739998 14:1052.9301 15:-61.32 16:751.12 17:-36.540001 18:877.03998 19:-72.330002 #
3.9704544832378143375223138178409e-06 1:-31.959999 2:-241.28999 3:-82.339996 4:-256.16 5:-281.29001 6:-63.43 7:-202.03999 8:-215.87 9:-141.2 10:-264.92001 11:-231.22 12:-79.050003 13:-255.89999 14:-91.18 15:-244.00999 16:-70.589996 17:-244.42 18:-65.239998 19:-256 #
3.9704544832378143375223138178409e-06 1:-357.92001 2:-134.7 3:-227.74001 4:-75.699997 5:-159.62 6:-430.78 7:-171.24001 8:-190.92 9:-403.20999 10:-160.2 11:-17.85 12:18.6 13:-62.259998 14:-264.76001 15:-159.42999 16:-312.09 17:-145.00999 18:-323.07999 19:-163.60001 #
-3.9704544832378143375223138178409e-06 1:403.28 2:18.6 3:441.64001 4:1.83 5:64.150002 6:465.42001 7:-76.169998 8:308.19 9:310.78 10:-106.27 11:-49.169998 12:91.709999 13:91.68 14:489.29001 15:33.529999 16:482.17001 17:21.48 18:467.53 19:22.18 #
-3.9704544832378143375223138178409e-06 1:-47.740002 2:-8.0500002 3:-26.24 4:16.33 5:-47.610001 6:-143.91 7:-29.08 8:-235.45 9:-190 10:-56.34 11:19.280001 12:353.54001 13:10.4 14:16.620001 15:-11.22 16:-28.139999 17:0.029999999 18:-56.959999 19:-15.72 #
3.9704544832378143375223138178409e-06 1:-360.26001 2:-135.89 3:-226.71001 4:-76.440002 5:-162.87 6:-431.85001 7:-173.74001 8:-191.62 9:-403.42999 10:-159.8 11:-16.99 12:23.15 13:-61.25 14:-265.44 15:-160.39999 16:-311.41 17:-145.33 18:-322.76001 19:-163.2 #
-2.3279957880058080603360298743709e-06 1:312.03 2:82.379997 3:433.14999 4:68.120003 5:174.74001 6:555.70001 7:271.28 8:450.94 9:715.02002 10:71.82 11:277.47 12:392.39001 13:89.779999 14:412.32001 15:92.019997 16:544.5 17:97.589996 18:477.29001 19:111.9 #
3.9704544832378143375223138178409e-06 1:-34.220001 2:-234.39 3:-89.040001 4:-249.08 5:-273.01999 6:-67.940002 7:-194.75 8:-219.64 9:-145.44 10:-258.29999 11:-223.96001 12:-81.690002 13:-249.88 14:-97.199997 15:-238.34 16:-78 17:-238.60001 18:-73.379997 19:-248.87 #
3.9704544832378143375223138178409e-06 1:-172.61 2:-11.2 3:141.89 4:-20.91 5:-392.42999 6:-63.919998 7:-277.98999 8:0.63 9:217.33 10:-17.33 11:64.57 12:-637.13 13:13.17 14:-255.77 15:-36.860001 16:-27.450001 17:-44.68 18:-52.049999 19:-29.780001 #
-3.9704544832378143375223138178409e-06 1:-95.120003 2:370.17999 3:-32.93 4:366.35001 5:346.56 6:6.5799999 7:409.53 8:-174.10001 9:37.619999 10:434.39001 11:421.13 12:49.5 13:345.79999 14:-94.739998 15:390.25 16:-109.52 17:411.38 18:-105.6 19:393.47 #
3.9704544832378143375223138178409e-06 1:-175.64999 2:23.73 3:-177.67 4:39.549999 5:38.82 6:-268.26001 7:-31.52 8:-80.839996 9:-268.56 10:-34.439999 11:-15.12 12:30.139999 13:252.47 14:-214.66 15:30.780001 16:-198.63 17:39.25 18:-194.99001 19:11.15 #
3.9704544832378143375223138178409e-06 1:-32.75 2:-52.009998 3:-29.280001 4:-45.650002 5:-44.400002 6:-33.919998 7:-68.449997 8:0.0099999998 9:-21.65 10:-10.37 11:-49.759998 12:-5.0300002 13:-36.139999 14:-40.34 15:-61.950001 16:-38.169998 17:-65.050003 18:-40.880001 19:-59.720001 #
-3.9704544832378143375223138178409e-06 1:21.01 2:-2.71 3:-11.98 4:-12.44 5:30.68 6:-86.120003 7:60.34 8:-25.58 9:-234.53999 10:4.0599999 11:-57.34 12:349.25 13:68.779999 14:2.6500001 15:-7.6199999 16:-7.8800001 17:-3.9200001 18:-3.05 19:-25.08 #
3.9704544832378143375223138178409e-06 1:-152.28999 2:7.8200002 3:-204.02 4:23.84 5:-8.7600002 6:-225.50999 7:-141.71001 8:-139.46001 9:-269.39001 10:-113.35 11:40.77 12:-0.31 13:234.89 14:-197.12 15:18.549999 16:-190.23 17:26.84 18:-179.99001 19:7.8200002 #
-3.9704544832378143375223138178409e-06 1:-965.53998 2:-36.889999 3:-855.65997 4:-17.299999 5:-143.60001 6:-925.71002 7:-292.07001 8:-996.19 9:-909.48999 10:-175.38 11:-27.77 12:-903.57001 13:-148.84 14:-959.41998 15:-44.950001 16:-1048.79 17:-40.869999 18:-1005.13 19:-21.16 #
3.9704544832378143375223138178409e-06 1:-155.28999 2:143.84 3:-224.28999 4:142.03999 5:174.5 6:-183.72 7:142.91 8:-138.83 9:-297.51001 10:94.709999 11:147.10001 12:-375.20001 13:128.95 14:-198.85001 15:147.35001 16:-222.82001 17:145.59 18:-216.77 19:148.07001 #
3.9704544832378143375223138178409e-06 1:-159.53999 2:10.03 3:-208.31 4:25.389999 5:-2.1199999 6:-232.42999 7:-135.59 8:-136.8 9:-277.32999 10:-103.49 11:38.27 12:-5.4099998 13:242.85001 14:-200.84 15:20.83 16:-195.60001 17:29.549999 18:-186.09 19:10.13 #
3.9704544832378143375223138178409e-06 1:570.07001 2:62.080002 3:520.26001 4:8.7799997 5:37.720001 6:770.15002 7:-31.559999 8:828.37 9:923.40997 10:56.610001 11:-128.38 12:325.92001 13:-146.56 14:724.34998 15:114.02 16:573.15002 17:115.23 18:581.38 19:111.53 #
3.9704544832378143375223138178409e-06 1:-102.12 2:-14.64 3:-170.92999 4:-19.620001 5:-479.09 6:-32.75 7:-147.45 8:387.53 9:229.61 10:36.279999 11:37.25 12:-527.89001 13:55.16 14:-233.45 15:-39.040001 16:-48.959999 17:-49.459999 18:-38.610001 19:-55.73 #
3.9704544832378143375223138178409e-06 1:-8.0900002 2:-92.269997 3:-34.380001 4:-76.610001 5:-165.06 6:-144.72 7:-99.160004 8:-151.88 9:-259.51999 10:-177.38 11:-2.4400001 12:128.11 13:-185.72 14:-58.290001 15:-122.22 16:-64.779999 17:-124.02 18:-61.009998 19:-145.74001 #
-3.9704544832378143375223138178409e-06 1:180.64 2:-10.77 3:166.45 4:-95.660004 5:-207.12 6:387.5 7:-29.35 8:308.95999 9:465.54999 10:-49.66 11:-822.20001 12:-178.72 13:-123.13 14:189.24001 15:-47.560001 16:354.26999 17:-81.089996 18:280.92999 19:-137.73 #
-3.9704544832378143375223138178409e-06 1:-964.79999 2:-88.949997 3:-1032.5 4:-65.110001 5:19.85 6:-902.03003 7:27.889999 8:-938 9:-881.75 10:-73.519997 11:4.3200002 12:-847.71002 13:-79.57 14:-975.87 15:-90.919998 16:-1097.79 17:-79.510002 18:-1074.41 19:-68.150002 #
-3.9704544832378143375223138178409e-06 1:-997.03003 2:-83.760002 3:-1115.76 4:-62.099998 5:-0.25999999 6:-943.39001 7:-28.76 8:-967.94 9:-933.73999 10:-84.949997 11:63.75 12:-913 13:-87.459999 14:-997.75 15:-84.809998 16:-1071.46 17:-78.300003 18:-1070.1899 19:-67.709999 #
-3.9704544832378143375223138178409e-06 1:309.73001 2:31 3:600.35999 4:-71.080002 5:-133.64 6:523.09998 7:-286.56 8:787.62 9:811.98999 10:99.169998 11:-96.379997 12:-243.88 13:-186.25999 14:354.19 15:38.84 16:357.48999 17:46.290001 18:370.35001 19:54.959999 #
-3.9704544832378143375223138178409e-06 1:-743.96997 2:-32.43 3:-630.66998 4:-6.75 5:-41.27 6:-670.46002 7:-483.69 8:-619.03003 9:-700.53998 10:-132.39999 11:-210.06 12:-729.65997 13:-200.07001 14:-711.41998 15:-43.68 16:-707.21002 17:-45 18:-755.56 19:-30.33 #
3.9704544832378143375223138178409e-06 1:19.74 2:-36.549999 3:1.42 4:-47.970001 5:-337.89999 6:135.73 7:-103.28 8:-436.01001 9:207.28 10:-38.57 11:345.89999 12:58.470001 13:187.52 14:47.360001 15:-64.029999 16:-38.599998 17:-83.440002 18:-34.040001 19:-151.89999 #
3.9704544832378143375223138178409e-06 1:-199.98 2:48.619999 3:-323.26999 4:2.04 5:18.379999 6:-162.57001 7:68.769997 8:-214.64 9:-157.25 10:18.24 11:-31.639999 12:-685.72998 13:-75.059998 14:-276.39999 15:46.669998 16:-304.17001 17:48.27 18:-286.69 19:34.740002 #
-3.9704544832378143375223138178409e-06 1:-929.90002 2:-61.189999 3:-948.04999 4:-39.869999 5:-28.01 6:-925.67999 7:-99.110001 8:-896.44 9:-889.78998 10:-90.25 11:105.35 12:-879.16998 13:-76.830002 14:-900.92999 15:-61.880001 16:-907.97998 17:-57.619999 18:-928.40997 19:-47.849998 #
3.9704544832378143375223138178409e-06 1:570.78003 2:56.459999 3:617.31 4:2.73 5:224.73 6:746.95001 7:-75.470001 8:908.35999 9:771.78003 10:117.96 11:-113.73 12:342.45001 13:-112.19 14:760.03998 15:101.46 16:634.07001 17:104.31 18:634.64001 19:95.970001 #
-3.9704544832378143375223138178409e-06 1:1068.17 2:-64.849998 3:585.31 4:-97.559998 5:-228.5 6:538.70001 7:-172.07001 8:729.02002 9:111.66 10:-210.99001 11:-746.44 12:803.22998 13:87.190002 14:1079.49 15:-60.029999 16:782.22998 17:-36.889999 18:908.5 19:-73.830002 #
3.9704544832378143375223138178409e-06 1:-208.97 2:41.349998 3:-332.23001 4:-9.4200001 5:35.549999 6:-170.03 7:68.040001 8:-250.92 9:-171.87 10:19.469999 11:-42.48 12:-698.90997 13:-69.540001 14:-282.19 15:37.529999 16:-305.31 17:39.380001 18:-286.32999 19:21.26 #
3.9704544832378143375223138178409e-06 1:544.20001 2:43.68 3:612.53998 4:-10.4 5:275.32001 6:741.44 7:-94.769997 8:877.65002 9:699.56 10:98.07 11:-62 12:341.67001 13:-134.28999 14:675.77002 15:83.830002 16:616.73999 17:81.410004 18:617.09003 19:65.449997 #
3.9704544832378143375223138178409e-06 1:-30.040001 2:-243.58 3:-76.239998 4:-258.78 5:-284.82999 6:-59.93 7:-204.27 8:-212.61 9:-137.99001 10:-266.67999 11:-233.38 12:-76.309998 13:-257.32001 14:-84.120003 15:-245.19 16:-63.599998 17:-245.83 18:-57.720001 19:-258.67001 #
3.9704544832378143375223138178409e-06 1:-193.42999 2:-7.1799998 3:125.87 4:-17.23 5:-386.64001 6:-74.370003 7:-287.39001 8:-42.529999 9:206.10001 10:-21.969999 11:93.669998 12:-635.54999 13:7.9899998 14:-266.60999 15:-30.98 16:-50.25 17:-37.91 18:-77.379997 19:-19.48 #
3.9704544832378143375223138178409e-06 1:-113.68 2:-140.55 3:-87.559998 4:-140.89999 5:-34.939999 6:-231.71001 7:-98.360001 8:-207.60001 9:-192.28999 10:-162.5 11:-139.42999 12:183.84 13:64.93 14:-128.92999 15:-143.39 16:-135.00999 17:-125.53 18:-136.13 19:-149.23 #
-3.9704544832378143375223138178409e-06 1:67.889999 2:-64.449997 3:434.79999 4:-79.07 5:-109.63 6:247.44 7:-207.42999 8:-355.98001 9:324.82999 10:7.5599999 11:-368.60999 12:601.46002 13:72.709999 14:124.49 15:-57.279999 16:60.950001 17:-29.58 18:75.769997 19:-74.900002 #
3.9704544832378143375223138178409e-06 1:-83.949997 2:-18.139999 3:18.98 4:-22.83 5:-458.06 6:-44.200001 7:-177.77 8:307.47 9:237.89999 10:0.54000002 11:41.16 12:-596.56 13:28.91 14:-189.52 15:-43.970001 16:33.939999 17:-51.23 18:35.360001 19:-48.43 #
-3.9704544832378143375223138178409e-06 1:-984.88 2:-80.639999 3:-1092.3199 4:-59.290001 5:-4.8200002 6:-941.31 7:-42.709999 8:-956.35999 9:-927.34003 10:-87.209999 11:72.059998 12:-907.46997 13:-87.169998 14:-979.41998 15:-81.690002 16:-1037.92 17:-75.769997 18:-1042.65 19:-65.220001 #
3.9704544832378143375223138178409e-06 1:-18.09 2:-97.57 3:56.360001 4:-89.330002 5:4.6399999 6:-185.28 7:-39.369999 8:-237.82001 9:-202.3 10:-207.37 11:-384.69 12:195.23 13:82.260002 14:12.96 15:-121.88 16:-14.23 17:-107.97 18:-25.440001 19:-125.08 #
3.9704544832378143375223138178409e-06 1:305.51999 2:74.169998 3:322.63 4:51.439999 5:58.5 6:352.62 7:78.510002 8:334.89001 9:340.22 10:102.5 11:1.6900001 12:105.84 13:4.02 14:324.62 15:79.580002 16:311.48001 17:67.769997 18:307.82001 19:84.989998 #
-3.9704544832378143375223138178409e-06 1:652.45001 2:94.870003 3:388.25 4:102.2 5:211.24001 6:766.12 7:381.54999 8:823.84003 9:648.95001 10:285.54001 11:308.22 12:486.97 13:221.75999 14:549.90997 15:95.529999 16:525.08002 17:64.25 18:544.53998 19:61.240002 #
-3.9704544832378143375223138178409e-06 1:226.32001 2:-37.18 3:349.32001 4:-125.33 5:-415.16 6:438.17999 7:-92.709999 8:1039.59 9:650.28003 10:-62.900002 11:-858.07001 12:-88.129997 13:-149.63 14:239.55 15:-86.650002 16:383.64999 17:-126.31 18:323.57001 19:-195.37 #
-3.9704544832378143375223138178409e-06 1:298.28 2:49.43 3:483.79999 4:33.900002 5:168.06 6:320.62 7:170.25 8:169.50999 9:228.37 10:-4.5599999 11:458.84 12:34.529999 13:-0.27000001 14:466.03 15:65.550003 16:651.66998 17:44.360001 18:542.21997 19:56.119999 #
3.9704544832378143375223138178409e-06 1:-212.47 2:44.060001 3:-321.87 4:-7.8600001 5:46.919998 6:-167.24001 7:81.470001 8:-277.13 9:-172.61 10:39.189999 11:-45.93 12:-693.58002 13:-43.5 14:-270.78 15:43.700001 16:-293.07001 17:46.830002 18:-274.57999 19:26.84 #
-3.9704544832378143375223138178409e-06 1:633.81 2:81.800003 3:338.42001 4:83.309998 5:205.84 6:776.67999 7:379.28 8:789.69 9:640.79999 10:294.51999 11:262.53 12:473.88 13:189.94 14:511.41 15:79.629997 16:447.41 17:46.529999 18:473.60999 19:51.59 #
3.9704544832378143375223138178409e-06 1:-208.24001 2:46.860001 3:-292.73999 4:-6.3400002 5:37.029999 6:-175.88 7:82.709999 8:-322.48999 9:-184.98 10:35.549999 11:-59.740002 12:-665.29999 13:-47.02 14:-254.89 15:54.540001 16:-280.87 17:59.419998 18:-265.66 19:35.639999 #
3.9704544832378143375223138178409e-06 1:166.41 2:-38.509998 3:292.26999 4:-39.349998 5:262.09 6:280.95999 7:-91.779999 8:632.02002 9:282.82999 10:52.150002 11:-161.75999 12:294.42001 13:-80.059998 14:248.49001 15:-36.349998 16:278.39999 17:-31.469999 18:267.14001 19:-33.299999 #
3.9704544832378143375223138178409e-06 1:-323.09 2:-131.25 3:-183.21001 4:-81.25 5:-146.62 6:-375.48999 7:-157.53999 8:-157.31 9:-351.29001 10:-151.46001 11:-38.220001 12:-35.75 13:-82.040001 14:-205.42999 15:-148.45 16:-243.63 17:-135.56 18:-250.33 19:-154.94 #
-3.9704544832378143375223138178409e-06 1:309.35001 2:33.029999 3:587.09998 4:-72.589996 5:-125.02 6:511.82001 7:-285.42001 8:769.88 9:812.73999 10:98.730003 11:-84.790001 12:-244.32001 13:-179.74001 14:350.10999 15:38 16:355.35999 17:43.299999 18:369.41 19:51.220001 #
-3.9704544832378143375223138178409e-06 1:-927.04999 2:-51.220001 3:-812.40997 4:-28.51 5:-105.49 6:-918.47998 7:-188.02 8:-880.40997 9:-890.28998 10:-104.06 11:110.13 12:-910.08002 13:-85.18 14:-906.34998 15:-53.470001 16:-898.58002 17:-50.41 18:-911.02002 19:-48.560001 #
-3.9704544832378143375223138178409e-06 1:-779.16998 2:-32.029999 3:-662.88 4:-8.2600002 5:-47.279999 6:-702.96002 7:-470.48999 8:-688.21997 9:-732.46002 10:-158.66 11:-218.11 12:-760.21002 13:-204.77 14:-763.78998 15:-39.650002 16:-759.32001 17:-40.400002 18:-806.98999 19:-25.719999 #
-3.9704544832378143375223138178409e-06 1:720.28003 2:-43.619999 3:726.78003 4:-55.400002 5:-33.349998 6:569.85999 7:-106.54 8:571.71002 9:620.54999 10:-194.38 11:-168.95 12:544.39001 13:-13.08 14:751.89001 15:-40.799999 16:817.53003 17:-45.400002 18:804.06 19:-67.919998 #
-3.9704544832378143375223138178409e-06 1:-244.64999 2:-16.34 3:-230.39999 4:-1.21 5:23.370001 6:-386.64001 7:14 8:51.720001 9:-615.53003 10:-45.889999 11:-0.31 12:767.07001 13:28.32 14:-210.77 15:-5.5700002 16:-173.24001 17:13.58 18:-165.37 19:20.66 #
3.9704544832378143375223138178409e-06 1:-109.41 2:-18.790001 3:157.47 4:-26.559999 5:-415.04001 6:-34.669998 7:-237.08 8:143.91 9:246.57001 10:-11.61 11:4.27 12:-629.94 13:19.799999 14:-203.94 15:-47.639999 16:40.060001 17:-56.209999 18:26.02 19:-48.360001 #
3.9704544832378143375223138178409e-06 1:-128.00999 2:-2.9000001 3:-140.00999 4:0.74000001 5:47.439999 6:-303.76999 7:20.4 8:-200.03999 9:-443.22 10:-55.18 11:-83.769997 12:196.55 13:-20.48 14:-143.00999 15:-0.52999997 16:-143.71001 17:9.6499996 18:-147.19 19:-6.0100002 #
-3.9704544832378143375223138178409e-06 1:-985.09003 2:-46.849998 3:-863.41998 4:-28.440001 5:-164.00999 6:-936.69 7:-250 8:-974.32001 9:-935.79999 10:-137.00999 11:8.0100002 12:-924.47998 13:-115.25 14:-989.67999 15:-56.139999 16:-1014.72 17:-50.93 18:-1006.4 19:-38.200001 #
3.9704544832378143375223138178409e-06 1:511.31 2:30.629999 3:571.16998 4:-23.9 5:238.53 6:705.42999 7:-107.04 8:875.76001 9:643.32001 10:66.599998 11:16.959999 12:347.67001 13:-155.06 14:608.78003 15:69.610001 16:575.37 17:63.450001 18:573.78998 19:44.849998 #
3.9704544832378143375223138178409e-06 1:-196.12 2:52.48 3:-315.59 4:7.7199998 5:11.67 6:-156.52 7:72.650002 8:-201.63 9:-147.75999 10:23.549999 11:-25.639999 12:-677.73999 13:-70.050003 14:-269.54001 15:52.240002 16:-298.79001 17:53.84 18:-282.03 19:42.189999 #
-3.9704544832378143375223138178409e-06 1:228.82001 2:-35.310001 3:364.63 4:-123.22 5:-436.06 6:436.44 7:-105.57 8:1145.52 9:670.71002 10:-45.040001 11:-704.46002 12:-93.730003 13:-140.24001 14:246.97 15:-85.550003 16:358.85001 17:-125.55 18:306.26001 19:-195.7 #
-3.9704544832378143375223138178409e-06 1:734.59003 2:-46.84 3:726.66998 4:-58.810001 5:-35.150002 6:609.84003 7:-105.09 8:591.81 9:653.73999 10:-193.28999 11:-156.2 12:563.5 13:-13.71 14:767.31 15:-43.990002 16:829.84998 17:-49.09 18:817.79999 19:-73.709999 #
3.9704544832378143375223138178409e-06 1:516.12 2:64.059998 3:451.35999 4:11.31 5:6.8899999 6:739.65002 7:-6.6399999 8:628.97998 9:916.78003 10:40.490002 11:-141.82001 12:235.73 13:-165.95 14:589.51001 15:112.89 16:498.38 17:112.83 18:511.95999 19:109.49 #
-3.9704544832378143375223138178409e-06 1:300.89001 2:93.519997 3:436.25 4:79.720001 5:171.03 6:536.09998 7:211.19 8:463.81 9:673.87 10:60.66 11:276.26999 12:372.32001 13:86.910004 14:403.25 15:106.14 16:521.33002 17:111.63 18:462.32999 19:125.59 #
-3.9704544832378143375223138178409e-06 1:-955.90997 2:-71.709999 3:-1025.4 4:-50.650002 5:-15.15 6:-933.84998 7:-71.239998 8:-926.28003 9:-908.67999 10:-89.82 11:88.800003 12:-891.65997 13:-83.269997 14:-937.63 15:-72.68 16:-967.27002 17:-67.68 18:-982.13 19:-57.23 #
3.9704544832378143375223138178409e-06 1:-150.21001 2:-14.58 3:154.75999 4:-23.799999 5:-398.89001 6:-52.09 7:-266 8:47.279999 9:229.19 10:-14.21 11:37.27 12:-636.15002 13:16.690001 14:-239.72 15:-41.849998 16:-2.79 17:-50.279999 18:-24.23 19:-38.380001 #
-3.9704544832378143375223138178409e-06 1:18.110001 2:58.490002 3:-3.6600001 4:70.720001 5:73.849998 6:-0.44999999 7:61.299999 8:28.030001 9:-31.02 10:48.799999 11:48.02 12:-61.209999 13:39.119999 14:19.190001 15:26.84 16:17.4 17:6.5900002 18:20 19:28.459999 #
-2.6420922578263029256012955209298e-06 1:215.14999 2:-31.280001 3:299.76001 4:-118.68 5:-350.92001 6:429.76999 7:-69.07 8:791.09003 9:596.5 10:-63.349998 11:-909.87 12:-101.67 13:-145.03 14:227.64999 15:-77.160004 16:393.37 17:-115.08 18:326.07999 19:-180.41 #
-3.9704544832378143375223138178409e-06 1:-35.060001 2:371.19 3:168.09 4:355.22 5:388.97 6:117.35 7:502.39001 8:34.389999 9:132.39999 10:476.81 11:445.17999 12:155.53999 13:424.54999 14:13.16 15:399.5 16:34.490002 17:422.32999 18:18.540001 19:408.39001 #
3.9704544832378143375223138178409e-06 1:-50.310001 2:-279.82001 3:-55.360001 4:-290.34 5:-285.35999 6:-98.43 7:-331.92999 8:-25.9 9:-105.11 10:-308.32999 11:-248.82001 12:-36.68 13:-276.01001 14:-69.190002 15:-270.57999 16:-77.519997 17:-258.51999 18:-81.910004 19:-301.85001 #
-3.9704544832378143375223138178409e-06 1:28.33 2:-69.970001 3:302.07999 4:-87.830002 5:60.860001 6:79.809998 7:-373.17001 8:71.599998 9:391.39001 10:-154.67 11:-471.22 12:-226.22 13:-382.70001 14:-90.269997 15:-64.309998 16:-87.550003 17:-49.130001 18:-49.060001 19:-96.959999 #
3.9704544832378143375223138178409e-06 1:-122.41 2:165.16 3:-166.11 4:162.3 5:176.03999 6:-136.95 7:191.77 8:-134.78 9:-221.72 10:145.41 11:265.13 12:-326.42001 13:117.92 14:-134.14 15:155.75 16:-162.03 17:162.50999 18:-154.98 19:160.82001 #
-3.9704544832378143375223138178409e-06 1:-970.66998 2:-76.559998 3:-1061.42 4:-55.41 5:-9.75 6:-937.92999 7:-56.98 8:-942 9:-918.59003 10:-88.860001 11:80.379997 12:-899.84003 13:-85.739998 14:-958.72998 15:-77.589996 16:-1002.28 17:-72.169998 18:-1012.52 19:-61.650002 #
3.9704544832378143375223138178409e-06 1:-175.39 2:156.17999 3:-194.42999 4:143.14999 5:159.00999 6:-98.860001 7:99.510002 8:-272.06 9:27.82 10:100.4 11:-94.599998 12:-582.22998 13:198.77 14:-216.3 15:151.89999 16:-219.74001 17:152.87 18:-224.87 19:146.08 #
-3.9704544832378143375223138178409e-06 1:302.47 2:41.400002 3:465.98999 4:22.719999 5:158.67 6:331.73001 7:156.5 8:204.89 9:204.35001 10:12.14 11:441 12:37.23 13:35.009998 14:488.64001 15:58.900002 16:653.59003 17:37.57 18:551.96997 19:53.189999 #
-3.9704544832378143375223138178409e-06 1:306.84 2:13.86 3:370.78 4:-101.17 5:-185.77 6:490.88 7:-275.41 8:673.96002 9:803.09003 10:116.1 11:181.60001 12:-250.35001 13:-118.07 14:293.94 15:21.559999 16:289.98999 17:10.99 18:308.23999 19:13.36 #
3.9704544832378143375223138178409e-06 1:461.14001 2:65.019997 3:397.62 4:12.25 5:-3.05 6:687.22998 7:15 8:477.54001 9:871.78998 10:42.77 11:-140.31 12:152.8 13:-167.3 14:482.37 15:110.18 16:431.14001 17:109.7 18:446.85999 19:106.16 #
3.9704544832378143375223138178409e-06 1:-36.48 2:-223.53999 3:-95.599998 4:-238.23 5:-260.76001 6:-72.800003 7:-182.89 8:-223.58 9:-149.77 10:-247.19 11:-211.92 12:-83.349998 13:-239.41 14:-101.66 15:-228.67 16:-85.019997 17:-228.87 18:-81.309998 19:-237.92 #
-3.9704544832378143375223138178409e-06 1:200.39999 2:10.18 3:297.32001 4:-83.379997 5:-268.85001 6:392.51001 7:-105.23 8:-98.410004 9:671.08002 10:124.79 11:200.37 12:-79.669998 13:-53.080002 14:302.41 15:-14.38 16:289.59 17:-44.970001 18:261.45001 19:-92.489998 #
-3.9704544832378143375223138178409e-06 1:-911.44 2:-31.290001 3:-830.71997 4:-10.01 5:-100.76 6:-864.22998 7:-346.45001 8:-945.09998 9:-860.01001 10:-213.22 11:-116.76 12:-870.16998 13:-194.96001 14:-941.20001 15:-34.98 16:-1062.5 17:-33.369999 18:-1017.82 19:-15.56 #
-3.9704544832378143375223138178409e-06 1:311.78 2:35.860001 3:553.59003 4:-76.040001 5:-123.5 6:495.23999 7:-281.28 8:731.25 9:812.01001 10:97.540001 11:-27.42 12:-246.12 13:-166.41 14:341.23999 15:36.849998 16:347.94 17:37.060001 18:363.97 19:43.57 #
3.9704544832378143375223138178409e-06 1:-109.82 2:-139.37 3:-69.129997 4:-139.75999 5:-33.009998 6:-242.94 7:-95.07 8:-212.86 9:-193.32001 10:-168.59 11:-156.17 12:176.69 13:61.75 14:-112.09 15:-144.85001 16:-123.65 17:-126.63 18:-125.39 19:-151.44 #
3.9704544832378143375223138178409e-06 1:489.85001 2:64.650002 3:424.89001 4:11.91 5:1.72 6:716.15002 7:3.8099999 8:552.59003 9:897.59998 10:40.700001 11:-142.53999 12:195.36 13:-167.7 14:535.97998 15:111.72 16:465.92001 17:111.43 18:480.76001 19:108.06 #
-3.9690803116923402524187508566555e-06 1:274.17999 2:-59.470001 3:785.88 4:-82.279999 5:45.23 6:627.73999 7:-273.10001 8:26.549999 9:803.04999 10:-87.139999 11:-604.72998 12:325.67001 13:-227.75 14:208.24001 15:-49.490002 16:3.9200001 17:-23.9 18:68.43 19:-59.59 #
3.9704544832378143375223138178409e-06 1:-210.89999 2:49.950001 3:-302.69 4:-1.74 5:46.939999 6:-168.39999 7:91.290001 8:-303.26001 9:-176.27 10:49.490002 11:-52.040001 12:-676.73999 13:-29.780001 14:-256.67999 15:54.939999 16:-282.97 17:59.990002 18:-266.79999 19:38.349998 #
3.9704544832378143375223138178409e-06 1:538.71002 2:63.389999 3:476.28 4:10.53 5:13.81 6:756.53003 7:-16.059999 8:702.89001 9:927.76001 10:42.889999 11:-138.56 12:271.95999 13:-161.69 14:640.28998 15:113.68 16:527.40002 17:113.93 18:539.39001 19:110.51 #
3.9704544832378143375223138178409e-06 1:-200.73 2:14.16 3:-176.89 4:28.360001 5:42.32 6:-276.70001 7:-21.51 8:-112.68 9:-239.09 10:-22.059999 11:-15.21 12:-2.24 13:238.28999 14:-216.63 15:17.709999 16:-200.61 17:28.530001 18:-200.25999 19:4.1500001 #
-3.9073034491930142106559664672005e-06 1:308.45001 2:79.690002 3:423.29999 4:65.459999 5:176.47 6:554.06 7:287.20999 8:438.60999 9:717.46997 10:75.330002 11:274.51001 12:385.34 13:89.989998 14:407.01001 15:87.800003 16:543.28998 17:92.769997 18:473.92001 19:106.57 #
-3.9704544832378143375223138178409e-06 1:314.25 2:32.889999 3:499.98999 4:-82.669998 5:-142.25 6:489.85001 7:-277.59 8:697.34998 9:809.15997 10:99.339996 11:62.25 12:-248.89 13:-151.46001 14:327.70001 15:33.630001 16:332.01001 17:28.620001 18:349.35999 19:33.450001 #
-3.9704544832378143375223138178409e-06 1:1056.96 2:-67.230003 3:660.33002 4:-101.51 5:-216.71001 6:558.17999 7:-145.17 8:652.32001 9:158.31 10:-220.21001 11:-764.72998 12:733.73999 13:76.580002 14:1082.59 15:-60.310001 16:813.60999 17:-40.099998 18:934.75 19:-79.68 #
3.9704544832378143375223138178409e-06 1:-210.78 2:41.279999 3:-330.37 4:-10.19 5:40.189999 6:-169.58 7:71.660004 8:-260.81 9:-172.89 10:25.200001 11:-44.009998 12:-698.90997 13:-61.639999 14:-279.57001 15:38.150002 16:-301.79999 17:40.310001 18:-282.75 19:21.299999 #
-3.9704544832378143375223138178409e-06 1:-998.97998 2:-88.339996 3:-1103.37 4:-65.050003 5:14.52 6:-927.28998 7:15.47 8:-966.96997 9:-917.47998 10:-75.540001 11:26.219999 12:-889.96002 13:-82.059998 14:-1012.69 15:-89.860001 16:-1131.92 17:-80.099998 18:-1110.99 19:-68.730003 #
-3.9704544832378143375223138178409e-06 1:106.07 2:10.67 3:20 4:-16.139999 5:-2.03 6:203.89 7:-0.13 8:167.97 9:71.980003 10:17 11:-163.73 12:-526.44 13:-218.22 14:139.96001 15:11.35 16:53.779999 17:13.42 18:50.189999 19:14.96 #
-3.9501630022054437518796987660608e-06 1:270.69 2:-59.689999 3:789.47998 4:-82.18 5:15.83 6:627.85999 7:-265.56 8:-37.470001 9:780.84003 10:-72.32 11:-599.28998 12:363.01999 13:-197.41 14:227.92 15:-49.139999 16:29.950001 17:-22.57 18:87.910004 19:-58.009998 #
3.9704544832378143375223138178409e-06 1:-117.12 2:-140.28 3:-114.62 4:-140.36 5:-41.360001 6:-212.53999 7:-104.44 8:-192.85001 9:-189.78999 10:-153.06 11:-107.82 12:195.72 13:68.300003 14:-145.47 15:-136.33 16:-143.84 17:-119.09 18:-143.7 19:-139.7 #
3.9704544832378143375223138178409e-06 1:-210.63 2:-2.8599999 3:110.29 4:-13.13 5:-381.17999 6:-80.440002 7:-293.72 8:-80.519997 9:197.84 10:-27.99 11:119.8 12:-630.10999 13:1.24 14:-269.92999 15:-24.790001 16:-68.589996 17:-30.74 18:-97.410004 19:-8.4399996 #
3.9704544832378143375223138178409e-06 1:-327.82999 2:-150.11 3:-227.52 4:-105.67 5:-163.64999 6:-407.92001 7:-178.88 8:-194.36 9:-388.62 10:-170 11:-95.529999 12:-73.139999 13:-106.69 14:-241.47 15:-167.06 16:-288.14999 17:-155.28 18:-299.45001 19:-174.99001 #
-3.9704544832378143375223138178409e-06 1:310.20999 2:34.880001 3:572.08002 4:-74.110001 5:-121.5 6:502.19 7:-283.48001 8:750.65002 9:812.70001 10:98.029999 11:-61.5 12:-245.03999 13:-173.13 14:345.98999 15:37.48 16:352.42001 17:40.330002 18:367.54001 19:47.549999 #
3.9704544832378143375223138178409e-06 1:-355.04999 2:-133.71001 3:-227.34 4:-75.220001 5:-156.55 6:-428.76999 7:-169.67999 8:-189.09 9:-402.07999 10:-161.5 11:-19.540001 12:13.36 13:-64.900002 14:-262.75 15:-158.56 16:-310.79999 17:-144.77 18:-321.26999 19:-164.00999 #
3.9704544832378143375223138178409e-06 1:-86.620003 2:-55.419998 3:-132.11 4:-49.25 5:-252.94 6:-158.99001 7:29.92 8:-281.5 9:-171.49001 10:-44.759998 11:68.470001 12:-116.95 13:-160.44 14:-116.3 15:-49.23 16:-112.83 17:-56.91 18:-115.01 19:-36.279999 #
3.9704544832378143375223138178409e-06 1:-95.940002 2:-15.71 3:-106.68 4:-20.24 5:-474.70001 6:-44.029999 7:-155.3 8:364.35001 9:228.86 10:21.93 11:52.23 12:-555.75 13:44.639999 14:-217.89 15:-40.130001 16:-18.43 17:-48.91 18:-10.57 19:-51.369999 #
3.9704544832378143375223138178409e-06 1:534.42999 2:39.23 3:601.48999 4:-15.06 5:269.51001 6:733.10999 7:-98.400002 8:876.65997 9:681.63 10:88.489998 11:-38.209999 12:344.39999 13:-140.97 14:652.73999 15:78.730003 16:604.96002 17:74.800003 18:604.88 19:57.34 #
3.9704544832378143375223138178409e-06 1:565.57001 2:54.240002 3:621.91998 4:0.52999997 5:247.53 6:747.54999 7:-81.300003 8:896.76001 9:752.26001 10:116.87 11:-107.37 12:339.70999 13:-116.16 14:741.59998 15:97.75 16:634 17:99.68 18:634.54999 19:89.559998 #
3.9704544832378143375223138178409e-06 1:-104.72 2:-137.22 3:-49.009998 4:-137.52 5:-32.25 6:-254.85001 7:-91.089996 8:-216.64999 9:-194.88 10:-174.50999 11:-172.08 12:170.17999 13:59.009998 14:-90.739998 15:-144.67999 16:-108.99 17:-126.08 18:-111.35 19:-151.58 #
-3.9704544832378143375223138178409e-06 1:-941.96002 2:-66.440002 3:-986.77002 4:-45.310001 5:-21.17 6:-929.63 7:-85.300003 8:-910.65997 9:-898.73999 10:-90.18 11:97.230003 12:-884.39001 13:-80.120003 14:-917.89001 15:-67.279999 16:-935.21997 17:-62.669998 18:-953.52002 19:-52.439999 #
3.9704544832378143375223138178409e-06 1:318.56 2:2.28 3:324.69 4:-19.32 5:-8.7299995 6:373.23001 7:33.41 8:343.76001 9:346.45999 10:56.740002 11:-53.639999 12:105.05 13:-87.660004 14:317.14001 15:3.5 16:317.87 17:3.71 18:318.94 19:12.62 #
-3.9704544832378143375223138178409e-06 1:-478.44 2:-80.43 3:-381.42999 4:-46.130001 5:-116.44 6:-489.57001 7:-413.03 8:405.17999 9:-395.20999 10:-137.77 11:-1007.78 12:-425.42001 13:-165.2 14:-553.67999 15:-111.11 16:-678.03998 17:-107.59 18:-573.46997 19:-81.940002 #
3.9704544832378143375223138178409e-06 1:316.69 2:34.110001 3:314.92001 4:11.19 5:43.259998 6:367.44 7:46.860001 8:349.19 9:350.78 10:68.339996 11:-75.910004 12:96.839996 13:-68.050003 14:317.26001 15:34.009998 16:319.39001 17:31.799999 18:321.66 19:48.09 #
3.9704544832378143375223138178409e-06 1:259.67999 2:-38.5 3:385.17999 4:-76.269997 5:15.9 6:338.03 7:-159.03 8:430.82001 9:264.62 10:-33.369999 11:-104.3 12:192.53 13:-42.84 14:398.13 15:-34.040001 16:358.42999 17:-37.709999 18:352.16 19:-39.220001 #
-3.9704544832378143375223138178409e-06 1:300.32001 2:5.25 3:319.45001 4:-108.52 5:-197.46001 6:489.26999 7:-275.04999 8:674.07001 9:801.22998 10:126.28 11:198.23 12:-249.3 13:-102.5 14:279.67001 15:16.6 16:273.25 17:5.1999998 18:291.57001 19:7.3299999 #
-3.9704544832378143375223138178409e-06 1:290.13 2:77.449997 3:391.70999 4:63.810001 5:181.77 6:537.64001 7:308.94 8:400.82999 9:701.88 10:79.470001 11:264.26999 12:348.59 13:86.239998 14:385.84 15:82.940002 16:528.28998 17:86.019997 18:455.73001 19:98.5 #
3.9704544832378143375223138178409e-06 1:-178.98 2:61.66 3:-277.82001 4:22.790001 5:-20.32 6:-125.69 7:87.559998 8:-162.16 9:-98.959999 10:50.389999 11:-1.03 12:-646.13 13:-40.490002 14:-231.44 15:68.459999 16:-263.26001 17:68.690002 18:-248.56 19:62.599998 #
-3.9704544832378143375223138178409e-06 1:630.88 2:95.400002 3:377.48999 4:103.93 5:208.74001 6:738.57001 7:386.67999 8:799.88 9:627.83002 10:283.04001 11:317.82999 12:465.70999 13:223.61 14:535.27002 15:96.779999 16:517.03003 17:66.330002 18:535.29999 19:61.080002 #
-3.9704544832378143375223138178409e-06 1:-972.85999 2:-39.080002 3:-857.65002 4:-19.950001 5:-150.64 6:-931.09998 7:-280.75 8:-994.59998 9:-917.87 10:-164.72 11:-17.17 12:-909.03998 13:-138.74001 14:-966.53003 15:-47.799999 16:-1037.78 17:-43.32 18:-1002.93 19:-24.719999 #
-3.9693979480285020524678307740629e-06 1:70.790001 2:-67.639999 3:380.70001 4:-86.379997 5:78.43 6:144.14999 7:-368.41 8:129.75999 9:452.23999 10:-152.94 11:-508.70999 12:-175.57001 13:-380.94 14:-43.689999 15:-62.02 16:-54.810001 17:-46.450001 18:-17.9 19:-92.709999 #
3.9704544832378143375223138178409e-06 1:19.83 2:-40.970001 3:-26.91 4:-52.34 5:-345.38 6:129.12 7:-102.28 8:-356.88 9:211.05 10:-46.09 11:306.04001 12:71.209999 13:187.06 14:31.82 15:-69.419998 16:-53.09 17:-89.389999 18:-47.82 19:-157.99001 #
3.9704544832378143375223138178409e-06 1:-180.78 2:122.59 3:-114.23 4:112.39 5:77.099998 6:-163.3 7:70.300003 8:-322.28 9:21.68 10:73.059998 11:-287.48999 12:-469.70999 13:161.64999 14:-170.98 15:115.75 16:-173.53 17:114.21 18:-179.53 19:98.449997 #
3.9704544832378143375223138178409e-06 1:-154.94 2:132.07001 3:-232.62 4:130.16 5:176.47 6:-179.87 7:96.349998 8:-168.11 9:-264.72 10:64.610001 11:19.02 12:-368.12 13:94.110001 14:-244.00999 15:136.02 16:-206.42999 17:131.92 18:-206.88 19:131.16 #
-3.9704544832378143375223138178409e-06 1:292.12 2:97.459999 3:429.79999 4:83.93 5:169.84 6:523.84998 7:190.56 8:462.67001 9:653.15997 10:58.990002 11:273.98999 12:356.75 13:87.949997 14:393.17999 15:110.15 16:506.20001 17:115.12 18:450.19 19:128.41 #
3.9704544832378143375223138178409e-06 1:431.45001 2:65.089996 3:370.63 4:12.31 5:-8.6499996 6:654.78998 7:26.440001 8:407.12 9:841.54999 10:45.740002 11:-135.25999 12:110.04 13:-165.48 14:431.32001 15:108.29 16:395.57999 17:107.62 18:411.81 19:103.69 #
3.9704544832378143375223138178409e-06 1:523.34003 2:34.75 3:587.34998 4:-19.700001 5:256.85999 6:720.96002 7:-102.29 8:876.54999 9:662.85999 10:77.949997 11:-11.4 12:346.73001 13:-147.82001 14:630.21002 15:73.870003 16:590.84998 17:68.650002 18:590.10999 19:50.259998 #
3.9704544832378143375223138178409e-06 1:-157.89999 2:142.39 3:-227.32001 4:140.92 5:178.14 6:-186.81 7:134.38 8:-144.44 9:-299.20001 10:88.790001 11:131.39 12:-383.53 13:123.22 14:-210.42 15:146.35001 16:-222.24001 17:144.17 18:-216.38 19:146.07001 #
3.9704544832378143375223138178409e-06 1:559.59003 2:51.349998 3:622.85999 4:-2.4100001 5:264.16 6:747.71002 7:-86.470001 8:887.26001 9:734.21997 10:112.82 11:-96.860001 12:338.73999 13:-121.54 14:720.85999 15:93.529999 16:631.28998 17:94.18 18:631.88 19:82.089996 #
3.9704544832378143375223138178409e-06 1:-141.06 2:152.3 3:-207.14 4:149.52 5:156.16 6:-160.49001 7:167.13 8:-121.65 9:-262.92999 10:113.81 11:182.25 12:-338.64999 13:141.86 14:-159.28999 15:155.00999 16:-207.85001 17:154.69 18:-203.28999 19:159.67 #
3.9704544832378143375223138178409e-06 1:-105.65 2:-13.98 3:-230.08 4:-19.76 5:-480.35001 6:-11.45 7:-142.53999 8:407.25 9:235.46001 10:51.59 11:5.0900002 12:-496.44 13:66.300003 14:-245.28 15:-38.799999 16:-77.620003 17:-51.349998 18:-65.470001 19:-62.09 #
3.9704544832378143375223138178409e-06 1:306.07999 2:65.099998 3:297.81 4:38.93 5:45.240002 6:340.92001 7:73.589996 8:320.17001 9:327.76001 10:95.919998 11:-5.5300002 12:87.339996 13:-4.0700002 14:297.26001 15:66.839996 16:284.01999 17:55.330002 18:278.57999 19:71.580002 #
-3.9704544832378143375223138178409e-06 1:-727.5 2:-33.650002 3:-619.78998 4:-6.8299999 5:-39.990002 6:-657.15997 7:-479.92999 8:-586.15997 9:-687.51001 10:-119.26 11:-205.17999 12:-715.53003 13:-197.24001 14:-692.60999 15:-47.169998 16:-692.25 17:-49.110001 18:-737.09998 19:-35.59 #
-3.9704544832378143375223138178409e-06 1:692.88 2:-41.299999 3:713.12 4:-52.650002 5:-33.25 6:514.15002 7:-110.37 8:538.39001 9:571.63 10:-196.33 11:-185.11 12:511.63 13:-12.95 14:724.66998 15:-38.290001 16:791.79999 17:-42.110001 18:776.69 19:-62.240002 #
-3.9704544832378143375223138178409e-06 1:140.03 2:52.290001 3:184.5 4:-4.9899998 5:-34.869999 6:325.92001 7:-127.56 8:95.440002 9:522.32001 10:78.349998 11:310.41 12:-366.17999 13:-133.47 14:166.14 15:72.339996 16:115.31 17:70.099998 18:148.03999 19:71.080002 #
3.9704544832378143375223138178409e-06 1:-18.74 2:-100.08 3:54.82 4:-92.209999 5:3.3299999 6:-195.17 7:-39.18 8:-240.36 9:-204.33 10:-208.14 11:-384.91 12:195.61 13:75.269997 14:17.879999 15:-123.65 16:-13.16 17:-109.26 18:-23.83 19:-126.01 #
-3.9704544832378143375223138178409e-06 1:1012.26 2:-74.389999 3:779.95001 4:-111.53 5:-186.39 6:628.76001 7:-82.989998 8:541.08002 9:218.78999 10:-191.55 11:-710.84003 12:639.35999 13:65.230003 14:997.57001 15:-67.029999 16:801.82001 17:-50.970001 18:905.96997 19:-92.529999 #
3.9704544832378143375223138178409e-06 1:-158.69 2:41.369999 3:-260.69 4:-24.9 5:40.720001 6:-121.61 7:85.059998 8:-259.48001 9:-117.83 10:56.419998 11:-26.370001 12:-496.03 13:-0.5 14:-220.02 15:45.57 16:-243.56 17:46.59 18:-228.21001 19:19.219999 #
-3.9704544832378143375223138178409e-06 1:-770.76001 2:-96.139999 3:-706.13 4:-74.82 5:30.709999 6:-765.88 7:47.18 8:-815.54999 9:-731.46997 10:-63.279999 11:-50.66 12:-664.33002 13:-66.309998 14:-793.53998 15:-93.400002 16:-795.57001 17:-86.290001 18:-802.90002 19:-85.639999 #
3.9704544832378143375223138178409e-06 1:320.95999 2:12.94 3:345 4:-6.8899999 5:-2.3800001 6:391.41 7:39.529999 8:354.92001 9:374.60999 10:56.169998 11:-68.839996 12:82.949997 13:-85.099998 14:345.45001 15:13.98 16:343.70999 17:13.26 18:345.34 19:25.059999 #
3.9704544832378143375223138178409e-06 1:-228.03 2:5.04 3:92.5 4:-5.5500002 5:-370.97 6:-69.43 7:-296.39001 8:-134.5 9:198.27 10:-42.439999 11:146.72 12:-602.64001 13:-15.4 14:-249.25 15:-14.07 16:-85.029999 17:-18.49 18:-113.93 19:11.4 #
-3.9704544832378143375223138178409e-06 1:-37.720001 2:369.42999 3:166.13 4:353.73999 5:390.91 6:113.15 7:502.59 8:18.16 9:129.88 10:474.35001 11:448.01001 12:155.34 13:422.88 14:6.3200002 15:397.45001 16:29.4 17:419.51999 18:12.54 19:404.17999 #
3.9704544832378143375223138178409e-06 1:-89.150002 2:-16.950001 3:-41.849998 4:-21.379999 5:-467.48999 6:-46.959999 7:-165.57001 8:337.81 9:232.19 10:9.7799997 11:52.049999 12:-578.76001 13:35.709999 14:-202.14999 15:-41.880001 16:10.33 17:-49.599998 18:15.17 19:-49.029999 #
3.9704544832378143375223138178409e-06 1:-182.09 2:31.77 3:-107.04 4:54.869999 5:27.59 6:-277.56 7:37.099998 8:-101.03 9:-346.29999 10:91.720001 11:318.73001 12:702.07001 13:317.39001 14:-142.95 15:30.379999 16:-101.57 17:42.529999 18:-118.83 19:53.849998 #
3.9704544832378143375223138178409e-06 1:307.98999 2:72.230003 3:320.39999 4:48.790001 5:55.68 6:351.54999 7:79.25 8:334.12 9:338.56 10:102.98 11:1.4299999 12:106.5 13:4.1100001 14:322.64999 15:76.900002 16:307.79001 17:65.029999 18:303.32999 19:81.57 #
-3.9704544832378143375223138178409e-06 1:604.73999 2:95.410004 3:362.62 4:104.83 5:205.24001 6:705.88 7:393.01001 8:769.88 9:601.82001 10:281.14001 11:326.32001 12:439.25 13:225.47 14:516.53003 15:97.489998 16:504.60001 17:68.190002 18:521.65002 19:60.689999 #
-3.9704544832378143375223138178409e-06 1:-940.84998 2:-89.419998 3:-986.57001 4:-65.529999 5:22.139999 6:-886.27002 7:32.200001 8:-919.65997 9:-859.52002 10:-72.959999 11:-6.3000002 12:-821.75 13:-78.690002 14:-949.34998 15:-91.510002 16:-1066.33 17:-79.510002 18:-1043.98 19:-68.5 #
3.9704544832378143375223138178409e-06 1:455.45001 2:26.389999 3:497.92001 4:-26.34 5:117.5 6:612.65997 7:-150.84 8:835.90997 9:547.65997 10:-1.08 11:127.61 12:317.57999 13:-198.08 14:529.94 15:68.339996 16:512.51001 17:64.510002 18:507.34 19:57.599998 #
-3.9704544832378143375223138178409e-06 1:-920.52002 2:-56.450001 3:-911.53998 4:-34.830002 5:-35.869999 6:-922.31 7:-112.75 8:-884.65002 9:-882.62 10:-90.379997 11:112.68 12:-876.72998 13:-74.029999 14:-887.82001 15:-57 16:-886.85999 17:-53.07 18:-908.09998 19:-44.049999 #
-3.9704544832378143375223138178409e-06 1:-924.40997 2:-31.58 3:-840.46002 4:-10.49 5:-109.42 6:-881.12 7:-335.54999 8:-964.08002 9:-871.21002 10:-209.47 11:-94.68 12:-878.64001 13:-187.81 14:-945.35999 15:-36.029999 16:-1072.75 17:-33.900002 18:-1020.62 19:-14.93 #
3.9704544832378143375223138178409e-06 1:-86.769997 2:80.879997 3:-109.1 4:24.959999 5:-156.5 6:-91.540001 7:75.269997 8:-53.869999 9:-14.14 10:-1.39 11:153.89999 12:-674.31 13:-121.97 14:-87.580002 15:53.939999 16:-119.02 17:38.75 18:-103.39 19:21.6 #
-3.9704544832378143375223138178409e-06 1:-866.73999 2:-32.119999 3:-779.32001 4:-10.48 5:-77.029999 6:-804.60999 7:-386.34 8:-864.17999 9:-819.31 10:-208.73 11:-180.49001 12:-836.21997 13:-207.17 14:-905.20001 15:-35.049999 16:-975.58002 17:-34.849998 18:-970.10999 19:-20.57 #
3.9704544832378143375223138178409e-06 1:-282.06 2:-132.36 3:-205.57001 4:-107.06 5:-151.92 6:-335.45999 7:-174.44 8:-172.35001 9:-299.89999 10:-144.48 11:-108.76 12:-122.05 13:-115.28 14:-217.23 15:-146.63 16:-256.85999 17:-137.2 18:-264.76001 19:-159.66 #
3.9704544832378143375223138178409e-06 1:-326.66 2:-145.35001 3:-232.36 4:-104.47 5:-151.14 6:-395.59 7:-170.03 8:-198.02 9:-368.56 10:-158.44 11:-107.65 12:-66.610001 13:-99.699997 14:-249.78999 15:-160.53999 16:-288.44 17:-148.64999 18:-298.87 19:-169.92999 #
-3.9704544832378143375223138178409e-06 1:304.62 2:17.379999 3:414.57001 4:-4.9000001 5:139.34 6:326.37 7:100.84 8:270.60999 9:144.33 10:-36.59 11:282.37 12:-14.21 13:-18.379999 14:474.98999 15:33.259998 16:584.78998 17:8.6800003 18:506.10001 19:21.629999 #
3.9704544832378143375223138178409e-06 1:-362.89999 2:-138.92999 3:-221.38 4:-78.75 5:-169.59 6:-432.42001 7:-181.74001 8:-189.94 9:-402.87 10:-163.07001 11:-18.700001 12:29.219999 13:-65.400002 14:-263.67999 15:-163.09 16:-305.76999 17:-146.88 18:-317.41 19:-163.5 #
3.9704544832378143375223138178409e-06 1:-187.74001 2:59.189999 3:-296.54001 4:17.91 5:-3.5 6:-141 7:81.910004 8:-178.14999 9:-123.85 10:38.200001 11:-12.04 12:-660.21002 13:-54.48 14:-251.03999 15:62.900002 16:-282.26999 17:64.209999 18:-266.78 19:55.959999 #
-3.9704544832378143375223138178409e-06 1:173.38 2:22.35 3:270.51001 4:-80.860001 5:-126.64 6:235.35001 7:-129.47 8:291.20001 9:643.42999 10:236.03999 11:-407.31 12:-210.28 13:11.92 14:266.60999 15:28.790001 16:215.14 17:4.2199998 18:204.08 19:-33.220001 #
-3.9704544832378143375223138178409e-06 1:-982.94 2:-51.889999 3:-861.79999 4:-33.029999 5:-164.58 6:-934.31 7:-234.81 8:-952.98999 9:-937.39001 10:-125.32 11:26.08 12:-931.38 13:-106.9 14:-994.19 15:-60.299999 16:-1003.29 17:-55.139999 18:-1006.1 19:-47.200001 #
-3.9704544832378143375223138178409e-06 1:222.03999 2:-35.169998 3:329.14001 4:-123.08 5:-388.06 6:435.82999 7:-81.849998 8:929.47998 9:627.85999 10:-64.889999 11:-896.78003 12:-91.419998 13:-148.87 14:234.67 15:-83.169998 16:391.42001 17:-122.1 18:327.57999 19:-189.58 #
-3.9704544832378143375223138178409e-06 1:322.97 2:34.279999 3:777.01001 4:-44.700001 5:-242.88 6:454.84 7:-168.75999 8:635.09003 9:718.79999 10:74.230003 11:123.15 12:-236.14999 13:-203.24001 14:421.41 15:61.900002 16:429.41 17:79.940002 18:436.19 19:94.239998 #
3.9704544832378143375223138178409e-06 1:-211.94 2:42.310001 3:-326.69 4:-9.5299997 5:44.049999 6:-168.46001 7:76.419998 8:-269.47 9:-172.92 10:32.189999 11:-45.029999 12:-696.96997 13:-52.470001 14:-275.51999 15:40.389999 16:-297.48001 17:42.990002 18:-278.59 19:23.389999 #
3.9704544832378143375223138178409e-06 1:350.22 2:63.09 3:303.26999 4:11.17 5:-36.259998 6:559.26001 7:57.900002 8:243.58 9:748.63 10:52.73 11:-111.44 12:-3.0599999 13:-159.69 14:313.19 15:101.09 16:300.79999 17:99.330002 18:316.89001 19:92.959999 #
-3.9704544832378143375223138178409e-06 1:106.37 2:9.54 3:12.5 4:-17.18 5:-5.8400002 6:205.2 7:-8.79 8:154.75 9:80.519997 10:15.75 11:-176.25999 12:-514.71002 13:-224.28 14:132.36 15:9.8599997 16:43.419998 17:12.81 18:39.630001 19:14.39 #
3.9704544832378143375223138178409e-06 1:-38.869999 2:-240.25999 3:-104.68 4:-253.82001 5:-261.69 6:-74.559998 7:-200.91 8:-238.10001 9:-120.48 10:-270.06 11:-211.53 12:-99.690002 13:-261.39999 14:-89.669998 15:-244.64 16:-76.279999 17:-242.77 18:-71.139999 19:-247.28999 #
-3.9704544832378143375223138178409e-06 1:657.21997 2:85.959999 3:364.73999 4:88.129997 5:208.99001 6:793.78003 7:377.47 8:820.77002 9:659.29999 10:295.12 11:268.69 12:494.32001 13:201.67999 14:536.75 15:84.339996 16:481.31 17:51.669998 18:505.87 19:55.849998 #
3.9704544832378143375223138178409e-06 1:28.73 2:40.049999 3:24.860001 4:52.630001 5:42.900002 6:24.959999 7:73.199997 8:36.099998 9:-0.86000001 10:63.330002 11:70.389999 12:91.110001 13:72.120003 14:19.41 15:42 16:34.830002 17:56.889999 18:32.400002 19:54.759998 #
3.9704544832378143375223138178409e-06 1:-199.83 2:142.00999 3:-180.17999 4:130 5:128.95 6:-127.52 7:87.5 8:-328.81 9:12.53 10:88.169998 11:-141.3 12:-573.53003 13:191.53999 14:-213.5 15:135.5 16:-212.67 17:137.12 18:-216.99001 19:129.13 #
3.9704544832378143375223138178409e-06 1:-323.14999 2:-145.10001 3:-236.11 4:-115.23 5:-167.89 6:-362.66 7:-172.50999 8:-201.2 9:-335.32001 10:-139.55 11:-98.169998 12:-139.53 13:-105.1 14:-249.28999 15:-158.55 16:-285.70001 17:-145.78 18:-294.51999 19:-165.39999 #
-3.9704544832378143375223138178409e-06 1:654.14001 2:-40.299999 3:686.76001 4:-51 5:-35.23 6:445.31 7:-116.78 8:493.34 9:511.42001 10:-199.33 11:-204.10001 12:468.48001 13:-13.81 14:687.21997 15:-36.93 16:754.28003 17:-39.91 18:737.42999 19:-57.669998 #
3.9704544832378143375223138178409e-06 1:-179.75 2:15.27 3:-209.64999 4:27.57 5:19.83 6:-250.14 7:-108.8 8:-118.2 9:-299.29999 10:-75.050003 11:19.280001 12:-7.1500001 13:256.56 14:-196.67 15:25.59 16:-200.95 17:34.950001 18:-194.7 19:13.49 #
-3.9704544832378143375223138178409e-06 1:313.38 2:35.349998 3:530 4:-78.800003 5:-130.75 6:491.26001 7:-279.23001 8:713.04999 9:810.78998 10:97.779999 11:15.08 12:-247.49001 13:-159.34 14:335.29999 15:35.68 16:341.26001 17:33.23 18:358.04001 19:38.939999 #
3.9704544832378143375223138178409e-06 1:464.67999 2:24.5 3:509.14999 4:-28.84 5:140.34 6:629.96002 7:-140.39999 8:848.28003 9:565.33002 10:13.11 11:113.63 12:327.48001 13:-189.83 14:541.89001 15:65.370003 16:521.12 17:60.169998 18:516.22998 19:49.330002 #
3.9704544832378143375223138178409e-06 1:486.62 2:24.93 3:537.63 4:-29.309999 5:191.03 6:668.12 7:-120.88 8:867.52002 9:603.40002 10:41.32 11:71.589996 12:342.60001 13:-171.53999 14:571.15002 15:64.370003 16:544.90002 17:57.720001 18:541.41998 19:41.25 #
3.9704544832378143375223138178409e-06 1:374.84 2:64.080002 3:322.39001 4:11.65 5:-25.190001 6:588.64001 7:48.200001 8:289.13 9:777.75 10:51.119999 11:-119.74 12:30.950001 13:-161.00999 14:345.45999 15:103.64 16:328.87 17:102.36 18:345.20001 19:97 #
-3.9704544832378143375223138178409e-06 1:-914.23999 2:-52.630001 3:-879.17999 4:-30.66 5:-44.91 6:-919.69 7:-126.26 8:-875.96997 9:-877.78003 10:-90.949997 11:118.62 12:-877.34003 13:-72.330002 14:-879.26001 15:-53.119999 16:-872.62 17:-49.5 18:-893.51001 19:-41.490002 #
-3.9704544832378143375223138178409e-06 1:-982.88 2:-44.150002 3:-861.92999 4:-25.67 5:-161.05 6:-936.33002 7:-259.35999 8:-983.15997 9:-931.52002 10:-145.08 11:-0.02 12:-919.70001 13:-121.64 14:-982.89001 15:-53.509998 16:-1020.7 17:-48.450001 18:-1004.42 19:-33.439999 #
3.9704544832378143375223138178409e-06 1:498.87 2:27.23 3:554.19 4:-27.24 5:216.02 6:687.42999 7:-113.16 8:873.02002 9:623.34998 10:54.389999 11:45.18 12:346.45999 13:-162.92999 14:588.96997 15:66.32 16:559.69 17:59.669998 18:557.15002 19:41.689999 #
3.9704544832378143375223138178409e-06 1:-172.17999 2:46.099998 3:-271.39001 4:-15.66 5:35.049999 6:-131.84 7:86.470001 8:-279.17999 9:-129.84 10:52.450001 11:-29.700001 12:-550.21002 13:-5.9499998 14:-228.56 15:51.919998 16:-248.06 17:50.349998 18:-229.78 19:20.629999 #
-3.9704544832378143375223138178409e-06 1:131.48 2:-0.83999997 3:437.66 4:-7.98 5:-294.06 6:220.57001 7:-93.709999 8:-759.37 9:646.96997 10:37.779999 11:359.79999 12:71.080002 13:205.19 14:262.51001 15:-35.98 16:256.64999 17:-67.529999 18:244.84 19:-104.55 #
-3.9704544832378143375223138178409e-06 1:107.81 2:11.93 3:27.34 4:-15.11 5:2.96 6:205.14 7:6.8000002 8:182.08 9:64.470001 10:17.219999 11:-151.41 12:-534.85999 13:-214.32001 14:148.48 15:12.92 16:63.369999 17:13.79 18:60.400002 19:14.86 #
-3.9704544832378143375223138178409e-06 1:-433.12 2:-47.25 3:-625.87 4:-16.629999 5:-14.88 6:-670.87 7:-143.27 8:-853.78998 9:-1091.8 10:-407.73001 11:85.150002 12:263.75 13:87.279999 14:-470.70999 15:-39.049999 16:-500.95001 17:-14.47 18:-462.76001 19:0.69 #
3.9704544832378143375223138178409e-06 1:374.17999 2:20.639999 3:467.88 4:-25.059999 5:19.129999 6:505.51001 7:-133.99001 8:718.79999 9:409.17001 10:-11.02 11:-22.98 12:245.31 13:-146.03 14:452.89999 15:64.050003 16:464.42001 17:71.849998 18:464.98999 19:94.360001 #
-3.9704544832378143375223138178409e-06 1:588.52002 2:-56.299999 3:506.91 4:-63.439999 5:-48.34 6:563.21002 7:-107.63 8:495.19 9:497.60001 10:-191.27 11:-139.56 12:400.47 13:-8.8999996 14:648.69 15:-49.049999 16:675.46997 17:-47.02 18:664.71002 19:-69.730003 #
3.9704544832378143375223138178409e-06 1:-209.7 2:49.02 3:-297 4:-3.23 5:42.119999 6:-172.57001 7:87.839996 8:-314.73999 9:-181.28999 10:43.040001 11:-56.07 12:-670.67999 13:-37.279999 14:-255.21001 15:55.200001 16:-282.20001 17:60.43 18:-266.78 19:37.509998 #
3.9704544832378143375223138178409e-06 1:-328.03 2:-148.84 3:-221.98 4:-103.59 5:-164.16 6:-406.29999 7:-178.3 8:-191.46001 9:-387.67999 10:-171.24001 11:-89.959999 12:-76.050003 13:-107.88 14:-236.08 15:-166.07001 16:-282.72 17:-154.42999 18:-293.62 19:-174.17 #
-3.9704544832378143375223138178409e-06 1:-914.28003 2:-90.050003 3:-937.54999 4:-66.279999 5:24.26 6:-869.41998 7:35.720001 8:-900.63 9:-836.26001 10:-72.32 11:-15.96 12:-794.59003 13:-77.800003 14:-920.29999 15:-92.089996 16:-1028.4301 17:-79.769997 18:-1008.4 19:-69.400002 #
-3.9704544832378143375223138178409e-06 1:873.21997 2:-4.1900001 3:877.21002 4:-52.040001 5:-3.8800001 6:704.78998 7:42.02 8:246.22 9:274.91 10:99.459999 11:-142.64999 12:530.46997 13:233.00999 14:797.32001 15:19.389999 16:780.32001 17:4.5100002 18:834.98999 19:-45.48 #
3.9704544832378143375223138178409e-06 1:358.89001 2:2.9200001 3:474.34 4:-41.099998 5:7.6799998 6:487.98999 7:-127.67 8:672.22998 9:386.95001 10:0.050000001 11:-98.059998 12:230.60001 13:-133.41 14:450.04999 15:40.790001 16:457.37 17:46.560001 18:457.16 19:64.940002 #
3.9704544832378143375223138178409e-06 1:-348.03 2:-132.2 3:-221.89999 4:-74.949997 5:-151.42999 6:-421.12 7:-168.5 8:-182.13 9:-396.01001 10:-164.67999 11:-24.07 12:2.8800001 13:-72.489998 14:-254.55 15:-156.75 16:-302.04001 17:-143.88 18:-311.25 19:-164 #
-3.9704544832378143375223138178409e-06 1:31.799999 2:-8 3:7.3699999 4:-15.47 5:-42.389999 6:136.02 7:-71.580002 8:52.48 9:175.13 10:-43.73 11:-54.009998 12:-288.38 13:26.43 14:5.6500001 15:-2.21 16:9.2600002 17:-3.27 18:12.03 19:-24.73 #
-3.9704544832378143375223138178409e-06 1:-964.09998 2:-55.740002 3:-842.77002 4:-35.099998 5:-150.13 6:-927.03998 7:-217.91 8:-918.41998 9:-922.73999 10:-115.88 11:61.73 12:-931.48999 13:-100.03 14:-970.23999 15:-61.57 16:-970.90002 17:-57.240002 18:-979.92999 19:-54.779999 #
-3.9704544832378143375223138178409e-06 1:1052.64 2:-62.82 3:471.45001 4:-90.900002 5:-210.58 6:572.34003 7:-169.77 8:834.13 9:143.14999 10:-146.60001 11:-666.76001 12:953.51001 13:98.089996 14:892.73999 15:-70.059998 16:609.72998 17:-40.639999 18:724.5 19:-76.93 #
-2.3054332811290462190711991752323e-09 1:-73.830002 2:-1.14 3:-54.23 4:11.98 5:-35.349998 6:-182.92999 7:-15.28 8:-22.120001 9:-228.85001 10:-0.75999999 11:132.78 12:403.92999 13:50.709999 14:-59.919998 15:-20.23 16:-94.75 17:-7.3600001 18:-96 19:-14.06 #
-1.1149791420197674793194156372955e-06 1:-815.27002 2:-32.560001 3:-707.17999 4:-10.06 5:-57.240002 6:-741.53998 7:-439.12 8:-760.35999 9:-768.29999 10:-183 11:-215.8 12:-791.92999 13:-207.89999 14:-826.16998 15:-37.509998 16:-839.33002 17:-38.049999 18:-873.58002 19:-24.42 #
3.9704544832378143375223138178409e-06 1:347.22 2:-13.29 3:476.81 4:-55.889999 5:1.12 6:468.70001 7:-129.78 8:617.67999 9:365.01001 10:3.74 11:-156.74001 12:222.11 13:-125.18 14:449.79001 15:19.559999 16:449.32001 17:22.790001 18:447.51999 19:35.200001 #
-3.9704544832378143375223138178409e-06 1:272.67999 2:104.63 3:409.79001 4:92 5:166.64 6:496.44 7:154.14 8:457.85999 9:610.07001 10:61.369999 11:270.48999 12:323.85001 13:96.309998 14:367.06 15:116.37 16:470.04999 17:120.07 18:419.48001 19:131.92 #
-3.9704544832378143375223138178409e-06 1:282.39999 2:101.2 3:420.73999 4:88.050003 5:168.44 6:510.32999 7:171.32001 8:460.41 9:631.41998 10:59.200001 11:271.87 12:339.95999 13:91.059998 14:380.82001 15:113.55 16:488.76999 17:117.89 18:435.62 19:130.42999 #
-3.9704544832378143375223138178409e-06 1:-882.53003 2:-31.700001 3:-799.95001 4:-10.19 5:-84.529999 6:-825.48999 7:-371.42001 8:-894.64001 9:-834.15997 10:-212.88 11:-161.00999 12:-848.94 13:-204.61 14:-922.14001 15:-34.59 16:-1013.22 17:-33.959999 18:-992.94 19:-18.67 #
-3.9704544832378143375223138178409e-06 1:202.19 2:125.46 3:132.50999 4:120.67 5:271.45999 6:374.82999 7:264.73001 8:196.91 9:412.25 10:77.160004 11:239.12 12:1.0700001 13:61.59 14:306.14999 15:129.71001 16:372.70001 17:127.91 18:315.26999 19:149.58 #
-3.9704544832378143375223138178409e-06 1:147.67 2:-63.630001 3:522.67999 4:-84.300003 5:108.37 6:282.51999 7:-351.51999 8:215.55 9:578.27002 10:-149.53999 11:-567.44 12:-65.150002 13:-372.60001 14:32.459999 15:-57.66 16:-21.870001 17:-40.990002 18:17.75 19:-84.050003 #
-3.9704544832378143375223138178409e-06 1:-46.610001 2:368.19 3:152.57001 4:353.28 5:393.37 6:101.39 7:499.84 8:-14.8 9:120.47 10:467.70999 11:452.07999 12:148.09 13:415.82999 14:-13.08 15:395.29001 16:12.79 17:416.38 18:-4.6999998 19:398.87 #
-3.9704544832378143375223138178409e-06 1:333.53 2:35.380001 3:716 4:-51.57 5:-228.83 6:519.19 7:-236.64999 8:779.53003 9:769.89001 10:85.25 11:31.540001 12:-236.86 13:-209.49001 14:402.32001 15:58.34 16:395.09 17:72.400002 18:401.95001 19:88.589996 #
-3.9704544832378143375223138178409e-06 1:102.62 2:37.779999 3:158.42999 4:-18.57 5:-3.48 6:259.51001 7:-94.370003 8:185.17 9:403.89001 10:67.160004 11:549.09003 12:-390.42999 13:-142.17999 14:149.10001 15:50.919998 16:101.7 17:43.869999 18:131.85001 19:41.860001 #
-3.9704544832378143375223138178409e-06 1:-795.82001 2:-94.139999 3:-740.25 4:-72.519997 5:31.709999 6:-791.07001 7:47.439999 8:-829.06 9:-746.98999 10:-64.610001 11:-43.450001 12:-686.21997 13:-69.059998 14:-808.07001 15:-93.07 16:-839.15002 17:-83.639999 18:-839.63 19:-80.050003 #
-3.9704544832378143375223138178409e-06 1:-619.72998 2:-98.339996 3:-698.57001 4:-71.650002 5:-26.08 6:-866.94 7:-30.309999 8:-173.11 9:-914.40997 10:-236.25999 11:-590.28998 12:261.87 13:197.83 14:-595.53003 15:-99.169998 16:-577.01001 17:-74.75 18:-589.69 19:-83.220001 #
-3.9704544832378143375223138178409e-06 1:-17.02 2:64.449997 3:-189.77 4:18.360001 5:-85.309998 6:122.32 7:-46.25 8:801.48999 9:514.38 10:369.23001 11:-621.53998 12:-281.95999 13:300.17001 14:-120.82 15:46.27 16:-147.69 17:7.3600001 18:-116.36 19:10.77 #
3.9704544832378143375223138178409e-06 1:4.54 2:-84.849998 3:-16.09 4:-71.080002 5:-182.89 6:-141.85001 7:-59.98 8:-71.010002 9:-287.76001 10:-121.39 11:73.029999 12:215.03999 13:-165.84 14:-19.92 15:-94.760002 16:-37.290001 17:-95.18 18:-33.349998 19:-107.54 #
3.9704544832378143375223138178409e-06 1:309.42999 2:68.150002 3:310.54001 4:43.220001 5:49.73 6:346.62 7:77.589996 8:328.92999 9:333.16 10:100.81 11:-0.88999999 12:101.46 13:1.5700001 14:312.13 15:71.260002 16:296.04001 17:59.470001 18:290.47 19:75.43 #
3.9704544832378143375223138178409e-06 1:332.92999 2:23.73 3:351.16 4:2.28 5:9.1400003 6:387.09 7:37.709999 8:362.31 9:364.69 10:55.689999 11:-87.599998 12:80.230003 13:-85.610001 14:357.04001 15:21.58 16:347.45001 17:19.959999 18:347.17001 19:33.09 #
3.9704544832378143375223138178409e-06 1:-158.31 2:135.87 3:-233.14999 4:134.50999 5:179.5 6:-185.32001 7:106.35 8:-162.44 9:-279.20999 10:71.139999 11:54.869999 12:-380.60001 13:102.38 14:-240.00999 15:140.36 16:-212.64 17:136.91 18:-210.75 19:137.09 #
3.9704544832378143375223138178409e-06 1:323.76999 2:-29.84 3:451.04999 4:-70.160004 5:17.629999 6:415.51999 7:-142.08 8:485.32999 9:317.25 10:-12.42 11:-156.7 12:235.64999 13:-97.709999 14:446.94 15:-3 16:420.53 17:-3.48 18:415 19:-2.76 #
-3.9704544832378143375223138178409e-06 1:575.88 2:94.940002 3:344.64999 4:104.9 5:201.03999 6:669.64001 7:399.92001 8:735.51001 9:572.13 10:279.63 11:333.54999 12:408.81 13:227.41 14:495.01999 15:97.639999 16:489.23001 17:69.769997 18:505 19:60.07 #
-3.9704544832378143375223138178409e-06 1:-220.08 2:-76.410004 3:-226.48 4:14.16 5:-41.130001 6:-272.35999 7:-115.27 8:-223.94 9:-198.48 10:28.52 11:227.92999 12:292.79999 13:91.589996 14:-197.28999 15:-80.029999 16:-188.32001 17:-57.59 18:-187.36 19:-68.949997 #
-2.8537403815801253893508909742494e-06 1:-283.94 2:-54.32 3:-231.12 4:-69.550003 5:-55.040001 6:-372.47 7:-262.79001 8:-127.44 9:-178.99001 10:-65.309998 11:-127.46 12:-693.75 13:-356.28 14:-464.76999 15:-47.84 16:-283.31 17:-39.360001 18:-346.98999 19:-89.489998 #
3.9704544832378143375223138178409e-06 1:-130.33 2:-3.3599999 3:-140.28999 4:2.1500001 5:-14.65 6:-222.08 7:4 8:-223.42 9:-390.03 10:-48.610001 11:20.379999 12:144.41 13:-31.34 14:-156.56 15:3.6700001 16:-149.87 17:12.42 18:-149.25999 19:-10.17 #
-3.9704544832378143375223138178409e-06 1:-526.51001 2:-65.019997 3:-502.64999 4:-27.190001 5:-47.32 6:-487.73001 7:-385.82001 8:470.37 9:-452.85999 10:-75.209999 11:-917.71997 12:-475.14001 13:-164.72 14:-609.16998 15:-91.120003 16:-761.84003 17:-86.379997 18:-682.73999 19:-56.759998 #
3.9704544832378143375223138178409e-06 1:-159.48 2:140.78 3:-229.96001 4:139.55 5:180.34 6:-188.35001 7:125.37 8:-150.33 9:-296.76001 10:82.940002 11:111.11 12:-387.95999 13:116.86 14:-221.82001 15:145.14999 16:-220.33 17:142.58 18:-215.2 19:143.98 #
-3.1985587387301002578431086131872e-06 1:300.98001 2:77.959999 3:409.22 4:63.919998 5:178.73 6:547.89001 7:299.82999 8:421.75 9:713.03998 10:77.900002 11:269.92001 12:370.51999 13:88.830002 14:397.89001 15:84.620003 16:537.66998 17:88.730003 18:466.51001 19:101.86 #
-3.9704544832378143375223138178409e-06 1:412.95001 2:26.34 3:422.63 4:1.86 5:154.5 6:393.32999 7:84.889999 8:453.98999 9:32.66 10:-34.57 11:211.71001 12:-99.32 13:8.4700003 14:517.90002 15:43.439999 16:553.16998 17:44.959999 18:547.40002 19:29.5 #
-3.9480912553896839505213414711626e-06 1:251.42999 2:-59.619999 3:721.38 4:-82.720001 5:109.96 6:541.04999 7:-303.70999 8:189.19 9:781.08002 10:-126.64 11:-611.41998 12:176.84 13:-311.35001 14:138.27 15:-51.639999 16:-32.869999 17:-30.25 18:31.07 19:-68.110001 #
3.9704544832378143375223138178409e-06 1:328.91 2:61.98 3:288.20999 4:10.81 5:-48.380001 6:534.35999 7:66.709999 8:206.74001 9:723.34998 10:53.77 11:-104.11 12:-32.669998 13:-159.31 14:288.26999 15:98.629997 16:277.53 17:96.25 18:293.32999 19:88.720001 #
-3.9704544832378143375223138178409e-06 1:513.20001 2:-51.029999 3:415.04001 4:-55.48 5:-45.080002 6:506.53 7:-102.38 8:438.45001 9:393.31 10:-190.21001 11:-138.60001 12:314.53 13:-1.2 14:583.51001 15:-42.939999 16:600.76001 17:-37 18:588.53998 19:-56.02 #
-3.9704544832378143375223138178409e-06 1:289.51999 2:49.419998 3:484.78 4:35.82 5:166.41 6:306.60999 7:171.39999 8:144.38 9:239.75999 10:-27.92 11:444.54001 12:19.76 13:-34.57 14:435.87 15:63.150002 16:633.19 17:41.689999 18:522.33002 19:50.310001 #
-3.9704544832378143375223138178409e-06 1:1.37 2:-126.58 3:-45.18 4:-125.95 5:-81.610001 6:-123.9 7:-110.51 8:-108.67 9:83 10:-96.5 11:-150.24001 12:163.14999 13:-324.69 14:23.17 15:-127.38 16:16.16 17:-135.38 18:19.83 19:-138.02 #
3.9704544832378143375223138178409e-06 1:-136.28 2:157.78 3:-195.23 4:154.67999 5:152.62 6:-145.78 7:170.25999 8:-119.09 9:-241.89 10:116.1 11:194.42999 12:-338.29001 13:140.55 14:-145.17 15:160 16:-189.44 17:159.32001 18:-184.91 19:164.02 #
3.9704544832378143375223138178409e-06 1:-207.09 2:46.130001 3:-290.5 4:-7.5700002 5:34.900002 6:-176.35001 7:80.730003 8:-324.04999 9:-185.42 10:33.110001 11:-61.34 12:-662.09003 13:-50.75 14:-254.17999 15:55.07 16:-279.32001 17:59.650002 18:-264.03 19:35.790001 #
3.9704544832378143375223138178409e-06 1:-49.41 2:85.269997 3:-7.8400002 4:32.290001 5:-63.139999 6:55.759998 7:74.690002 8:233.96001 9:134.85001 10:73.360001 11:207.37 12:-536.60999 13:-121.21 14:-96.959999 15:86.330002 16:-68.650002 17:71.839996 18:-52.619999 19:67.970001 #
3.9704544832378143375223138178409e-06 1:-222.53999 2:1.36 3:98.360001 4:-9.0699997 5:-375.92999 6:-79.400002 7:-296.70999 8:-111.7 9:194.72 10:-35.009998 11:138.53 12:-619.51001 13:-6.75 14:-264.28 15:-18.959999 16:-80.529999 17:-24 18:-109.98 19:2.2 #
3.9704544832378143375223138178409e-06 1:-343.98001 2:-131.60001 3:-217.07001 4:-75.080002 5:-149.46001 6:-415.42999 7:-168.24001 8:-177.28 9:-390.88 10:-165.42999 11:-26.129999 12:-1.3200001 13:-75.989998 14:-248.53999 15:-155.66 16:-295.01001 17:-143.03 18:-303.60999 19:-163.28 #
3.9704544832378143375223138178409e-06 1:366.12 2:11.92 3:471.35001 4:-32.919998 5:13.07 6:496.95999 7:-129.63 8:696.96002 9:398.01001 10:-4.6799998 11:-61.310001 12:237.55 13:-138.92999 14:451.03 15:52.610001 16:460.95999 17:59.529999 18:461.26999 19:80.32 #
3.9704544832378143375223138178409e-06 1:-209.06 2:47.93 3:-294.82999 4:-4.77 5:39.48 6:-174.53 7:85.220001 8:-319.28 9:-183.5 10:39.040001 11:-57.98 12:-668.06 13:-42.299999 14:-255.12 15:54.720001 16:-281.78 17:59.830002 18:-266.53 19:36.389999 #
3.9704544832378143375223138178409e-06 1:-351.75 2:-132.89 3:-225.38 4:-74.989998 5:-153.8 6:-425.57999 7:-168.86 8:-186.14 9:-399.73999 10:-163.19 11:-21.74 12:7.9200001 13:-68.550003 14:-259.34 15:-157.69 16:-307.39999 17:-144.42999 18:-317.26999 19:-164.2 #
-3.9704544832378143375223138178409e-06 1:-936.33002 2:-32.299999 3:-846.96002 4:-11.46 5:-118.28 6:-895.84998 7:-324.98001 8:-978.56 9:-881.54999 10:-203.38 11:-74.190002 12:-885.90002 13:-179.27 14:-947.94 15:-37.650002 16:-1074.4 17:-35 18:-1018.82 19:-15.15 #
3.9704544832378143375223138178409e-06 1:447.28 2:29.360001 3:488.54001 4:-22.700001 5:97.650002 6:597.02002 7:-160.32001 8:823.14001 9:530.91998 10:-14.26 11:136.48 12:307.44 13:-204.39 14:519.15997 15:72.610001 16:505.66 17:70.489998 18:500.54999 19:68.050003 #
-3.9704544832378143375223138178409e-06 1:-945.32001 2:-54.48 3:-824.14001 4:-32.580002 5:-130.47 6:-922.15997 7:-205.36 8:-897.41998 9:-906.42999 10:-110.61 11:88.110001 12:-923.59998 13:-93.919998 14:-938.90997 15:-58.389999 16:-935.84003 17:-54.810001 18:-946.22998 19:-53.66 #
-3.9704544832378143375223138178409e-06 1:333.54999 2:36.400002 3:734.90997 4:-49.110001 5:-234.92 6:501.95999 7:-220.74001 8:751.75 9:758.37 10:82.139999 11:56.57 12:-235.78 13:-208.46001 14:409.35999 15:60.52 16:404.62 17:75.32 18:411.39999 19:91.870003 #
-3.9704544832378143375223138178409e-06 1:606.67999 2:-40.82 3:649.78003 4:-50.709999 5:-39.450001 6:367.29999 7:-125.48 8:439.04999 9:445.35999 10:-203.41 11:-225.10001 12:419.12 13:-16.1 14:641.85999 15:-37.040001 16:707.64001 17:-39.25 18:689.10999 19:-54.970001 #
3.9704544832378143375223138178409e-06 1:-211.53 2:49.34 3:-306.62 4:-2.29 5:48.52 6:-166.92999 7:91.150002 8:-297 9:-174.27 10:50.360001 11:-50.09 12:-680.54999 13:-29.030001 14:-258.75 15:53.419998 16:-284.09 17:58.139999 18:-267.35999 19:37.060001 #
-3.9704544832378143375223138178409e-06 1:545.76001 2:94.07 3:324.23001 4:104.21 5:196.47 6:631.13 7:406.67999 8:697.90002 9:539.59998 10:278.01999 11:339.56 12:375.25 13:229.14999 14:471.57999 15:97.220001 16:471.82999 17:70.959999 18:486.29001 19:59.099998 #
-3.9704544832378143375223138178409e-06 1:302.57999 2:34.220001 3:449.23001 4:13.73 5:150.23 6:332.57001 7:140.21001 8:224.45 9:185.63 10:5.27 11:399.85001 12:26.780001 13:34.369999 14:492.19 15:51.560001 16:639.40002 17:29.34 18:544.72998 19:45.66 #
3.9704544832378143375223138178409e-06 1:-184.41 2:51.34 3:-277.14001 4:-5.6199999 5:27.58 6:-153.5 7:84.879997 8:-289.76001 9:-155.84 10:45.689999 11:-53.189999 12:-601.85999 13:-27.77 14:-237.24001 15:68.379997 16:-262.06 17:68.75 18:-244.56 19:43.639999 #
3.9704544832378143375223138178409e-06 1:-129.96001 2:-2.4100001 3:-138.33 4:2.5999999 5:-11.42 6:-226.25999 7:6 8:-220.46001 9:-394.73999 10:-49.450001 11:12.46 12:149.35001 13:-28.440001 14:-154.17 15:4.1399999 16:-147.35001 17:11.5 18:-146.63 19:-12.47 #
-3.9704544832378143375223138178409e-06 1:876.44 2:-79.660004 3:864.88 4:-124.43 5:-139.74001 6:735.21002 7:12.47 8:414.34 9:256.23001 10:-47.810001 11:-327.07001 12:542.01001 13:106.22 14:816.08002 15:-71.669998 16:714.01001 17:-77.150002 18:803.63 19:-122.25 #
-3.9704544832378143375223138178409e-06 1:292.13 2:-3.05 3:268.63 4:-115.39 5:-205.74001 6:485.45001 7:-274.42001 8:675.78003 9:799.71002 10:138.56 11:198.87 12:-247.61 13:-84.669998 14:264.57999 15:12.26 16:256.73001 17:0.57999998 18:274.95999 19:3.0599999 #
-3.9704544832378143375223138178409e-06 1:227.39999 2:-26.280001 3:356.87 4:-113.7 5:-419.17999 6:434.64999 7:-105.4 8:1076 9:671.73999 10:-8.6400003 11:-468.75 12:-98.839996 13:-117.74 14:257.57001 15:-74.559998 16:335.28 17:-113.37 18:289.20999 19:-181.50999 #
-3.9704544832378143375223138178409e-06 1:294.59 2:50.080002 3:485.54001 4:35.549999 5:168.17999 6:314.12 7:171.45 8:156.67999 9:234.47 10:-15.8 11:453.44 12:28.219999 13:-17.58 14:452.44 15:65.150002 16:643.84998 17:43.82 18:533.22998 19:53.98 #
3.9704544832378143375223138178409e-06 1:-119.67 2:165.14999 3:-158.92 4:162.49001 5:178.39 6:-134.53999 7:190.87 8:-135.64 9:-222.53 10:142.83 11:265.79999 12:-335.20001 13:112.69 14:-123.48 15:155.25 16:-151.46001 17:162.39999 18:-143.62 19:161.64999 #
-3.9704544832378143375223138178409e-06 1:272.98999 2:-14.85 3:182.2 4:-124.71 5:-212.38 6:470.95999 7:-271.60001 8:671.33002 9:797.83002 10:167.60001 11:158.10001 12:-243.73 13:-44.200001 14:233.89999 15:8.5299997 16:228.07001 17:-2.27 18:245.55 19:3.3499999 #
-3.9704544832378143375223138178409e-06 1:-104.04 2:52.529999 3:-241.82001 4:65.669998 5:-40.02 6:-144.03999 7:-52.110001 8:29.389999 9:49.669998 10:206.09 11:175.88 12:-1.6900001 13:-258.48999 14:-165.47 15:41.91 16:-155.38 17:43.68 18:-124.59 19:105.44 #
-3.9704544832378143375223138178409e-06 1:-109.28 2:50.869999 3:-239.56 4:62.959999 5:-45.970001 6:-172.17999 7:-44.549999 8:28.950001 9:35.189999 10:205.39999 11:160.17 12:4.1700001 13:-253.52 14:-164.41 15:37.110001 16:-147.14 17:38.790001 18:-118.31 19:95.870003 #
3.9704544832378143375223138178409e-06 1:-75.019997 2:83.690002 3:-89.360001 4:31.1 5:-161.28999 6:-102.61 7:74.18 8:-96.089996 9:-2.23 10:-1.62 11:94.849998 12:-669.90002 13:-108.16 14:-78.279999 15:63.779999 16:-109.95 17:49.040001 18:-94.370003 19:31.940001 #
-3.9704544832378143375223138178409e-06 1:353.62 2:108.73 3:352.48999 4:78.190002 5:107.05 6:86.040001 7:112.04 8:89.529999 9:-363.42999 10:98.419998 11:-5.75 12:-245.56 13:133.34 14:413.79999 15:145.11 16:405.39999 17:144.66 18:396.39001 19:99.629997 #
-3.9704544832378143375223138178409e-06 1:-935.79999 2:-52.950001 3:-816.64001 4:-30.57 5:-118.42 6:-920.12 7:-197.39 8:-888.27002 9:-898.04999 10:-107.49 11:100.05 12:-917.41998 13:-89.779999 14:-922.09998 15:-55.990002 16:-916.73999 17:-52.720001 18:-927.97998 19:-51.450001 #
3.9704544832378143375223138178409e-06 1:338.17001 2:-24.17 3:472.39999 4:-65.650002 5:2.5999999 6:447.92001 7:-135.61 8:562.14001 9:343.94 10:0.38999999 11:-183.05 12:223.13 13:-116.71 14:450 15:5.46 16:439.51001 17:6.52 18:435.92001 19:13.08 #
3.9704544832378143375223138178409e-06 1:-339.72 2:-131.06 3:-211.24001 4:-75.339996 5:-147.88 6:-408.73999 7:-167.74001 8:-171.91 9:-384.54999 10:-165.09 11:-27.68 12:-4.5 13:-78.519997 14:-241.63 15:-154.41 16:-286.79999 17:-141.87 18:-294.85001 19:-162.06 #
-3.9704544832378143375223138178409e-06 1:443.22 2:45.549999 3:448.32001 4:20.67 5:167.46001 6:422.67001 7:117.52 8:486.88 9:62.459999 10:11.28 11:221.66 12:-63.099998 13:65.760002 14:537.56 15:62.919998 16:573.35999 17:66.080002 18:569.73999 19:46.150002 #
3.9704544832378143375223138178409e-06 1:-86.459999 2:81.610001 3:-106.45 4:25.700001 5:-159.36 6:-99.889999 7:74.660004 8:-64.330002 9:-16.530001 10:-2.6400001 11:141.81 12:-678.13 13:-118.03 14:-88.449997 15:54.27 16:-120.7 17:38.509998 18:-105.39 19:20.690001 #
-3.9704544832378143375223138178409e-06 1:-911.31 2:-48.77 3:-832.44 4:-26.129999 5:-66.68 6:-916.96997 7:-152.81 8:-868.90997 9:-875.91998 10:-94.330002 11:123.9 12:-886.60999 13:-73.580002 14:-876.85999 15:-49.48 16:-865.32001 17:-46.369999 18:-883.21002 19:-40.959999 #
3.9704544832378143375223138178409e-06 1:-159.73 2:138.7 3:-232.03999 4:137.53 5:180.8 6:-188 7:116.01 8:-156.39999 9:-290.04999 10:77.129997 11:85.669998 12:-387.19 13:109.93 14:-232.12 15:143.28999 16:-217.17 17:140.33 18:-213.38 19:141.19 #
3.9704544832378143375223138178409e-06 1:-212.48 2:46.110001 3:-316.54001 4:-5.7399998 5:48.639999 6:-166.39 7:86.010002 8:-284.07999 9:-172.50999 10:45.049999 11:-46.990002 12:-689.34003 13:-36.049999 14:-266.04999 15:47.400002 16:-289.14999 17:51.099998 18:-271.20001 19:30.809999 #
-2.9499795940701419635215918546578e-06 1:1043.51 2:-60.919998 3:442.48999 4:-86.529999 5:-189.28999 6:613.47998 7:-148.92999 8:856.21002 9:256.70001 10:-113.18 11:-634.79999 12:1032.91 13:96.050003 14:770.95001 15:-77.480003 16:514.10999 17:-46.470001 18:617.46997 19:-87.379997 #
-7.7705910109962252861208519341685e-07 1:-126.56 2:-73.419998 3:-307.10999 4:-48.209999 5:11.14 6:-280.98001 7:-146.42999 8:-48.5 9:-577.08002 10:-276.87 11:-431.10999 12:680.47998 13:258.78 14:-165.86 15:-79.940002 16:-117.54 17:-69.669998 18:-109.91 19:-40.75 #
3.9704544832378143375223138178409e-06 1:-327.98999 2:-146.7 3:-215.34 4:-100.68 5:-163.31 6:-402.84 7:-176.3 8:-187.63 9:-384.26999 10:-170.95 11:-83.339996 12:-77.260002 13:-107.59 14:-229.96001 15:-164.03 16:-275.78 17:-152.46001 18:-286.09 19:-172.31 #
-3.9704544832378143375223138178409e-06 1:-832.96997 2:-32.639999 3:-731.70001 4:-10.53 5:-63.32 6:-762.22998 7:-420.91 8:-796.27002 9:-786.13 10:-193.44 11:-208.46001 12:-807.44 13:-208.59 14:-856.21002 15:-36.619999 16:-885.52002 17:-37.009998 18:-908.46002 19:-23.58 #
3.9704544832378143375223138178409e-06 1:-326.62 2:-145.72 3:-236.50999 4:-115.18 5:-168.03999 6:-363.26999 7:-170.99001 8:-201.67999 9:-335.41 10:-138.5 11:-94.93 12:-138.59 13:-104.54 14:-250.57001 15:-159.98 16:-285.23999 17:-147.45 18:-293.67999 19:-167.19 #
3.9704544832378143375223138178409e-06 1:231.3 2:34.810001 3:263.60001 4:16.26 5:-69.199997 6:379.25 7:-17.370001 8:303.34 9:423.17999 10:71.860001 11:44.259998 12:-75.959999 13:22.889999 14:233.09 15:40.040001 16:260.19 17:20.540001 18:251.02 19:54.48 #
-3.9704544832378143375223138178409e-06 1:-408.57001 2:-48.240002 3:-584.59003 4:-18.17 5:-37.57 6:-652.34998 7:-153 8:-809.16998 9:-1073.01 10:-405.20001 11:99.529999 12:212.67 13:8.8599997 14:-452.67999 15:-39.57 16:-491.26001 17:-15.81 18:-445.06 19:0.60000002 #
3.9704544832378143375223138178409e-06 1:409.60999 2:41.110001 3:462.12 4:-7.7199998 5:43.330002 6:539.39001 7:-164.72 8:773.47998 9:457.48999 10:-37.720001 11:102.11 12:271.98001 13:-187.14999 14:473.06 15:89.919998 16:480.38 17:96.889999 18:479.07999 19:116.17 #
3.9704544832378143375223138178409e-06 1:-127.51 2:-0.66000003 3:-180.73 4:16.33 5:-27.120001 6:-200.25 7:-155.57001 8:-142.89 9:-245.95 10:-138.21001 11:40.389999 12:20.32 13:205.8 14:-169.11 15:9.4099998 16:-164.92999 17:16.6 18:-154.41 19:-0.51999998 #
3.9704544832378143375223138178409e-06 1:-326.79999 2:-142.78 3:-229.59 4:-102.72 5:-147.67999 6:-389.62 7:-167.14999 8:-197.78 9:-360.19 10:-156.23 11:-108.57 12:-70.169998 13:-100.2 14:-248.85001 15:-157.78999 16:-284.22 17:-146.21001 18:-294.04001 19:-168.17 #
-3.9704544832378143375223138178409e-06 1:455.82999 2:53.630001 3:455.45001 4:28.290001 5:169.71001 6:433.51999 7:131.34 8:499.38 9:74.879997 10:32.68 11:220.45 12:-47.599998 13:91.800003 14:544.65002 15:70.449997 16:580.41998 17:74.040001 18:577.98999 19:52.959999 #
3.9704544832378143375223138178409e-06 1:-126.09 2:91.540001 3:-206.89 4:51.060001 5:-5.4099998 6:-89.989998 7:103.02 8:-212.99001 9:-39.310001 10:67.169998 11:-46.580002 12:-645.15997 13:-37.060001 14:-187.23 15:90.419998 16:-205.03999 17:75.160004 18:-189.55 19:71.699997 #
-3.9704544832378143375223138178409e-06 1:-914.27002 2:-48.73 3:-819.32001 4:-25.9 5:-79.129997 6:-916.79999 7:-165.46001 8:-870.22998 9:-878.76001 10:-97.169998 11:122.34 12:-893.96997 13:-76.519997 14:-882.81 15:-49.799999 16:-871.46997 17:-46.82 18:-887.39001 19:-42.779999 #
3.9704544832378143375223138178409e-06 1:309.32999 2:70.150002 3:316.17999 4:45.959999 5:52.650002 6:349.39999 7:78.860001 8:332.10001 9:336.07001 10:102.36 11:0.56999999 12:105.15 13:3.29 14:318.29999 15:74.050003 16:302.35999 17:62.18 18:297.23001 19:78.300003 #
3.9704544832378143375223138178409e-06 1:-329.32001 2:-146.22 3:-235.89 4:-114.96 5:-168.08 6:-363.85001 7:-170.14999 8:-201.59 9:-335.14999 10:-138.75999 11:-92.839996 12:-137.00999 13:-105.42 14:-251.17999 15:-161.36 16:-284.19 17:-149.23 18:-292.31 19:-169.27 #
-3.9704544832378143375223138178409e-06 1:302.73001 2:23.690001 3:779.35999 4:-44.889999 5:-250.08 6:439.5 7:-106.87 8:472 9:659.14001 10:68.93 11:198.41 12:-237.89999 13:-195.19 14:420.60001 15:52.630001 16:439.57001 17:74.660004 18:444.45001 19:79.989998 #
-3.9704544832378143375223138178409e-06 1:35.119999 2:-62.139999 3:-184.24001 4:-44.639999 5:21.370001 6:-216.33 7:-77.959999 8:14.89 9:28.879999 10:1.04 11:221 12:590.28998 13:108.64 14:-31.82 15:-61.970001 16:-94.849998 17:-28.48 18:-76.959999 19:-61.799999 #
3.9704544832378143375223138178409e-06 1:-104.95 2:-13.96 3:-280.29999 4:-20.83 5:-478.5 6:20.25 7:-140.99001 8:422.62 9:246.60001 10:66.300003 11:-43.16 12:-463.39999 13:76.889999 14:-250.19 15:-39.509998 16:-101.18 17:-54.490002 18:-88.040001 19:-70.099998 #
-3.9704544832378143375223138178409e-06 1:11.24 2:102.06 3:-341.69 4:101.87 5:235.25 6:27.77 7:94.120003 8:56.799999 9:-250.28 10:51.610001 11:171.24001 12:-512.98999 13:59.560001 14:136.09 15:110.28 16:-3.9400001 17:92.470001 18:3.4100001 19:104.39 #
3.9704544832378143375223138178409e-06 1:-8.3900003 2:52.07 3:-21.530001 4:45.779999 5:65.160004 6:-14.97 7:60.669998 8:-50.599998 9:-48.540001 10:34.290001 11:24.049999 12:-92.260002 13:5.4400001 14:20.120001 15:66.400002 16:-0.94 17:61.91 18:5.3200002 19:62.150002 #
3.9704544832378143375223138178409e-06 1:302.14999 2:75.709999 3:322.39001 4:53.610001 5:60.799999 6:352.20001 7:76.449997 8:334.38 9:340.62 10:100.82 11:1.28 12:103.71 13:3.05 14:323.79999 15:81.82 16:312.72 17:70.139999 18:309.82999 19:88.279999 #
3.9704544832378143375223138178409e-06 1:-90.639999 2:-76.660004 3:-120.54 4:-65.720001 5:-226.12 6:-120.98 7:-6.6399999 8:-348.39999 9:-185.46001 10:-82.889999 11:34.43 12:-102.55 13:-218.96001 14:-110.99 15:-80.629997 16:-101.22 17:-80.889999 18:-101.54 19:-63.439999 #
-3.9704544832378143375223138178409e-06 1:-83.959999 2:54.900002 3:-242.05 4:69.57 5:-16.08 6:-57.459999 7:-51.630001 8:28.93 9:95.309998 10:229.41 11:202.28999 12:0.16 13:-230.17 14:-159.53999 15:53.049999 16:-175.72 17:54.490002 18:-140.98 19:129.62 #
-3.9704544832378143375223138178409e-06 1:-602.01001 2:-100.26 3:-687.87 4:-74.830002 5:-19.950001 6:-866.67999 7:-14.5 8:-94.510002 9:-894.21002 10:-201.69 11:-520.63 12:300.20001 13:207.48 14:-588.59998 15:-100.16 16:-569.46002 17:-76.519997 18:-585.81 19:-85.040001 #
-3.9704544832378143375223138178409e-06 1:207.95 2:8.6300001 3:303.32001 4:-83.529999 5:-290.10001 6:413.22 7:-99.379997 8:4.2600002 9:676.29999 10:115.74 11:219.84 12:-69.139999 13:-55.43 14:304.26999 15:-19.66 16:300.26001 17:-50.759998 18:270 19:-100.13 #
3.9704544832378143375223138178409e-06 1:-212.11 2:47.990002 3:-311.31 4:-3.72 5:49.150002 6:-166.24001 7:89.370003 8:-290.62 9:-172.99001 10:48.91 11:-48.380001 12:-684.84003 13:-31.08 14:-261.91 15:50.810001 16:-286.10999 17:55.07 18:-268.76999 19:34.43 #
-3.9704544832378143375223138178409e-06 1:-223.10001 2:-9.8599997 3:-211.64 4:4 5:57.150002 6:-381.92999 7:36.07 8:103.22 9:-590.47998 10:-27.639999 11:26.02 12:804.06 13:101.96 14:-188.45 15:-0.41 16:-152.21001 17:17.83 18:-148.87 19:19.860001 #
3.9704544832378143375223138178409e-06 1:317.07999 2:3.7 3:326.64999 4:-17.23 5:-7.1900001 6:376.42001 7:36.720001 8:345.97 9:353.04001 10:58.200001 11:-54.029999 12:101.25 13:-84.889999 14:319.63 15:5.0900002 16:320.95999 17:5.1300001 18:322.35001 19:14.61 #
3.9704544832378143375223138178409e-06 1:-198.07001 2:48.580002 3:-280.56 4:-6.5300002 5:29.639999 6:-169.52 7:80.370003 8:-313.73001 9:-176.82001 10:35.580002 11:-64.220001 12:-640.97998 13:-50.029999 14:-245.72 15:65.139999 16:-269.41 17:68.160004 18:-253.31 19:45.450001 #
-3.9704544832378143375223138178409e-06 1:1045.4301 2:-69.129997 3:700.88 4:-104.22 5:-207.09 6:577.33002 7:-126.18 8:612.71997 9:182.28999 10:-216.13 11:-759.07001 12:700.33002 13:71.610001 14:1062.71 15:-61.82 16:815.84003 17:-42.93 18:932.01001 19:-83.519997 #
3.9704544832378143375223138178409e-06 1:382.89001 2:28.41 3:464.63 4:-18.139999 5:25.370001 6:513.81 7:-140.53 8:737.21002 9:420.56 10:-18.389999 11:14.39 12:253.05 13:-154.85001 14:455.92999 15:74.169998 16:467.97 17:82.480003 18:468.48001 19:105.8 #
-3.9704544832378143375223138178409e-06 1:326.79001 2:7.0900002 3:671.64001 4:-16.120001 5:-17.389999 6:417.78 7:-51.779999 8:488.07001 9:400.07001 10:20.139999 11:-33.580002 12:203.53 13:-157.75999 14:380.75 15:24.700001 16:429.26999 17:55.810001 18:413.34 19:69.139999 #
3.9704544832378143375223138178409e-06 1:-203.41 2:46.360001 3:-285.41 4:-8.1700001 5:31.709999 6:-174.39 7:79.110001 8:-321.82001 9:-182.89999 10:32.169998 11:-63.73 12:-653.35999 13:-53.650002 14:-250.78999 15:58.919998 16:-274.54001 17:62.779999 18:-258.89999 19:39.380001 #
3.9704544832378143375223138178409e-06 1:285.14999 2:74.400002 3:297.23999 4:53.990002 5:60.849998 6:333.72 7:54.419998 8:321.92999 9:326.5 10:82.760002 11:-8.7700005 12:90.830002 13:-8.2700005 14:295.01999 15:82.889999 16:290.14001 17:71.709999 18:288.47 19:94.419998 #
-3.9704544832378143375223138178409e-06 1:194.87 2:122.76 3:99.190002 4:117.69 5:270.37 6:350.06 7:249.09 8:191.14 9:375.04001 10:66.720001 11:222.67 12:-32.330002 13:54.98 14:298.07999 15:126.31 16:353.89999 17:123.73 18:299.29999 19:144.28 #
3.9704544832378143375223138178409e-06 1:-335.45999 2:-130.57001 3:-204.89 4:-75.690002 5:-146.61 6:-401.47 7:-166.75999 8:-166.46001 9:-377.41 10:-163.53 11:-28.629999 12:-6.8200002 13:-79.82 14:-234.24001 15:-153.03999 16:-277.98999 17:-140.44 18:-285.57999 19:-160.42999 #
-3.9704544832378143375223138178409e-06 1:-781.62 2:-95.089996 3:-720.23999 4:-73.730003 5:31.67 6:-778.26001 7:47.900002 8:-821.47998 9:-738.09998 10:-63.490002 11:-46.790001 12:-673.96997 13:-67.32 14:-799.01001 15:-93.120003 16:-814.60999 17:-84.870003 18:-818.83002 19:-82.839996 #
-3.9704544832378143375223138178409e-06 1:-919.69 2:-49.669998 3:-812.90997 4:-26.809999 5:-92.209999 6:-917.34998 7:-177.3 8:-874.22998 9:-883.69 10:-100.51 11:117.7 12:-902.06 13:-80.57 14:-892.90997 15:-51.259998 16:-882.98999 17:-48.299999 18:-897.02002 19:-45.490002 #
3.9704544832378143375223138178409e-06 1:342.51001 2:-19.52 3:475.57001 4:-61.52 5:0.77999997 6:458.45001 7:-132.58 8:589.67999 9:354.28 10:2.8199999 11:-174.53999 12:221.44 13:-121.24 14:449.97 15:11.48 16:444.67001 17:13.54 18:441.95999 19:22.9 #
-3.9704544832378143375223138178409e-06 1:491.54999 2:54.360001 3:446.35999 4:26.08 5:108.92 6:425.29999 7:116.01 8:481.09 9:102.57 10:23.360001 11:-47.639999 12:-21.530001 13:65.690002 14:569.46002 15:75.760002 16:599.41998 17:77.459999 18:599.21997 19:43.43 #
3.9704544832378143375223138178409e-06 1:-331.28 2:-146.42999 3:-234.25999 4:-114.4 5:-167.77 6:-364.45001 7:-169.86 8:-201.10001 9:-334.66 10:-140.2 11:-92.07 12:-134.88 13:-107.48 14:-251.2 15:-162.39999 16:-282.59 17:-150.8 18:-290.48999 19:-171.28999 #
-3.9704544832378143375223138178409e-06 1:874.92999 2:7.54 3:882.98999 4:-41.240002 5:14.89 6:702.71002 7:53.419998 8:231.08 9:282.20001 10:125.76 11:-130.39999 12:529.75 13:253.78999 14:790.52002 15:35.029999 16:795.69 17:21.25 18:839.79999 19:-27.93 #
3.9704544832378143375223138178409e-06 1:310.70999 2:-30.42 3:429.47 4:-70.199997 5:28.92 6:394.31 7:-144.67 8:441.60001 9:304.17001 10:-22.34 11:-114.34 12:240.09 13:-82.739998 14:441.04001 15:-6.54 16:405.73001 17:-7.1799998 18:399.72 19:-8.1700001 #
3.9704544832378143375223138178409e-06 1:317.28 2:7.5500002 3:316.51001 4:-15.11 5:-14.37 6:364.78 7:8.8500004 8:314.29001 9:329 10:44.75 11:-60.68 12:87.690002 13:-115.86 14:305.04999 15:15.83 16:310.67999 17:16.16 18:313.70999 19:25.67 #
3.9704544832378143375223138178409e-06 1:-205.49001 2:45.939999 3:-288.03 4:-8.21 5:33.130001 6:-175.83 7:79.5 8:-323.81 9:-184.71001 10:31.969999 11:-62.700001 12:-658.17999 13:-53.040001 14:-252.8 15:56.540001 16:-277.13 17:60.77 18:-261.69 19:37.07 #
-3.9704544832378143375223138178409e-06 1:282.81 2:-10.03 3:221.78 4:-121.01 5:-210.49001 6:479.26999 7:-273.29999 8:676.08002 9:798.59998 10:152.53 11:184.39999 12:-245.64 13:-64.989998 14:249.16 15:9.3299999 16:241.39999 17:-2.1199999 18:259.35999 19:1.5 #
-3.9704544832378143375223138178409e-06 1:-850.17999 2:-32.470001 3:-756.17999 4:-10.65 5:-69.940002 6:-783.37 7:-402.98999 8:-831.12 9:-803.23999 10:-202.14999 11:-196.58 12:-822.29999 13:-208.42 14:-883 15:-35.779999 16:-932.02002 17:-35.91 18:-941.35999 19:-22.280001 #
3.9704544832378143375223138178409e-06 1:-322.98999 2:-130.21001 3:-183 4:-79.510002 5:-145.2 6:-375.48001 7:-157.63 8:-154.75 9:-350.87 10:-150.91 11:-33.990002 12:-26.870001 13:-79.480003 14:-206.59 15:-147.94 16:-244.89999 17:-134.89999 18:-251.49001 19:-154.12 #
3.9704544832378143375223138178409e-06 1:322.31 2:0.88 3:324.37 4:-22.059999 5:-12.51 6:369.78 7:24.540001 8:338.31 9:336.5 10:51.59 11:-56.07 12:107.98 13:-96.510002 14:317.32001 15:2.21 16:316.67999 17:2.77 18:317.39001 19:10.91 #
3.9704544832378143375223138178409e-06 1:432.70001 2:36.540001 3:474.09 4:-14.19 5:68.089996 6:570.47998 7:-172.14999 8:800.06 9:499.73999 10:-33.82 11:138.86 12:289.79999 13:-207.69 14:499.39999 15:82.68 16:494.85001 17:84.529999 18:490.79001 19:91.699997 #
-3.9704544832378143375223138178409e-06 1:-622.59003 2:-97.010002 3:-696.96002 4:-69.830002 5:-29.809999 6:-864.46002 7:-33.459999 8:-207.38 9:-917.82001 10:-242.38 11:-585.31 12:255.53 13:198.84 14:-594.32001 15:-97.059998 16:-574.41998 17:-71.760002 18:-584.98999 19:-79.080002 #
-3.9704544832378143375223138178409e-06 1:-98.07 2:53.580002 3:-243.78 4:67.599998 5:-32.84 6:-115.83 7:-55.759998 8:30.059999 9:64.059998 10:210.48 11:187.82001 12:-4.96 13:-256.19 14:-165.32001 15:46.16 16:-163.44 17:48.009998 18:-130.99001 19:114.57 #
3.9704544832378143375223138178409e-06 1:-127.21 2:-6.5 3:-141.03999 4:0.090000004 5:-14.09 6:-208.32001 7:3.0699999 8:-225.23 9:-369.26001 10:-41.41 11:49.82 12:141.07001 13:-28.59 14:-158.02 15:-2.8399999 16:-152.32001 17:6.5599999 18:-153.19 19:-14.31 #
-3.9704544832378143375223138178409e-06 1:205.62 2:-25.75 3:261.69 4:-112.4 5:-306.10001 6:419.47 7:-55.389999 8:634.29999 9:557.26001 10:-59.52 11:-899.38 12:-119.98 13:-138.91 14:217.78 15:-68.949997 16:388.09 17:-105.61 18:317.89999 19:-168.35001 #
3.9704544832378143375223138178409e-06 1:391.91 2:34.66 3:462.26999 4:-12.71 5:31.459999 6:522.07001 7:-148.56 8:752.09998 9:432.32001 10:-25.969999 11:48.650002 12:260.19 13:-165.13 14:460.28 15:82.169998 16:471.75 17:90.540001 18:471.91 19:113.61 #
3.9704544832378143375223138178409e-06 1:333.07001 2:28.49 3:337.34 4:5.8600001 5:22.719999 6:373.69 7:40.650002 8:361.26999 9:349.76001 10:60.560001 11:-90.029999 12:88.779999 13:-79.639999 14:341.91 15:25.33 16:333.10999 17:23.35 18:332.64001 19:37.259998 #
3.9704544832378143375223138178409e-06 1:-36.580002 2:-16.799999 3:-18.309999 4:-10.67 5:-54.790001 6:-57.299999 7:24.51 8:-483.32999 9:-156.38 10:-59.419998 11:57.799999 12:-168.37 13:-411.82001 14:-127.1 15:-12.9 16:-69.709999 17:-19.540001 18:-69.099998 19:-6.3299999 #
-3.9704544832378143375223138178409e-06 1:373.20001 2:-0.33000001 3:377.85999 4:-26.32 5:126.15 6:356.23999 7:42.450001 8:410.12 9:8.2399998 10:-82.790001 11:189.58 12:-135.69 13:-55.150002 14:488.75 15:11.03 16:524.67999 17:7.75 18:515.13 19:2.6800001 #
-3.9704544832378143375223138178409e-06 1:-98.07 2:334.81 3:-178.10001 4:309.63 5:418.28 6:-72.349998 7:480.69 8:-137.35001 9:-112.83 10:373.57001 11:241.84 12:-392.89999 13:278.04999 14:-80.900002 15:328.70001 16:-136.82001 17:316.42999 18:-101.28 19:318.54999 #
-3.9704544832378143375223138178409e-06 1:299.91 2:20.879999 3:772.67999 4:-45.900002 5:-251.38 6:441.66 7:-94.370003 8:443.51001 9:643.04999 10:68.610001 11:212.52 12:-234.37 13:-192.49001 14:420.34 15:48.93 16:438.92001 17:71.379997 18:442.85999 19:74.32 #
3.9704544832378143375223138178409e-06 1:-136.64999 2:160.92999 3:-179.5 4:156.89 5:156.39 6:-127.4 7:164.52 8:-124.37 9:-222.03999 10:110.34 11:212.96001 12:-358.26001 13:132.02 14:-132.94 15:161.05 16:-158.91 17:158.91 18:-153.05 19:160.3 #
-3.9704544832378143375223138178409e-06 1:-64.099998 2:-59.110001 3:99.870003 4:-43.509998 5:-29.15 6:-107.61 7:-26.969999 8:-571.5 9:-207.08 10:-228.99001 11:49.880001 12:-140.17999 13:-155.21001 14:-33.98 15:-63.049999 16:-21.389999 17:-77.779999 18:-27.16 19:-64.940002 #
3.9704544832378143375223138178409e-06 1:330.97 2:29.42 3:331.70999 4:6.5900002 5:27.280001 6:370.51001 7:42.09 8:359.66 9:347.66 10:62.41 11:-88.379997 12:92.309998 13:-77.199997 14:335.45001 15:26.540001 16:328.63 17:24.540001 18:328.57999 19:38.810001 #
-3.9704544832378143375223138178409e-06 1:191.28999 2:89.639999 3:-166.03999 4:94.019997 5:235.96001 6:251.88 7:55.169998 8:351.63 9:28.809999 10:62.98 11:190 12:-323.14001 13:70.980003 14:264.51999 15:98.550003 16:191.28999 17:76.050003 18:179.67999 19:69.07 #
3.9704544832378143375223138178409e-06 1:-327.95999 2:-138.74001 3:-222.75 4:-100.11 5:-144.22 6:-378.34 7:-163.7 8:-197.09 9:-344.91 10:-154 11:-108.49 12:-83.489998 13:-104.78 14:-246.07001 15:-154.03999 16:-275.31 17:-143.38 18:-283.95001 19:-166.50999 #
-3.9704544832378143375223138178409e-06 1:311.76999 2:29.459999 3:785.62 4:-43.959999 5:-246.17 6:440.23001 7:-135.67 8:547.28003 9:689.75 10:70.769997 11:163.05 12:-238.46001 13:-199.48 14:422.07001 15:58.619999 16:437.88 17:79.019997 18:444.12 19:89.290001 #
3.9704544832378143375223138178409e-06 1:-302.85999 2:-141.77 3:-225.10001 4:-114.27 5:-165.81 6:-356.07999 7:-181.46001 8:-191.42 9:-326.56 10:-150.12 11:-113.14 12:-135.19 13:-116.97 14:-236.89999 15:-154.13 16:-278.66 17:-142.39999 18:-288.42001 19:-163.27 #
3.9704544832378143375223138178409e-06 1:303.10999 2:64.160004 3:292.01001 4:37.57 5:43.91 6:338.73001 7:71.410004 8:315.29001 9:325.81 10:93.160004 11:-8.6300001 12:78.050003 13:-7.5799999 14:290.04001 15:65.459999 16:279.59 17:54.169998 18:274.73001 19:70.760002 #
-3.9704544832378143375223138178409e-06 1:427.84 2:55.75 3:425.60001 4:41.880001 5:93.620003 6:546.40997 7:101.82 8:488.89999 9:416.26001 10:82.269997 11:72.629997 12:46.400002 13:31.58 14:493.84 15:59.82 16:479.25 17:44.619999 18:482.13 19:55.549999 #
3.9704544832378143375223138178409e-06 1:-308.62 2:-142.87 3:-229.11 4:-114.8 5:-166.91 6:-358.82999 7:-179.59 8:-195.09 9:-330.48999 10:-147.61 11:-110.19 12:-137.45 13:-113.64 14:-241.09 15:-155.11 16:-282.03 17:-142.85001 18:-291.78 19:-163.21001 #
3.9704544832378143375223138178409e-06 1:-125.53 2:129.75999 3:-171.10001 4:126.47 5:143.52 6:-113.13 7:137.94 8:-115.83 9:-213.59 10:89.389999 11:207.61 12:-328.73001 13:83.660004 14:-129.08 15:131.41 16:-140.83 17:137.87 18:-134.49001 19:139.17999 #
-3.9704544832378143375223138178409e-06 1:-703.65002 2:-89.019997 3:-613.16998 4:-63.619999 5:9.25 6:-636.53998 7:16.879999 8:-770.29999 9:-658.59998 10:-74.040001 11:-95.839996 12:-590.48999 13:-77.809998 14:-731.01001 15:-86.830002 16:-698.87 17:-81.910004 18:-710.78003 19:-82.120003 #
-3.9704544832378143375223138178409e-06 1:-571.42999 2:-99.870003 3:-631.94 4:-75 5:-18.41 6:-826.20001 7:1.29 8:-58.77 9:-837.21997 10:-153 11:-357.94 12:341.63 13:229.96001 14:-558.08002 15:-94.800003 16:-526.21997 17:-70.110001 18:-543.34998 19:-76.580002 #
-3.9704544832378143375223138178409e-06 1:239.64 2:33.84 3:434.44 4:27.5 5:149.39 6:247.63 7:186.22 8:132.82001 9:266.62 10:-41.919998 11:411.91 12:-38.709999 13:-39.349998 14:318.01001 15:38.709999 16:564.39001 17:16.799999 18:467.07001 19:17.85 #
3.9704544832378143375223138178409e-06 1:-200.89 2:47.310001 3:-282.82999 4:-7.5300002 5:30.57 6:-172.2 7:79.470001 8:-318.32999 9:-180.19 10:33.490002 11:-64.279999 12:-647.59998 13:-52.580002 14:-248.33 15:61.950001 16:-271.85999 17:65.400002 18:-255.99001 19:42.380001 #
-3.9704544832378143375223138178409e-06 1:440.91 2:70.010002 3:421.54999 4:52.75 5:121.95 6:545.39001 7:112.1 8:488.04999 9:397.89999 10:84.800003 11:44.07 12:-17.26 13:-26.57 14:503.31 15:60.860001 16:485.26001 17:42.209999 18:491.94 19:59.009998 #
-3.9704544832378143375223138178409e-06 1:-762.51001 2:-97.239998 3:-696.28003 4:-75.730003 5:28.76 6:-753.41998 7:45.110001 8:-810.73999 9:-726.22998 10:-64.160004 11:-55.400002 12:-656.48999 13:-66.309998 14:-790.28998 15:-93.959999 16:-781.09003 17:-87.860001 18:-790.85999 19:-88.330002 #
-3.9704544832378143375223138178409e-06 1:185.17 2:119.29 3:63.66 4:113.96 5:267.97 6:321.62 7:232.19 8:184.56 9:331.28 10:54.57 11:203.38 12:-70.309998 13:46.66 14:289.26001 15:122.53 16:333.19 17:119.02 18:281.63 19:138.2 #
-3.9704544832378143375223138178409e-06 1:1044.42 2:-46.59 3:522.38 4:-72.93 5:-144.64 6:662.46997 7:-114.57 8:749.95001 9:507.07001 10:-85.449997 11:-542.84003 12:1107.86 13:84.110001 14:688.45001 15:-82.220001 16:490.03 17:-54.68 18:575.48999 19:-105.79 #
3.9704544832378143375223138178409e-06 1:-183.39 2:61.07 3:-286.79001 4:21.18 5:-11.84 6:-132.94 7:85.519997 8:-168.98 9:-111.07 10:45.139999 11:-5.8000002 12:-652.31 13:-46.650002 14:-240.98 15:66.540001 16:-272.66 17:67.43 18:-257.64001 19:60.459999 #
-3.9704544832378143375223138178409e-06 1:222.07001 2:-1.35 3:323.48001 4:-90.129997 5:-344.57999 6:439.59 7:-91.650002 8:500.32999 9:675.20001 10:78.300003 11:48.860001 12:-74.660004 13:-68.639999 14:291.91 15:-39.779999 16:316.35999 17:-73.650002 18:280.03 19:-131.08 #
-3.9704544832378143375223138178409e-06 1:264.17999 2:78.089996 3:-49.369999 4:85.260002 5:241.5 6:319.10999 7:50.540001 8:449.63 9:163.69 10:52.740002 11:186.48 12:-233.8 13:55.16 14:311.59 15:87.730003 16:303.20001 17:66.589996 18:257.73001 19:53.82 #
3.9704544832378143375223138178409e-06 1:-119.02 2:-3.1500001 3:-170.46001 4:13.78 5:-31.200001 6:-190.96001 7:-157.56 8:-143.08 9:-238.94 10:-141.64 11:38.799999 12:26.73 13:195.73 14:-155.57001 15:6.4400001 16:-154.64999 17:13.43 18:-144.75 19:-2.79 #
3.9704544832378143375223138178409e-06 1:-161.24001 2:42.360001 3:-262.73001 4:-23.51 5:40.639999 6:-122.02 7:86.330002 8:-265.39001 9:-118.36 10:57 11:-23.43 12:-503.57001 13:1.22 14:-221.2 15:45.700001 16:-243.28999 17:45.860001 18:-227.25 19:17.629999 #
-3.9704544832378143375223138178409e-06 1:238.8 2:46.549999 3:378.31 4:47.709999 5:186.92999 6:190.52 7:220.2 8:172.10001 9:248.64999 10:2.3499999 11:423.57999 12:-50.790001 13:-1.12 14:326.54001 15:49.619999 16:555.60999 17:26.6 18:456.26999 19:18.24 #
-3.9704544832378143375223138178409e-06 1:384.64999 2:7.5500002 3:392.01001 4:-17.65 5:135.52 6:366.04999 7:54.25 8:422.32001 9:12.03 10:-71.160004 11:196.31 12:-127.69 13:-39.150002 14:497.73001 15:21.549999 16:533.02002 17:20.129999 18:524.89001 19:11.43 #
-3.9704544832378143375223138178409e-06 1:246.10001 2:81.940002 3:-84.339996 4:88.110001 5:239.89 6:305.98001 7:51.32 8:427.91 9:126.67 10:55.5 11:186.31 12:-257.45999 13:59.639999 14:302.12 15:91.720001 16:272.25 17:70.07 18:238.83 19:58.599998 #
-3.9704544832378143375223138178409e-06 1:-736.96002 2:-98.360001 3:-663.14001 4:-74.540001 5:14.83 6:-694.06 7:27.190001 8:-793.21997 9:-700.65002 10:-74.129997 11:-81.150002 12:-627.03998 13:-74.589996 14:-772.16998 15:-95.629997 16:-741.40002 17:-91.169998 18:-754.81 19:-92.730003 #
3.9704544832378143375223138178409e-06 1:296.56 2:63.07 3:283.87 4:36.040001 5:42.959999 6:337.03 7:67.860001 8:306.84 9:324.47 10:88.610001 11:-15.63 12:59.919998 13:-14.56 14:279.17999 15:64.32 16:275.60001 17:53.669998 18:272.62 19:71.089996 #
-3.9704544832378143375223138178409e-06 1:428.44 2:36.23 3:436.85999 4:11.66 5:162.17999 6:408.60999 7:101.6 8:471.13 9:47.470001 10:-11.88 11:218.14 12:-81.169998 13:37.07 14:528.25 15:53.75 16:563.82001 17:56.25 18:559.10999 19:38.189999 #
-3.9704544832378143375223138178409e-06 1:311.34 2:21.82 3:419.45001 4:-94.080002 5:-171.60001 6:490.84 7:-275.79999 8:677.41998 9:805.15002 10:108.23 11:150.67 12:-250.58 13:-131.27 14:306.92999 15:26.379999 16:305.91 17:17.200001 18:323.98001 19:20.23 #
3.9704544832378143375223138178409e-06 1:-163.88 2:43.310001 3:-264.76001 4:-21.84 5:40.029999 6:-123.14 7:87.019997 8:-270.23999 9:-119.71 10:56.759998 11:-22.370001 12:-513.37 13:1.47 14:-222.60001 15:46.330002 16:-243.33 17:45.759998 18:-226.58 19:16.77 #
3.9704544832378143375223138178409e-06 1:-195.10001 2:49.889999 3:-278.82001 4:-5.48 5:28.85 6:-166.58 7:81.550003 8:-308.51001 9:-173.05 10:38.029999 11:-63.450001 12:-633.67999 13:-46.34 14:-243.27 15:67.959999 16:-267.39999 17:70.529999 18:-251.08 19:47.93 #
3.9704544832378143375223138178409e-06 1:-297.03 2:-140.27 3:-220.49001 4:-113.34 5:-163.88 6:-352.28 7:-182.22 8:-187.08 9:-321.31 10:-151.48 11:-114.72 12:-132.33 13:-119.35 14:-232.17 15:-152.97 16:-274.17999 17:-141.85001 18:-283.73999 19:-163.25 #
3.9704544832378143375223138178409e-06 1:-192.17 2:50.98 3:-277.72 4:-4.6799998 5:28.200001 6:-163.50999 7:82.739998 8:-303.13 9:-169.03999 10:40.470001 11:-61.939999 12:-625.96002 13:-41.919998 14:-241.2 15:69.940002 16:-265.88 17:72.010002 18:-249.32001 19:49.240002 #
-3.9704544832378143375223138178409e-06 1:306.75 2:26.6 3:784.01001 4:-44.220001 5:-248.14999 6:438.57999 7:-120.65 8:507.04999 9:674.65997 10:69.639999 11:181.61 12:-238.94 13:-197.47 14:421.32999 15:55.91 16:439.39999 17:77.260002 18:445.06 19:85.080002 #
3.9704544832378143375223138178409e-06 1:265.76999 2:-37.25 3:386.07001 4:-75.400002 5:22.82 6:344.19 7:-157.97 8:414.09 9:271.62 10:-35.25 11:-84.199997 12:200.82001 13:-48.310001 14:406.79001 15:-30.780001 16:365.45999 17:-33.84 18:359.35001 19:-35.630001 #
3.9704544832378143375223138178409e-06 1:-332.54999 2:-146.21001 3:-231.75 4:-113.36 5:-166.83 6:-365.01999 7:-169.82001 8:-200.36 9:-334.01001 10:-142.53 11:-92.599998 12:-132.25999 13:-110.21 14:-250.69 15:-162.88 16:-280.51001 17:-151.85001 18:-288.26001 19:-172.89 #
-3.9704544832378143375223138178409e-06 1:1030.35 2:-71.540001 3:741.51001 4:-107.57 5:-196.57001 6:601.46002 7:-105.01 8:575.03998 9:202.82001 10:-206.34 11:-741.21997 12:668.59003 13:67.650002 14:1033.04 15:-64.129997 16:811.29999 17:-46.57 18:921.58002 19:-87.809998 #
