SVM-light Version V6.02
0 # kernel type
3 # kernel parameter -d 
1 # kernel parameter -g 
1 # kernel parameter -s 
1 # kernel parameter -r 
empty# kernel parameter -u 
95 # highest feature index 
202 # number of training documents 
153 # number of support vectors plus 1 
-1.0914614 # threshold b, each following line is a SV (starting with alpha*y)
-0.00036388786017216897400450292821006 20:1199.0463 21:499.02164 22:769.4433 23:277.19186 24:742.86218 25:262.34177 26:958.6817 27:199.89131 28:2287.502 29:774.97601 30:726.03546 31:434.556 32:817.74994 33:328.76868 34:1160.7208 35:220.39041 36:3054.3074 37:1084.0969 38:1200.7722 39:366.90115 40:3262.1157 41:1326.8347 42:1804.2889 43:499.974 44:3457.9143 45:1553.5417 46:2695.0691 47:425.44629 48:6276.8184 49:1974.2399 50:2160.9204 51:478.84372 52:3449.1216 53:934.25409 54:1010.9183 55:471.61707 56:290.50842 57:363.15036 58:1377.9489 59:348.64767 60:2190.2424 61:2584.6484 62:2754.6296 63:683.03522 64:882.35797 65:604.52917 66:502.78729 67:162.31509 68:1243.0227 69:447.59476 70:1133.1133 71:283.9725 72:2140.7327 73:850.00928 74:1253.0417 75:459.33948 76:956.46729 77:316.43274 78:1478.9415 79:288.22153 80:1924.1252 81:632.18091 82:904.17975 83:437.00412 84:1494.6134 85:562.771 86:1795.8484 87:313.00647 88:1862.1488 89:670.09985 90:1025.4352 91:460.96747 92:1970.9589 93:1014.1622 94:2687.2983 95:360.55817 #
-0.001346507144722342008691384762642 20:1398.6035 21:302.43942 22:410.59198 23:273.76251 24:3297.3491 25:1626.239 26:991.9176 27:410.69662 28:1355.8323 29:369.54337 30:688.36627 31:428.03818 32:3444.688 33:1630.7019 34:982.84479 35:389.92166 36:3819.7039 37:1852.9323 38:1468.2667 39:355.97427 40:1080.7394 41:361.21609 42:800.49408 43:482.66208 44:3351.5715 45:2040.3499 46:2166.5376 47:371.43179 48:1552.4801 49:1040.7184 50:950.50018 51:437.13611 52:959.90833 53:434.96487 54:950.17133 55:565.1347 56:3342.2854 57:2078.6721 58:1820.1112 59:442.23587 60:3946.3342 61:1430.3378 62:1629.0425 63:496.99701 64:2565.6423 65:378.2197 66:1395.589 67:717.94537 68:3968.353 69:1975.2667 70:2201.3247 71:470.8295 72:1460.231 73:149.44971 74:359.39926 75:355.87558 76:3115.3579 77:1647.0913 78:979.4527 79:432.54837 80:1473.9232 81:297.44681 82:653.48676 83:531.22791 84:2757.4329 85:1665.0844 86:1059.62 87:449.12405 88:1381.1589 89:250.61707 90:661.08972 91:560.36932 92:2960.8811 93:1738.9629 94:1010.548 95:438.73166 #
-7.0684580570887917128075628170336e-05 20:1442.7013 21:221.43187 22:545.45001 23:243.26891 24:749.51117 25:149.78169 26:383.49832 27:182.75732 28:1107.4539 29:192.77528 30:1637.1624 31:396.85992 32:633.36493 33:145.44931 34:421.065 35:187.74901 36:942.97742 37:691.65167 38:896.77924 39:419.17093 40:1672.8096 41:266.43781 42:1184.8735 43:537.16907 44:878.60632 45:301.28851 46:989.56323 47:423.02206 48:1131.0059 49:225.51962 50:450.70438 51:318.92419 52:1672.2675 53:428.09586 54:1264.4425 55:747.35052 56:337.83044 57:154.36354 58:576.00739 59:565.20013 60:354.07947 61:314.48203 62:1184.8129 63:817.0697 64:957.31732 65:320.54568 66:1142.6963 67:878.99615 68:497.15906 69:348.20956 70:1081.5156 71:750.86609 72:1431.2074 73:329.69846 74:1539.3705 75:380.79874 76:740.11224 77:154.99068 78:389.41812 79:190.28433 80:1677.146 81:471.98697 82:1655.6082 83:494.12164 84:709.39703 85:187.13365 86:490.89874 87:211.78185 88:1661.6227 89:477.92209 90:1780.8696 91:541.16418 92:865.22058 93:224.23097 94:594.1402 95:243.30522 #
-0.00026703925828458832669731748410413 20:147.17744 21:55.50779 22:775.36322 23:340.05515 24:160.52542 25:185.68144 26:462.76218 27:321.91687 28:447.65521 29:204.08305 30:903.09613 31:687.32355 32:104.62607 33:209.54213 34:518.66791 35:383.59256 36:665.83875 37:494.92078 38:595.59509 39:283.95041 40:202.37181 41:74.284882 42:959.23529 43:600.80261 44:786.96893 45:443.20169 46:664.56549 47:217.10486 48:757.17578 49:412.28226 50:768.02966 51:302.09235 52:280.69809 53:115.22214 54:396.8905 55:409.64459 56:572.85046 57:237.6927 58:953.22595 59:364.82529 60:850.05804 61:538.55542 62:1408.332 63:467.75287 64:886.71729 65:65.890953 66:1311.1438 67:787.52814 68:1122.5758 69:206.81337 70:1190.8816 71:565.1076 72:439.87674 73:164.59496 74:1129.0217 75:788.92908 76:357.74487 77:177.90187 78:532.9328 79:418.05072 80:235.36201 81:172.43958 82:1216.1307 83:963.5174 84:427.63287 85:239.77773 86:582.47876 87:437.72775 88:188.15904 89:180.28911 90:1329.9558 91:1044.6245 92:259.97324 93:396.32855 94:641.33173 95:462.05237 #
-5.5734051858178333682669602922033e-05 20:1553.5056 21:652.15002 22:938.97223 23:183.51405 24:181.47932 25:123.18585 26:809.62799 27:458.80182 28:1352.3624 29:480.81998 30:1453.6533 31:706.74823 32:105.29224 33:139.09274 34:844.94922 35:468.68463 36:2075.064 37:938.92621 38:895.55115 39:470.36691 40:2575.7554 41:999.76678 42:1709.6832 43:538.91827 44:3372.4131 45:1024.1259 46:648.7088 47:431.64529 48:3081.0779 49:1559.6863 50:2898.0544 51:710.34167 52:1712.6086 53:714.23407 54:1518.1655 55:714.78003 56:1427.2919 57:533.93512 58:829.34216 59:384.92319 60:2282.5037 61:438.28381 62:1537.2347 63:751.72693 64:1334.7244 65:683.28027 66:824.18298 67:937.4693 68:978.23151 69:300.03595 70:588.71948 71:607.50104 72:1086.1115 73:347.6127 74:1237.4805 75:659.51086 76:282.78366 77:108.98315 78:1046.7633 79:516.51544 80:1724.9397 81:459.4967 82:1394.9036 83:991.83722 84:457.5817 85:126.43507 86:1174.9606 87:608.39368 88:1738.6486 89:528.08679 90:1548.4656 91:1095.1482 92:132.97278 93:53.581089 94:1280.3202 95:702.94189 #
6.3728097991610360706360438598495e-06 20:653.88147 21:223.52226 22:880.07031 23:227.56322 24:985.22699 25:147.18971 26:982.47675 27:280.02197 28:462.63507 29:412.02026 30:1475 31:755.06525 32:989.5105 33:169.76999 34:947.88593 35:321.5719 36:1062.7065 37:111.30202 38:825.88965 39:340.90027 40:438.04254 41:420.4097 42:1228.6641 43:555.57861 44:1364.0061 45:231.43437 46:1094.5377 47:330.591 48:690.55078 49:296.74994 50:1080.8568 51:175.14911 52:897.84033 53:355.46655 54:1161.8246 55:532.71655 56:1122.7531 57:196.09995 58:1147.911 59:369.43896 60:1830.639 61:295.83487 62:1479.9103 63:456.27911 64:1595.345 65:392.92548 66:1490.5272 67:715.00812 68:587.95477 69:142.0378 70:1260.1107 71:432.10834 72:413.539 73:341.61649 74:1333.8444 75:728.83136 76:934.508 77:98.881569 78:952.32861 79:415.83234 80:509.55081 81:503.49442 82:1523.3899 83:1006.7407 84:1089.7349 85:120.48497 86:945.36212 87:455.44751 88:470.12546 89:500.49835 90:1526.192 91:1097.0142 92:1047.8744 93:120.51942 94:928.15137 95:490.73013 #
1.8924824399807124719607998031279e-05 20:267.2962 21:364.41144 22:764.75757 23:254.5354 24:468.34891 25:385.37762 26:594.29987 27:318.50403 28:559.04559 29:428.85098 30:918.68274 31:395.22086 32:346.15402 33:365.62738 34:641.74121 35:330.92691 36:481.50305 37:53.938713 38:710.62079 39:433.5509 40:476.81439 41:178.32021 42:679.72961 43:375.19748 44:745.73529 45:380.50693 46:985.75018 47:327.62271 48:1329.8289 49:829.79193 50:617.09271 51:461.65265 52:927.93866 53:153.51376 54:765.66931 55:379.64206 56:881.12628 57:330.48959 58:811.97913 59:133.98482 60:1499.5181 61:552.41455 62:2229.3994 63:1164.4984 64:2676.4358 65:316.3768 66:1171.0209 67:542.43353 68:624.8869 69:368.75198 70:907.14691 71:175.49699 72:372.20621 73:503.53021 74:1079.4937 75:399.57892 76:499.56931 77:428.69278 78:680.89178 79:331.65814 80:533.19379 81:430.6561 82:1128.9446 83:563.94257 84:454.75967 85:477.46454 86:724.85388 87:298.40869 88:421.79764 89:403.50085 90:1154.5857 91:624.64142 92:476.28647 93:477.35843 94:936.44543 95:266.85892 #
0.00012105485353011821627461364059286 20:605.83911 21:166.54648 22:1090.906 23:305.47083 24:721.35376 25:225.71767 26:283.98868 27:208.22427 28:532.88824 29:118.48489 30:886.0354 31:339.33102 32:650.81592 33:81.181007 34:285.26016 35:189.67616 36:888.07855 37:590.25464 38:520.48792 39:215.89471 40:177.33072 41:281.11298 42:741.09174 43:327.89236 44:1474.6692 45:715.07782 46:715.39508 47:279.04993 48:840.3183 49:293.99481 50:641.75482 51:255.35167 52:263.6319 53:274.66718 54:808.86652 55:335.33093 56:513.67725 57:197.32755 58:325.6185 59:295.48367 60:1576.4756 61:550.50201 62:1130.2708 63:237.42458 64:2082.8274 65:182.38419 66:1583.1194 67:643.30615 68:212.99156 69:146.18016 70:412.2583 71:322.44379 72:1067.9893 73:689.08203 74:620.70227 75:473.18277 76:804.48724 77:261.50284 78:460.24078 79:236.79199 80:615.27209 81:397.97852 82:486.74988 83:499.1651 84:723.6098 85:195.01643 86:731.25482 87:252.62459 88:591.11267 89:432.7428 90:572.91724 91:524.30176 92:535.40472 93:211.13701 94:1015.4218 95:256.98618 #
8.2659634426222178271714824404626e-05 20:320.18961 21:58.38644 22:246.83023 23:290.11322 24:224.55634 25:99.588783 26:465.8989 27:462.42783 28:1080.3043 29:250.61923 30:724.9837 31:472.86713 32:308.96194 33:50.562305 34:491.61127 35:498.49353 36:1982.6399 37:219.37799 38:516.53369 39:462.08826 40:1407.5194 41:156.5032 42:875.40106 43:303.75308 44:2040.1007 45:771.13446 46:895.20178 47:454.37674 48:1682.7428 49:817.64233 50:1437.8362 51:312.5275 52:2223.1035 53:329.29074 54:1082.7787 55:376.03024 56:835.35925 57:283.36865 58:698.65302 59:486.45505 60:514.33295 61:160.59866 62:720.49268 63:645.40527 64:1583.5045 65:1156.7354 66:2079.9829 67:255.84373 68:938.53845 69:234.82153 70:778.36249 71:544.47223 72:509.34293 73:72.285149 74:565.57922 75:438.9295 76:309.36246 77:76.281479 78:463.57343 79:506.17316 80:715.15466 81:165.98129 82:766.08411 83:514.8299 84:198.50279 85:117.32634 86:491.42908 87:518.02777 88:641.28436 89:217.61566 90:888.83234 91:526.07538 92:408.95651 93:146.71577 94:648.27258 95:552.46826 #
-8.7698464278670399535409174518463e-05 20:688.93829 21:586.29468 22:660.23279 23:171.80177 24:388.27261 25:166.29539 26:598.96185 27:210.89665 28:889.41162 29:861.48578 30:797.86609 31:283.52148 32:377.22391 33:150.87277 34:631.66943 35:235.45778 36:617.36188 37:215.41824 38:657.37042 39:120.77559 40:703.15479 41:1321.7432 42:1365.9778 43:296.91153 44:996.74268 45:322.96161 46:352.80426 47:221.9678 48:1468.1356 49:1262.1482 50:1128.0524 51:167.38315 52:731.1839 53:1024.0708 54:1234.9539 55:372.73236 56:303.5419 57:119.92799 58:452.83197 59:302.75995 60:977.8457 61:427.6611 62:611.51862 63:258.48257 64:2799.1729 65:972.39655 66:1289.769 67:566.84125 68:1070.8586 69:243.35223 70:577.9093 71:387.24438 72:648.95575 73:685.67926 74:562.94287 75:200.11334 76:416.56067 77:145.45178 78:551.25525 79:319.99619 80:1014.2655 81:922.3833 82:536.87262 83:199.08157 84:335.62341 85:95.859062 86:566.44098 87:369.88412 88:867.89105 89:901.47821 90:607.81671 91:219.05373 92:464.50961 93:193.59155 94:659.6228 95:436.32397 #
-1.9391547091790386353471475899823e-05 20:2156.5552 21:1099.4525 22:936.09454 23:329.69931 24:782.93353 25:322.98553 26:469.38434 27:361.66519 28:4411.4834 29:1321.2683 30:2400.9209 31:668.6687 32:738.82983 33:337.96155 34:503.60843 35:318.31348 36:7291.0195 37:3260.8611 38:1814.7644 39:308.16666 40:3018.21 41:453.49091 42:1532.4642 43:321.97528 44:2916.8855 45:2577.7412 46:2728.6995 47:343.31842 48:8719.874 49:3956.2866 50:3227.7312 51:1245.7474 52:2798.8987 53:1162.501 54:1482.6853 55:403.06976 56:846.33466 57:558.53131 58:527.96564 59:169.3333 60:6809.7959 61:3560.2268 62:3069.1226 63:447.37552 64:5251.665 65:1074.2333 66:1227.1211 67:402.82733 68:3382.3542 69:1492.0447 70:1575.3606 71:339.62555 72:3318.4915 73:1381.8519 74:1628.1041 75:567.59692 76:921.02936 77:513.59363 78:512.69623 79:383.55804 80:4050.7793 81:1118.9194 82:822.48029 83:380.27017 84:895.60718 85:586.10382 86:649.84735 87:408.29996 88:3790.4558 89:1073.9675 90:771.4386 91:414.02802 92:943.00366 93:825.5907 94:996.74683 95:391.85037 #
3.7235568111950757830275193782654e-05 20:3280.6045 21:1463.8906 22:3487.2996 23:930.99652 24:306.41119 25:414.94693 26:593.01196 27:269.57611 28:4330.2388 29:3626.4255 30:7178.1909 31:1338.3081 32:424.96628 33:403.48889 34:525.65161 35:314.84766 36:6154.2539 37:333.71155 38:2862.4895 39:465.08835 40:3094.7429 41:2446.449 42:5202.0449 43:2409.3086 44:2613.5303 45:460.49985 46:2619.8083 47:214.88875 48:3363.4756 49:4641.6265 50:10480.062 51:1943.3949 52:2012.4703 53:1553.3757 54:3892.5996 55:1493.1354 56:1727.4973 57:981.08636 58:1198.5496 59:752.71161 60:3789.0452 61:1159.3489 62:3704.4482 63:3403.0791 64:7264.1445 65:3300.5024 66:5673.2935 67:1249.3116 68:1121.8163 69:428.28476 70:1022.7465 71:680.45709 72:4951.7422 73:2824.3235 74:5941.4561 75:1429.3975 76:251.9614 77:402.18823 78:657.15521 79:337.88025 80:1019.9813 81:463.93585 82:4729.1465 83:1196.6169 84:383.83987 85:460.56113 86:588.39197 87:460.59961 88:1482.3142 89:520.89038 90:5582.0181 91:1206.2455 92:1066.926 93:887.95599 94:896.54169 95:602.70447 #
6.7662856553964330092593160159709e-05 20:709.79553 21:574.88739 22:1211.0811 23:297.70847 24:2207.1658 25:1133.2848 26:2637.2708 27:654.58997 28:1713.1956 29:1364.3519 30:3620.4792 31:586.86725 32:2286.6538 33:1152.9974 34:2645.0586 35:628.87189 36:2592.2827 37:1367.5823 38:3996.0396 39:760.70483 40:607.06494 41:1024.2614 42:3842.2622 43:755.16626 44:2114.9204 45:1133.3322 46:2151.2773 47:726.76691 48:1094.3148 49:438.65152 50:1781.6924 51:232.29964 52:2656.3843 53:1898.525 54:2518.9941 55:647.83264 56:2542.3511 57:1174.2063 58:2108.3784 59:862.7323 60:3881.7627 61:3969.8298 62:8144.8003 63:1530.0378 64:3370.6499 65:1226.7174 66:1423.6259 67:711.45953 68:1885.6237 69:1314.4484 70:1863.0669 71:858.6225 72:1694.3257 73:1322.9604 74:3538.7075 75:496.87756 76:2216.6704 77:1174.7144 78:2570.2458 79:580.79999 80:2361.6904 81:1474.4565 82:2656.3303 83:839.12506 84:2308.3289 85:1159.5521 86:2513.7935 87:527.09393 88:1792.5294 89:1116.5725 90:2214.4697 91:810.95978 92:2279.3936 93:1181.8745 94:2388.2651 95:456.6409 #
5.6886035544406553634069756419933e-05 20:1983.5143 21:867.22467 22:2091.2615 23:491.38486 24:1360.153 25:489.40622 26:823.45172 27:394.81516 28:1687.8954 29:1320.708 30:2443.1326 31:605.33258 32:1473.4852 33:547.85767 34:969.41437 35:408.7084 36:490.37973 37:88.54892 38:1460.2249 39:563.69977 40:679.39459 41:2824.375 42:7745.4634 43:632.36975 44:1916.1533 45:693.43512 46:1273.707 47:492.75525 48:2768.8528 49:2952.229 50:5630.5386 51:508.21799 52:1088.3988 53:1386.6382 54:4195.2681 55:757.55304 56:1415.5625 57:617.18396 58:1247.8057 59:559.09357 60:3935.8572 61:1395.7854 62:938.56458 63:1077.827 64:688.69336 65:1383.4409 66:3700.3745 67:743.53571 68:1432.9482 69:288.1496 70:1737.9183 71:640.47162 72:2357.2808 73:1218.1472 74:1726.7505 75:729.65961 76:1498.254 77:537.54755 78:1054.567 79:420.75708 80:1526.6796 81:1216.8124 82:2435.9858 83:767.13599 84:1505.3657 85:622.12433 86:1297.8707 87:482.36053 88:1598.4213 89:1169.7068 90:2548.3381 91:817.22504 92:1660.8765 93:666.72113 94:1349.6996 95:456.83057 #
8.4283943692961549309927704598522e-05 20:342.61545 21:280.81119 22:370.10739 23:383.36722 24:263.32446 25:119.31589 26:374.58527 27:196.41138 28:212.92204 29:180.73082 30:699.59448 31:480.67703 32:302.72888 33:139.41922 34:448.5647 35:203.9743 36:305.20721 37:257.81635 38:368.79889 39:200.29524 40:464.9205 41:372.96152 42:762.36707 43:375.08313 44:667.92261 45:418.97372 46:871.45563 47:284.60495 48:572.7677 49:239.21692 50:789.06714 51:319.44482 52:514.01227 53:293.71951 54:657.37109 55:353.85092 56:647.86304 57:352.56146 58:1030.4868 59:314.5119 60:1156.4568 61:531.3374 62:893.59161 63:337.61584 64:581.67206 65:241.6729 66:581.64685 67:614.44171 68:734.02795 69:208.60706 70:1008.9298 71:363.09857 72:288.12704 73:289.93842 74:782.84259 75:563.7854 76:285.12408 77:98.696655 78:407.64508 79:260.33481 80:260.49063 81:174.05673 82:780.72998 83:643.51031 84:475.89902 85:86.767776 86:382.19754 87:262.4335 88:234.25041 89:214.57271 90:878.90814 91:677.44318 92:416.78464 93:132.63213 94:386.33414 95:297.29446 #
0.00039079763484153179353697282749636 20:1199.0463 21:499.02164 22:769.4433 23:277.19186 24:742.86218 25:262.34177 26:958.6817 27:199.89131 28:2287.502 29:774.97601 30:726.03546 31:434.556 32:817.74994 33:328.76868 34:1160.7208 35:220.39041 36:3054.3074 37:1084.0969 38:1200.7722 39:366.90115 40:3262.1157 41:1326.8347 42:1804.2889 43:499.974 44:3457.9143 45:1553.5417 46:2695.0691 47:425.44629 48:6276.8184 49:1974.2399 50:2160.9204 51:478.84372 52:3449.1216 53:934.25409 54:1010.9183 55:471.61707 56:290.50842 57:363.15036 58:1377.9489 59:348.64767 60:2190.2424 61:2584.6484 62:2754.6296 63:683.03522 64:882.35797 65:604.52917 66:502.78729 67:162.31509 68:1243.0227 69:447.59476 70:1133.1133 71:283.9725 72:2140.7327 73:850.00928 74:1253.0417 75:459.33948 76:956.46729 77:316.43274 78:1478.9415 79:288.22153 80:1924.1252 81:632.18091 82:904.17975 83:437.00412 84:1494.6134 85:562.771 86:1795.8484 87:313.00647 88:1862.1488 89:670.09985 90:1025.4352 91:460.96747 92:1970.9589 93:1014.1622 94:2687.2983 95:360.55817 #
-2.1599283058019698791629714662577e-07 20:197.58534 21:271.8689 22:1569.9507 23:298.99234 24:496.25317 25:486.11749 26:1064.7618 27:248.00049 28:591.90253 29:414.76401 30:2017.4078 31:304.35519 32:466.08325 33:497.02905 34:1118.593 35:233.28008 36:310.82095 37:282.78879 38:500.18542 39:287.03421 40:626.77496 41:484.08588 42:1566.2372 43:270.88815 44:999.77551 45:830.81848 46:1001.7001 47:157.43262 48:399.59668 49:509.61484 50:1813.031 51:174.9572 52:611.21606 53:478.69009 54:1525.3888 55:240.17824 56:670.85999 57:546.73035 58:1615.7448 59:279.66965 60:506.29324 61:700.59491 62:1070.1447 63:226.65132 64:629.77649 65:583.38397 66:1448.0516 67:498.78384 68:302.7319 69:621.82629 70:1744.2943 71:588.73315 72:623.41956 73:528.03033 74:2174.6946 75:317.46335 76:583.07837 77:518.3493 78:1272.6691 79:236.41811 80:487.04456 81:471.5939 82:2167.396 83:384.12732 84:543.99506 85:536.32642 86:1349.9551 87:263.98978 88:442.93546 89:470.86514 90:2205.5168 91:433.49362 92:479.83826 93:535.06207 94:1460.323 95:281.95071 #
0.00014521521640330908864413572700869 20:1097.5962 21:647.03485 22:1211.0239 23:275.43338 24:625.00604 25:373.24155 26:787.21448 27:216.4617 28:940.19055 29:599.73145 30:882.10614 31:688.91339 32:680.92468 33:418.40814 34:802.2345 35:196.25789 36:1069.7408 37:399.10107 38:820.26599 39:305.29919 40:624.80591 41:681.37207 42:770.92822 43:751.22253 44:601.04877 45:205.01927 46:1245.0917 47:205.66011 48:1730.2793 49:447.44205 50:949.67395 51:398.27362 52:1183.5656 53:779.89014 54:1072.6589 55:855.87042 56:109.13139 57:437.74432 58:1352.0129 59:234.2231 60:1667.1174 61:477.30753 62:824.40314 63:608.83936 64:1940.7144 65:225.10706 66:1761.6907 67:714.00055 68:549.92566 69:187.69627 70:1224.7858 71:386.04236 72:1386.0699 73:557.22266 74:1056.9237 75:753.18207 76:589.82214 77:307.21091 78:795.70062 79:232.12108 80:985.91669 81:593.53882 82:902.07068 83:1029.7133 84:602.19739 85:293.10654 86:715.96442 87:239.41235 88:1073.4879 89:613.07446 90:934.41473 91:1180.634 92:868.34247 93:368.54834 94:632.04541 95:266.7142 #
0.00010316832181223771838785019383522 20:2012.4893 21:516.2796 22:872.73645 23:279.01889 24:375.49295 25:268.22443 26:291.24673 27:256.9306 28:2254.7649 29:759.25104 30:1140.0511 31:305.65033 32:373.83279 33:226.61029 34:227.05746 35:273.87354 36:893.99481 37:379.07462 38:790.96771 39:344.86954 40:2579.1406 41:635.0813 42:751.7041 43:222.28677 44:2132.4211 45:1007.2668 46:967.75867 47:273.91183 48:1027.4835 49:858.89697 50:807.0827 51:277.6153 52:2964.4871 53:815.81067 54:860.76245 55:299.97745 56:1487.895 57:866.96973 58:1650.76 59:599.44257 60:666.25873 61:527.8374 62:635.28802 63:517.74683 64:85.98716 65:102.59043 66:1239.9957 67:415.36618 68:3214.8416 69:1206.7347 70:1096.675 71:422.50006 72:2640.0715 73:711.43567 74:1027.296 75:637.64606 76:539.65558 77:272.07794 78:278.45477 79:256.35431 80:2345.1372 81:633.65497 82:908.46924 83:335.30341 84:594.43005 85:266.75476 86:289.81216 87:265.49109 88:2251.96 89:581.30048 90:860.94025 91:298.0849 92:366.26028 93:176.27586 94:309.07205 95:260.84747 #
2.3630327820470600763691493284568e-06 20:1477.7242 21:501.87778 22:949.2594 23:272.30637 24:1052.327 25:549.77545 26:394.94919 27:280.98477 28:1460.4636 29:151.35307 30:1700.1722 31:504.62411 32:1118.3868 33:549.00629 34:418.14249 35:326.8053 36:1550.6415 37:603.94611 38:508.87177 39:221.86835 40:1602.5938 41:700.93317 42:1246.637 43:643.47345 44:1568.9932 45:242.2354 46:974.39703 47:791.46637 48:2001.7628 49:756.09558 50:851.23523 51:459.47095 52:2943.3901 53:983.17792 54:1765.1335 55:735.12329 56:1496.3998 57:216.45053 58:901.14368 59:1238.4446 60:4748.6353 61:1391.4863 62:1250.2817 63:849.82568 64:4703.7207 65:459.5394 66:1464.1561 67:1574.1998 68:3535.4976 69:1290.4347 70:2988.1382 71:1433.6234 72:1214.2015 73:796.18427 74:1607.8813 75:679.4201 76:955.26971 77:510.58136 78:529.89508 79:450.44562 80:957.68036 81:523.38257 82:1788.2186 83:728.05151 84:1065.6256 85:525.83588 86:629.92834 87:501.45285 88:1035.6409 89:464.16061 90:1832.7988 91:775.5022 92:972.03131 93:453.42648 94:811.35138 95:567.82336 #
-3.9084697885446339138057481044086e-05 20:668.54144 21:348.28427 22:685.15546 23:224.61171 24:83.574112 25:255.74275 26:282.76895 27:214.94823 28:608.94128 29:317.16571 30:697.46228 31:360.6395 32:40.260353 33:288.68909 34:372.25085 35:239.87947 36:1723.5626 37:841.151 38:591.2583 39:240.68452 40:1400.2052 41:187.62683 42:762.479 43:328.16913 44:355.23563 45:642.56732 46:1273.178 47:472.35257 48:1894.571 49:2359.1699 50:3200.7031 51:753.32898 52:1507.1189 53:209.59297 54:766.55023 55:323.98376 56:322.46948 57:542.83154 58:1334.8262 59:555.45789 60:2078.9058 61:453.54358 62:1403.697 63:601.37634 64:1628.613 65:128.13364 66:579.99207 67:371.54507 68:400.55313 69:717.69214 70:979.90765 71:421.77628 72:422.56638 73:405.23715 74:619.64288 75:165.24156 76:243.94461 77:243.52388 78:284.54324 79:259.36349 80:714.25702 81:317.63214 82:447.58191 83:129.82809 84:267.18677 85:296.05725 86:314.19211 87:276.76361 88:654.52081 89:270.9379 90:453.35153 91:130.35191 92:167.15202 93:369.31888 94:364.57214 95:317.11581 #
-0.00016868040913227909903537860003553 20:661.24573 21:432.25549 22:569.56976 23:187.29274 24:325.37363 25:501.71545 26:1254.2181 27:298.94116 28:771.9436 29:319.00897 30:647.15527 31:468.85516 32:344.19272 33:459.41498 34:1194.4318 35:301.47296 36:419.27573 37:775.71124 38:1544.4061 39:323.57031 40:1010.4329 41:295.26831 42:435.60388 43:313.88443 44:643.15015 45:1048.5417 46:1622.9563 47:238.11917 48:555.60638 49:329.99402 50:493.46619 51:247.74796 52:963.42297 53:281.2384 54:682.52899 55:357.70892 56:335.55612 57:706.51123 58:1390.3505 59:160.46957 60:538.92694 61:693.44495 62:1160.6213 63:252.87906 64:732.82758 65:315.79391 66:481.7713 67:628.32172 68:175.29286 69:686.44904 70:1411.5004 71:132.54688 72:379.13556 73:321.28888 74:647.49084 75:467.02969 76:456.07803 77:279.25024 78:1057.5938 79:380.35962 80:562.74786 81:236.12485 82:538.72076 83:745.56482 84:494.56833 85:275.71097 86:1066.6238 87:406.87262 88:537.56042 89:205.07721 90:548.9093 91:845.00989 92:407.83185 93:317.17029 94:1179.6648 95:445.5484 #
-5.5293319659862694495644497294506e-07 20:975.63361 21:172.26535 22:546.58307 23:311.77719 24:668.58716 25:294.37088 26:300.80356 27:129.5495 28:1238.3169 29:202.17204 30:632.04669 31:472.92429 32:798.98645 33:267.51157 34:308.76154 35:117.43987 36:1269.1064 37:461.12201 38:708.38538 39:218.71674 40:2105.3154 41:390.31876 42:1030.7789 43:610.32178 44:780.43518 45:306.362 46:1012.5574 47:277.84961 48:656.80481 49:338.01031 50:736.64465 51:410.20285 52:1953.3334 53:316.08472 54:1256.4985 55:753.56464 56:335.18475 57:91.992966 58:1528.4615 59:476.09485 60:816.37689 61:391.62842 62:2177.6531 63:295.75311 64:1382.2141 65:347.60754 66:1664.0618 67:635.69336 68:507.62045 69:266.13254 70:2086.1077 71:484.88937 72:1047.6761 73:81.093185 74:647.91034 75:329.51239 76:760.64307 77:267.92117 78:264.50476 79:81.204666 80:1470.9905 81:126.54892 82:664.08209 83:464.7114 84:930.38135 85:258.03885 86:244.11577 87:76.119576 88:1423.949 89:142.50844 90:705.6181 91:486.97195 92:961.87036 93:297.0415 94:322.86945 95:110.46767 #
4.0739444751607860675801653371764e-06 20:636.40466 21:94.998611 22:329.52066 23:118.57309 24:175.32608 25:721.20453 26:1682.6158 27:409.01578 28:1029.0164 29:220.35831 30:742.93567 31:340.2843 32:364.60172 33:774.9812 34:1629.5684 35:427.75192 36:1248.8507 37:758.56299 38:1744.5428 39:446.17612 40:635.81165 41:214.70392 42:927.69116 43:210.93423 44:353.83237 45:456.20187 46:1871.5454 47:467.85699 48:1894.3469 49:1233.2318 50:3586.3274 51:452.40106 52:1187.1458 53:181.47197 54:1079.543 55:207.96803 56:574.81903 57:799.62054 58:1730.1282 59:571.56 60:904.23273 61:2561.7964 62:1750.0547 63:486.78354 64:1294.2715 65:259.52924 66:1724.3871 67:359.68124 68:131.54779 69:581.5965 70:2101.3884 71:622.3056 72:617.71204 73:186.61861 74:441.83014 75:371.48547 76:260.18451 77:736.59998 78:1742.8135 79:493.91647 80:708.88678 81:61.790905 82:668.94012 83:225.04599 84:443.54221 85:755.83624 86:1766.0103 87:529.22235 88:686.53333 89:67.594048 90:736.79559 91:209.61893 92:395.57944 93:725.27216 94:1808.8524 95:545.55884 #
-2.1631889003495205492377806422155e-05 20:155.42923 21:442.09976 22:352.91418 23:226.35837 24:144.15186 25:365.20114 26:363.70544 27:355.95316 28:507.58383 29:407.50775 30:582.93585 31:353.2247 32:129.74963 33:338.43753 34:315.11926 35:379.57367 36:523.26935 37:639.62592 38:757.68774 39:273.25797 40:816.00977 41:664.73938 42:547.19366 43:295.28122 44:36.761616 45:280.76663 46:388.31668 47:299.06165 48:883.92816 49:1027.7246 50:1040.1056 51:267.99316 52:942.76709 53:594.22504 54:374.53745 55:347.07803 56:198.36143 57:297.67783 58:546.51111 59:499.35593 60:722.84113 61:702.09741 62:609.18304 63:385.29788 64:688.04401 65:549.41901 66:839.89594 67:733.03235 68:361.87421 69:307.75433 70:517.44519 71:501.08777 72:182.56221 73:310.22522 74:592.07465 75:407.72635 76:193.28015 77:361.83875 78:354.94998 79:444.05554 80:300.99866 81:476.79196 82:673.56836 83:484.49619 84:251.94958 85:389.99588 86:404.80981 87:395.08755 88:277.0274 89:444.33923 90:698.44708 91:518.59753 92:234.83807 93:435.94788 94:548.47003 95:467.02646 #
2.4751310095653955567485127176042e-05 20:147.17744 21:55.50779 22:775.36322 23:340.05515 24:160.52542 25:185.68144 26:462.76218 27:321.91687 28:447.65521 29:204.08305 30:903.09613 31:687.32355 32:104.62607 33:209.54213 34:518.66791 35:383.59256 36:665.83875 37:494.92078 38:595.59509 39:283.95041 40:202.37181 41:74.284882 42:959.23529 43:600.80261 44:786.96893 45:443.20169 46:664.56549 47:217.10486 48:757.17578 49:412.28226 50:768.02966 51:302.09235 52:280.69809 53:115.22214 54:396.8905 55:409.64459 56:572.85046 57:237.6927 58:953.22595 59:364.82529 60:850.05804 61:538.55542 62:1408.332 63:467.75287 64:886.71729 65:65.890953 66:1311.1438 67:787.52814 68:1122.5758 69:206.81337 70:1190.8816 71:565.1076 72:439.87674 73:164.59496 74:1129.0217 75:788.92908 76:357.74487 77:177.90187 78:532.9328 79:418.05072 80:235.36201 81:172.43958 82:1216.1307 83:963.5174 84:427.63287 85:239.77773 86:582.47876 87:437.72775 88:188.15904 89:180.28911 90:1329.9558 91:1044.6245 92:259.97324 93:396.32855 94:641.33173 95:462.05237 #
0.0013026250994668635285744784368944 20:1398.6035 21:302.43942 22:410.59198 23:273.76251 24:3297.3491 25:1626.239 26:991.9176 27:410.69662 28:1355.8323 29:369.54337 30:688.36627 31:428.03818 32:3444.688 33:1630.7019 34:982.84479 35:389.92166 36:3819.7039 37:1852.9323 38:1468.2667 39:355.97427 40:1080.7394 41:361.21609 42:800.49408 43:482.66208 44:3351.5715 45:2040.3499 46:2166.5376 47:371.43179 48:1552.4801 49:1040.7184 50:950.50018 51:437.13611 52:959.90833 53:434.96487 54:950.17133 55:565.1347 56:3342.2854 57:2078.6721 58:1820.1112 59:442.23587 60:3946.3342 61:1430.3378 62:1629.0425 63:496.99701 64:2565.6423 65:378.2197 66:1395.589 67:717.94537 68:3968.353 69:1975.2667 70:2201.3247 71:470.8295 72:1460.231 73:149.44971 74:359.39926 75:355.87558 76:3115.3579 77:1647.0913 78:979.4527 79:432.54837 80:1473.9232 81:297.44681 82:653.48676 83:531.22791 84:2757.4329 85:1665.0844 86:1059.62 87:449.12405 88:1381.1589 89:250.61707 90:661.08972 91:560.36932 92:2960.8811 93:1738.9629 94:1010.548 95:438.73166 #
0.0001011172888882570265745020066106 20:1134.2377 21:666.56073 22:747.00208 23:162.99432 24:884.4137 25:444.24741 26:799.83502 27:237.45068 28:2048.4475 29:1731.1816 30:1623.4585 31:588.53735 32:1036.5885 33:516.61871 34:872.34344 35:259.99429 36:594.10663 37:1363.1577 38:1429.699 39:484.53949 40:2713.998 41:1474.6506 42:1852.2819 43:296.25244 44:481.76694 45:946.51398 46:827.12592 47:385.93683 48:3262.6389 49:167.78423 50:708.79724 51:344.19162 52:1425.9678 53:724.79169 54:584.95001 55:355.03055 56:1968.5645 57:280.37643 58:642.72882 59:604.89844 60:5852.4736 61:3237.2017 62:3041.8337 63:723.1521 64:1004.423 65:496.7944 66:1129.1566 67:760.70776 68:2224.1907 69:1424.9799 70:1776.3358 71:902.65387 72:1365.4926 73:2014.58 74:3170.3066 75:719.56573 76:871.13409 77:383.47028 78:1107.9856 79:325.22678 80:695.45465 81:1329.4684 82:2155.8953 83:601.09155 84:654.28741 85:406.418 86:1164.498 87:331.66141 88:537.19989 89:1204.8066 90:2182.5449 91:598.7262 92:794.7608 93:501.57675 94:1366.5608 95:357.84406 #
5.6791174724755977276657858965336e-05 20:181.65366 21:234.21425 22:478.65781 23:145.38994 24:741.5376 25:51.485111 26:418.73273 27:169.27831 28:779.06085 29:389.84006 30:665.35388 31:774.29504 32:769.65991 33:62.741455 34:379.64655 35:184.59715 36:1232.5463 37:163.59735 38:685.65833 39:296.86234 40:762.53027 41:453.40405 42:1130.9047 43:594.81622 44:275.15988 45:356.61826 46:737.79449 47:471.70023 48:1456.7549 49:869.06342 50:1253.6687 51:426.62506 52:204.47498 53:379.54391 54:943.0285 55:651.37067 56:325.16165 57:366.5242 58:951.13641 59:967.37225 60:833.63116 61:822.17291 62:1241.8992 63:604.61871 64:322.15738 65:431.70987 66:1078.6437 67:537.19086 68:647.64392 69:490.69864 70:1369.0262 71:1379.8843 72:282.42242 73:109.02334 74:483.26709 75:776.98547 76:694.63062 77:32.350956 78:277.08182 79:235.1546 80:610.72882 81:390.45508 82:711.46918 83:1072.8566 84:744.84015 85:34.887707 86:238.57422 87:258.56052 88:480.81342 89:331.54962 90:722.13696 91:1188.2806 92:914.66925 93:72.869118 94:246.95294 95:264.79706 #
-3.8001436272379872620007148359411e-08 20:356.98773 21:132.8674 22:284.82785 23:173.77679 24:190.32309 25:186.71103 26:661.64417 27:240.60265 28:407.5726 29:195.26175 30:763.87518 31:427.48059 32:249.85695 33:247.8293 34:696.96698 35:215.48608 36:167.83656 37:127.89223 38:618.84821 39:179.22444 40:89.428795 41:143.37334 42:465.86569 43:312.50314 44:1306.2291 45:679.29541 46:1025.1458 47:185.86844 48:813.86316 49:747.25952 50:775.38586 51:347.59497 52:197.44096 53:289.71484 54:786.8504 55:390.31543 56:575.74402 57:353.61319 58:572.81848 59:343.71503 60:533.78339 61:344.93167 62:571.94751 63:461.10828 64:525.60278 65:498.45621 66:1276.7744 67:531.38263 68:374.22156 69:244.33495 70:654.32373 71:504.06683 72:438.7131 73:134.74101 74:1092.8376 75:460.15405 76:97.622017 77:237.9696 78:799.89795 79:263.40005 80:654.73816 81:144.61003 82:958.91187 83:597.34784 84:33.540298 85:266.17535 86:844.17548 87:280.73938 88:547.46893 89:111.09616 90:956.99481 91:646.53174 92:244.63536 93:309.17313 94:838.97528 95:280.36792 #
-4.1755387339380278799438883652329e-05 20:166.76305 21:98.604805 22:392.62787 23:198.4758 24:301.03534 25:139.25505 26:579.41278 27:205.21152 28:205.4386 29:140.39252 30:1026.8796 31:362.9455 32:273.26498 33:137.0361 34:522.56879 35:214.07732 36:98.099815 37:90.489166 38:691.62128 39:170.34435 40:106.68205 41:235.42297 42:1293.16 43:286.59412 44:398.76712 45:317.45236 46:309.79871 47:311.65091 48:242.09418 49:400.04047 50:885.83551 51:90.827911 52:74.039543 53:180.1012 54:1408.9653 55:220.81256 56:281.24734 57:243.28387 58:515.62042 59:435.08875 60:85.703651 61:218.09547 62:890.83746 63:300.47415 64:566.10089 65:49.719704 66:1143.8907 67:440.08496 68:418.77716 69:102.66944 70:609.46094 71:429.8577 72:294.69302 73:153.35776 74:859.09412 75:493.48566 76:319.86005 77:157.64365 78:594.61005 79:327.83173 80:218.93953 81:216.24481 82:1072.7565 83:565.60388 84:269.39618 85:168.53607 86:563.13416 87:359.05743 88:186.89577 89:245.42732 90:1148.6736 91:610.77527 92:305.27762 93:178.50406 94:461.00772 95:445.45627 #
-0.00027936633381531661077246120328255 20:1268.4894 21:711.13446 22:804.9801 23:251.36685 24:2219.4431 25:313.09689 26:486.09851 27:345.5968 28:1755.1992 29:624.44562 30:563.03058 31:265.5654 32:2461.2537 33:343.63385 34:495.86359 35:335.10623 36:1541.786 37:208.49533 38:597.58374 39:354.06201 40:1328.9094 41:1080.7141 42:1050.1593 43:350.27362 44:2369.8245 45:750.87524 46:548.77362 47:310.48126 48:1417.0648 49:533.05176 50:975.3363 51:343.83688 52:1066.2098 53:820.59448 54:735.34326 55:318.77597 56:2579.6287 57:826.95892 58:297.11267 59:313.18713 60:2429.7659 61:697.67603 62:379.98917 63:270.66006 64:609.85077 65:593.76666 66:943.80139 67:384.21094 68:2202.7551 69:564.65167 70:377.18823 71:310.16135 72:1842.5688 73:1098.1183 74:1226.2257 75:306.91724 76:1960.5687 77:423.64383 78:510.19537 79:399.52341 80:310.5134 81:424.58066 82:907.28174 83:311.62482 84:1920.3389 85:427.17188 86:557.58557 87:403.06097 88:400.5303 89:482.88745 90:953.55475 91:322.43732 92:2089.6433 93:415.37424 94:661.83441 95:419.08856 #
0.00011256355175126150024687843309579 20:1054.0289 21:325.56094 22:961.57001 23:460.06763 24:900.0639 25:242.11295 26:733.24237 27:330.04031 28:1382.6686 29:1034.417 30:1730.8173 31:860.85986 32:922.87689 33:288.26102 34:743.50055 35:334.9895 36:1576.3444 37:536.33032 38:1293.3136 39:624.70697 40:2464.3367 41:839.40649 42:1339.3947 43:643.10858 44:1560.3241 45:747.18256 46:747.1192 47:966.54071 48:2772.6855 49:3272.7983 50:5213.2832 51:929.55969 52:2520.6294 53:643.73022 54:2484.4768 55:784.50317 56:2107.2981 57:287.44449 58:1304.699 59:1532.1703 60:5917.6187 61:6185.9844 62:6494.7935 63:1303.8605 64:4046.1792 65:1014.2067 66:1986.2617 67:1052.0957 68:4073.3113 69:476.35867 70:1548.6176 71:1958.3022 72:693.54779 73:761.61597 74:572.79095 75:534.32886 76:756.46478 77:335.61633 78:696.06128 79:352.40427 80:656.82092 81:832.06152 82:960.0282 83:620.56744 84:783.9101 85:393.68021 86:790.97571 87:363.76569 88:416.4776 89:796.41534 90:926.31921 91:590.6333 92:655.50861 93:589.41479 94:982.255 95:411.11984 #
0.0003131838027086591719899688612827 20:450.33884 21:98.774155 22:371.98727 23:209.74373 24:393.83713 25:509.92508 26:559.80487 27:215.96359 28:2384.3357 29:2088.6653 30:3143.1133 31:249.73947 32:439.82217 33:555.3158 34:547.85333 35:206.97456 36:3344.1357 37:3643.3555 38:1929.1364 39:343.78311 40:792.87793 41:454.5224 42:603.10162 43:273.28387 44:1234.3137 45:754.84613 46:680.70984 47:307.09409 48:3726.1309 49:1550.4088 50:3878.8425 51:853.12537 52:1758.8615 53:725.33478 54:706.36511 55:322.99344 56:1281.2598 57:800.20673 58:835.5578 59:188.40765 60:2319.0898 61:790.1582 62:4081.8269 63:489.38464 64:1699.0946 65:335.61838 66:1378.401 67:352.1163 68:477.44724 69:807.54077 70:1438.4965 71:410.12576 72:1043.4666 73:348.21552 74:564.90796 75:348.89969 76:542.03546 77:638.70447 78:688.74335 79:277.96539 80:746.677 81:537.50787 82:1129.1289 83:275.82047 84:756.65283 85:769.01141 86:754.95795 87:295.90283 88:761.04077 89:468.14908 90:1000.8133 91:290.00909 92:1259.5789 93:1103.2351 94:957.03839 95:328.50253 #
2.3394221459932091581202656671579e-05 20:1130.3556 21:530.55115 22:574.25781 23:178.43149 24:649.00031 25:153.95578 26:379.13858 27:572.30597 28:849.11755 29:997.8645 30:1939.0039 31:1477.7046 32:680.31708 33:125.08359 34:553.51404 35:673.54803 36:4408.9551 37:3514.9109 38:6411.9365 39:1183.2295 40:863.30151 41:637.12799 42:1697.1213 43:764.46924 44:1270.0464 45:765.83685 46:912.64117 47:221.82668 48:8285.4385 49:8003.7261 50:19356.717 51:3371.5693 52:1625.7896 53:307.59259 54:1169.2698 55:612.60376 56:951.12976 57:699.18713 58:1251.8586 59:280.6243 60:4868.9004 61:4220.7876 62:8648.416 63:3198.4614 64:1840.2988 65:1186.1791 66:2314.1052 67:829.83441 68:736.67114 69:431.75623 70:1075.342 71:815.97699 72:209.5499 73:683.96777 74:1036.2711 75:1577.9928 76:907.65979 77:262.56754 78:418.36606 79:894.67511 80:1180.8446 81:647.72272 82:1577.2048 83:1861.8683 84:1044.3932 85:341.16095 86:525.62665 87:939.14508 88:1004.1493 89:521.7854 90:1680.2463 91:2003.4247 92:1557.1066 93:565.13873 94:746.84369 95:1048.324 #
-3.3827947517745497870919613170315e-05 20:1945.7444 21:523.81781 22:775.62408 23:254.85907 24:193.92435 25:122.05436 26:1560.0449 27:496.41464 28:3336.6147 29:876.41827 30:3039.7351 31:525.08142 32:411.43121 33:76.108589 34:1360.391 35:507.96219 36:3075.353 37:1658.2412 38:3440.2896 39:924.3692 40:494.05331 41:1352.207 42:2120.2754 43:597.96442 44:3579.4331 45:1373.6597 46:1972.6239 47:752.48047 48:6916.1685 49:2028.2061 50:3300.2161 51:625.94287 52:1719.5713 53:438.63431 54:1213.8895 55:627.24084 56:1762.5865 57:531.80115 58:2255.9651 59:1355.7163 60:4530.0361 61:3145.4263 62:4279.1157 63:1878.9921 64:3475.2063 65:296.43335 66:2294.9331 67:705.61407 68:3916.0999 69:494.25909 70:2332.6899 71:1631.3147 72:1353.9877 73:55.179562 74:832.61133 75:272.37601 76:257.86893 77:52.877151 78:1776.7921 79:604.94733 80:1429.3373 81:749.13068 82:709.88611 83:317.23709 84:676.73145 85:57.236217 86:1815.5167 87:643.5036 88:1372.0065 89:625.49841 90:619.8446 91:304.99698 92:1133.1134 93:150.80078 94:1963.5402 95:633.99805 #
0.00013032269588707982941461205328437 20:1553.5056 21:652.15002 22:938.97223 23:183.51405 24:181.47932 25:123.18585 26:809.62799 27:458.80182 28:1352.3624 29:480.81998 30:1453.6533 31:706.74823 32:105.29224 33:139.09274 34:844.94922 35:468.68463 36:2075.064 37:938.92621 38:895.55115 39:470.36691 40:2575.7554 41:999.76678 42:1709.6832 43:538.91827 44:3372.4131 45:1024.1259 46:648.7088 47:431.64529 48:3081.0779 49:1559.6863 50:2898.0544 51:710.34167 52:1712.6086 53:714.23407 54:1518.1655 55:714.78003 56:1427.2919 57:533.93512 58:829.34216 59:384.92319 60:2282.5037 61:438.28381 62:1537.2347 63:751.72693 64:1334.7244 65:683.28027 66:824.18298 67:937.4693 68:978.23151 69:300.03595 70:588.71948 71:607.50104 72:1086.1115 73:347.6127 74:1237.4805 75:659.51086 76:282.78366 77:108.98315 78:1046.7633 79:516.51544 80:1724.9397 81:459.4967 82:1394.9036 83:991.83722 84:457.5817 85:126.43507 86:1174.9606 87:608.39368 88:1738.6486 89:528.08679 90:1548.4656 91:1095.1482 92:132.97278 93:53.581089 94:1280.3202 95:702.94189 #
3.0387655632371888566158404931805e-08 20:1087.5532 21:335.58334 22:606.97968 23:382.88376 24:892.34155 25:531.62189 26:369.14276 27:334.58572 28:817.51807 29:126.97155 30:1712.7725 31:797.71112 32:995.32831 33:637.43188 34:571.5343 35:310.53217 36:1217.8669 37:751.56323 38:1573.0386 39:281.89389 40:629.92828 41:381.32306 42:1172.8621 43:624.63336 44:960.51086 45:675.86298 46:1408.1426 47:258.655 48:2232.7134 49:931.95892 50:1284.2852 51:420.55524 52:686.19794 53:380.34613 54:1186.8298 55:575.79279 56:285.08072 57:30.622812 58:1382.7211 59:369.73294 60:1154.8049 61:122.06529 62:713.00507 63:494.73358 64:1151.2726 65:131.96933 66:539.35675 67:453.02689 68:1364.0834 69:576.26733 70:1249.8651 71:522.94238 72:1132.2645 73:191.81152 74:1167.2244 75:788.46344 76:919.42993 77:468.74271 78:382.66013 79:403.66925 80:1193.2935 81:333.30038 82:1650.1805 83:1038.3944 84:1068.8989 85:473.57748 86:382.01715 87:376.0007 88:1068.6832 89:227.95752 90:1692.0751 91:1113.6625 92:1008.8587 93:590.72601 94:590.04797 95:356.42822 #
-4.5703376052986296323998871571348e-05 20:610.04913 21:64.254158 22:447.09683 23:195.68683 24:572.00354 25:142.45468 26:544.95105 27:272.90723 28:316.6709 29:327.44336 30:641.38422 31:280.33136 32:631.16742 33:112.11399 34:613.73236 35:312.0343 36:451.90506 37:347.98001 38:682.10181 39:252.33453 40:719.08234 41:89.767494 42:703.2417 43:285.47507 44:721.97534 45:323.17026 46:1087.8076 47:435.48624 48:428.12161 49:607.39746 50:767.8634 51:272.62149 52:714.93402 53:215.46463 54:698.47333 55:294.76813 56:850.66693 57:102.88511 58:998.24597 59:622.64972 60:947.36694 61:296.3269 62:696.83173 63:434.03503 64:435.44202 65:355.96329 66:770.18939 67:269.52399 68:508.66034 69:309.54041 70:1212.7183 71:791.10571 72:257.71072 73:68.99469 74:435.28598 75:179.15149 76:423.64011 77:123.65594 78:507.80405 79:315.06683 80:332.55576 81:128.33487 82:372.41867 83:263.7778 84:482.4321 85:116.30331 86:487.4888 87:342.31485 88:451.47351 89:176.70753 90:399.29849 91:280.99222 92:583.66675 93:116.36314 94:440.92102 95:327.60986 #
-6.0241167576234296368586917935772e-05 20:179.96692 21:184.26776 22:575.03662 23:46.238106 24:556.29065 25:375.08957 26:624.40344 27:193.14928 28:692.95221 29:693.9223 30:1714.9404 31:477.80298 32:497.72476 33:384.6358 34:695.42786 35:225.73817 36:2993.4648 37:1945.7438 38:1559.5438 39:322.85855 40:1204.6628 41:271.2547 42:985.69373 43:214.32693 44:2517.7346 45:1023.4597 46:1001.5409 47:271.63858 48:1767.3842 49:2140.2751 50:6091.8574 51:1039.0103 52:2924.2039 53:331.54709 54:637.91772 55:375.7309 56:343.72534 57:165.65976 58:676.45538 59:260.83755 60:2711.3052 61:3656.292 62:5831.5347 63:1313.4543 64:2001.9683 65:636.26996 66:573.97473 67:487.63855 68:748.38489 69:165.98039 70:338.46512 71:421.28491 72:821.81982 73:438.79767 74:547.33691 75:341.52448 76:990.73059 77:654.86835 78:1004.7598 79:259.8114 80:787.75739 81:383.93756 82:918.95361 83:405.8381 84:1209.8705 85:807.30176 86:1040.5469 87:295.8555 88:737.85986 89:355.02359 90:966.07837 91:417.03162 92:1812.5363 93:1262.1395 94:1406.444 95:393.05026 #
-3.716608572679622950023226035654e-05 20:2108.9485 21:1129.8923 22:3705.9607 23:1675.2134 24:1460.7045 25:747.7569 26:697.3335 27:449.07852 28:1134.1592 29:1129.3892 30:3554.7441 31:2174.0171 32:1519.5745 33:804.48462 34:760.87347 35:449.74176 36:900.45398 37:596.03479 38:1388.1743 39:558.27222 40:3410.1968 41:1639.2694 42:6004.0459 43:2455.9702 44:802.06885 45:815.3548 46:2351.6372 47:573.12793 48:5535.7573 49:2225.1455 50:5495.3828 51:1994.3505 52:2106.0376 53:2146.1912 54:8878.3311 55:4032.9119 56:1745.9364 57:792.15094 58:2372.3606 59:1255.4937 60:2238.6848 61:1370.2095 62:3918.7671 63:1252.6642 64:1235.6941 65:1056.821 66:5683.1978 67:2798.7358 68:1734.4106 69:817.24969 70:3296.866 71:1479.8123 72:2840.1152 73:1604.3761 74:4093.9575 75:2001.4581 76:1784.6271 77:914.19556 78:949.48914 79:426.83823 80:2602.2996 81:1777.2289 82:4221.417 83:2248.0012 84:1942.103 85:993.4978 86:1137.4486 87:429.97589 88:2993.9717 89:1756.7141 90:4403.373 91:2104.2798 92:1342.4132 93:799.00964 94:1084.0496 95:410.73602 #
-5.9445428876724049072066691223881e-05 20:267.2962 21:364.41144 22:764.75757 23:254.5354 24:468.34891 25:385.37762 26:594.29987 27:318.50403 28:559.04559 29:428.85098 30:918.68274 31:395.22086 32:346.15402 33:365.62738 34:641.74121 35:330.92691 36:481.50305 37:53.938713 38:710.62079 39:433.5509 40:476.81439 41:178.32021 42:679.72961 43:375.19748 44:745.73529 45:380.50693 46:985.75018 47:327.62271 48:1329.8289 49:829.79193 50:617.09271 51:461.65265 52:927.93866 53:153.51376 54:765.66931 55:379.64206 56:881.12628 57:330.48959 58:811.97913 59:133.98482 60:1499.5181 61:552.41455 62:2229.3994 63:1164.4984 64:2676.4358 65:316.3768 66:1171.0209 67:542.43353 68:624.8869 69:368.75198 70:907.14691 71:175.49699 72:372.20621 73:503.53021 74:1079.4937 75:399.57892 76:499.56931 77:428.69278 78:680.89178 79:331.65814 80:533.19379 81:430.6561 82:1128.9446 83:563.94257 84:454.75967 85:477.46454 86:724.85388 87:298.40869 88:421.79764 89:403.50085 90:1154.5857 91:624.64142 92:476.28647 93:477.35843 94:936.44543 95:266.85892 #
5.53318031382610178020575730784e-06 20:2452.429 21:337.03778 22:390.17053 23:346.02914 24:934.02075 25:421.91043 26:819.23761 27:300.89218 28:2939.3784 29:462.28464 30:1691.6664 31:432.24402 32:954.14838 33:398.19403 34:811.6817 35:291.62933 36:1502.4445 37:750.95496 38:2398.3503 39:534.03326 40:3261.4922 41:506.67535 42:799.14966 43:373.61145 44:1237.3638 45:127.83852 46:1213.6831 47:480.54773 48:2903.8828 49:3403.9609 50:4583.0093 51:662.98291 52:2339.4167 53:732.90436 54:569.70581 55:505.45981 56:626.17719 57:341.94858 58:1621.6799 59:348.59161 60:3812.4646 61:1069.989 62:6690.5918 63:992.12555 64:2411.0376 65:515.32263 66:1343.3013 67:490.99927 68:1953.8716 69:963.89062 70:1034.7634 71:406.61304 72:2753.0115 73:1000.1188 74:1351.4967 75:291.12222 76:1341.6169 77:620.30933 78:994.93036 79:468.50397 80:3212.0334 81:254.39909 82:871.86963 83:251.90717 84:1407.8665 85:690.11523 86:1210.001 87:532.84967 88:3185.7322 89:225.86168 90:902.50525 91:274.71295 92:1442.7302 93:934.85938 94:1838.1062 95:616.41565 #
-0.00028723760232368970510274941432272 20:450.33884 21:98.774155 22:371.98727 23:209.74373 24:393.83713 25:509.92508 26:559.80487 27:215.96359 28:2384.3357 29:2088.6653 30:3143.1133 31:249.73947 32:439.82217 33:555.3158 34:547.85333 35:206.97456 36:3344.1357 37:3643.3555 38:1929.1364 39:343.78311 40:792.87793 41:454.5224 42:603.10162 43:273.28387 44:1234.3137 45:754.84613 46:680.70984 47:307.09409 48:3726.1309 49:1550.4088 50:3878.8425 51:853.12537 52:1758.8615 53:725.33478 54:706.36511 55:322.99344 56:1281.2598 57:800.20673 58:835.5578 59:188.40765 60:2319.0898 61:790.1582 62:4081.8269 63:489.38464 64:1699.0946 65:335.61838 66:1378.401 67:352.1163 68:477.44724 69:807.54077 70:1438.4965 71:410.12576 72:1043.4666 73:348.21552 74:564.90796 75:348.89969 76:542.03546 77:638.70447 78:688.74335 79:277.96539 80:746.677 81:537.50787 82:1129.1289 83:275.82047 84:756.65283 85:769.01141 86:754.95795 87:295.90283 88:761.04077 89:468.14908 90:1000.8133 91:290.00909 92:1259.5789 93:1103.2351 94:957.03839 95:328.50253 #
-4.3143530601507220148538301884855e-05 20:1342.7177 21:693.04181 22:626.67676 23:330.46207 24:1709.4509 25:751.65338 26:1064.7168 27:238.81387 28:3758.1699 29:3030.9128 30:1863.7078 31:294.22418 32:1831.8351 33:847.54291 34:1112.6935 35:271.5928 36:2118.188 37:1273.9397 38:1014.3311 39:241.28215 40:2043.2505 41:1164.009 42:728.84583 43:433.30322 44:1386.1199 45:1441.5243 46:1569.0308 47:339.9339 48:481.11612 49:1039.6761 50:920.79828 51:394.2735 52:2196.8735 53:893.69153 54:1092.2648 55:557.75085 56:1012.3178 57:1011.0418 58:1508.4534 59:314.15195 60:2880.2747 61:1516.7079 62:1045.677 63:399.73788 64:2565.342 65:515.14117 66:1185.9969 67:712.12964 68:1189.3145 69:1081.049 70:1657.3295 71:222.55443 72:1591.0547 73:1053.2662 74:651.18005 75:424.89902 76:1685.4493 77:712.42255 78:1166.3429 79:367.32401 80:2278.9634 81:1640.9241 82:911.58295 83:531.47235 84:1701.0675 85:722.80188 86:1131.842 87:422.21426 88:1843.5487 89:1320.2141 90:865.82367 91:557.91876 92:1632.5741 93:689.08374 94:1183.4836 95:512.46344 #
7.337437134980606808984382460892e-05 20:400.63095 21:225.6889 22:567.89978 23:155.34044 24:493.13675 25:57.936935 26:309.60004 27:638.83051 28:994.64862 29:134.83479 30:828.5 31:827.9845 32:524.40985 33:61.082088 34:365.11771 35:733.67236 36:1228.4558 37:1235.3311 38:1461.7976 39:448.31161 40:954.47308 41:569.09271 42:844.9259 43:822.11957 44:1246.5907 45:123.72333 46:883.79492 47:678.49023 48:901.59509 49:1052.8486 50:1228.8866 51:362.35007 52:1836.4889 53:717.34113 54:883.34741 55:907.94696 56:759.50244 57:110.13606 58:1114.345 59:823.47986 60:2654.6411 61:1642.2693 62:922.17889 63:553.16907 64:4425.7861 65:400.50723 66:1641.755 67:484.01114 68:521.45374 69:57.381111 70:1483.0876 71:975.40869 72:640.76691 73:61.849564 74:955.90527 75:748.14978 76:455.14932 77:105.69925 78:460.55167 79:849.38666 80:755.38898 81:38.560959 82:1229.8887 83:1102.8755 84:426.40179 85:130.19435 86:541.97742 87:873.76892 88:688.20911 89:22.626724 90:1370.5482 91:1200.7634 92:387.80374 93:228.99532 94:643.27618 95:959.25146 #
-4.543649415350960521498002719909e-05 20:734.9574 21:178.9048 22:531.01514 23:272.53729 24:522.74152 25:257.81882 26:928.17242 27:217.94949 28:1119.274 29:89.492828 30:724.91748 31:261.88882 32:570.87476 33:253.55899 34:866.00079 35:196.08305 36:967.59454 37:354.81284 38:1257.9615 39:294.8768 40:1018.341 41:54.888145 42:500.93524 43:339.72726 44:223.27092 45:87.360413 46:977.82385 47:232.7538 48:1265.2386 49:299.19986 50:741.09351 51:249.12436 52:1783.3091 53:249.61713 54:666.83954 55:400.51392 56:632.50226 57:246.28703 58:1025.6104 59:285.25394 60:736.37482 61:759.97369 62:1685.3926 63:293.98996 64:186.60461 65:517.8421 66:1471.0562 67:376.30133 68:395.98282 69:554.38116 70:1471.9617 71:428.00208 72:703.77692 73:53.082497 74:815.40338 75:437.05731 76:445.41162 77:221.782 78:1045.3344 79:221.23439 80:933.60724 81:62.250053 82:778.65332 83:387.65372 84:486.19336 85:226.40024 86:1037.7416 87:201.64949 88:925.64905 89:78.411827 90:782.94141 91:428.63016 92:519.19885 93:225.43106 94:1058.9347 95:203.95863 #
1.5543684995194921583117064756152e-06 20:1355.9696 21:512.56543 22:443.86612 23:243.45868 24:721.77594 25:222.32228 26:667.75238 27:296.01913 28:1182.6649 29:549.4588 30:903.09668 31:458.0423 32:620.81744 33:219.58826 34:712.72296 35:324.8891 36:3434.3901 37:500.62506 38:483.56784 39:232.20654 40:1604.3934 41:999.93909 42:534.63391 43:354.99628 44:401.36896 45:378.87869 46:814.8114 47:194.12047 48:4994.5474 49:1612.2172 50:1288.1803 51:627.5968 52:612.26727 53:806.53833 54:618.52161 55:430.60397 56:837.52649 57:234.9003 58:910.35791 59:382.35355 60:1635.5162 61:2045.7944 62:2913.8826 63:678.71881 64:3671.4846 65:671.91888 66:1568.0203 67:1069.8256 68:2597.5393 69:697.75818 70:1050.1927 71:550.7652 72:1343.1237 73:567.11493 74:1009.5308 75:645.57086 76:868.70697 77:344.61148 78:873.18695 79:398.27167 80:1187.4114 81:483.88562 82:1039.2118 83:805.21155 84:779.85419 85:305.29865 86:896.73865 87:479.01883 88:1157.4769 89:505.85593 90:1139.7067 91:895.8905 92:702.77692 93:407.45129 94:1020.0039 95:591.93317 #
-1.9962471066139108807901969555587e-07 20:990.45941 21:292.63434 22:1096.2375 23:294.25919 24:28.191502 25:93.595413 26:584.28088 27:300.40924 28:1854.2833 29:854.24756 30:1394.2866 31:244.68106 32:69.135872 33:113.52027 34:616.5011 35:286.16013 36:760.9845 37:459.07425 38:1262.0214 39:291.9577 40:822.5896 41:380.51361 42:1301.5339 43:212.80936 44:1321.1279 45:888.73444 46:966.65778 47:334.67371 48:1239.9979 49:303.06372 50:1202.9896 51:350.90045 52:991.14636 53:514.29242 54:1200.0952 55:175.08205 56:468.46411 57:523.11847 58:723.52551 59:353.11566 60:643.62396 61:812.16583 62:944.31775 63:441.98529 64:1083.9937 65:473.1673 66:1110.5251 67:198.03937 68:424.39471 69:514.10992 70:1074.4333 71:495.27722 72:877.927 73:202.48883 74:1144.0258 75:297.67645 76:14.796442 77:147.5569 78:528.1582 79:298.74673 80:1424.4855 81:604.19757 82:1005.2837 83:245.4355 84:6.2236071 85:176.5834 86:462.05157 87:306.08948 88:1401.9111 89:600.21136 90:1099.6639 91:243.79091 92:62.834141 93:186.01091 94:470.21765 95:299.87686 #
-0.00023814691217201224698873929241927 20:519.22723 21:479.14661 22:593.73517 23:180.33884 24:390.05048 25:387.8078 26:501.50531 27:446.9566 28:453.5842 29:207.75793 30:618.21741 31:391.48364 32:394.30594 33:359.51221 34:485.43188 35:447.32309 36:707.75323 37:735.95496 38:663.01605 39:434.42114 40:495.0228 41:225.11436 42:499.48376 43:452.42126 44:307.0918 45:216.72971 46:480.88852 47:710.01025 48:219.66757 49:671.81757 50:692.89545 51:421.9386 52:460.23334 53:212.1951 54:567.34967 55:644.30597 56:519.48175 57:255.53792 58:430.89609 59:1052.1744 60:417.19577 61:190.02094 62:874.36127 63:883.78705 64:589.38 65:243.6812 66:557.53943 67:558.83185 68:514.91193 69:228.03151 70:464.8801 71:1387.2856 72:513.26611 73:183.27225 74:517.50714 75:380.16016 76:292.16122 77:280.35349 78:525.5871 79:445.66562 80:456.60751 81:204.61345 82:716.14655 83:499.35992 84:285.59412 85:271.0513 86:560.52246 87:470.65442 88:456.37167 89:202.57887 90:737.54181 91:531.79834 92:332.69885 93:277.26672 94:622.70172 95:497.05194 #
-1.2388380044045608358027621420661e-06 20:1498.6614 21:824.99194 22:1129.0579 23:538.74042 24:735.90643 25:350.58542 26:434.65576 27:223.13367 28:1078.6998 29:2321.9446 30:2214.5503 31:782.79901 32:709.60767 33:418.58936 34:479.15057 35:282.94019 36:253.24998 37:176.46429 38:415.55557 39:207.7798 40:2790.6038 41:408.47266 42:1331.5247 43:1040.9824 44:1430.9425 45:646.00183 46:884.70538 47:475.14764 48:3252.5046 49:3314.1895 50:3231.5354 51:976.49683 52:2441.8386 53:783.52386 54:1067.1312 55:1027.1772 56:2018.1547 57:606.74475 58:456.92355 59:656.46246 60:6638.2749 61:2888.1499 62:2310.5935 63:803.09705 64:4043.1516 65:817.73773 66:1176.542 67:903.01593 68:2118.4668 69:230.82753 70:824.19647 71:769.95361 72:1176.2688 73:913.23077 74:1270.8188 75:551.91528 76:467.25052 77:212.52588 78:672.24628 79:406.93201 80:720.51965 81:1708.5228 82:1501.4913 83:643.15735 84:472.29132 85:280.4176 86:892.3952 87:493.14865 88:290.31656 89:1590.7788 90:1388.3568 91:661.93225 92:539.51819 93:165.16772 94:1049.4507 95:637.20715 #
3.7430445304727309047132521868662e-05 20:500.18323 21:371.45972 22:316.07257 23:198.7057 24:41.951141 25:247.04196 26:875.3703 27:347.24554 28:837.85577 29:234.88438 30:847.62164 31:536.28204 32:129.39156 33:208.75021 34:918.87152 35:344.56781 36:530.21149 37:59.533123 38:1168.9453 39:284.66852 40:503.40735 41:454.64899 42:862.33545 43:505.82715 44:1085.4247 45:838.82654 46:858.68933 47:370.04495 48:521.41602 49:384.33313 50:713.81848 51:184.86272 52:608.08508 53:415.20081 54:730.15057 55:565.17413 56:805.20972 57:563.54889 58:717.354 59:349.17636 60:248.62888 61:450.70404 62:668.87091 63:210.93996 64:1223.6298 65:197.53149 66:1363.8904 67:743.63672 68:780.78864 69:520.64319 70:667.47375 71:313.8244 72:669.05389 73:255.7403 74:1048.4719 75:516.39581 76:70.448311 77:228.42757 78:1098.9421 79:421.79492 80:706.48572 81:312.75412 82:1127.5979 83:784.95258 84:139.15524 85:188.17072 86:1130.735 87:456.03241 88:710.70715 89:321.17612 90:1204.3995 91:874.7619 92:24.419575 93:187.01588 94:1271.5088 95:532.02661 #
3.3916246400900109270876159328623e-05 20:1442.7013 21:221.43187 22:545.45001 23:243.26891 24:749.51117 25:149.78169 26:383.49832 27:182.75732 28:1107.4539 29:192.77528 30:1637.1624 31:396.85992 32:633.36493 33:145.44931 34:421.065 35:187.74901 36:942.97742 37:691.65167 38:896.77924 39:419.17093 40:1672.8096 41:266.43781 42:1184.8735 43:537.16907 44:878.60632 45:301.28851 46:989.56323 47:423.02206 48:1131.0059 49:225.51962 50:450.70438 51:318.92419 52:1672.2675 53:428.09586 54:1264.4425 55:747.35052 56:337.83044 57:154.36354 58:576.00739 59:565.20013 60:354.07947 61:314.48203 62:1184.8129 63:817.0697 64:957.31732 65:320.54568 66:1142.6963 67:878.99615 68:497.15906 69:348.20956 70:1081.5156 71:750.86609 72:1431.2074 73:329.69846 74:1539.3705 75:380.79874 76:740.11224 77:154.99068 78:389.41812 79:190.28433 80:1677.146 81:471.98697 82:1655.6082 83:494.12164 84:709.39703 85:187.13365 86:490.89874 87:211.78185 88:1661.6227 89:477.92209 90:1780.8696 91:541.16418 92:865.22058 93:224.23097 94:594.1402 95:243.30522 #
-9.210954806960103703056264023985e-05 20:653.88147 21:223.52226 22:880.07031 23:227.56322 24:985.22699 25:147.18971 26:982.47675 27:280.02197 28:462.63507 29:412.02026 30:1475 31:755.06525 32:989.5105 33:169.76999 34:947.88593 35:321.5719 36:1062.7065 37:111.30202 38:825.88965 39:340.90027 40:438.04254 41:420.4097 42:1228.6641 43:555.57861 44:1364.0061 45:231.43437 46:1094.5377 47:330.591 48:690.55078 49:296.74994 50:1080.8568 51:175.14911 52:897.84033 53:355.46655 54:1161.8246 55:532.71655 56:1122.7531 57:196.09995 58:1147.911 59:369.43896 60:1830.639 61:295.83487 62:1479.9103 63:456.27911 64:1595.345 65:392.92548 66:1490.5272 67:715.00812 68:587.95477 69:142.0378 70:1260.1107 71:432.10834 72:413.539 73:341.61649 74:1333.8444 75:728.83136 76:934.508 77:98.881569 78:952.32861 79:415.83234 80:509.55081 81:503.49442 82:1523.3899 83:1006.7407 84:1089.7349 85:120.48497 86:945.36212 87:455.44751 88:470.12546 89:500.49835 90:1526.192 91:1097.0142 92:1047.8744 93:120.51942 94:928.15137 95:490.73013 #
0.00026048703436354347928727293037809 20:714.87347 21:284.6926 22:499.23816 23:366.25998 24:260.5033 25:29.357456 26:173.41925 27:197.14345 28:1239.7256 29:427.49051 30:573.07104 31:460.03284 32:277.75314 33:64.490082 34:140.04935 35:170.71774 36:449.78604 37:72.804741 38:374.42477 39:195.45045 40:945.0105 41:373.13867 42:558.59271 43:461.86777 44:1476.1821 45:677.81714 46:837.55212 47:161.51871 48:635.63666 49:102.64323 50:671.63263 51:648.5188 52:1492.7057 53:720.07965 54:996.41119 55:461.42856 56:708.84125 57:227.40381 58:515.92206 59:158.99344 60:309.99097 61:160.29904 62:1220.0056 63:376.61008 64:459.08987 65:229.18115 66:298.87265 67:279.9407 68:656.37738 69:363.8588 70:473.29657 71:293.5687 72:887.28595 73:372.17636 74:659.27911 75:365.00812 76:232.70334 77:16.471775 78:198.06891 79:254.31487 80:860.05927 81:385.48602 82:629.04419 83:402.33582 84:244.6246 85:35.242832 86:198.50706 87:254.49998 88:926.29565 89:406.51617 90:646.14661 91:413.79745 92:249.45453 93:53.390625 94:216.80426 95:268.0304 #
1.0915752811578929848401742219721e-05 20:3605.8049 21:975.6972 22:952.34418 23:523.90674 24:428.50525 25:118.04029 26:314.06046 27:329.32391 28:2859.199 29:1001.6591 30:2070.1152 31:916.9248 32:174.00191 33:80.802551 34:361.36691 35:309.10263 36:735.28619 37:383.82877 38:1976.6519 39:418.47205 40:4537.147 41:989.3833 42:2444.3113 43:637.44122 44:1336.798 45:667.3725 46:494.4881 47:556.31653 48:4032.3069 49:4152.6929 50:2844.8254 51:993.8009 52:5357.5596 53:1511.7012 54:2040.1315 55:697.27527 56:1161.3457 57:430.02829 58:649.41101 59:535.1637 60:3362.5034 61:1218.4261 62:2012.0023 63:1074.3976 64:5884.7061 65:1183.0865 66:961.07245 67:696.08826 68:362.34174 69:521.65796 70:639.51099 71:370.28745 72:4901.4771 73:1627.7195 74:1836.8669 75:887.45569 76:476.67413 77:255.63434 78:402.45285 79:277.65692 80:3797.1772 81:1315.7046 82:1918.8851 83:799.2652 84:292.06699 85:322.81342 86:446.06302 87:309.88339 88:3739.1514 89:1320.8578 90:2008.4044 91:804.04889 92:414.29276 93:483.04657 94:584.5777 95:396.94305 #
-1.6621575685638132618970885800991e-06 20:1515.37 21:604.91302 22:597.04004 23:192.34843 24:684.15411 25:262.68942 26:502.50052 27:176.0036 28:1834.3732 29:871.53418 30:967.47363 31:474.76645 32:902.01575 33:283.81906 34:504.38205 35:148.79294 36:714.83295 37:501.25443 38:1156.9708 39:204.37749 40:2718.8325 41:1146.8438 42:1263.1489 43:319.04459 44:1187.2655 45:399.7258 46:697.74329 47:254.96487 48:3460.3992 49:1524.9779 50:1768.3473 51:316.98773 52:2760.6143 53:464.5188 54:414.15457 55:422.96701 56:285.22699 57:262.95447 58:637.52637 59:462.86499 60:762.14551 61:606.01105 62:1455.8484 63:569.14709 64:899.11884 65:608.52338 66:958.46783 67:639.06323 68:794.1355 69:381.41696 70:509.77942 71:502.82303 72:948.88068 73:676.94739 74:1117.473 75:196.14374 76:659.25079 77:210.35571 78:406.85593 79:189.13899 80:1629.7134 81:1068.1184 82:1199.2325 83:289.54153 84:681.5835 85:165.84793 86:397.57455 87:200.97987 88:1886.697 89:1045.0085 90:1251.6161 91:319.66373 92:581.72839 93:138.82251 94:397.53201 95:258.69012 #
1.2873452339039160533668004759988e-05 20:1129.4047 21:660.89752 22:1258.1976 23:467.5578 24:1366.6619 25:1290.775 26:2169.4075 27:262.90891 28:1070.9891 29:574.74713 30:2014.9802 31:1273.6904 32:1501.0254 33:1293.0583 34:2282.8342 35:338.25879 36:1012.9386 37:1235.1493 38:3141.1697 39:543.05243 40:1954.7346 41:1944.1196 42:2778.0662 43:1147.2877 44:1141.7061 45:1334.8473 46:2601.2605 47:316.12952 48:1163.9183 49:1292.8289 50:4236.5991 51:711.11841 52:2862.9287 53:1242.1466 54:1258.3109 55:892.26233 56:1423.5208 57:1113.9056 58:3242.5535 59:460.47235 60:2690.2385 61:2514.4355 62:3066.6753 63:493.66443 64:1991.4447 65:1035.9296 66:686.09106 67:533.20599 68:498.69717 69:602.38281 70:2751.6733 71:499.97986 72:540.29089 73:286.83173 74:1208.5564 75:1068.3994 76:1398.293 77:1259.0593 78:2226.0916 79:384.50043 80:1080.5344 81:928.18127 82:1621.9886 83:1289.8562 84:1525.7633 85:1305.5156 86:2147.8611 87:438.2944 88:1133.3497 89:787.86182 90:1566.8538 91:1474.1506 92:1553.4442 93:1338.1249 94:2105.0286 95:561.5014 #
-2.5908400986888214807390279359467e-05 20:3010.2073 21:1700.6932 22:957.01886 23:482.73163 24:322.0307 25:264.68286 26:661.56256 27:129.80565 28:2825.1804 29:1432.4014 30:1097.0986 31:418.85867 32:372.19415 33:253.83154 34:598.38275 35:126.86149 36:534.86719 37:370.15213 38:727.69739 39:205.45993 40:2512.8049 41:888.01477 42:1767.4578 43:600.53192 44:1137.9398 45:640.31 46:1511.9961 47:451.36847 48:3408.019 49:2274.7449 50:1370.9303 51:503.66498 52:1843.9937 53:854.56787 54:1976.5707 55:604.73901 56:50.13707 57:417.76093 58:1604.0853 59:670.185 60:3076.4109 61:1399.1871 62:1777.9393 63:502.70682 64:2207.2815 65:1293.3995 66:2321.7358 67:770.77625 68:308.83124 69:414.97638 70:2249.7473 71:829.30072 72:3021.397 73:1872.2793 74:1500.803 75:454.10074 76:269.48611 77:231.161 78:673.5307 79:119.07169 80:3435.1526 81:2128.073 82:1331.9458 83:426.26157 84:148.10181 85:179.38527 86:677.38721 87:126.47119 88:3393.3933 89:2072.5476 90:1319.6307 91:412.11713 92:182.14316 93:56.672333 94:748.48291 95:142.80899 #
6.197784070236791661989705914948e-06 20:721.12378 21:173.00262 22:800.12445 23:348.19806 24:652.23114 25:233.98883 26:585.91766 27:470.84076 28:1188.3125 29:240.93071 30:795.22003 31:555.75085 32:668.28363 33:280.51508 34:632.77332 35:472.77017 36:655.87811 37:261.85263 38:768.16046 39:430.54001 40:720.08887 41:71.666138 42:523.63342 43:479.7084 44:511.98849 45:163.00168 46:348.08243 47:683.47815 48:1127.9504 49:67.868896 50:404.53976 51:354.81531 52:941.75995 53:83.569046 54:395.99814 55:534.32697 56:1024.5347 57:474.66583 58:964.50177 59:666.03339 60:1019.3019 61:179.27078 62:916.58698 63:691.48242 64:2028.0823 65:235.71556 66:439.54999 67:593.89465 68:1126.9092 69:224.20081 70:524.97369 71:863.58093 72:740.14667 73:118.49937 74:807.85706 75:541.37091 76:555.20935 77:237.48378 78:612.59253 79:513.83496 80:1011.4583 81:105.68316 82:562.22644 83:612.69537 84:491.19958 85:252.33527 86:597.75806 87:514.2475 88:924.84363 89:53.296497 90:464.18817 91:632.31006 92:598.26428 93:282.95834 94:640.21753 95:517.34277 #
4.7091423939734852743832504984312e-05 20:1161.0223 21:580.52118 22:506.59882 23:488.81793 24:640.51575 25:471.83859 26:807.1427 27:276.30551 28:2042.6233 29:939.11292 30:1383.422 31:334.97174 32:689.71313 33:500.05743 34:850.11908 35:283.43939 36:1165.778 37:757.69055 38:1158.8782 39:321.77286 40:2493.7192 41:1468.3947 42:1281.0764 43:592.46246 44:1531.9436 45:1082.0514 46:1737.0101 47:961.55945 48:1288.2073 49:1342.9669 50:1317.7362 51:173.2027 52:1924.9618 53:1120.6904 54:1283.8135 55:836.46289 56:1447.6415 57:1158.194 58:3060.9407 59:1420.1553 60:3137.1489 61:1654.6298 62:2464.1208 63:1129.6918 64:2468.6174 65:1220.0886 66:2308.3352 67:1457.1801 68:2048.0652 69:882.94806 70:3763.0261 71:2035.6675 72:1417.6554 73:486.83444 74:1198.9426 75:359.87854 76:527.98059 77:443.43951 78:740.2373 79:302.27737 80:1679.5922 81:933.65582 82:1408.3134 83:492.26135 84:623.80145 85:460.02243 86:832.32031 87:387.92053 88:1649.7632 89:910.0459 90:1590.871 91:577.51959 92:644.08661 93:441.37784 94:987.11847 95:493.29745 #
1.7865906022827230531513365008323e-06 20:1752.6543 21:508.87225 22:539.58002 23:426.07443 24:667.599 25:87.095764 26:374.19165 27:312.59625 28:1914.7274 29:502.67184 30:1116.5874 31:583.03271 32:610.50873 33:190.40932 34:416.11267 35:306.60257 36:613.52032 37:127.17935 38:612.95148 39:386.5126 40:1557.562 41:793.5061 42:744.94897 43:598.87299 44:859.14874 45:396.33246 46:910.073 47:487.95264 48:1508.1222 49:185.99481 50:952.9931 51:362.19791 52:1445.6604 53:780.67352 54:644.03003 55:526.07471 56:739.50043 57:325.85309 58:985.20721 59:595.22137 60:319.29025 61:232.19963 62:791.2453 63:542.4502 64:1287.6396 65:550.82001 66:936.06335 67:596.5932 68:130.04271 69:296.71237 70:758.58868 71:540.52832 72:2049.9338 73:369.35782 74:1331.0724 75:620.59106 76:756.73431 77:159.5088 78:399.89319 79:323.82849 80:1776.5562 81:315.65921 82:1021.5618 83:664.37671 84:703.05731 85:149.78291 86:411.38135 87:376.78052 88:1723.5072 89:302.81027 90:977.54193 91:704.75391 92:768.95245 93:129.40739 94:424.53989 95:454.79279 #
-0.00012995329844229901172791841190701 20:749.08478 21:328.12906 22:494.82266 23:198.66258 24:437.18521 25:229.12566 26:448.4924 27:253.02608 28:385.81717 29:74.303467 30:478.53125 31:415.67392 32:510.91367 33:229.69719 34:514.70129 35:249.77177 36:1047.1207 37:310.67181 38:286.79544 39:247.80949 40:437.45743 41:164.60275 42:886.64984 43:278.9621 44:1425.5271 45:539.59595 46:577.45966 47:311.41052 48:2031.4127 49:1245.0411 50:1538.9163 51:347.78949 52:312.52658 53:110.26534 54:1090.5314 55:311.87723 56:486.94373 57:175.32822 58:699.12354 59:435.04337 60:860.14746 61:939.05768 62:1493.9098 63:480.87961 64:1142.4254 65:107.57672 66:891.00897 67:237.6292 68:425.58194 69:166.43823 70:1072.7395 71:530.56213 72:381.04123 73:226.87148 74:368.04422 75:341.01938 76:358.79938 77:169.20122 78:660.18781 79:238.46347 80:392.39856 81:146.43785 82:361.60031 83:347.60605 84:431.65411 85:185.89574 86:698.5575 87:230.91289 88:473.05585 89:131.0775 90:471.397 91:376.79932 92:556.02972 93:236.48788 94:866.05139 95:238.10892 #
-1.8469178022781156892767606692018e-06 20:1914.3884 21:664.70154 22:570.50989 23:279.80811 24:393.24976 25:318.05377 26:353.7648 27:169.32106 28:2071.8237 29:805.84662 30:833.08685 31:436.87711 32:473.93011 33:317.74091 34:330.8819 35:157.17987 36:137.51932 37:468.30887 38:626.07996 39:239.63884 40:2073.8528 41:846.5813 42:829.98792 43:345.42029 44:555.91571 45:150.88774 46:608.99921 47:325.50339 48:1556.45 49:594.15356 50:1208.6877 51:292.98718 52:1801.3835 53:903.92621 54:915.37109 55:336.65805 56:457.30954 57:390.37363 58:861.56152 59:352.43893 60:263.40042 61:396.10486 62:1050.1759 63:280.06537 64:1378.0071 65:933.37115 66:1244.5793 67:440.0755 68:467.50238 69:284.01257 70:1196.5607 71:531.57483 72:1903.7356 73:626.25037 74:825.34326 75:342.74542 76:342.4581 77:352.11069 78:309.02246 79:187.99496 80:1660.8848 81:555.2887 82:906.60376 83:436.15253 84:408.35886 85:378.93317 86:348.45398 87:162.19208 88:1692.2621 89:538.91595 90:877.50177 91:442.95865 92:238.47185 93:357.1022 94:411.63721 95:149.77586 #
3.6594378420178773824930629210428e-05 20:661.24573 21:432.25549 22:569.56976 23:187.29274 24:325.37363 25:501.71545 26:1254.2181 27:298.94116 28:771.9436 29:319.00897 30:647.15527 31:468.85516 32:344.19272 33:459.41498 34:1194.4318 35:301.47296 36:419.27573 37:775.71124 38:1544.4061 39:323.57031 40:1010.4329 41:295.26831 42:435.60388 43:313.88443 44:643.15015 45:1048.5417 46:1622.9563 47:238.11917 48:555.60638 49:329.99402 50:493.46619 51:247.74796 52:963.42297 53:281.2384 54:682.52899 55:357.70892 56:335.55612 57:706.51123 58:1390.3505 59:160.46957 60:538.92694 61:693.44495 62:1160.6213 63:252.87906 64:732.82758 65:315.79391 66:481.7713 67:628.32172 68:175.29286 69:686.44904 70:1411.5004 71:132.54688 72:379.13556 73:321.28888 74:647.49084 75:467.02969 76:456.07803 77:279.25024 78:1057.5938 79:380.35962 80:562.74786 81:236.12485 82:538.72076 83:745.56482 84:494.56833 85:275.71097 86:1066.6238 87:406.87262 88:537.56042 89:205.07721 90:548.9093 91:845.00989 92:407.83185 93:317.17029 94:1179.6648 95:445.5484 #
-0.00016773512077004632675469864011575 20:831.72778 21:412.26508 22:374.0582 23:128.45445 24:1281.4797 25:1098.2427 26:1524.4362 27:466.80396 28:1671.6344 29:758.47473 30:1651.8873 31:681.84845 32:1295.2653 33:1142.9628 34:1644.9932 35:442.59686 36:1149.9015 37:1410.4097 38:2161.1536 39:557.63245 40:871.36572 41:446.31567 42:1186.7762 43:477.09485 44:1748.6077 45:1519.9617 46:1791.5162 47:411.93457 48:2498.8005 49:1651.1174 50:1418.7294 51:236.81845 52:1188.7563 53:785.58643 54:868.03119 55:426.64011 56:1778.4941 57:1369.9757 58:2315.2395 59:202.56552 60:2247.551 61:1847.6467 62:1997.2433 63:352.87567 64:1237.1927 65:888.84747 66:1388.8636 67:540.16046 68:1687.7218 69:1306.2062 70:2878.24 71:265.65506 72:1252.4191 73:645.43921 74:1059.2048 75:764.92444 76:1229.058 77:1065.194 78:1718.238 79:447.1362 80:990.52637 81:456.11624 82:1143.006 83:837.20593 84:1224.2147 85:1074.6864 86:1887.6687 87:476.27142 88:894.63586 89:432.21173 90:1230.5295 91:902.57391 92:1391.7231 93:1058.948 94:2145.4548 95:500.90683 #
0.00024376853710699207576986791146112 20:2164.3396 21:640.67407 22:847.46576 23:498.35089 24:1270.505 25:124.28384 26:295.98065 27:328.0647 28:2900.5486 29:625.55865 30:1284.7579 31:402.94342 32:1095.8704 33:120.15862 34:308.18799 35:339.80136 36:2110.3276 37:535.54742 38:572.42896 39:277.32578 40:1718.8141 41:595.03809 42:1180.4808 43:585.09033 44:1088.9258 45:558.88721 46:926.02509 47:238.31708 48:5563.3574 49:2710.4097 50:2492.4766 51:381.11389 52:1602.9896 53:352.86966 54:1336.1659 55:771.39355 56:1311.0317 57:124.93047 58:838.89441 59:318.98264 60:1182.5162 61:446.53766 62:1088.2852 63:479.20587 64:4034.1526 65:734.77441 66:1018.1777 67:981.98352 68:1109.5537 69:165.76341 70:1447.3002 71:484.2363 72:1866.9268 73:579.93256 74:1093.1294 75:475.81927 76:1329.7074 77:89.199783 78:448.32739 79:345.34595 80:2083.4023 81:506.92859 82:1262.0621 83:489.21704 84:1395.8088 85:133.54756 86:504.98096 87:327.71307 88:2158.386 89:531.75214 90:1300.006 91:557.38379 92:1422.0067 93:136.41133 94:624.28015 95:338.28162 #
5.8545362193589481347721914517024e-05 20:949.45221 21:216.43332 22:702.47479 23:192.2928 24:113.08399 25:179.6084 26:453.74301 27:263.16452 28:1091.0314 29:681.98114 30:1502.2634 31:943.16382 32:140.41069 33:172.08424 34:444.88098 35:268.72406 36:550.5036 37:445.60446 38:581.82312 39:264.15985 40:843.90613 41:473.25833 42:1542.5559 43:855.75433 44:549.39185 45:397.26245 46:725.10046 47:176.71785 48:1250.4082 49:886.60034 50:1283.9635 51:367.45602 52:926.15698 53:507.19733 54:1397.717 55:906.30408 56:392.69632 57:525.81525 58:1071.0079 59:145.38257 60:813.41724 61:168.25688 62:876.39349 63:293.04831 64:323.86136 65:433.24652 66:1313.2498 67:715.20697 68:733.7666 69:432.36353 70:1307.5453 71:284.19424 72:1047.8979 73:519.47321 74:1303.7045 75:959.85278 76:186.47847 77:220.01161 78:557.04626 79:268.18372 80:1008.9805 81:574.66425 82:1610.2498 83:1237.0782 84:160.16194 85:206.4476 86:585.81714 87:273.82187 88:1010.5557 89:562.70764 90:1699.5071 91:1372.8496 92:131.61072 93:243.17648 94:667.45239 95:284.21881 #
-6.1837307092768367200799617400264e-06 20:2016.9989 21:530.65692 22:1168.3328 23:160.43855 24:576.86786 25:80.116508 26:802.90613 27:207.42645 28:3205.72 29:825.31482 30:386.48294 31:393.1424 32:411.62012 33:73.38549 34:632.43445 35:195.98253 36:1245.89 37:724.98608 38:1273.9149 39:266.36609 40:4473.2461 41:1074.5472 42:1522.0999 43:393.79025 44:792.95276 45:395.94058 46:805.58508 47:346.24252 48:1577.5625 49:529.51434 50:2576.9043 51:548.43518 52:3573.6506 53:1141.821 54:1199.0238 55:451.68054 56:670.61829 57:116.74162 58:409.25885 59:513.00861 60:1368.0405 61:782.0304 62:1683.085 63:657.32434 64:4142.731 65:561.7854 66:748.66443 67:564.35999 68:1179.2721 69:338.3967 70:376.69003 71:594.57977 72:2689.2046 73:871.95001 74:1147.2693 75:398.53494 76:433.69894 77:96.160469 78:474.95847 79:211.3495 80:2421.2949 81:821.60333 82:1187.7931 83:352.82101 84:345.69958 85:92.746071 86:366.50424 87:242.5844 88:2367.2639 89:846.80981 90:1328.0084 91:334.78412 92:347.37039 93:142.29726 94:287.20789 95:319.26382 #
-2.3129586796932430359241550377192e-05 20:887.32837 21:294.16144 22:428.74918 23:219.71875 24:2194.6667 25:317.70053 26:778.06891 27:507.42529 28:854.57184 29:533.49847 30:653.94281 31:348.58524 32:2121.7197 33:309.9874 34:800.85956 35:493.22852 36:1746.4014 37:378.9946 38:655.89941 39:418.96442 40:1703.5718 41:303.99017 42:596.96417 43:502.75647 44:2377.1831 45:297.8121 46:950.71021 47:429.18808 48:1970.8922 49:418.20404 50:673.25616 51:471.04404 52:745.4516 53:239.01785 54:1141.8538 55:649.50171 56:1608.1177 57:430.34094 58:1321.3812 59:548.49231 60:2986.6694 61:565.99335 62:987.63757 63:597.50586 64:1287.1569 65:272.23697 66:1185.4524 67:403.34048 68:2328.6858 69:318.23657 70:1764.6233 71:733.45752 72:1972.5249 73:515.05115 74:1050.5909 75:245.76091 76:2513.3159 77:314.84601 78:1000.0159 79:552.55164 80:994.96326 81:98.280266 82:918.26111 83:508.40674 84:2637.5732 85:316.72955 86:1034.9454 87:522.19971 88:953.5495 89:87.294693 90:1106.5122 91:561.93567 92:2682.9746 93:351.01935 94:1034.8481 95:505.22018 #
6.0710012167942061997449876287192e-05 20:1465.2402 21:337.2901 22:832.67633 23:583.91595 24:227.97292 25:71.191795 26:537.71826 27:354.01971 28:1806.121 29:374.43011 30:903.49493 31:568.70715 32:320.92856 33:39.707512 34:487.2543 35:318.95773 36:943.45306 37:828.20831 38:1337.77 39:307.04391 40:2787.2683 41:487.5152 42:1349.746 43:669.08258 44:884.74646 45:152.44269 46:896.06201 47:268.965 48:3129.5098 49:668.53497 50:1370.4536 51:605.0163 52:2471.4841 53:404.07635 54:1011.3346 55:700.78412 56:525.37317 57:315.21097 58:636.33813 59:229.09892 60:409.61996 61:950.30725 62:692.40717 63:294.20392 64:2494.4373 65:839.44922 66:1822.2363 67:1053.939 68:715.51385 69:344.54358 70:949.66913 71:394.01718 72:1485.7527 73:213.48373 74:773.77783 75:678.68353 76:150.75092 77:60.824352 78:650.79462 79:414.64478 80:1650.8434 81:583.15808 82:1215.3339 83:667.88092 84:34.648296 85:87.182922 86:751.05475 87:420.1391 88:1554.2131 89:541.3822 90:1182.8979 91:694.12958 92:194.19223 93:80.472313 94:983.00665 95:419.17331 #
-2.9129812805346599891009873317671e-05 20:425.25467 21:160.42639 22:542.12976 23:118.8819 24:346.76184 25:55.152512 26:670.495 27:140.70654 28:691.74182 29:201.42294 30:666.40039 31:361.95837 32:405.87305 33:40.142124 34:726.92242 35:142.94824 36:703.75598 37:146.31549 38:677.02283 39:148.54016 40:529.54089 41:421.46375 42:987.32098 43:437.01859 44:460.67923 45:134.99831 46:509.55127 47:208.93028 48:333.68762 49:912.24823 50:1734.7015 51:183.08363 52:151.19438 53:344.54388 54:723.81287 55:461.30347 56:55.822472 57:124.44524 58:691.50842 59:339.44128 60:1183.3542 61:111.99467 62:1267.3219 63:426.34378 64:86.359612 65:620.83069 66:743.88434 67:331.06885 68:182.2164 69:252.9814 70:730.64294 71:445.22751 72:526.1463 73:153.49696 74:906.01263 75:425.84982 76:338.62906 77:111.21239 78:796.96503 79:164.29713 80:563.95581 81:111.97509 82:1024.8428 83:536.12646 84:312.44684 85:170.48454 86:861.55829 87:177.42366 88:491.64001 89:163.13304 90:1178.0612 91:592.78302 92:358.50092 93:167.06544 94:992.95386 95:200.75952 #
2.1601161726680982548554066369206e-05 20:269.00977 21:302.19336 22:577.19952 23:135.55383 24:1356.0537 25:108.91228 26:1210.9241 27:523.79816 28:857.0011 29:302.71036 30:872.09485 31:238.71254 32:1225.186 33:121.01578 34:1163.5653 35:545.94727 36:755.55548 37:402.8645 38:1011.0229 39:560.08813 40:1087.6592 41:683.66205 42:1439.7269 43:173.87184 44:1594.416 45:342.82379 46:1388.3245 47:534.5152 48:1371.3616 49:809.203 50:979.71375 51:253.61847 52:1045.5317 53:198.68124 54:1065.8674 55:285.71185 56:1801.771 57:225.53133 58:1614.1277 59:644.27844 60:1351.0537 61:135.58868 62:2606.6887 63:625.38184 64:652.5921 65:216.06622 66:1135.0432 67:698.75922 68:1516.8425 69:108.72491 70:1493.2017 71:712.90369 72:245.56073 73:726.98193 74:1029.299 75:262.43997 76:1318.126 77:152.32715 78:1102.5216 79:528.4278 80:187.1256 81:516.26764 82:946.48285 83:251.15659 84:1237.4032 85:254.73758 86:1097.9403 87:512.80334 88:193.54887 89:499.24243 90:953.00269 91:278.90701 92:1099.479 93:358.25244 94:1075.8979 95:514.18451 #
2.2004203754725712438578000273992e-05 20:359.26602 21:214.66119 22:886.52979 23:235.51898 24:548.62219 25:234.95392 26:309.13226 27:293.9212 28:525.92175 29:383.79343 30:576.76721 31:1033.4971 32:517.48669 33:271.24619 34:359.37976 35:305.97241 36:372.39859 37:155.63747 38:269.18329 39:368.6474 40:317.78561 41:407.76862 42:479.32748 43:655.76349 44:364.24799 45:169.78009 46:1059.9707 47:487.4082 48:702.76294 49:362.60828 50:905.38782 51:336.00031 52:597.34808 53:480.2001 54:549.26434 55:518.50446 56:249.5968 57:279.37994 58:1792.3035 59:820.8103 60:186.52647 61:488.46857 62:1314.9192 63:611.66516 64:1417.8485 65:429.63684 66:1625.8558 67:501.09253 68:392.0986 69:395.42926 70:2434.8857 71:1061.8738 72:675.13635 73:285.57825 74:601.70923 75:1174.6968 76:586.12476 77:224.90558 78:389.60239 79:333.48041 80:693.3172 81:452.58688 82:921.0708 83:1207.033 84:550.5144 85:235.61925 86:433.48849 87:361.78491 88:709.98438 89:427.15811 90:1011.2277 91:1240.6891 92:474.74341 93:282.84262 94:518.11359 95:419.78879 #
-1.4779044744426400592729464733566e-05 20:421.08768 21:34.727497 22:531.92926 23:162.91902 24:305.53183 25:11.788454 26:436.35324 27:218.17125 28:707.26965 29:557.59491 30:578.15247 31:460.29462 32:322.06204 33:70.324097 34:496.94119 35:224.15842 36:501.41235 37:429.92029 38:340.33597 39:168.68631 40:515.03485 41:484.59393 42:316.84525 43:331.50763 44:415.55591 45:216.98409 46:961.23535 47:419.2287 48:184.61023 49:781.45624 50:1418.8479 51:520.62091 52:691.02142 53:257.36459 54:537.80066 55:442.25772 56:637.64398 57:366.05389 58:1179.8568 59:582.5011 60:1637.9204 61:1144.5573 62:1487.6667 63:669.80542 64:2090.2173 65:798.06482 66:573.82611 67:920.06934 68:839.26648 69:461.58658 70:1293.7881 71:927.72144 72:327.2467 73:59.753159 74:475.18729 75:312.15015 76:245.44618 77:77.756035 78:446.92346 79:269.61728 80:430.26477 81:385.1976 82:628.24646 83:510.19086 84:187.93237 85:120.66258 86:525.71851 87:236.07826 88:298.72824 89:247.02257 90:571.95959 91:514.27502 92:134.06989 93:221.51846 94:647.45862 95:216.73741 #
-0.00014827258893046241401691975880794 20:328.41528 21:184.3329 22:498.40237 23:154.92694 24:560.39221 25:74.130737 26:589.9491 27:179.5201 28:514.27026 29:272.54822 30:1299.8893 31:694.14453 32:485.2323 33:62.677631 34:568.48438 35:178.5285 36:771.46448 37:236.68649 38:400.68842 39:184.07516 40:293.68585 41:167.42595 42:1401.9515 43:311.09216 44:479.0535 45:87.120598 46:711.14948 47:201.38977 48:769.13007 49:356.09995 50:864.19397 51:129.98285 52:835.65643 53:544.6554 54:1445.5234 55:237.96782 56:171.56236 57:234.22722 58:881.3454 59:434.67862 60:341.46591 61:178.02988 62:916.92902 63:331.73706 64:1147.1949 65:556.38898 66:682.89075 67:529.52844 68:481.02692 69:306.32092 70:963.52997 71:569.19507 72:317.41037 73:293.02591 74:1710.3483 75:661.16528 76:730.69763 77:138.70427 78:593.05859 79:188.17477 80:477.81039 81:397.84827 82:2040.5769 83:758.32928 84:763.58008 85:166.74655 86:650.2923 87:203.94186 88:459.4379 89:403.58884 90:2204.5051 91:793.52332 92:687.63873 93:144.03555 94:710.20398 95:202.41534 #
-0.00010086775775358398227199430152723 20:1235.8215 21:159.54408 22:566.54333 23:297.04413 24:435.85687 25:113.08745 26:455.94193 27:459.75693 28:2069.5244 29:255.48257 30:614.92096 31:618.63708 32:196.14885 33:173.11171 34:454.35324 35:420.29932 36:2509.8662 37:1050.79 38:878.51172 39:525.78442 40:1374.576 41:1130.0342 42:1226.8358 43:399.62671 44:1983.2024 45:943.5741 46:662.27673 47:386.36841 48:3715.6733 49:1624.7544 50:1326.9711 51:558.76105 52:735.83636 53:290.47736 54:409.42755 55:624.50989 56:799.09436 57:584.48877 58:820.50439 59:393.71344 60:1845.2252 61:1043.6797 62:1743.865 63:768.95898 64:1059.5425 65:414.49274 66:524.1297 67:330.11108 68:1164.7416 69:579.22162 70:466.51434 71:423.13724 72:1520.2759 73:351.07388 74:908.72882 75:393.80008 76:390.96432 77:85.914413 78:384.4552 79:425.48755 80:1545.9794 81:253.48628 82:607.01318 83:512.06519 84:284.84857 85:87.73262 86:369.99796 87:374.18109 88:1554.2009 89:294.06781 90:624.63385 91:556.88623 92:391.29916 93:113.09225 94:473.6308 95:364.01801 #
-2.8146078982003172944126312415847e-05 20:2127.8572 21:1868.2653 22:3316.7871 23:869.85419 24:1134.3025 25:1113.8066 26:1370.402 27:329.1308 28:2051.9119 29:3780.1938 30:5758.499 31:1424.6245 32:864.99805 33:1197.1935 34:1640.207 35:388.09637 36:3795.1038 37:1644.3995 38:3805.116 39:1226.7233 40:3154.4346 41:2421.7334 42:3985.3828 43:1128.3729 44:1068.1848 45:669.21161 46:1061.1324 47:490.6951 48:2914.8154 49:5757.3652 50:19812.629 51:1827.0692 52:1787.5897 53:3504.3176 54:5631.4497 55:1581.7001 56:346.43964 57:1031.5189 58:1399.91 59:720.7345 60:5816.8154 61:2095.1499 62:11805.445 63:1322.0277 64:2553.6755 65:2774.593 66:5668.584 67:1779.9741 68:947.98334 69:1322.7014 70:1479.9456 71:560.65375 72:861.55328 73:1955.4969 74:3840.6931 75:1178.2731 76:1390.3035 77:1471.4293 78:1493.9014 79:372.82812 80:977.03339 81:2434.1763 82:6005.1299 83:1632.8706 84:1596.9781 85:1711.7034 86:1642.625 87:403.27222 88:453.79562 89:2146.8228 90:4567.6089 91:1497.0834 92:2079.7585 93:2008.0472 94:1978.7269 95:446.31955 #
-8.0964720379342325351501585828373e-05 20:126.91457 21:381.92838 22:397.57721 23:319.37427 24:174.27243 25:119.66237 26:647.27295 27:270.66351 28:170.08647 29:428.05844 30:820.28601 31:473.89877 32:226.03233 33:161.12546 34:748.84229 35:236.46138 36:1640.4335 37:729.93018 38:793.62262 39:328.69757 40:308.91431 41:231.21399 42:721.17236 43:317.77261 44:762.341 45:590.33704 46:1111.9207 47:224.47482 48:1606.8344 49:598.66565 50:957.27399 51:454.46869 52:215.24005 53:413.45358 54:885.81647 55:463.66846 56:408.01843 57:32.502033 58:1020.3472 59:271.74603 60:835.409 61:435.63248 62:950.01477 63:332.43054 64:797.95752 65:465.00174 66:1582.2599 67:602.26874 68:536.94031 69:158.36182 70:882.97974 71:505.49274 72:272.54868 73:431.53513 74:1041.7146 75:352.61392 76:104.25609 77:187.95616 78:964.17621 79:279.64951 80:100.50375 81:360.11191 82:1114.9071 83:503.96146 84:267.99075 85:256.04688 86:1163.689 87:340.00085 88:88.913445 89:374.1449 90:1246.0566 91:551.70117 92:105.30622 93:229.38623 94:1403.6183 95:413.2269 #
-1.1729098780626455705150545938409e-06 20:311.75723 21:321.09821 22:758.40723 23:375.91138 24:301.31049 25:469.52228 26:723.50269 27:479.14459 28:1423.7126 29:361.18719 30:632.80341 31:336.8562 32:242.35629 33:440.85736 34:727.27966 35:497.05652 36:579.75873 37:665.04401 38:937.66864 39:443.65552 40:1723.4186 41:381.16321 42:630.7384 43:410.8656 44:1350.4226 45:360.12582 46:996.58325 47:453.39865 48:1339.0544 49:429.50851 50:780.43909 51:407.21747 52:1651.8669 53:227.66045 54:266.45267 55:586.56433 56:1820.2955 57:552.55359 58:646.73712 59:602.15631 60:584.72424 61:631.89526 62:701.92767 63:704.422 64:1208.1299 65:36.950779 66:544.39886 67:962.77026 68:1324.9598 69:254.99791 70:719.14984 71:748.75769 72:442.181 73:446.38809 74:1239.8499 75:312.70926 76:194.75961 77:531.56702 78:763.76984 79:506.97705 80:820.62122 81:225.04977 82:1046.8391 83:461.92426 84:334.01935 85:459.069 86:757.43939 87:485.1088 88:791.85455 89:154.38339 90:1005.3267 91:491.12216 92:476.15042 93:462.54343 94:700.42682 95:463.69839 #
0.00033041178525832284873509081535303 20:205.92581 21:284.00287 22:821.76813 23:196.00104 24:535.95312 25:267.44812 26:541.65869 27:221.30499 28:285.62164 29:370.30399 30:1101.9424 31:218.29669 32:528.06335 33:251.2281 34:550.53876 35:223.92223 36:545.57281 37:385.85532 38:560.68262 39:244.64067 40:344.82571 41:270.41068 42:923.74268 43:113.04066 44:820.30634 45:531.72961 46:328.85294 47:362.95004 48:529.59662 49:326.92044 50:1116.7225 51:171.45721 52:516.57239 53:282.50198 54:722.20258 55:201.93033 56:590.37012 57:331.38733 58:444.09988 59:463.12045 60:633.96356 61:56.310757 62:387.72134 63:382.68243 64:285.17642 65:370.00128 66:1302.4093 67:687.05646 68:685.30603 69:252.30927 70:515.88574 71:578.04706 72:426.9563 73:106.45514 74:1118.9546 75:210.1982 76:602.35315 77:313.74127 78:579.93793 79:279.37155 80:381.17172 81:168.35301 82:1174.712 83:249.5049 84:640.42401 85:319.05872 86:643.3634 87:317.38226 88:391.45343 89:162.8632 90:1210.7622 91:279.34872 92:671.49835 93:368.57266 94:736.56561 95:398.35703 #
2.8193417069334938962477110635518e-05 20:1549.6208 21:699.43317 22:1111.2833 23:270.69128 24:271.5813 25:56.361389 26:602.90808 27:244.15643 28:1591.7673 29:618.7533 30:600.77155 31:431.78192 32:371.43777 33:65.316071 34:661.31439 35:237.42699 36:367.52548 37:435.87695 38:529.11194 39:249.52744 40:1685.9824 41:740.21234 42:860.69196 43:451.25369 44:390.78174 45:310.97375 46:713.9389 47:419.4834 48:1419.1475 49:603.79633 50:527.05396 51:325.85532 52:1378.1202 53:889.08868 54:1013.5234 55:553.36334 56:240.27481 57:41.457298 58:654.33368 59:530.55328 60:543.69098 61:270.07391 62:850.68433 63:430.13986 64:933.53351 65:668.33569 66:910.96875 67:425.18329 68:1490.4987 69:438.81284 70:694.51941 71:548.11273 72:1569.3958 73:658.19659 74:638.42084 75:641.05841 76:218.04118 77:97.088852 78:849.37756 79:302.15717 80:1651.0768 81:644.55627 82:618.84943 83:476.82605 84:155.68279 85:112.20007 86:848.21179 87:340.27933 88:1661.9127 89:668.99988 90:657.78949 91:476.04843 92:140.22595 93:116.09458 94:956.24475 95:383.09012 #
-6.3920462011354952725286637793545e-05 20:1539.0211 21:659.33356 22:1017.7793 23:707.92755 24:198.79495 25:311.15076 26:793.21643 27:381.01007 28:2791.45 29:3152.4539 30:5191.1294 31:534.40308 32:301.28787 33:324.3063 34:733.12653 35:396.01126 36:3699.5623 37:954.72235 38:2487.4014 39:577.48218 40:3636.1792 41:2159.5574 42:2637.7883 43:682.97675 44:2093.9587 45:1123.2473 46:1293.3455 47:272.13986 48:2791.7664 49:2926.9946 50:8009.4243 51:1432.3518 52:7481.4629 53:2562.8176 54:1278.6169 55:486.98819 56:300.71213 57:127.41693 58:699.15436 59:529.60944 60:10253.839 61:8607.9482 62:11051.605 63:821.44788 64:4047.54 65:1442.2401 66:1772.5836 67:975.05042 68:1851.3115 69:192.849 70:735.77631 71:566.47363 72:1180.0365 73:369.19247 74:1513.2258 75:757.03418 76:446.84698 77:508.48306 78:1130.4375 79:502.0961 80:502.31927 81:1201.5308 82:2297.0574 83:823.89557 84:562.24115 85:536.55493 86:1262.6222 87:588.01697 88:859.49622 89:895.92596 90:2543.1692 91:916.00079 92:374.30817 93:760.25134 94:1354.3834 95:677.72839 #
0.00010299207130922555242236171579862 20:466.98215 21:354.70023 22:848.18134 23:298.36169 24:640.92981 25:431.32242 26:656.14417 27:310.70428 28:268.77032 29:143.08894 30:964.86841 31:285.27676 32:643.40912 33:397.58722 34:673.42212 35:344.25375 36:1018.4393 37:597.26331 38:1058.038 39:308.72974 40:354.02151 41:90.81517 42:665.55243 43:317.53824 44:163.25896 45:560.64453 46:1043.2032 47:361.76239 48:354.92703 49:411.37921 50:852.52765 51:281.19855 52:212.63707 53:185.14815 54:739.26086 55:360.52216 56:309.67307 57:292.07224 58:1028.2219 59:388.92966 60:836.85559 61:233.87039 62:657.73657 63:395.99789 64:474.66251 65:164.32352 66:760.92645 67:544.75 68:1009.7675 69:252.62109 70:1070.1497 71:297.54565 72:318.55704 73:139.21199 74:1197.5731 75:312.49152 76:450.84238 77:397.29968 78:699.3468 79:430.65775 80:279.94788 81:106.55003 82:1023.3116 83:335.39276 84:576.81573 85:394.73083 86:755.02386 87:435.42413 88:229.85696 89:117.28015 90:1043.3035 91:371.77164 92:457.77106 93:382.62006 94:853.02002 95:445.86072 #
1.2984057263554530867177838615589e-05 20:508.92319 21:424.50641 22:683.41107 23:225.92455 24:1264.7864 25:1230.4136 26:1030.1615 27:301.66296 28:1913.6021 29:917.82739 30:1784.9241 31:411.94818 32:1389.6552 33:1296.9502 34:1078.5441 35:278.92697 36:1391.4803 37:835.56647 38:1180.3441 39:295.40805 40:250.25964 41:443.883 42:779.53088 43:600.7478 44:2402.9419 45:835.49493 46:915.30579 47:521.48248 48:1713.9426 49:1395.4288 50:4867.0679 51:657.00214 52:1503.3297 53:702.83789 54:636.85095 55:950.35907 56:1087.3472 57:710.14618 58:736.44751 59:856.76251 60:1698.3069 61:1238.8435 62:4836.0732 63:926.12329 64:3215.9663 65:1277.3906 66:1194.7965 67:1381.6439 68:209.16125 69:1111.6237 70:970.27209 71:1246.2739 72:1092.7029 73:536.27246 74:1532.4777 75:446.7316 76:1182.5765 77:1228.3566 78:1175.636 79:368.37927 80:1261.3701 81:224.65054 82:1488.3228 83:627.49078 84:1076.4945 85:1257.8265 86:1230.0625 87:405.96671 88:1087.4363 89:254.22186 90:1444.9236 91:647.00812 92:1107.7087 93:1226.66 94:1240.7531 95:437.42435 #
-6.841391606415836434962329803966e-05 20:2190.6462 21:575.13684 22:1149.6304 23:352.3222 24:397.9624 25:124.47106 26:251.12508 27:184.87892 28:2658.5039 29:69.923721 30:997.46667 31:350.87369 32:348.27933 33:144.14487 34:345.10107 35:203.77231 36:581.02777 37:552.73828 38:748.01965 39:315.03656 40:2684.03 41:406.68738 42:937.54834 43:396.02734 44:957.51678 45:708.42358 46:1258.0989 47:223.9014 48:2322.7407 49:175.56789 50:1203.6226 51:404.39172 52:2382.0256 53:221.96416 54:859.67468 55:442.90411 56:1157.1545 57:508.19598 58:1266.5991 59:358.72253 60:1036.3914 61:684.20337 62:845.67371 63:489.78082 64:1971.7731 65:173.36887 66:719.8761 67:473.948 68:990.48889 69:584.99091 70:1266.344 71:705.83948 72:2346.2537 73:264.64578 74:1142.6512 75:423.43765 76:406.66638 77:190.79794 78:463.97202 79:225.25845 80:2653.1787 81:189.87363 82:1197.9938 83:329.13763 84:132.16454 85:121.84132 86:380.75952 87:252.68738 88:2749.1772 89:166.92203 90:1262.9807 91:328.52518 92:488.31189 93:168.7365 94:439.72104 95:342.40793 #
-1.0987451333603365927205075536222e-06 20:2536.9883 21:467.84882 22:1816.7494 23:308.04114 24:723.63867 25:534.05548 26:632.58624 27:106.85181 28:3465.9575 29:833.48956 30:2856.3994 31:427.59485 32:788.98792 33:608.00305 34:685.20966 35:84.549377 36:622.34546 37:46.282909 38:1268.3447 39:210.59064 40:1562.1099 41:1423.7948 42:3253.7012 43:731.56384 44:1095.9442 45:1394.5363 46:1321.532 47:332.24432 48:1634.7385 49:965.19934 50:1279.5266 51:452.75958 52:3094.8828 53:728.57446 54:1328.2306 55:819.56781 56:1915.4319 57:1123.0172 58:1818.4183 59:829.04767 60:1717.6414 61:622.10199 62:1969.4674 63:433.47501 64:3211.0002 65:714.45306 66:1761.7474 67:1222.8076 68:1561.5171 69:1017.5774 70:1398.1891 71:700.79285 72:3662.1956 73:1023.1331 74:1927.9526 75:528.80328 76:738.60785 77:527.02368 78:727.20593 79:115.47991 80:3851.9141 81:1192.8541 82:1952.074 83:472.93997 84:893.80634 85:516.54205 86:681.65796 87:178.00365 88:3702.978 89:1190.5537 90:1835.4225 91:518.38342 92:1049.0477 93:597.96307 94:719.20758 95:272.71167 #
-5.3520686341619553975414158575319e-05 20:2043.2164 21:667.7359 22:1063.0148 23:465.29456 24:562.60266 25:96.08223 26:352.18921 27:259.7085 28:1630.9349 29:1052.8033 30:2564.8176 31:843.7558 32:463.82977 33:94.539383 34:552.17963 35:256.62314 36:1138.7859 37:47.277725 38:1714.2578 39:436.36548 40:2498.0623 41:1578.259 42:2389.4971 43:907.26239 44:1810.1138 45:570.64709 46:1626.4821 47:473.41599 48:5882.7295 49:2033.8727 50:4050.4045 51:772.82642 52:3389.0537 53:1469.6033 54:2413.7087 55:990.51166 56:183.80605 57:253.38533 58:1415.9719 59:848.51221 60:2484.1494 61:2539.0137 62:3630.9666 63:1468.8286 64:5942.4194 65:2541.2705 66:2385.4922 67:729.34912 68:2653.5842 69:668.49481 70:1435.5374 71:1396.4105 72:2325.1003 73:1102.2413 74:1842.731 75:752.72528 76:710.36945 77:341.33133 78:1053.6826 79:308.91302 80:1866.4769 81:656.59766 82:1719.8915 83:1040.7526 84:797.42236 85:484.2298 86:1391.5994 87:313.49551 88:1810.488 89:640.0542 90:1923.9036 91:1103.0343 92:176.17249 93:465.14844 94:1650.0461 95:314.70166 #
-2.4503048710511690644331395105837e-05 20:2200.6431 21:408.66956 22:770.7774 23:719.98364 24:739.80621 25:484.18872 26:1044.4108 27:398.18381 28:1531.3434 29:728.69714 30:822.34192 31:654.40729 32:777.11981 33:515.73889 34:959.36676 35:403.89084 36:426.84439 37:413.77692 38:1062.0957 39:376.78043 40:2496.0876 41:714.57849 42:1881.1539 43:751.46173 44:1455.5688 45:262.93787 46:999.95477 47:447.0813 48:2612.9204 49:649.00568 50:802.16473 51:1523.6841 52:2510.574 53:221.74313 54:1750.4983 55:749.29034 56:1383.0228 57:302.27209 58:852.8833 59:340.37619 60:462.88446 61:367.58142 62:2205.6597 63:392.41711 64:1237.9221 65:544.73792 66:1422.6031 67:328.91678 68:955.18335 69:77.475998 70:298.59827 71:193.60078 72:2758.0435 73:374.79947 74:751.43555 75:845.15234 76:639.81793 77:348.95367 78:778.5495 79:413.32736 80:2296.5535 81:262.94312 82:1045.9612 83:876.55682 84:609.92621 85:365.1817 86:674.58008 87:430.84833 88:2194.8416 89:347.57196 90:962.74719 91:854.54718 92:713.77051 93:276.67606 94:527.034 95:473.20795 #
-5.9598130560128308782358308448579e-06 20:880.47314 21:663.33472 22:1703.5852 23:562.74329 24:1801.9314 25:1237.8643 26:777.65802 27:302.11581 28:1137.604 29:1420.6963 30:5983.3013 31:384.8107 32:1973.583 33:1238.4592 34:715.76996 35:423.33203 36:3143.0208 37:1682.7949 38:1679.158 39:693.30975 40:1323.2408 41:544.53156 42:5350.3423 43:553.77264 44:1085.1987 45:128.64235 46:1788.1965 47:272.05734 48:4419.6001 49:4129.3169 50:12030.111 51:2576.2478 52:5945.6636 53:1980.6498 54:2311.4297 55:506.32428 56:3917.8076 57:3051.1177 58:2573.4619 59:926.65448 60:3901.9502 61:6847.8389 62:11243.458 63:1956.2277 64:3161.3892 65:1891.6163 66:2354.0488 67:1194.2131 68:833.82184 69:1947.8705 70:1806.2728 71:623.03943 72:2409.991 73:2047.5383 74:1920.8121 75:555.659 76:2580.0955 77:1321.829 78:899.96246 79:345.19891 80:3585.4312 81:1770.2439 82:2849 83:485.13199 84:3280.1465 85:1423.5026 86:1091.3812 87:401.97995 88:3217.5017 89:1938.0518 90:1745.7833 91:718.9314 92:3341.5193 93:1496.073 94:1223.2252 95:399.10107 #
-1.6331470717443827278536616631754e-05 20:341.10269 21:120.9561 22:470.06497 23:247.01642 24:93.791962 25:72.152885 26:128.42122 27:172.64223 28:633.87592 29:195.93056 30:750.76288 31:364.49191 32:70.905334 33:90.845955 34:151.94 35:144.57375 36:533.4469 37:260.53125 38:884.64911 39:173.24405 40:447.05841 41:73.592644 42:399.6962 43:279.26245 44:673.79901 45:410.24164 46:434.23373 47:111.95915 48:662.86218 49:161.13234 50:879.62323 51:219.54883 52:570.18103 53:22.090595 54:355.44034 55:177.25293 56:77.993011 57:125.69817 58:559.80585 59:148.12889 60:938.81232 61:415.44785 62:884.73761 63:251.97144 64:300.16458 65:156.6418 66:549.77637 67:513.32611 68:1093.4866 69:167.57124 70:773.97345 71:216.33638 72:648.51575 73:157.07007 74:643.03735 75:348.70682 76:155.31213 77:51.921597 78:237.89717 79:166.07158 80:433.24863 81:74.816277 82:734.89081 83:342.13168 84:35.743038 85:103.77424 86:297.65607 87:141.40327 88:429.17581 89:112.93462 90:756.59601 91:371.18204 92:199.70209 93:231.21642 94:356.17361 95:95.610535 #
3.1938922911340034485605521297202e-05 20:339.78268 21:189.3877 22:779.74634 23:280.26495 24:1921.0789 25:1625.0422 26:3076.9834 27:304.01199 28:671.12317 29:113.53294 30:737.63885 31:336.06894 32:1889.3496 33:1609.4906 34:3085.2615 35:339.21893 36:2198.7534 37:1910.0164 38:3163.9209 39:306.29855 40:375.15131 41:140.1378 42:504.7691 43:207.69884 44:1782.8304 45:1705.5186 46:3080.0757 47:244.83684 48:203.0246 49:224.13036 50:770.64368 51:249.21738 52:535.34473 53:226.27107 54:580.31311 55:284.89719 56:1984.4797 57:1732.7004 58:3158.5371 59:238.86981 60:1817.5464 61:1555.6313 62:3258.0925 63:265.22519 64:1024.2104 65:177.78444 66:1263.4011 67:476.54828 68:2660.1375 69:1976.1255 70:3145.2583 71:308.70755 72:612.05957 73:210.26436 74:749.91425 75:342.99179 76:1813.1377 77:1674.1025 78:3002.9788 79:342.50162 80:630.02411 81:116.83907 82:739.87769 83:352.25558 84:1760.7161 85:1661.9117 86:3005.9207 87:361.59259 88:626.33551 89:101.63874 90:714.96222 91:356.84186 92:1688.0332 93:1652.7379 94:2969.677 95:393.98132 #
-1.4062861838239309168361798607627e-06 20:344.02963 21:209.21609 22:1506.5464 23:173.27985 24:1562.9949 25:1079.4972 26:1333.5702 27:221.18756 28:28.792171 29:858.84595 30:2140.3845 31:271.34445 32:1721.0894 33:1145.0262 34:1423.9597 35:256.65543 36:1789.6479 37:971.79761 38:1597.7952 39:205.86284 40:1200.9344 41:722.13116 42:2173.804 43:361.15808 44:1628.7139 45:1073.2953 46:1522.3494 47:165.52347 48:1146.8744 49:177.00124 50:1213.6996 51:383.52487 52:1186.8213 53:651.50671 54:1915.8632 55:346.88837 56:1074.0222 57:775.70398 58:1778.6451 59:323.55386 60:2788.9558 61:946.95679 62:2576.3735 63:325.9126 64:2366.8064 65:447.55743 66:987.5954 67:529.14691 68:1141.9941 69:975.20099 70:2295.6614 71:533.96484 72:692.28925 73:904.44165 74:2571.7805 75:215.75974 76:1533.7595 77:1164.0872 78:1362.0426 79:288.63953 80:888.55054 81:1672.6041 82:3586.7119 83:455.45782 84:1588.7262 85:1204.9148 86:1367.3334 87:298.56934 88:642.9314 89:1284.3032 90:3413.864 91:419.39471 92:1719.7418 93:1248.7844 94:1377.2706 95:382.68216 #
1.7697811491937127242879412847287e-06 20:414.24103 21:642.60834 22:899.90033 23:258.05539 24:2022.4827 25:1519.9375 26:2222.1997 27:291.39694 28:732.31384 29:314.23123 30:1193.8824 31:797.79224 32:2197.5137 33:1600.0468 34:2332.4829 35:287.51782 36:2485.2097 37:1018.265 38:2128.342 39:282.46982 40:924.41333 41:572.22058 42:1152.4701 43:641.27448 44:3905.8081 45:578.38611 46:2236.5564 47:152.04921 48:345.89026 49:715.25372 50:1333.5541 51:326.64523 52:804.42725 53:484.38235 54:1369.9791 55:574.47644 56:2698.3687 57:1074.4811 58:2454.3005 59:391.85046 60:2036.1031 61:1338.8457 62:2438.3469 63:310.99173 64:1425.2981 65:965.61896 66:1844.4146 67:786.20087 68:2556.7629 69:1059.7679 70:2384.7207 71:401.12933 72:609.29059 73:839.83063 74:1317.969 75:855.505 76:1741.1217 77:1531.5847 78:2329.0166 79:311.54062 80:672.70026 81:535.66046 82:1339.5806 83:951.52869 84:1702.222 85:1541.0001 86:2333.6536 87:293.16006 88:613.03632 89:508.5029 90:1366.1254 91:1007.6435 92:2082.2332 93:1621.2017 94:2429.9424 95:218.33632 #
-1.9256862973622757744321387640696e-06 20:1907.8682 21:616.99536 22:919.27448 23:341.08453 24:247.03197 25:229.59895 26:564.29224 27:117.80021 28:1095.0936 29:363.66501 30:1258.6826 31:434.32001 32:126.57779 33:244.73691 34:638.56714 35:157.60393 36:1053.5621 37:61.018181 38:1002.2471 39:286.74686 40:1810.2404 41:819.49561 42:1404.0076 43:410.71948 44:175.05107 45:454.70453 46:904.66681 47:199.06828 48:4001.0425 49:1010.7151 50:1295.2378 51:771.80762 52:1414.5421 53:488.96381 54:1412.6772 55:368.4744 56:995.41962 57:113.18285 58:822.99939 59:287.392 60:1451.1626 61:636.47113 62:1373.1963 63:1073.2067 64:1820.4536 65:347.82315 66:1469.483 67:352.37631 68:2172.5537 69:593.28192 70:683.59912 71:391.29517 72:1032.55 73:429.66885 74:1446.6157 75:416.6795 76:337.59964 77:161.0695 78:586.64722 79:225.33403 80:1185.886 81:413.70221 82:1265.4767 83:421.9191 84:349.48264 85:163.07477 86:657.82385 87:282.01715 88:1223.5071 89:420.79776 90:1318.9609 91:430.32858 92:404.69791 93:173.15605 94:861.13757 95:370.62952 #
-2.2663120061291661122560014973715e-07 20:404.07135 21:52.497059 22:281.2916 23:227.46643 24:271.43918 25:73.022408 26:531.25543 27:404.27835 28:1356.7719 29:807.32983 30:1525.1974 31:419.75684 32:295.54208 33:43.792828 34:483.10373 35:419.04523 36:286.57428 37:107.34914 38:527.11133 39:428.16605 40:856.35284 41:317.9614 42:510.98285 43:358.97214 44:795.87811 45:616.45459 46:786.35889 47:429.09384 48:1142.4639 49:326.01376 50:766.203 51:190.55795 52:1408.9451 53:541.95844 54:581.36322 55:199.90779 56:620.2486 57:229.03331 58:467.42303 59:521.93512 60:605.07562 61:504.38852 62:834.22675 63:330.52298 64:4038.9307 65:338.53754 66:1125.0381 67:390.58746 68:929.88776 69:241.20769 70:214.33876 71:487.95428 72:796.19806 73:327.74402 74:608.2818 75:458.99689 76:327.37964 77:113.66519 78:726.2984 79:427.31366 80:726.68372 81:286.32129 82:422.46014 83:557.5719 84:439.42505 85:155.42365 86:851.55853 87:433.70404 88:627.57941 89:214.11752 90:320.94891 91:577.77435 92:334.53787 93:126.59117 94:1082.1227 95:524.90778 #
-4.9188203661207531439472639966937e-05 20:427.60565 21:47.590591 22:281.58649 23:309.87744 24:791.55743 25:400.08337 26:769.59924 27:338.37564 28:324.35846 29:121.89918 30:571.23975 31:375.11618 32:821.96582 33:386.72687 34:780.6181 35:325.69876 36:522.75287 37:297.83426 38:626.45209 39:337.72333 40:740.24011 41:216.2523 42:963.4104 43:443.39136 44:1020.0484 45:790.61987 46:1004.1938 47:260.91913 48:1319.7979 49:550.33398 50:848.51831 51:321.17041 52:1121.5652 53:170.18355 54:1048.3112 55:510.17407 56:794.45459 57:576.37207 58:1184.2128 59:345.8652 60:1633.5135 61:730.42694 62:1652.7593 63:458.9053 64:1901.8395 65:60.47086 66:1577.2136 67:989.67902 68:732.99713 69:558.14734 70:1480.0828 71:544.59753 72:440.83191 73:58.87286 74:834.71576 75:495.09735 76:699.81201 77:360.34497 78:839.04822 79:383.97986 80:640.88165 81:136.72635 82:806.12286 83:498.02536 84:681.14471 85:372.18402 86:881.41785 87:403.48428 88:609.88849 89:100.72741 90:862.76282 91:536.64001 92:788.24036 93:350.63834 94:956.87128 95:455.8313 #
