SVM-light Version V6.02
0 # kernel type
3 # kernel parameter -d 
1 # kernel parameter -g 
1 # kernel parameter -s 
1 # kernel parameter -r 
empty# kernel parameter -u 
95 # highest feature index 
294 # number of training documents 
219 # number of support vectors plus 1 
0.99332304 # threshold b, each following line is a SV (starting with alpha*y)
-1.1824602570643264821178414214486e-07 1:0 2:0 3:0 4:0 5:0 6:0 7:0 8:0 9:0 10:0 11:0 12:0 13:0 14:0 15:0 16:0 17:0 18:0 19:0 20:151.85022 21:175.338 22:475.09943 23:82.735062 24:231.36029 25:185.72333 26:444.01981 27:116.31735 28:243.28964 29:242.61818 30:779.65417 31:154.7942 32:206.62045 33:166.3945 34:423.4227 35:123.01965 36:274.23737 37:294.32233 38:709.99506 39:128.91824 40:355.72488 41:200.08167 42:475.30005 43:98.958649 44:171.35121 45:158.36794 46:564.88934 47:171.51753 48:362.46689 49:242.91412 50:624.12372 51:143.54832 52:186.48337 53:56.242188 54:453.50934 55:167.56418 56:263.53058 57:231.72028 58:727.93579 59:207.70467 60:352.11108 61:229.2364 62:660.02472 63:178.27792 64:69.697983 65:7.8691249 66:368.57434 67:252.41119 68:130.29797 69:181.34581 70:690.2702 71:202.51447 72:202.11809 73:119.82997 74:517.75891 75:60.168285 76:203.62665 77:117.67477 78:332.5563 79:116.11846 80:158.00455 81:162.43532 82:563.72821 83:66.567848 84:193.3942 85:104.71165 86:322.37527 87:133.90862 88:163.88916 89:150.91631 90:549.84167 91:65.918091 92:201.99326 93:105.21812 94:299.00662 95:140.73221 #
-1.3289990606553889177579845948945e-07 1:0 2:0 3:0 4:0 5:0 6:0 7:0 8:0 9:0 10:0 11:0 12:0 13:0 14:0 15:0 16:0 17:0 18:0 19:0 20:294.5051 21:109.11803 22:296.65015 23:65.282028 24:245.62996 25:151.54338 26:226.77591 27:83.756569 28:299.08456 29:178.32047 30:233.48459 31:75.474152 32:235.81102 33:164.17941 34:260.93661 35:107.84595 36:262.82635 37:188.54222 38:236.45609 39:76.422836 40:376.63553 41:259.52188 42:255.12802 43:83.491943 44:183.30548 45:315.79166 46:448.24423 47:64.418709 48:457.14148 49:251.67213 50:470.96503 51:96.146591 52:303.41205 53:222.50169 54:228.89775 55:84.131531 56:291.55444 57:294.21201 58:447.63138 59:74.497017 60:344.14056 61:295.19186 62:361.57877 63:58.745018 64:248.40102 65:193.86624 66:304.67981 67:98.682983 68:254.12021 69:280.448 70:367.15729 71:87.622169 72:221.26292 73:178.52374 74:198.39067 75:96.354126 76:257.10291 77:156.31197 78:266.53296 79:71.830353 80:291.08582 81:219.83858 82:188.53601 83:82.658386 84:257.53275 85:169.25856 86:265.82523 87:62.659809 88:294.94241 89:229.98143 90:192.64261 91:82.626526 92:273.74915 93:182.95271 94:269.30917 95:67.477631 #
-7.9962451736716150225243657234664e-09 1:0 2:0 3:0 4:0 5:0 6:0 7:0 8:0 9:0 10:0 11:0 12:0 13:0 14:0 15:0 16:0 17:0 18:0 19:0 20:155.94333 21:132.0759 22:221.25302 23:97.981964 24:81.087746 25:32.185928 26:339.95932 27:84.041969 28:346.06696 29:243.89938 30:467.29373 31:56.033718 32:90.115196 33:35.968792 34:366.77496 35:67.389038 36:171.26241 37:167.75439 38:273.94135 39:80.176857 40:362.22021 41:289.69595 42:571.44427 43:38.813923 44:289.60577 45:180.33234 46:621.89233 47:116.45757 48:393.62106 49:167.21672 50:531.66516 51:60.343803 52:378.61884 53:291.38181 54:498.37903 55:49.804897 56:276.03168 57:181.85246 58:549.70447 59:156.10811 60:264.60803 61:286.88431 62:638.0163 63:168.96394 64:338.13715 65:263.11078 66:465.73346 67:57.195282 68:260.18036 69:176.85417 70:534.97595 71:159.81729 72:214.32231 73:211.28896 74:415.87274 75:71.635666 76:99.476768 77:42.551353 78:442.57144 79:69.627747 80:374.93808 81:245.45157 82:405.91501 83:45.397778 84:112.42277 85:55.358448 86:451.31345 87:62.141029 88:372.40338 89:242.04828 90:373.59628 91:46.188858 92:115.53754 93:57.406483 94:435.9147 95:58.387859 #
-1.3289990606553889177579845948945e-07 1:0 2:0 3:0 4:0 5:0 6:0 7:0 8:0 9:0 10:0 11:0 12:0 13:0 14:0 15:0 16:0 17:0 18:0 19:0 20:285.34766 21:186.63618 22:214.63069 23:124.8054 24:171.56807 25:60.155022 26:95.143486 27:60.179611 28:209.1662 29:42.934319 30:104.89938 31:43.3759 32:152.58551 33:53.711349 34:68.311226 35:50.127625 36:233.97879 37:125.54379 38:144.1357 39:79.105675 40:145.65431 41:42.035179 42:170.53716 43:44.047249 44:153.98259 45:82.986343 46:318.39349 47:82.5802 48:254.47153 49:64.065948 50:211.86729 51:77.154213 52:57.74361 53:74.714905 54:239.72798 55:81.142601 56:117.54028 57:153.37231 58:432.89377 59:128.00623 60:89.591331 61:241.57999 62:396.23157 63:106.71957 64:41.282654 65:106.56963 66:325.14252 67:101.50462 68:94.251167 69:160.96651 70:408.48816 71:153.81367 72:208.06059 73:95.77195 74:77.077751 75:77.846603 76:168.8931 77:55.433453 78:77.410217 79:48.059742 80:127.35659 81:27.795004 82:129.02419 83:48.942669 84:150.79332 85:30.103548 86:106.90967 87:47.714706 88:129.43945 89:31.111513 90:164.71672 91:50.434467 92:154.05884 93:15.840253 94:159.73436 95:49.908741 #
-1.0142096527078301056428583093449e-07 1:0 2:0 3:0 4:0 5:0 6:0 7:0 8:0 9:0 10:0 11:0 12:0 13:0 14:0 15:0 16:0 17:0 18:0 19:0 20:60.346912 21:174.0731 22:433.77808 23:49.097233 24:72.764313 25:195.68369 26:380.50134 27:60.713963 28:84.961868 29:18.772915 30:148.20825 31:110.6836 32:73.920563 33:186.67815 34:365.45737 35:64.923897 36:19.123224 37:218.14746 38:428.65335 39:66.155327 40:78.923615 41:150.72649 42:202.45195 43:71.9842 44:113.65663 45:250.11118 46:422.10425 47:80.711983 48:104.89645 49:107.85274 50:372.77957 51:59.597843 52:165.88202 53:209.98622 54:310.72467 55:64.10379 56:95.278893 57:238.8356 58:602.09918 59:127.14748 60:230.26836 61:379.14069 62:595.65704 63:104.37299 64:189.18907 65:208.63402 66:329.93939 67:83.976967 68:80.441383 69:242.70984 70:577.59595 71:119.16872 72:55.239456 73:59.840397 74:175.53656 75:122.03629 76:41.622444 77:160.26566 78:349.21036 79:71.755241 80:46.678627 81:67.367836 82:177.23798 83:95.626801 84:54.127445 85:183.75822 86:381.96393 87:72.95414 88:25.027683 89:86.491615 90:186.99202 91:89.475243 92:70.753014 93:194.49722 94:396.09427 95:68.174271 #
1.3289990606553889177579845948945e-07 1:0 2:0 3:0 4:0 5:0 6:0 7:0 8:0 9:0 10:0 11:0 12:0 13:0 14:0 15:0 16:0 17:0 18:0 19:0 20:191.31833 21:201.26775 22:175.33421 23:135.81146 24:189.04027 25:186.1064 26:386.16016 27:134.0645 28:254.4579 29:187.09438 30:246.86143 31:94.90744 32:189.70042 33:177.91402 34:372.57916 35:157.8623 36:194.05856 37:194.44302 38:280.58978 39:96.586197 40:256.49884 41:179.67961 42:195.28294 43:73.056763 44:316.52271 45:264.64575 46:596.97955 47:198.802 48:273.4978 49:198.67355 50:338.46054 51:193.69531 52:281.8851 53:198.117 54:155.29083 55:62.941467 56:372.65372 57:281.27301 58:703.638 59:190.97275 60:240.22719 61:251.24028 62:482.67819 63:209.43901 64:325.83109 65:184.88403 66:214.25098 67:101.87083 68:275.86636 69:272.30341 70:689.95764 71:235.54939 72:168.86902 73:139.13596 74:198.18294 75:40.400841 76:161.94078 77:186.15787 78:429.01822 79:173.08017 80:227.94044 81:200.27997 82:266.02057 83:75.626694 84:157.82259 85:185.78954 86:446.6557 87:195.0249 88:227.46602 89:187.5502 90:235.78989 91:57.420326 92:148.37766 93:184.94766 94:484.81638 95:191.81345 #
1.3289990606553889177579845948945e-07 1:0 2:0 3:0 4:0 5:0 6:0 7:0 8:0 9:0 10:0 11:0 12:0 13:0 14:0 15:0 16:0 17:0 18:0 19:0 20:326.40085 21:171.30067 22:198.74496 23:63.287849 24:142.29329 25:94.000381 26:292.41208 27:36.777481 28:49.587395 29:63.082359 30:273.93344 31:114.72099 32:167.89255 33:56.775173 34:299.07907 35:37.666672 36:150.75665 37:182.50111 38:492.15985 39:64.381325 40:76.902679 41:168.25758 42:378.73877 43:118.17921 44:233.92932 45:156.91539 46:373.11908 47:108.81696 48:134.26985 49:97.112473 50:403.50781 51:67.992409 52:24.357969 53:174.11301 54:331.80215 55:105.85379 56:255.28658 57:174.53575 58:425.99448 59:162.5067 60:323.70734 61:267.57605 62:618.81085 63:201.52821 64:239.65094 65:191.2299 66:289.18042 67:99.925903 68:259.27011 69:208.82692 70:455.18671 71:173.67892 72:92.600296 73:33.208675 74:342.1478 75:82.079727 76:136.85153 77:32.428169 78:186.21214 79:44.035297 80:39.963451 81:67.724274 82:275.36642 83:94.970421 84:147.04356 85:26.957302 86:169.85252 87:59.582363 88:15.498762 89:80.118469 90:276.87772 91:89.602325 92:141.79356 93:39.918018 94:153.65671 95:72.870087 #
1.3289990606553889177579845948945e-07 1:0 2:0 3:0 4:0 5:0 6:0 7:0 8:0 9:0 10:0 11:0 12:0 13:0 14:0 15:0 16:0 17:0 18:0 19:0 20:261.29269 21:269.20383 22:817.2702 23:145.32277 24:44.378891 25:200.49849 26:706.70624 27:132.84552 28:170.96988 29:200.2394 30:630.49371 31:70.138435 32:35.965199 33:196.98277 34:688.24261 35:115.10455 36:62.368122 37:288.63687 38:899.93689 39:140.55133 40:214.62303 41:231.6106 42:694.85052 43:107.19 44:42.299412 45:233.69336 46:736.50793 47:175.38458 48:158.34717 49:266.23645 50:842.47711 51:82.623856 52:172.14067 53:207.75964 54:649.23108 55:114.59348 56:51.056889 57:177.38046 58:608.80743 59:197.78606 60:185.76845 61:211.78398 62:787.79602 63:350.85239 64:238.90981 65:192.25928 66:583.78522 67:165.09369 68:44.570004 69:127.61357 70:505.013 71:213.84077 72:170.26105 73:188.94797 74:499.14426 75:64.556465 76:64.903114 77:192.55681 78:613.68732 79:108.07813 80:172.91405 81:208.92188 82:559.22552 83:54.452721 84:66.969185 85:193.12633 86:579.72546 87:113.98415 88:177.54932 89:208.98944 90:553.92126 91:53.863716 92:86.809425 93:186.76297 94:542.28992 95:106.74398 #
1.3289990606553889177579845948945e-07 1:0 2:0 3:0 4:0 5:0 6:0 7:0 8:0 9:0 10:0 11:0 12:0 13:0 14:0 15:0 16:0 17:0 18:0 19:0 20:137.17366 21:21.67351 22:644.43365 23:174.98439 24:224.27383 25:82.214287 26:556.95703 27:85.60276 28:119.40491 29:187.40773 30:476.66232 31:51.566914 32:215.83585 33:73.382668 34:484.04633 35:70.832329 36:384.88559 37:138.91704 38:769.52045 39:117.90648 40:118.76845 41:136.82555 42:407.24658 43:102.91234 44:297.10693 45:221.04527 46:430.14597 47:113.78519 48:212.39099 49:227.60378 50:368.32318 51:123.72721 52:127.05289 53:216.15657 54:342.38196 55:124.15765 56:293.83273 57:293.73959 58:592.33374 59:151.6552 60:462.90182 61:270.39075 62:537.5199 63:119.82774 64:32.192719 65:178.22253 66:370.61606 67:163.6626 68:317.3082 69:295.84097 70:595.84375 71:164.52742 72:80.116852 73:135.06503 74:466.17749 75:44.205173 76:179.94528 77:70.630356 78:382.79764 79:69.612984 80:105.88181 81:133.99417 82:347.96692 83:47.487988 84:169.25105 85:85.321983 86:355.40192 87:79.402588 88:117.54562 89:168.8477 90:370.69009 91:60.821056 92:181.43427 93:118.98592 94:341.77316 95:83.862869 #
1.3289990606553889177579845948945e-07 1:0 2:0 3:0 4:0 5:0 6:0 7:0 8:0 9:0 10:0 11:0 12:0 13:0 14:0 15:0 16:0 17:0 18:0 19:0 20:414.8472 21:231.55156 22:506.81815 23:117.15646 24:590.90137 25:436.72018 26:607.01215 27:69.028793 28:274.24799 29:162.74965 30:368.09579 31:65.293091 32:530.4137 33:410.61514 34:567.88434 35:67.599625 36:579.63873 37:541.57971 38:934.31848 39:56.988796 40:230.4624 41:112.30995 42:396.58722 43:58.277973 44:350.80841 45:305.81903 46:453.27429 47:102.17152 48:107.91012 49:91.094521 50:485.58701 51:111.11411 52:203.59717 53:83.069168 54:454.4697 55:64.802155 56:351.08066 57:225.56958 58:315.45694 59:102.51528 60:386.86179 61:320.29636 62:480.78601 63:132.57898 64:169.80186 65:76.793945 66:529.5766 67:117.49323 68:363.61099 69:225.18956 70:276.56976 71:101.27695 72:317.80081 73:144.37654 74:303.21112 75:64.13958 76:430.6582 77:302.9198 78:439.85614 79:101.73336 80:293.46786 81:154.96239 82:315.78882 83:66.828232 84:400.66953 85:273.62918 86:427.36771 87:114.99519 88:295.11581 89:150.01874 90:317.8671 91:66.253426 92:373.21106 93:251.11459 94:416.26477 95:112.24356 #
-3.0639335483508996442589180503324e-08 1:0 2:0 3:0 4:0 5:0 6:0 7:0 8:0 9:0 10:0 11:0 12:0 13:0 14:0 15:0 16:0 17:0 18:0 19:0 20:581.28204 21:305.90433 22:459.55707 23:213.73166 24:565.19037 25:734.29547 26:1034.9789 27:419.5304 28:938.44611 29:492.31818 30:688.93274 31:300.76419 32:594.2821 33:746.95856 34:1097.6075 35:452.25861 36:693.20428 37:622.32819 38:777.74084 39:263.40918 40:556.69727 41:818.74805 42:1435.7826 43:431.37708 44:893.61609 45:1112.5116 46:1590.7179 47:330.74384 48:319.91226 49:898.10022 50:1649.1744 51:278.45636 52:482.12848 53:533.99805 54:2166.4031 55:622.67316 56:841.08185 57:909.85437 58:1049.2611 59:415.09567 60:760.94318 61:564.70892 62:1080.6533 63:650.25385 64:191.71597 65:64.332748 66:692.85358 67:477.33878 68:1013.6586 69:1197.7059 70:1520.6377 71:382.55496 72:985.28986 73:529.77527 74:1004.3646 75:343.60416 76:644.12604 77:823.22131 78:1273.6075 79:509.77197 80:843.84509 81:359.17587 82:1010.723 83:416.88092 84:705.39435 85:855.32007 86:1319.7283 87:539.36951 88:897.70355 89:415.07111 90:1036.1337 91:455.98013 92:746.57635 93:896.59845 94:1412.4055 95:580.99713 #
-8.7291905174190801498844763384177e-08 1:0 2:0 3:0 4:0 5:0 6:0 7:0 8:0 9:0 10:0 11:0 12:0 13:0 14:0 15:0 16:0 17:0 18:0 19:0 20:168.95776 21:102.35663 22:476.09818 23:140.89552 24:1101.0411 25:613.23096 26:748.44543 27:189.76485 28:198.19638 29:254.91043 30:461.65765 31:36.864048 32:1095.9187 33:661.08936 34:758.80957 35:179.94945 36:1146.6327 37:716.00836 38:905.17889 39:239.11642 40:290.14227 41:269.38989 42:596.25842 43:115.53097 44:951.25818 45:572.49323 46:1309.2786 47:291.00708 48:425.62662 49:329.84012 50:467.9418 51:131.41966 52:219.09604 53:239.35599 54:684.05188 55:111.35578 56:890.47272 57:693.09406 58:1405.3542 59:315.53549 60:841.77179 61:996.16986 62:1615.9594 63:339.82135 64:337.60364 65:380.99411 66:726.97241 67:141.57037 68:719.79816 69:743.05273 70:1909.0868 71:413.38953 72:162.91167 73:80.86058 74:374.59152 75:90.807869 76:1048.1057 77:571.98267 78:829.74432 79:180.83273 80:126.41574 81:128.07631 82:297.01028 83:64.871796 84:1055.2375 85:592.67035 86:881.22485 87:199.8114 88:174.99832 89:65.07991 90:244.61852 91:65.887939 92:1077.6528 93:657.86121 94:974.39197 95:215.86607 #
1.3289990606553889177579845948945e-07 1:0 2:0 3:0 4:0 5:0 6:0 7:0 8:0 9:0 10:0 11:0 12:0 13:0 14:0 15:0 16:0 17:0 18:0 19:0 20:40.898121 21:176.88005 22:269.95883 23:42.861008 24:178.78018 25:132.28148 26:213.3369 27:186.97588 28:146.83968 29:137.96672 30:179.85039 31:104.00797 32:138.0799 33:120.36959 34:196.87085 35:160.30602 36:143.41486 37:85.658302 38:371.01306 39:207.07513 40:207.09744 41:227.37715 42:277.81409 43:65.887321 44:172.73146 45:152.44722 46:407.84955 47:185.70058 48:30.902384 49:158.74185 50:293.58298 51:56.615837 52:174.8192 53:189.7711 54:312.13589 55:101.49802 56:160.35606 57:157.84796 58:500.18503 59:188.70938 60:341.44156 61:334.2384 62:589.40118 63:218.1256 64:120.8828 65:132.50096 66:438.58823 67:119.05486 68:118.66981 69:137.77892 70:558.92932 71:208.62573 72:174.99297 73:163.80466 74:132.46429 75:104.16245 76:136.04077 77:89.27314 78:202.17201 79:165.41022 80:169.2603 81:146.9821 82:153.74115 83:98.04924 84:128.80214 85:75.664497 86:216.49652 87:140.98299 88:153.8204 89:147.97974 90:147.14821 91:97.662056 92:102.14284 93:52.542053 94:255.07863 95:135.47879 #
1.3289990606553889177579845948945e-07 1:0 2:0 3:0 4:0 5:0 6:0 7:0 8:0 9:0 10:0 11:0 12:0 13:0 14:0 15:0 16:0 17:0 18:0 19:0 20:256.11008 21:241.88257 22:570.40985 23:49.557671 24:47.588749 25:63.019321 26:197.11325 27:49.733994 28:174.49985 29:105.37115 30:208.55637 31:89.271713 32:59.955517 33:54.825226 34:243.99017 35:50.195755 36:90.135002 37:89.342606 38:201.37944 39:59.247269 40:195.51961 41:126.17455 42:172.78464 43:114.65348 44:132.78271 45:113.54279 46:481.84 47:64.95887 48:190.5257 49:154.83821 50:292.81668 51:105.16383 52:145.088 53:70.022453 54:176.9222 55:117.05665 56:136.80609 57:111.49938 58:674.12732 59:84.861328 60:128.10193 61:171.46429 62:632.85754 63:61.193203 64:112.38176 65:68.789658 66:241.23102 67:123.39452 68:141.6763 69:110.22555 70:619.77301 71:103.22093 72:127.48242 73:78.27021 74:170.09462 75:96.395462 76:65.60984 77:58.886986 78:315.42267 79:67.435059 80:183.59134 81:113.80633 82:127.68347 83:94.423164 84:98.647102 85:68.274277 86:341.65692 87:69.215668 88:177.77815 89:103.1861 90:114.469 91:90.426643 92:117.08101 93:77.748711 94:372.41672 95:69.607246 #
-1.2986440628326546737638085698974e-07 1:0 2:0 3:0 4:0 5:0 6:0 7:0 8:0 9:0 10:0 11:0 12:0 13:0 14:0 15:0 16:0 17:0 18:0 19:0 20:168.97021 21:161.22078 22:618.44275 23:86.858894 24:73.34021 25:115.65733 26:249.27835 27:89.892563 28:108.84705 29:74.600403 30:394.43231 31:86.184792 32:57.139713 33:94.398071 34:217.09793 35:95.53257 36:207.65262 37:229.21088 38:381.44037 39:112.45901 40:126.69263 41:31.343592 42:341.06738 43:82.477051 44:89.869568 45:48.566395 46:211.84033 47:64.615639 48:224.00838 49:70.688408 50:382.10037 51:84.329575 52:154.02802 53:47.992081 54:289.70737 55:81.874702 56:139.93941 57:108.95213 58:245.47694 59:45.689877 60:165.65752 61:33.07494 62:295.79514 63:104.08164 64:138.78851 65:62.639874 66:260.82114 67:65.049393 68:136.33209 69:99.409111 70:203.14418 71:55.774609 72:135.55991 73:48.503193 74:277.1973 75:51.077538 76:26.708696 77:67.73333 78:179.50185 79:113.68029 80:129.92206 81:47.867504 82:315.11444 83:71.093025 84:11.093577 85:67.527733 86:169.78888 87:83.500854 88:124.7106 89:52.29916 90:311.37122 91:69.726318 92:14.479027 93:69.697159 94:153.12335 95:61.281067 #
-1.3289990606553889177579845948945e-07 1:0 2:0 3:0 4:0 5:0 6:0 7:0 8:0 9:0 10:0 11:0 12:0 13:0 14:0 15:0 16:0 17:0 18:0 19:0 20:146.69815 21:101.91906 22:354.9111 23:159.23949 24:106.85872 25:88.374557 26:397.94174 27:140.07323 28:94.44574 29:21.135223 30:318.77725 31:112.56736 32:97.996033 33:88.531311 34:385.87234 35:146.10977 36:113.3315 37:73.156517 38:329.61765 39:107.76443 40:113.3443 41:46.053085 42:234.39763 43:136.80595 44:63.983242 45:27.927477 46:249.82314 47:142.64076 48:80.206383 49:11.885406 50:346.2977 51:155.14955 52:116.3497 53:58.258884 54:206.92636 55:150.63193 56:72.865082 57:49.666164 58:292.1232 59:150.60309 60:144.98325 61:91.572563 62:197.25018 63:122.42308 64:103.57642 65:56.929512 66:301.04779 67:184.45792 68:101.05613 69:65.172203 70:256.7713 71:152.774 72:72.47979 73:26.085672 74:400.89655 75:105.09396 76:71.645271 77:69.736763 78:309.12424 79:166.3042 80:110.31441 81:17.3473 82:414.1347 83:117.44483 84:70.940483 85:64.459969 86:235.40321 87:157.34399 88:107.79761 89:9.5831451 90:406.37711 91:125.04192 92:57.460293 93:52.218922 94:246.91174 95:147.20332 #
-1.3289990606553889177579845948945e-07 1:0 2:0 3:0 4:0 5:0 6:0 7:0 8:0 9:0 10:0 11:0 12:0 13:0 14:0 15:0 16:0 17:0 18:0 19:0 20:278.68622 21:137.65387 22:651.93927 23:184.8931 24:22.68029 25:52.67189 26:248.04329 27:68.161041 28:121.74641 29:105.16679 30:381.06009 31:127.77369 32:7.7266698 33:42.486343 34:223.20573 35:52.679878 36:73.936424 37:106.93144 38:428.4017 39:70.999359 40:221.67183 41:165.24765 42:436.18826 43:134.17305 44:40.930725 45:40.60717 46:155.67917 47:104.26157 48:113.75495 49:311.42038 50:641.90063 51:131.91487 52:244.916 53:181.42976 54:395.96219 55:144.93094 56:31.030682 57:74.052933 58:204.7016 59:94.686836 60:398.59561 61:103.45245 62:326.33371 63:307.6973 64:184.81728 65:141.84631 66:450.11295 67:126.89521 68:25.025892 69:95.704002 70:268.19116 71:119.85159 72:156.65602 73:91.512939 74:246.0947 75:168.69525 76:42.659477 77:37.285095 78:223.76065 79:72.377876 80:146.78661 81:105.64326 82:261.08151 83:135.19621 84:59.262283 85:32.052185 86:225.76921 87:99.164223 88:131.49709 89:107.86124 90:246.96556 91:133.90649 92:42.351425 93:27.548162 94:257.33438 95:127.37611 #
-1.3289990606553889177579845948945e-07 1:0 2:0 3:0 4:0 5:0 6:0 7:0 8:0 9:0 10:0 11:0 12:0 13:0 14:0 15:0 16:0 17:0 18:0 19:0 20:120.21844 21:123.42976 22:328.62921 23:87.383873 24:49.272797 25:30.421186 26:171.37811 27:85.912727 28:65.052551 29:172.56334 30:317.96597 31:89.483955 32:72.732704 33:12.133859 34:174.91505 35:84.424889 36:10.586842 37:73.761269 38:237.36104 39:111.01354 40:166.04417 41:204.49638 42:388.36865 43:60.761089 44:185.51627 45:84.29821 46:173.90872 47:90.140625 48:70.699783 49:222.22054 50:607.78186 51:74.955109 52:133.99156 53:201.3893 54:376.2551 55:61.809666 56:140.60086 57:38.987198 58:157.00531 59:99.257309 60:300.96027 61:170.81487 62:224.67999 63:109.61346 64:127.06147 65:176.22568 66:418.85779 67:82.955376 68:170.84412 69:52.724819 70:109.82964 71:106.95306 72:50.379051 73:145.25618 74:297.63202 75:112.17536 76:54.716766 77:13.852952 78:150.81158 79:80.937416 80:56.601509 81:162.39915 82:275.07904 83:99.063118 84:67.169319 85:22.5329 86:146.08774 87:76.834846 88:62.582531 89:167.50433 90:284.57263 91:99.684631 92:81.477142 93:35.42662 94:155.4209 95:74.972435 #
1.3289990606553889177579845948945e-07 1:0 2:0 3:0 4:0 5:0 6:0 7:0 8:0 9:0 10:0 11:0 12:0 13:0 14:0 15:0 16:0 17:0 18:0 19:0 20:390.73636 21:430.8923 22:875.30194 23:343.01331 24:561.06665 25:381.1875 26:934.9978 27:392.34805 28:339.32507 29:374.53577 30:658.99536 31:342.84476 32:655.87842 33:437.09866 34:903.98743 35:405.53244 36:597.29803 37:452.83981 38:1017.8184 39:476.97546 40:53.547955 41:402.46536 42:677.77863 43:444.086 44:821.86676 45:516.71082 46:920.19745 47:371.81369 48:240.43918 49:478.71509 50:860.40997 51:372.18961 52:175.6869 53:388.12253 54:763.05853 55:510.97464 56:840.55939 57:519.56207 58:986.67542 59:333.05743 60:660.25659 61:511.05109 62:1051.7819 63:409.68121 64:342.59344 65:396.17737 66:889.49335 67:563.91138 68:696.69147 69:488.99802 70:942.75165 71:374.65564 72:298.94742 73:295.22934 74:538.01874 75:304.01584 76:608.04163 77:409.75156 78:927.29352 79:404.65158 80:53.958439 81:333.78476 82:545.00037 83:348.10263 84:538.35229 85:342.32724 86:851.77722 87:370.31021 88:344.53806 89:285.41791 90:548.85162 91:361.01517 92:450.58643 93:306.62378 94:833.93176 95:362.61328 #
1.3289990606553889177579845948945e-07 1:0 2:0 3:0 4:0 5:0 6:0 7:0 8:0 9:0 10:0 11:0 12:0 13:0 14:0 15:0 16:0 17:0 18:0 19:0 20:303.52948 21:123.34554 22:837.70477 23:367.36011 24:219.36469 25:180.56392 26:281.45013 27:90.65937 28:305.13278 29:53.863239 30:705.1214 31:487.00729 32:262.7561 33:223.55957 34:298.33426 35:83.61145 36:592.14606 37:368.20413 38:751.77057 39:135.13092 40:375.90515 41:110.72684 42:817.41876 43:319.36859 44:797.55084 45:520.99878 46:740.0611 47:107.34524 48:983.27484 49:995.42218 50:2692.8792 51:385.2775 52:174.6636 53:154.2005 54:775.88458 55:279.19531 56:573.83563 57:338.79172 58:846.66779 59:186.05615 60:609.21838 61:511.52216 62:834.84119 63:395.71115 64:146.03476 65:139.10625 66:772.45789 67:277.05576 68:366.37811 69:216.66508 70:647.35925 71:179.0018 72:184.60353 73:117.8119 74:587.40594 75:293.98859 76:133.14868 77:171.1994 78:292.82788 79:87.211678 80:362.44977 81:169.30885 82:691.27405 83:327.5528 84:129.61902 85:163.33429 86:288.7811 87:95.746323 88:228.93706 89:115.19339 90:641.73187 91:328.22379 92:239.16838 93:188.72829 94:324.73822 95:124.16981 #
1.3289990606553889177579845948945e-07 1:0 2:0 3:0 4:0 5:0 6:0 7:0 8:0 9:0 10:0 11:0 12:0 13:0 14:0 15:0 16:0 17:0 18:0 19:0 20:306.22293 21:73.788811 22:467.73563 23:172.09149 24:224.19501 25:265.00595 26:474.9133 27:199.62665 28:316.10416 29:118.61526 30:331.94772 31:83.404205 32:202.18512 33:264.20242 34:514.52502 35:188.48073 36:183.07336 37:341.93182 38:541.00909 39:203.68185 40:437.50009 41:178.13872 42:925.17468 43:250.95274 44:91.185623 45:302.94019 46:948.40149 47:229.39186 48:443.01685 49:391.9339 50:555.04474 51:285.09921 52:333.87186 53:77.591728 54:550.14948 55:180.74478 56:72.817596 57:331.95367 58:1147.4713 59:189.974 60:485.535 61:482.59961 62:976.31757 63:281.6124 64:281.28656 65:53.394047 66:653.75488 67:165.75319 68:30.744637 69:297.71994 70:1163.4081 71:179.63037 72:168.6757 73:63.601189 74:164.58034 75:102.01586 76:185.09845 77:244.17928 78:480.14447 79:171.63597 80:204.84734 81:53.068691 82:246.28429 83:148.34132 84:136.95152 85:243.46034 86:518.19257 87:159.16422 88:197.06891 89:74.392815 90:230.95348 91:142.02419 92:149.61728 93:269.83856 94:541.50067 95:142.65427 #
1.3289990606553889177579845948945e-07 1:0 2:0 3:0 4:0 5:0 6:0 7:0 8:0 9:0 10:0 11:0 12:0 13:0 14:0 15:0 16:0 17:0 18:0 19:0 20:61.86039 21:332.85648 22:633.35504 23:83.04348 24:44.239929 25:270.50082 26:437.86398 27:119.50178 28:183.94806 29:271.74268 30:900.87628 31:51.236496 32:48.340832 33:281.00003 34:465.35461 35:106.31975 36:158.56494 37:448.30521 38:801.13489 39:131.78624 40:53.430969 41:387.99191 42:1169.6108 43:89.094185 44:107.53188 45:512.62567 46:1040.9337 47:113.13435 48:78.872292 49:521.81006 50:1113.916 51:99.86689 52:165.08351 53:317.16013 54:1090.0253 55:86.618797 56:87.647293 57:493.47406 58:1129.8657 59:78.452065 60:504.89447 61:532.12195 62:1106.8385 63:128.22722 64:218.0329 65:288.20541 66:1028.5181 67:100.44174 68:130.67087 69:424.68799 70:935.54938 71:89.210968 72:138.33693 73:241.20576 74:813.33795 75:54.082211 76:66.112572 77:244.2086 78:468.44388 79:116.45874 80:162.84581 81:281.13858 82:916.53314 83:62.280857 84:61.205494 85:235.57245 86:498.04199 87:114.59305 88:162.09627 89:287.77612 90:938.37689 91:64.655472 92:110.28189 93:215.09444 94:550.12415 95:94.64959 #
1.3289990606553889177579845948945e-07 1:0 2:0 3:0 4:0 5:0 6:0 7:0 8:0 9:0 10:0 11:0 12:0 13:0 14:0 15:0 16:0 17:0 18:0 19:0 20:259.83264 21:167.31148 22:240.75833 23:102.55734 24:269.81921 25:171.1568 26:357.52441 27:102.0509 28:183.05475 29:135.46284 30:207.66118 31:78.206459 32:262.37701 33:162.55757 34:337.76352 35:109.13351 36:357.12665 37:242.09114 38:406.01407 39:125.30266 40:151.29274 41:101.52979 42:257.30652 43:87.207886 44:291.95728 45:204.9572 46:353.88321 47:68.852875 48:197.04143 49:154.42345 50:193.21822 51:91.264725 52:103.73883 53:73.914742 54:352.41879 55:107.74095 56:234.58229 57:181.55655 58:289.34341 59:79.111328 60:199.68628 61:82.938812 62:488.3194 63:114.9179 64:94.720612 65:81.621712 66:433.53128 67:101.17754 68:218.0885 69:184.29863 70:267.28366 71:89.513092 72:163.66878 73:136.55824 74:230.67767 75:77.598793 76:236.13329 77:145.30855 78:265.89801 79:93.600044 80:161.22092 81:121.86962 82:235.74052 83:83.337364 84:235.66814 85:146.56723 86:243.66864 87:83.063019 88:161.69876 89:123.2811 90:244.44499 91:87.013489 92:236.5303 93:151.02312 94:221.58699 95:84.126923 #
-1.3289990606553889177579845948945e-07 1:0 2:0 3:0 4:0 5:0 6:0 7:0 8:0 9:0 10:0 11:0 12:0 13:0 14:0 15:0 16:0 17:0 18:0 19:0 20:324.70175 21:203.20879 22:681.94177 23:109.40181 24:206.29329 25:69.613922 26:359.87695 27:98.392853 28:337.10007 29:226.04265 30:176.42453 31:92.740158 32:184.41452 33:75.975639 34:337.9129 35:93.638573 36:197.05199 37:73.9132 38:390.08798 39:114.06274 40:325.14612 41:240.19637 42:205.28812 43:97.436005 44:120.13094 45:66.730682 46:271.82281 47:109.00837 48:277.81354 49:254.51495 50:375.23529 51:87.13092 52:254.14151 53:149.51756 54:280.46899 55:125.7213 56:104.85837 57:23.583359 58:225.25171 59:121.65331 60:113.21515 61:20.22747 62:273.44928 63:121.84508 64:203.50914 65:105.86145 66:303.95541 67:152.83229 68:78.070396 69:15.240392 70:188.54605 71:136.0416 72:255.19958 73:129.26974 74:213.12419 75:91.710663 76:166.84154 77:87.764587 78:318.53735 79:107.26607 80:279.17575 81:191.0975 82:108.14497 83:81.94548 84:152.63037 85:85.798698 86:317.15561 87:112.7562 88:279.38501 89:186.18889 90:88.660332 91:81.087669 92:138.60335 93:90.142387 94:296.48938 95:101.23037 #
1.3289990606553889177579845948945e-07 1:0 2:0 3:0 4:0 5:0 6:0 7:0 8:0 9:0 10:0 11:0 12:0 13:0 14:0 15:0 16:0 17:0 18:0 19:0 20:78.486732 21:42.508842 22:298.5473 23:146.83469 24:177.349 25:81.97448 26:174.13568 27:67.88578 28:198.90312 29:63.145321 30:246.19345 31:69.95713 32:158.89899 33:85.630661 34:157.45377 35:69.805634 36:222.69594 37:76.212341 38:246.49881 39:121.32961 40:87.471695 41:114.01745 42:212.66132 43:84.558121 44:166.46799 45:149.81071 46:207.63882 47:229.78247 48:178.36931 49:175.78935 50:151.96239 51:115.40511 52:100.68726 53:145.72005 54:273.21344 55:82.91465 56:153.01131 57:102.83724 58:330.83621 59:206.22021 60:243.52354 61:197.02351 62:333.76242 63:132.54961 64:97.441513 65:148.11566 66:310.07132 67:104.38648 68:161.98241 69:92.978928 70:377.64178 71:232.17377 72:137.30524 73:60.36478 74:201.97704 75:74.887863 76:172.17535 77:50.581253 78:216.82799 79:89.923355 80:159.46472 81:53.095924 82:204.68837 83:75.519249 84:158.61481 85:54.04929 86:205.91302 87:96.520027 88:116.07782 89:40.185032 90:227.86684 91:67.270569 92:148.61284 93:65.07328 94:247.36357 95:102.62826 #
1.3289990606553889177579845948945e-07 1:0 2:0 3:0 4:0 5:0 6:0 7:0 8:0 9:0 10:0 11:0 12:0 13:0 14:0 15:0 16:0 17:0 18:0 19:0 20:154.49445 21:68.056572 22:158.00705 23:83.602386 24:255.35941 25:142.31641 26:267.11633 27:153.37007 28:165.80695 29:26.119255 30:197.30434 31:67.093185 32:239.55247 33:147.83424 34:261.7963 35:153.85333 36:320.2785 37:104.02792 38:221.09888 39:123.83057 40:188.49832 41:38.187939 42:207.93219 43:61.18285 44:318.26923 45:129.27773 46:308.93948 47:145.41458 48:106.18604 49:61.431236 50:299.50113 51:52.334885 52:156.06789 53:6.0952439 54:304.82498 55:66.454887 56:347.55746 57:147.89513 58:334.85217 59:150.74016 60:520.23309 61:156.28322 62:265.21088 63:130.28914 64:164.60275 65:21.558542 66:286.33838 67:64.834084 68:358.12042 69:141.00874 70:271.59424 71:157.32118 72:92.618423 73:20.544327 74:221.21414 75:62.710224 76:202.28778 77:80.397911 78:214.20551 79:177.57782 80:176.40295 81:20.280718 82:199.13939 83:63.927883 84:229.6151 85:73.127625 86:205.45116 87:178.37001 88:184.92896 89:20.738192 90:194.07172 91:63.545513 92:219.19321 93:63.203133 94:196.52583 95:176.9464 #
-1.3289990606553889177579845948945e-07 1:0 2:0 3:0 4:0 5:0 6:0 7:0 8:0 9:0 10:0 11:0 12:0 13:0 14:0 15:0 16:0 17:0 18:0 19:0 20:162.61435 21:243.6324 22:570.18817 23:108.83594 24:71.733017 25:241.02646 26:524.46735 27:51.854145 28:96.220978 29:137.23949 30:449.29608 31:57.675007 32:70.414055 33:228.01407 34:499.53693 35:55.410793 36:21.665169 37:275.77676 38:809.20392 39:49.066513 40:113.00256 41:199.87582 42:576.67621 43:99.600319 44:56.021801 45:124.55265 46:515.67828 47:59.502087 48:46.356644 49:158.50845 50:558.98907 51:108.49164 52:100.01936 53:146.71606 54:461.3063 55:114.56597 56:109.46405 57:115.04453 58:355.83765 59:87.630501 60:64.823875 61:76.350807 62:510.15579 63:73.957016 64:93.085892 65:97.228851 66:432.40878 67:150.67143 68:98.918434 69:84.981689 70:268.32458 71:112.86224 72:135.8679 73:126.26055 74:386.40192 75:54.510128 76:46.696228 77:186.98376 78:432.827 79:58.244751 80:102.66505 81:134.12132 82:380.79877 83:74.155914 84:44.358429 85:168.90976 86:410.5137 87:70.438408 88:100.9798 89:144.7668 90:359.10025 91:75.175644 92:17.061016 93:141.68973 94:357.55057 95:69.206589 #
-1.3289990606553889177579845948945e-07 1:0 2:0 3:0 4:0 5:0 6:0 7:0 8:0 9:0 10:0 11:0 12:0 13:0 14:0 15:0 16:0 17:0 18:0 19:0 20:68.533463 21:147.47993 22:418.19028 23:169.44853 24:63.135239 25:76.92128 26:312.02823 27:180.48334 28:16.973173 29:119.74837 30:361.1907 31:173.11929 32:73.112679 33:84.637062 34:319.85175 35:175.64154 36:61.517059 37:117.85256 38:453.38907 39:191.81705 40:118.85547 41:220.97171 42:547.29272 43:103.30901 44:308.15366 45:313.98532 46:570.37225 47:130.12201 48:207.04796 49:250.67982 50:630.86517 51:105.61053 52:216.59821 53:243.19629 54:653.62231 55:44.631474 56:408.20279 57:379.26004 58:542.85992 59:122.43533 60:333.78668 61:340.21652 62:579.78558 63:148.29222 64:265.32077 65:242.75188 66:636.82733 67:67.621803 68:368.29538 69:326.13229 70:503.48441 71:150.06471 72:94.41449 73:56.635891 74:300.07095 75:237.55638 76:94.009338 77:89.275871 78:331.40054 79:172.47751 80:21.588282 81:81.500664 82:375.67786 83:206.21133 84:119.2875 85:114.54725 86:320.97446 87:170.60039 88:26.616356 89:78.91555 90:400.61682 91:205.02846 92:165.35542 93:145.30508 94:309.30963 95:167.90691 #
-1.3289990606553889177579845948945e-07 1:0 2:0 3:0 4:0 5:0 6:0 7:0 8:0 9:0 10:0 11:0 12:0 13:0 14:0 15:0 16:0 17:0 18:0 19:0 20:228.84892 21:126.03117 22:410.18149 23:133.55298 24:281.31082 25:121.8597 26:241.02351 27:125.52605 28:372.6889 29:195.75832 30:418.07288 31:103.38049 32:309.87054 33:139.85074 34:251.04752 35:134.61331 36:185.55714 37:153.63449 38:343.75677 39:117.55267 40:151.17001 41:140.96754 42:484.45746 43:115.3672 44:109.14398 45:71.397713 46:348.34305 47:146.97356 48:197.35829 49:167.05779 50:338.27737 51:143.20535 52:72.046455 53:246.62613 54:495.22061 55:119.74728 56:131.58812 57:187.54211 58:457.33524 59:123.45969 60:538.96033 61:225.46919 62:481.29004 63:118.74767 64:62.747795 65:209.11917 66:421.83917 67:124.06877 68:123.48865 69:219.64749 70:429.91 71:125.37183 72:309.9061 73:187.36247 74:479.72607 75:109.56357 76:320.2413 77:129.62482 78:242.00444 79:155.52509 80:316.37991 81:112.34885 82:345.43521 83:96.46019 84:300.58868 85:130.53349 86:286.51062 87:144.21132 88:284.01706 89:126.56414 90:373.44513 91:97.64093 92:302.45056 93:124.43956 94:339.80948 95:143.36235 #
-1.3289990606553889177579845948945e-07 1:0 2:0 3:0 4:0 5:0 6:0 7:0 8:0 9:0 10:0 11:0 12:0 13:0 14:0 15:0 16:0 17:0 18:0 19:0 20:113.49704 21:87.202438 22:433.19724 23:60.808025 24:232.25819 25:134.06119 26:207.45758 27:108.41833 28:43.526718 29:46.913513 30:443.39026 31:86.947548 32:211.06218 33:129.27776 34:236.25711 35:123.18742 36:233.77487 37:139.67328 38:245.41035 39:93.22718 40:162.8241 41:13.55305 42:789.03784 43:106.84997 44:258.21008 45:162.99899 46:382.0726 47:140.89014 48:150.07637 49:92.107338 50:541.94635 51:94.962639 52:166.34651 53:25.336618 54:902.74231 55:89.68071 56:251.21085 57:158.26152 58:361.91965 59:178.3867 60:353.94336 61:123.90741 62:478.52075 63:135.97052 64:163.43159 65:62.081974 66:901.29211 67:80.399971 68:231.7137 69:144.8598 70:402.00449 71:192.17049 72:57.416519 73:17.768198 74:388.10446 75:90.608681 76:244.8149 77:136.63998 78:190.25354 79:113.452 80:34.017193 81:22.278456 82:505.24454 83:80.784599 84:233.67316 85:135.18382 86:176.70576 87:107.43789 88:28.06955 89:33.635895 90:532.52991 91:78.846313 92:229.56268 93:126.11027 94:189.71596 95:94.683228 #
-6.6859115962943659104786991997926e-09 1:0 2:0 3:0 4:0 5:0 6:0 7:0 8:0 9:0 10:0 11:0 12:0 13:0 14:0 15:0 16:0 17:0 18:0 19:0 20:231.38503 21:177.59555 22:498.28592 23:165.99948 24:40.167137 25:75.720276 26:376.70685 27:134.85341 28:108.43362 29:243.14993 30:714.41974 31:199.06485 32:34.514153 33:51.99062 34:379.61118 35:132.52148 36:94.501686 37:92.036034 38:314.23581 39:155.36742 40:332.64978 41:193.30287 42:616.82465 43:295.58206 44:62.864609 45:143.95708 46:543.78259 47:218.41125 48:232.63246 49:169.31308 50:639.73523 51:183.70587 52:238.89334 53:208.85979 54:678.94904 55:400.97357 56:344.59595 57:273.12735 58:684.61554 59:398.64658 60:163.31403 61:118.76859 62:686.26428 63:293.78522 64:219.45628 65:276.21051 66:869.28101 67:477.80289 68:355.22006 69:281.25058 70:652.91406 71:466.02322 72:100.15863 73:49.766037 74:620.34119 75:171.6132 76:76.204681 77:14.792736 78:413.13272 79:106.35318 80:193.06308 81:173.68768 82:667.4314 83:196.38904 84:86.781593 85:17.03805 86:478.44586 87:92.950874 88:218.22749 89:166.40038 90:654.59875 91:213.88803 92:114.49208 93:39.921619 94:520.76984 95:101.78017 #
1.3289990606553889177579845948945e-07 1:0 2:0 3:0 4:0 5:0 6:0 7:0 8:0 9:0 10:0 11:0 12:0 13:0 14:0 15:0 16:0 17:0 18:0 19:0 20:835.20886 21:365.87732 22:405.10782 23:195.75621 24:493.56604 25:237.11 26:372.57455 27:95.491341 28:417.48154 29:252.76704 30:433.62677 31:181.74397 32:434.75186 33:222.72185 34:373.60397 35:103.88022 36:483.84677 37:217.20786 38:479.93323 39:98.321846 40:395.02756 41:413.14941 42:572.43701 43:250.03897 44:283.79785 45:263.2739 46:464.80191 47:140.67734 48:498.97235 49:329.16077 50:369.20148 51:222.56723 52:448.60004 53:460.5918 54:581.94226 55:292.63611 56:318.82892 57:393.56662 58:561.51056 59:174.57663 60:349.76523 61:345.22696 62:586.49713 63:174.25182 64:364.19885 65:462.94507 66:591.33472 67:297.33505 68:294.80133 69:377.46484 70:491.22668 71:199.39391 72:411.17145 73:269.83231 74:517.37891 75:200.92383 76:373.91483 77:242.15199 78:376.06522 79:88.634621 80:411.37573 81:300.98148 82:442.86871 83:205.02829 84:361.92307 85:252.7243 86:414.52597 87:116.60205 88:355.80627 89:308.60849 90:434.4408 91:201.1438 92:344.30487 93:257.19604 94:435.96756 95:140.08147 #
1.3289990606553889177579845948945e-07 1:0 2:0 3:0 4:0 5:0 6:0 7:0 8:0 9:0 10:0 11:0 12:0 13:0 14:0 15:0 16:0 17:0 18:0 19:0 20:531.01935 21:314.77844 22:591.88885 23:274.64917 24:300.68857 25:345.13376 26:374.39139 27:185.96616 28:520.68115 29:303.67957 30:559.19122 31:271.26334 32:300.13324 33:362.88815 34:418.06497 35:200.72739 36:372.46936 37:464.97293 38:465.60657 39:186.06268 40:515.51538 41:150.22406 42:451.90128 43:281.19568 44:354.9874 45:432.44168 46:422.86356 47:231.46829 48:424.40387 49:191.80713 50:552.97998 51:289.01584 52:532.02594 53:202.70201 54:554.19019 55:286.91644 56:298.41235 57:422.18521 58:415.34866 59:284.3353 60:530.32507 61:389.44727 62:324.4119 63:333.79514 64:341.85202 65:194.83739 66:711.84155 67:360.42239 68:339.90869 69:412.0744 70:388.00189 71:315.82526 72:425.67429 73:177.27034 74:512.17114 75:274.3866 76:335.1431 77:313.4852 78:324.19107 79:184.89323 80:459.38284 81:215.60822 82:577.79315 83:272.63998 84:331.173 85:328.14078 86:325.99606 87:194.50412 88:423.70093 89:249.66487 90:570.27197 91:276.6438 92:339.76678 93:336.29117 94:323.26074 95:202.74968 #
1.3289990606553889177579845948945e-07 1:0 2:0 3:0 4:0 5:0 6:0 7:0 8:0 9:0 10:0 11:0 12:0 13:0 14:0 15:0 16:0 17:0 18:0 19:0 20:510.00427 21:238.26085 22:392.69299 23:91.400688 24:490.24231 25:255.29298 26:458.21078 27:126.26032 28:373.68991 29:130.12465 30:239.51964 31:61.712593 32:457.62827 33:254.87108 34:494.66727 35:132.91901 36:461.17734 37:290.27625 38:431.21896 39:126.50651 40:443.95795 41:171.4662 42:255.49902 43:68.946571 44:396.79718 45:279.25714 46:289.03677 47:112.3019 48:368.62091 49:159.97942 50:191.75101 51:71.717873 52:393.6059 53:175.18021 54:313.96817 55:97.661827 56:360.96964 57:227.13873 58:201.38918 59:104.81062 60:480.98154 61:372.35956 62:402.77023 63:138.22823 64:362.49469 65:160.77771 66:310.80267 67:92.86084 68:298.34497 69:191.07761 70:145.98981 71:125.53008 72:304.87347 73:64.418465 74:329.37976 75:54.737591 76:410.48578 77:243.73184 78:570.32141 79:132.10788 80:349.10254 81:100.60932 82:281.60873 83:64.875229 84:398.73203 85:235.98395 86:560.56311 87:132.43304 88:348.14609 89:93.657898 90:294.07101 91:69.409821 92:378.88647 93:226.15204 94:498.4491 95:138.83354 #
1.3289990606553889177579845948945e-07 1:0 2:0 3:0 4:0 5:0 6:0 7:0 8:0 9:0 10:0 11:0 12:0 13:0 14:0 15:0 16:0 17:0 18:0 19:0 20:377.85562 21:279.1893 22:305.67731 23:222.65591 24:146.55493 25:149.36375 26:309.79971 27:94.613678 28:572.32617 29:469.84656 30:233.31677 31:104.01818 32:107.20325 33:134.38745 34:275.25369 35:86.470276 36:220.39708 37:223.35921 38:385.70569 39:126.68592 40:582.64899 41:588.43719 42:469.76324 43:131.34833 44:227.04633 45:206.43814 46:373.69516 47:119.194 48:512.86639 49:452.32858 50:363.43216 51:197.40173 52:509.59399 53:501.17307 54:488.05411 55:108.36012 56:151.42873 57:204.17313 58:492.35458 59:169.27031 60:587.18713 61:438.91324 62:518.54956 63:101.79368 64:353.62473 65:449.74033 66:560.95795 67:159.17546 68:208.76256 69:204.51782 70:518.4455 71:217.31325 72:455.58267 73:368.86023 74:248.83344 75:99.959518 76:113.59366 77:116.0362 78:270.55032 79:91.446579 80:521.25305 81:441.952 82:244.95058 83:94.948975 84:93.232834 85:110.13287 86:280.39691 87:94.909111 88:522.00665 89:445.23627 90:274.71255 91:86.677338 92:94.978157 93:99.258896 94:286.77802 95:95.869537 #
-5.8154603275708796970681641741452e-08 1:0 2:0 3:0 4:0 5:0 6:0 7:0 8:0 9:0 10:0 11:0 12:0 13:0 14:0 15:0 16:0 17:0 18:0 19:0 20:501.36697 21:334.8569 22:504.08698 23:171.42325 24:253.11339 25:253.2905 26:404.63779 27:186.14737 28:298.2742 29:215.41434 30:353.84177 31:179.63631 32:238.31004 33:242.08723 34:435.24832 35:178.22644 36:415.02432 37:359.28912 38:393.24472 39:128.70882 40:310.35919 41:185.35208 42:321.59625 43:171.08252 44:240.49754 45:97.033989 46:442.78012 47:177.43069 48:451.65866 49:243.53281 50:371.30664 51:184.88037 52:299.71591 53:136.53122 54:329.87491 55:168.39554 56:230.02583 57:30.187515 58:485.36411 59:172.61186 60:73.233276 61:144.90851 62:472.15848 63:203.77574 64:273.93741 65:102.57767 66:456.77509 67:156.80637 68:184.76828 69:28.399723 70:555.8855 71:163.91159 72:229.37483 73:215.04781 74:309.84036 75:184.19266 76:177.55128 77:149.25468 78:412.11374 79:236.80298 80:245.21608 81:211.37964 82:335.54297 83:205.25694 84:168.3051 85:146.28864 86:394.80289 87:229.97743 88:232.70053 89:214.43137 90:326.60214 91:212.72978 92:179.01849 93:131.64072 94:359.76566 95:222.43948 #
-6.079610227152928548339464592809e-09 1:0 2:0 3:0 4:0 5:0 6:0 7:0 8:0 9:0 10:0 11:0 12:0 13:0 14:0 15:0 16:0 17:0 18:0 19:0 20:1080.2799 21:249.01265 22:284.3602 23:210.46977 24:785.85468 25:184.27014 26:332.79526 27:307.66214 28:615.36865 29:136.50809 30:417.84326 31:345.73715 32:766.57397 33:184.57257 34:339.64594 35:297.38065 36:390.90622 37:201.28104 38:681.51819 39:431.15903 40:1202.2738 41:270.35062 42:453.86862 43:315.17334 44:993.35327 45:338.92172 46:731.45703 47:440.13342 48:1317.1754 49:573.66034 50:685.00458 51:316.91595 52:1474.9747 53:261.15695 54:562.48047 55:478.00342 56:1079.0569 57:433.9808 58:1323.2573 59:599.47467 60:910.56158 61:325.40936 62:657.26208 63:695.4657 64:1131.958 65:387.23492 66:992.91858 67:609.00171 68:1252.0901 69:624.21167 70:1908.9886 71:775.44568 72:678.30408 73:207.18532 74:378.22717 75:412.77094 76:666.93207 77:177.82597 78:295.34634 79:290.82104 80:718.21851 81:85.023033 82:491.54651 83:337.52383 84:631.45441 85:177.33434 86:301.73834 87:290.89285 88:701.65332 89:125.77473 90:468.41177 91:313.84464 92:613.44232 93:168.2308 94:290.06961 95:295.66858 #
1.3289990606553889177579845948945e-07 1:0 2:0 3:0 4:0 5:0 6:0 7:0 8:0 9:0 10:0 11:0 12:0 13:0 14:0 15:0 16:0 17:0 18:0 19:0 20:144.06735 21:108.29414 22:873.4267 23:136.08011 24:64.023964 25:31.074434 26:327.73373 27:58.690674 28:125.47792 29:28.198477 30:662.78595 31:98.643929 32:44.612377 33:18.238787 34:292.1517 35:49.374863 36:72.219009 37:36.935261 38:451.86429 39:83.468086 40:130.72043 41:111.05499 42:634.66559 43:103.24094 44:75.589371 45:122.14842 46:490.55301 47:120.89284 48:128.00662 49:85.097778 50:693.42407 51:113.78194 52:119.30081 53:172.5174 54:629.02435 55:104.22949 56:46.197891 57:175.8474 58:747.00916 59:188.42398 60:151.36368 61:110.36634 62:753.45441 63:93.127571 64:128.05563 65:199.73062 66:574.95117 67:127.86832 68:47.456192 69:166.51338 70:786.22821 71:194.12343 72:112.85812 73:35.862186 74:548.38892 75:84.92791 76:37.515896 77:8.663331 78:214.10828 79:42.416962 80:160.84644 81:57.416256 82:553.5451 83:91.328392 84:34.277756 85:13.115835 86:188.74745 87:51.88953 88:155.27737 89:58.695637 90:555.41125 91:88.764038 92:47.205254 93:44.128513 94:196.20245 95:61.802727 #
1.3289990606553889177579845948945e-07 1:0 2:0 3:0 4:0 5:0 6:0 7:0 8:0 9:0 10:0 11:0 12:0 13:0 14:0 15:0 16:0 17:0 18:0 19:0 20:185.80551 21:208.61674 22:826.49725 23:150.45027 24:121.45552 25:103.91681 26:284.73376 27:129.40346 28:152.58089 29:237.68748 30:1013.7257 31:136.50331 32:131.69429 33:116.6472 34:315.59338 35:132.79367 36:162.03529 37:107.90157 38:269.61414 39:132.87959 40:364.48447 41:375.4379 42:1132.6531 43:179.6756 44:219.98149 45:254.33681 46:514.22992 47:106.72201 48:175.93643 49:246.2227 50:1113.2756 51:227.30373 52:353.30768 53:331.39667 54:1206.1935 55:171.08466 56:262.46198 57:283.3139 58:645.57831 59:111.19912 60:299.35516 61:425.64221 62:862.93054 63:209.57076 64:342.26852 65:324.99979 66:1140.389 67:162.77225 68:208.05127 69:249.54222 70:575.16998 71:123.24403 72:134.48354 73:225.41446 74:915.47644 75:92.940605 76:145.52715 77:137.67195 78:318.42581 79:135.15271 80:143.08194 81:243.75481 82:952.84253 83:129.76596 84:128.79477 85:134.93066 86:339.79269 87:131.36839 88:167.62535 89:266.7114 90:959.32941 91:132.28175 92:118.53836 93:119.17396 94:359.08078 95:144.9895 #
-1.3289990606553889177579845948945e-07 1:0 2:0 3:0 4:0 5:0 6:0 7:0 8:0 9:0 10:0 11:0 12:0 13:0 14:0 15:0 16:0 17:0 18:0 19:0 20:145.82942 21:23.096704 22:345.98492 23:118.53879 24:92.287224 25:66.493118 26:439.91711 27:100.76079 28:43.295761 29:80.417992 30:234.18803 31:118.18619 32:69.208275 33:65.051147 34:393.73129 35:91.475555 36:110.88103 37:60.245258 38:598.31195 39:111.00748 40:44.339413 41:66.48497 42:129.50258 43:130.01784 44:82.50486 45:85.860313 46:399.54037 47:70.741272 48:48.413025 49:88.294662 50:279.58356 51:111.01524 52:59.056297 53:67.249107 54:114.56666 55:138.28316 56:76.654671 57:87.332481 58:408.77847 59:79.171761 60:395.25552 61:201.84058 62:506.8728 63:107.69727 64:31.770741 65:83.836975 66:107.69844 67:138.15257 68:73.218094 69:91.112595 70:435.46213 71:85.104874 72:34.72633 73:45.079063 74:159.87868 75:116.45878 76:81.874039 77:74.533447 78:411.69302 79:114.24939 80:11.799312 81:52.552795 82:168.69508 83:107.03051 84:65.539169 85:63.121922 86:428.72284 87:107.21757 88:2.8875639 89:45.860306 90:165.62788 91:98.21344 92:47.033234 93:54.320129 94:405.68121 95:100.94292 #
-1.3289990606553889177579845948945e-07 1:0 2:0 3:0 4:0 5:0 6:0 7:0 8:0 9:0 10:0 11:0 12:0 13:0 14:0 15:0 16:0 17:0 18:0 19:0 20:205.97702 21:132.58807 22:257.4144 23:77.879662 24:119.4371 25:101.08448 26:372.69455 27:110.84956 28:112.00616 29:87.74324 30:250.60812 31:51.862534 32:108.40347 33:93.477921 34:361.77808 35:121.6739 36:123.23441 37:132.27402 38:504.27451 39:51.68 40:175.93916 41:159.60141 42:366.31128 43:45.323357 44:39.067574 45:47.657875 46:334.15979 47:103.99244 48:123.62354 49:122.37997 50:524.61145 51:62.499508 52:153.20078 53:149.39523 54:282.46689 55:55.4786 56:41.735607 57:41.908424 58:237.61441 59:153.78995 60:157.17683 61:182.4489 62:305.02676 63:119.68401 64:129.67503 65:130.8913 66:239.04733 67:58.14518 68:58.293205 69:34.314823 70:187.50157 71:164.62227 72:87.686569 73:36.388622 74:147.51776 75:93.636169 76:115.20229 77:96.066666 78:325.21057 79:122.10818 80:106.25121 81:81.883179 82:171.62337 83:76.150635 84:104.34261 85:91.058533 86:307.75095 87:129.97191 88:107.30297 89:88.53582 90:176.61893 91:76.020714 92:100.53126 93:86.697861 94:286.39432 95:121.62997 #
-1.3289990606553889177579845948945e-07 1:0 2:0 3:0 4:0 5:0 6:0 7:0 8:0 9:0 10:0 11:0 12:0 13:0 14:0 15:0 16:0 17:0 18:0 19:0 20:68.793297 21:39.111732 22:129.90936 23:41.403954 24:110.37181 25:55.902882 26:206.21805 27:52.17083 28:93.849251 29:59.056313 30:179.71609 31:72.713875 32:126.14754 33:79.748474 34:243.03824 35:60.859207 36:142.90547 37:75.816727 38:284.20734 39:52.191051 40:110.84321 41:84.75367 42:252.58499 43:77.056236 44:177.14645 45:101.33183 46:213.37233 47:84.576462 48:144.9182 49:110.37769 50:211.98535 51:64.891296 52:78.861511 53:80.200432 54:292.59537 55:90.831757 56:100.48861 57:38.316486 58:219.72856 59:127.0543 60:55.59787 61:39.097462 62:340.72177 63:83.309799 64:57.159012 65:63.033768 66:325.65701 67:110.91826 68:75.885216 69:27.827963 70:233.24223 71:148.95375 72:122.87311 73:85.26741 74:259.57269 75:68.039375 76:124.5818 77:67.147339 78:226.23073 79:51.760818 80:95.388885 81:66.707809 82:219.80606 83:99.773743 84:118.64455 85:68.607635 86:196.59378 87:49.088165 88:96.049698 89:67.241104 90:232.78856 91:104.34609 92:112.69153 93:61.983181 94:175.41443 95:57.588165 #
1.3289990606553889177579845948945e-07 1:0 2:0 3:0 4:0 5:0 6:0 7:0 8:0 9:0 10:0 11:0 12:0 13:0 14:0 15:0 16:0 17:0 18:0 19:0 20:425.7532 21:296.42682 22:1051.7793 23:253.02071 24:370.75098 25:357.29971 26:915.60284 27:397.01999 28:565.48486 29:244.28445 30:856.61102 31:206.8466 32:368.27008 33:369.26227 34:904.23303 35:375.88104 36:367.61429 37:371.96368 38:1107.6605 39:469.2261 40:344.97842 41:289.42413 42:735.37421 43:230.22586 44:75.040298 45:376.49881 46:1081.5533 47:392.54868 48:418.60883 49:340.45505 50:1008.5322 51:216.89444 52:515.41376 53:330.80246 54:660.53595 55:227.81996 56:247.25797 57:380.28644 58:1048.3993 59:384.34384 60:195.62019 61:327.1463 62:1291.485 63:483.80112 64:288.51532 65:247.83401 66:577.75549 67:278.47678 68:336.20688 69:274.79129 70:841.72412 71:377.16885 72:462.94507 73:313.45593 74:777.45483 75:136.48071 76:357.19278 77:346.90317 78:846.8045 79:407.31668 80:494.9902 81:291.82883 82:742.13214 83:141.13879 84:358.08282 85:358.31186 86:843.43201 87:391.83096 88:312.76663 89:288.642 90:846.19128 91:128.69577 92:359.86432 93:376.82095 94:853.15973 95:375.01172 #
1.3289990606553889177579845948945e-07 1:0 2:0 3:0 4:0 5:0 6:0 7:0 8:0 9:0 10:0 11:0 12:0 13:0 14:0 15:0 16:0 17:0 18:0 19:0 20:357.48596 21:37.373138 22:570.27905 23:154.76288 24:318.13538 25:89.047661 26:218.48209 27:127.09995 28:218.55534 29:111.84425 30:658.61761 31:148.89638 32:287.07837 33:96.495682 34:238.38809 35:136.91043 36:435.31711 37:78.592857 38:742.37427 39:134.90126 40:225.48212 41:79.057434 42:737.8175 43:204.21013 44:355.85342 45:107.78365 46:770.01288 47:135.0719 48:704.40332 49:70.849167 50:1861.7169 51:218.5988 52:79.136436 53:57.306934 54:794.38098 55:282.87994 56:409.46704 57:290.50156 58:787.07391 59:113.88778 60:314.32849 61:173.18742 62:828.94653 63:165.9648 64:279.83127 65:32.751324 66:796.07684 67:225.14758 68:413.77444 69:299.54694 70:716.37494 71:116.55383 72:423.23734 73:111.87213 74:586.85754 75:120.35554 76:295.72278 77:117.56326 78:236.1412 79:127.68554 80:482.59857 81:79.55899 82:667.57111 83:154.48228 84:296.35791 85:120.04765 86:292.29565 87:137.22984 88:441.25049 89:51.46003 90:661.32031 91:171.77596 92:290.04108 93:128.56909 94:352.70825 95:128.82378 #
1.3289990606553889177579845948945e-07 1:0 2:0 3:0 4:0 5:0 6:0 7:0 8:0 9:0 10:0 11:0 12:0 13:0 14:0 15:0 16:0 17:0 18:0 19:0 20:104.43498 21:239.10385 22:548.03961 23:429.82788 24:97.697319 25:117.99924 26:749.71228 27:292.9472 28:296.6044 29:126.24693 30:462.66382 31:530.28845 32:157.17731 33:153.12047 34:782.91577 35:275.64725 36:211.06429 37:60.585884 38:883.24231 39:291.94586 40:286.16367 41:224.03308 42:512.62708 43:473.12823 44:440.59753 45:295.00113 46:1049.4883 47:293.04153 48:153.6864 49:178.83513 50:558.32953 51:529.5741 52:943.77716 53:237.60222 54:614.18048 55:491.99872 56:440.28687 57:276.74835 58:1061.4467 59:317.06894 60:287.00366 61:126.82607 62:1018.051 63:332.38815 64:408.71069 65:197.54239 66:701.26569 67:415.46902 68:500.70068 69:182.77492 70:968.04474 71:348.45493 72:280.72427 73:185.07817 74:422.94879 75:525.95715 76:115.85478 77:154.9893 78:844.44714 79:279.56155 80:671.97437 81:115.95606 82:461.56082 83:538.24792 84:95.082306 85:162.04083 86:799.25714 87:277.95514 88:314.8638 89:216.53638 90:435.40454 91:519.49341 92:92.713577 93:156.67358 94:743.43158 95:271.58411 #
-2.6127782041638800409179364120371e-08 1:0 2:0 3:0 4:0 5:0 6:0 7:0 8:0 9:0 10:0 11:0 12:0 13:0 14:0 15:0 16:0 17:0 18:0 19:0 20:321.72949 21:471.76822 22:623.0575 23:207.10428 24:375.60577 25:351.36615 26:720.12018 27:340.76398 28:1368.5205 29:671.47516 30:1208.0627 31:236.74196 32:302.1586 33:288.08777 34:707.45074 35:357.17331 36:234.54301 37:377.82339 38:871.86005 39:265.50967 40:341.46808 41:593.71747 42:749.22272 43:137.02626 44:109.90232 45:100.67822 46:586.14288 47:535.02777 48:754.9693 49:714.33978 50:725.92365 51:99.877785 52:283.07602 53:423.65613 54:550.72375 55:190.04179 56:137.96553 57:53.431267 58:592.76868 59:723.3222 60:196.06335 61:338.06827 62:922.52112 63:681.31952 64:232.8049 65:354.09143 66:503.75903 67:250.36365 68:149.76633 69:57.264942 70:581.34283 71:822.37744 72:505.80038 73:502.65656 74:880.81879 75:143.36966 76:418.21719 77:352.26395 78:696.41498 79:420.31064 80:1023.9991 81:702.05084 82:752.69891 83:156.03729 84:397.88361 85:334.72083 86:709.79413 87:455.53784 88:900.50934 89:670.16418 90:726.90131 91:151.78494 92:431.28656 93:360.94092 94:700.25342 95:506.84311 #
-1.3289990606553889177579845948945e-07 1:0 2:0 3:0 4:0 5:0 6:0 7:0 8:0 9:0 10:0 11:0 12:0 13:0 14:0 15:0 16:0 17:0 18:0 19:0 20:407.37695 21:233.4762 22:397.80737 23:121.93951 24:289.16101 25:126.91592 26:158.30702 27:88.732925 28:256.0434 29:199.08821 30:534.15686 31:70.014297 32:279.1658 33:130.31125 34:187.0428 35:105.71642 36:323.52942 37:104.43392 38:277.13724 39:64.204185 40:278.55774 41:243.56361 42:644.94006 43:93.029053 44:225.54382 45:108.73249 46:186.6494 47:73.759155 48:362.48111 49:236.61412 50:442.26715 51:98.124596 52:247.91774 53:268.72141 54:553.55377 55:117.84805 56:214.69356 57:115.08543 58:127.32807 59:97.55188 60:143.79982 61:127.47808 62:415.02686 63:89.769493 64:262.49173 65:261.95053 66:490.95486 67:118.16727 68:184.76399 69:104.18198 70:86.30101 71:113.42836 72:217.9695 73:206.5632 74:435.11588 75:56.335133 76:266.96158 77:137.04585 78:214.91986 79:117.33447 80:226.46803 81:208.09911 82:456.58475 83:66.309616 84:261.19034 85:138.36803 86:217.06142 87:111.3074 88:229.09454 89:215.13643 90:450.55121 91:72.493851 92:254.57755 93:142.41454 94:180.71893 95:111.57356 #
1.3289990606553889177579845948945e-07 1:0 2:0 3:0 4:0 5:0 6:0 7:0 8:0 9:0 10:0 11:0 12:0 13:0 14:0 15:0 16:0 17:0 18:0 19:0 20:113.01514 21:130.28273 22:284.22083 23:95.467163 24:85.484406 25:110.5415 26:324.03323 27:112.85881 28:70.363266 29:111.86185 30:335.48376 31:74.33239 32:88.414116 33:117.24537 34:295.0864 35:111.13046 36:56.950436 37:79.786865 38:306.54599 39:110.38068 40:108.94296 41:78.045174 42:263.34763 43:84.258209 44:56.887001 45:69.128624 46:271.64752 47:166.04721 48:143.28633 49:140.70251 50:359.57785 51:103.42002 52:161.91908 53:75.886551 54:281.14685 55:91.894058 56:38.715733 57:60.33345 58:227.03996 59:205.34012 60:53.758923 61:68.049622 62:334.37057 63:203.70494 64:157.1521 65:67.998138 66:279.13605 67:100.28591 68:50.10154 69:82.742966 70:228.84286 71:220.12099 72:62.576878 73:144.04445 74:359.52286 75:59.642693 76:75.656898 77:96.816849 78:254.1192 79:101.28841 80:93.623672 81:144.00893 82:344.26907 83:60.177818 84:82.284576 85:90.066383 86:268.50851 87:117.08599 88:145.83812 89:155.5511 90:367.35144 91:59.752899 92:66.848625 93:77.254204 94:242.26678 95:123.05167 #
1.3289990606553889177579845948945e-07 1:0 2:0 3:0 4:0 5:0 6:0 7:0 8:0 9:0 10:0 11:0 12:0 13:0 14:0 15:0 16:0 17:0 18:0 19:0 20:122.7154 21:117.02802 22:399.84442 23:119.53095 24:59.521465 25:85.590828 26:146.32536 27:94.88031 28:52.766102 29:34.711819 30:311.68826 31:97.34549 32:66.818161 33:81.178223 34:142.00034 35:115.18774 36:108.29121 37:50.789837 38:295.49954 39:71.434433 40:136.2796 41:117.01804 42:467.02625 43:100.58538 44:9.3624134 45:134.01224 46:319.74222 47:86.082596 48:68.599525 49:100.32923 50:310.17194 51:130.16287 52:87.507408 53:93.539276 54:566.80823 55:101.69474 56:33.828587 57:135.16296 58:486.34503 59:120.76282 60:29.089952 61:115.76749 62:278.08075 63:138.95639 64:57.483475 65:51.735065 66:510.9837 67:121.94251 68:75.67028 69:133.16545 70:424.6297 71:149.72284 72:24.578203 73:21.388397 74:205.96199 75:89.919075 76:118.80756 77:120.50329 78:158.34314 79:119.42326 80:65.018143 81:63.139786 82:310.18347 83:130.59189 84:77.825974 85:110.4591 86:194.27675 87:106.42178 88:27.513371 89:53.133087 90:315.11664 91:133.83386 92:95.401138 93:120.62302 94:255.94466 95:108.40199 #
-1.3289990606553889177579845948945e-07 1:0 2:0 3:0 4:0 5:0 6:0 7:0 8:0 9:0 10:0 11:0 12:0 13:0 14:0 15:0 16:0 17:0 18:0 19:0 20:163.91084 21:168.24257 22:596.24054 23:132.69077 24:232.06966 25:222.82556 26:459.35941 27:67.887558 28:68.920601 29:72.675667 30:244.11214 31:128.0188 32:219.70898 33:206.89525 34:470.47891 35:61.834175 36:271.78079 37:314.49988 38:481.26715 39:135.6122 40:85.047562 41:70.168694 42:269.79312 43:139.79381 44:244.6575 45:248.44632 46:459.1348 47:116.11396 48:183.17712 49:215.84775 50:493.95566 51:152.61507 52:68.110779 53:19.860615 54:145.9818 55:119.63274 56:217.78114 57:206.94992 58:355.60965 59:103.06538 60:270.2428 61:229.97397 62:406.8631 63:125.06386 64:42.227837 65:31.543396 66:176.33846 67:92.992432 68:198.7841 69:192.28674 70:320.07684 71:82.940842 72:63.526421 73:19.933399 74:135.07666 75:78.581299 76:214.28943 77:182.16454 78:454.99332 79:59.513191 80:50.508736 81:26.215269 82:137.22447 83:101.94687 84:209.23155 85:178.54739 86:446.07037 87:56.201218 88:39.868732 89:16.734426 90:111.20981 91:104.16284 92:202.74887 93:169.86411 94:418.02231 95:54.590714 #
-1.3289990606553889177579845948945e-07 1:0 2:0 3:0 4:0 5:0 6:0 7:0 8:0 9:0 10:0 11:0 12:0 13:0 14:0 15:0 16:0 17:0 18:0 19:0 20:225.29831 21:247.16548 22:852.24457 23:107.39295 24:95.823334 25:216.69946 26:436.72095 27:107.47033 28:131.66156 29:86.770248 30:298.72348 31:113.78408 32:80.759697 33:202.77051 34:421.27325 35:97.366646 36:115.98144 37:237.57571 38:325.55881 39:124.64001 40:129.51996 41:84.787132 42:304.43069 43:96.622375 44:112.38658 45:196.2822 46:310.66898 47:53.564999 48:145.37723 49:137.64101 50:530.2254 51:101.59048 52:110.46053 53:118.6599 54:357.93362 55:102.86502 56:163.43277 57:214.94632 58:384.14816 59:46.592869 60:277.03961 61:300.987 62:439.48605 63:64.840584 64:99.886223 65:116.39235 66:390.24045 67:121.94583 68:162.65944 69:215.48503 70:440.89282 71:58.263927 72:152.90395 73:43.666466 74:209.03529 75:90.743423 76:68.367165 77:192.41896 78:374.13361 79:92.522903 80:131.30934 81:74.364006 82:209.36754 83:93.553123 84:52.912037 85:179.54446 86:359.35883 87:79.024467 88:119.12116 89:83.419846 90:213.31683 91:87.154503 92:61.595005 93:175.83382 94:352.67236 95:70.357407 #
-1.3289990606553889177579845948945e-07 1:0 2:0 3:0 4:0 5:0 6:0 7:0 8:0 9:0 10:0 11:0 12:0 13:0 14:0 15:0 16:0 17:0 18:0 19:0 20:200.9355 21:119.31837 22:559.1922 23:186.84695 24:201.93216 25:231.76494 26:466.91299 27:99.96022 28:114.29431 29:127.37988 30:395.85266 31:132.30576 32:207.41409 33:242.47995 34:471.0694 35:105.09716 36:264.87143 37:237.58655 38:525.61292 39:87.470085 40:174.16846 41:126.39462 42:288.05988 43:172.60442 44:300.46979 45:334.57703 46:425.26117 47:116.36898 48:158.54549 49:64.577881 50:339.10107 51:165.08191 52:151.13155 53:79.23867 54:239.59782 55:182.98436 56:216.16174 57:259.14825 58:404.13803 59:118.51633 60:286.47522 61:237.90637 62:257.83011 63:112.46422 64:100.06316 65:21.673416 66:242.22385 67:189.27782 68:182.94733 69:208.9655 70:353.83145 71:109.17038 72:124.35822 73:136.64828 74:369.05484 75:111.00136 76:172.43427 77:206.02209 78:457.15009 79:120.43062 80:151.40909 81:141.92714 82:311.19968 83:145.28879 84:169.83067 85:219.4111 86:489.10239 87:117.17556 88:157.40292 89:143.01497 90:296.92157 91:145.7572 92:161.65082 93:219.77921 94:496.6116 95:111.92036 #
-1.3289990606553889177579845948945e-07 1:0 2:0 3:0 4:0 5:0 6:0 7:0 8:0 9:0 10:0 11:0 12:0 13:0 14:0 15:0 16:0 17:0 18:0 19:0 20:266.79892 21:297.35379 22:538.77789 23:129.53871 24:220.3754 25:110.93681 26:255.54205 27:120.81403 28:358.25122 29:210.78284 30:576.67621 31:150.02872 32:216.10735 33:103.97779 34:256.21689 35:104.84438 36:263.77786 37:196.25226 38:333.0766 39:108.46677 40:184.74284 41:117.60521 42:635.49207 43:116.67994 44:217.21683 45:92.950623 46:421.43265 47:117.25211 48:204.77753 49:227.64015 50:727.69 51:127.91208 52:152.3864 53:30.991999 54:610.94745 55:91.221954 56:295.09601 57:226.56509 58:473.36804 59:90.376007 60:231.04169 61:91.696365 62:395.1676 63:196.49979 64:61.591225 65:16.344082 66:681.17767 67:172.25572 68:230.73494 69:193.73238 70:388.78412 71:102.57661 72:389.56485 73:218.21265 74:396.29013 75:208.53162 76:227.70892 77:91.48455 78:225.43692 79:100.81016 80:261.60559 81:139.85851 82:478.04242 83:173.47751 84:198.92105 85:75.255608 86:231.4639 87:98.489479 88:254.62267 89:129.83701 90:483.67941 91:172.88206 92:188.01425 93:52.157421 94:239.54887 95:107.3633 #
1.3289990606553889177579845948945e-07 1:0 2:0 3:0 4:0 5:0 6:0 7:0 8:0 9:0 10:0 11:0 12:0 13:0 14:0 15:0 16:0 17:0 18:0 19:0 20:112.22289 21:59.437557 22:269.27686 23:89.196274 24:208.028 25:161.47638 26:651.88959 27:122.81519 28:382.2944 29:348.73773 30:533.6496 31:79.406075 32:211.782 33:149.24924 34:661.53467 35:131.10991 36:237.20108 37:145.84935 38:703.65582 39:99.028755 40:470.04413 41:389.7196 42:573.42291 43:110.9351 44:300.33759 45:262.22504 46:965.35162 47:187.83022 48:344.39597 49:258.47717 50:479.50403 51:114.98132 52:447.46344 53:321.23654 54:457.00269 55:163.77113 56:357.99408 57:242.74974 58:1051.6224 59:188.99762 60:135.88577 61:81.693558 62:612.99164 63:179.76949 64:371.36478 65:253.68161 66:444.53055 67:154.55707 68:340.02844 69:211.1786 70:963.29755 71:207.0007 72:302.39944 73:236.30576 74:442.10944 75:62.583477 76:231.11235 77:157.05475 78:720.50061 79:140.59595 80:382.34933 81:322.98093 82:512.85663 83:87.732735 84:256.97482 85:177.62016 86:807.0069 87:137.19339 88:384.72351 89:309.39059 90:498.10013 91:89.740852 92:270.85278 93:183.60385 94:873.5484 95:121.38087 #
1.3289990606553889177579845948945e-07 1:0 2:0 3:0 4:0 5:0 6:0 7:0 8:0 9:0 10:0 11:0 12:0 13:0 14:0 15:0 16:0 17:0 18:0 19:0 20:184.11531 21:125.15637 22:207.94424 23:100.24538 24:239.49385 25:127.43016 26:234.39075 27:145.04045 28:107.98968 29:109.77728 30:262.09872 31:44.201588 32:223.36966 33:122.10114 34:258.49518 35:168.31462 36:361.8558 37:234.82314 38:378.55392 39:151.59624 40:113.1311 41:137.04004 42:536.99329 43:49.478165 44:230.60536 45:83.248329 46:695.65686 47:255.44257 48:159.40012 49:126.28662 50:414.73825 51:51.105511 52:97.617905 53:171.51131 54:733.54358 55:61.480095 56:210.12024 57:48.517277 58:983.21307 59:316.60254 60:205.23718 61:141.43349 62:895.76923 63:257.86334 64:113.44349 65:225.25591 66:752.06549 67:93.853828 68:180.20967 69:45.613388 70:1015.9235 71:313.34351 72:84.887451 73:95.195549 74:241.88776 75:41.620312 76:216.4153 77:94.989105 78:281.02365 79:162.93599 80:95.703697 81:110.12171 82:256.99939 83:39.893131 84:227.21152 85:91.278999 86:317.21686 87:173.87959 88:93.247238 89:103.10816 90:279.33023 91:39.655773 92:208.84584 93:62.387753 94:378.08047 95:193.28815 #
1.3289990606553889177579845948945e-07 1:0 2:0 3:0 4:0 5:0 6:0 7:0 8:0 9:0 10:0 11:0 12:0 13:0 14:0 15:0 16:0 17:0 18:0 19:0 20:416.13022 21:139.02512 22:525.18988 23:85.793182 24:243.94728 25:130.01216 26:216.03787 27:136.53853 28:453.05817 29:177.8799 30:599.08667 31:74.093613 32:216.48965 33:114.96613 34:222.28978 35:135.05792 36:280.263 37:150.39552 38:198.91255 39:141.59142 40:451.43018 41:216.11655 42:1167.2642 43:211.21065 44:374.74924 45:273.22089 46:394.40427 47:137.60098 48:447.29437 49:189.23398 50:559.38922 51:111.2165 52:364.52045 53:51.338043 54:601.90521 55:107.04601 56:358.30807 57:250.1792 58:473.01099 59:145.91866 60:384.69949 61:310.10779 62:637.44617 63:142.85062 64:327.95944 65:11.132377 66:475.19214 67:112.73664 68:305.10474 69:207.71893 70:409.2608 71:147.82156 72:343.73633 73:141.4007 74:479.95148 75:66.43605 76:235.06842 77:128.33066 78:232.98499 79:136.14578 80:403.25302 81:113.19212 82:406.57385 83:83.231903 84:228.08865 85:125.85918 86:262.18427 87:144.10544 88:386.42508 89:103.16825 90:395.01022 91:90.714287 92:239.14592 93:110.41901 94:266.6723 95:152.91675 #
-1.3289990606553889177579845948945e-07 1:0 2:0 3:0 4:0 5:0 6:0 7:0 8:0 9:0 10:0 11:0 12:0 13:0 14:0 15:0 16:0 17:0 18:0 19:0 20:213.13814 21:236.28008 22:538.91919 23:120.2962 24:154.31657 25:160.77121 26:258.46637 27:208.09332 28:90.731972 29:134.03018 30:343.64493 31:75.213242 32:136.14883 33:128.97209 34:228.70993 35:209.80237 36:213.60315 37:34.858929 38:455.60208 39:206.63719 40:145.00438 41:214.01363 42:472.34726 43:97.742645 44:79.154411 45:40.829487 46:363.33994 47:267.76981 48:146.63382 49:103.79752 50:438.79898 51:193.77029 52:169.10995 53:253.64139 54:498.12677 55:121.14429 56:116.0612 57:8.0229588 58:407.00305 59:304.37659 60:75.359871 61:163.41739 62:284.34567 63:260.99274 64:232.83884 65:263.3071 66:477.02481 67:149.26082 68:75.768974 69:32.010632 70:385.05246 71:321.50629 72:92.114609 73:129.56331 74:352.97174 75:83.734497 76:110.4137 77:129.95668 78:213.1105 79:222.8584 80:117.12276 81:181.60844 82:408.35815 83:98.154205 84:97.972252 85:113.73574 86:214.92311 87:229.41425 88:142.76158 89:199.31171 90:441.58145 91:103.4226 92:80.330193 93:93.799744 94:198.22775 95:248.17912 #
-1.3289990606553889177579845948945e-07 1:0 2:0 3:0 4:0 5:0 6:0 7:0 8:0 9:0 10:0 11:0 12:0 13:0 14:0 15:0 16:0 17:0 18:0 19:0 20:159.74028 21:134.94508 22:391.9165 23:53.499516 24:124.49176 25:144.42075 26:610.53046 27:150.32437 28:162.77577 29:181.39566 30:437.77972 31:76.363533 32:116.78753 33:137.46138 34:627.17126 35:133.40355 36:198.64899 37:212.63303 38:886.98517 39:245.85547 40:278.63663 41:380.30295 42:757.03339 43:79.4534 44:315.81561 45:373.63223 46:1234.4847 47:154.77727 48:100.12538 49:182.33002 50:887.58356 51:49.525639 52:312.13992 53:436.43674 54:800.24585 55:109.80187 56:339.36777 57:449.17407 58:1402.8826 59:133.74899 60:419.26526 61:535.26105 62:1339.4652 63:112.56192 64:308.56293 65:403.56708 66:777.15405 67:137.56018 68:323.54807 69:409.48083 70:1286.4608 71:112.89439 72:170.90256 73:162.20987 74:353.47223 75:84.770187 76:116.13123 77:133.69969 78:593.42371 79:117.69032 80:236.65958 81:246.27994 82:436.65497 83:94.516777 84:129.11484 85:154.02501 86:662.6377 87:125.49224 88:236.80557 89:255.97598 90:454.39798 91:81.870399 92:136.00784 93:178.54968 94:716.46326 95:144.76167 #
-1.3289990606553889177579845948945e-07 1:0 2:0 3:0 4:0 5:0 6:0 7:0 8:0 9:0 10:0 11:0 12:0 13:0 14:0 15:0 16:0 17:0 18:0 19:0 20:521.84375 21:22.717192 22:699.33636 23:205.58466 24:410.00488 25:95.06723 26:722.599 27:113.30221 28:219.65897 29:131.89653 30:591.19293 31:157.38536 32:421.10089 33:134.94595 34:702.2019 35:109.27616 36:337.37213 37:169.14516 38:896.22089 39:89.454391 40:186.63792 41:310.33093 42:988.8338 43:138.67795 44:217.81831 45:194.15494 46:1052.7556 47:144.7155 48:394.45926 49:205.08884 50:1087.3086 51:153.51808 52:177.20988 53:330.02127 54:830.04462 55:147.88126 56:51.928471 57:241.94366 58:976.31659 59:158.4312 60:76.403633 61:359.06714 62:831.8183 63:131.20921 64:182.76349 65:290.11221 66:823.16687 67:152.39104 68:10.848795 69:242.06915 70:891.66595 71:136.40717 72:262.89716 73:28.439026 74:253.6557 75:150.15515 76:421.23404 77:195.04611 78:588.61096 79:137.40251 80:198.60503 81:134.73303 82:452.62326 83:159.98064 84:388.17773 85:193.66635 86:624.57483 87:131.32281 88:186.23988 89:152.56564 90:443.53925 91:164.06245 92:347.82742 93:177.30267 94:651.40601 95:134.42116 #
1.3289990606553889177579845948945e-07 1:0 2:0 3:0 4:0 5:0 6:0 7:0 8:0 9:0 10:0 11:0 12:0 13:0 14:0 15:0 16:0 17:0 18:0 19:0 20:116.40239 21:155.0994 22:581.47839 23:48.766548 24:45.649761 25:76.494133 26:271.07748 27:102.30728 28:187.5739 29:144.81921 30:185.33768 31:32.986237 32:106.12197 33:112.28014 34:307.64377 35:114.78896 36:141.41165 37:196.05959 38:339.0405 39:100.28171 40:167.70454 41:170.10677 42:359.42673 43:31.076908 44:43.651367 45:47.123665 46:243.06949 47:140.29857 48:67.24131 49:78.086082 50:162.80536 51:58.602997 52:182.99556 53:201.00998 54:377.31033 55:37.778221 56:30.461882 57:58.016251 58:270.68613 59:205.48502 60:225.39478 61:106.27727 62:448.80771 63:133.8942 64:141.33842 65:218.60475 66:422.80554 67:56.480961 68:32.516998 69:63.700249 70:382.98682 71:215.43311 72:122.65372 73:111.00285 74:163.04623 75:39.51543 76:75.411888 77:71.239967 78:310.67911 79:126.87727 80:166.7654 81:136.45934 82:219.12634 83:28.480606 84:106.35951 85:81.599426 86:312.23358 87:120.36099 88:159.79445 89:140.29466 90:231.38393 91:23.734961 92:144.14803 93:82.693619 94:287.63458 95:126.42403 #
1.3289990606553889177579845948945e-07 1:0 2:0 3:0 4:0 5:0 6:0 7:0 8:0 9:0 10:0 11:0 12:0 13:0 14:0 15:0 16:0 17:0 18:0 19:0 20:155.32027 21:84.004799 22:171.76248 23:179.79611 24:134.13443 25:123.57504 26:312.88791 27:109.58009 28:262.61456 29:42.795513 30:181.73001 31:149.00029 32:151.50497 33:134.11821 34:323.33652 35:105.24994 36:159.98251 37:65.632195 38:335.05664 39:134.74297 40:35.540352 41:157.65387 42:243.97557 43:117.28216 44:214.98862 45:158.85921 46:343.30603 47:77.752274 48:151.58182 49:136.42181 50:126.01637 51:110.78623 52:31.40506 53:160.83904 54:263.30338 55:123.43181 56:241.1422 57:194.8826 58:373.80585 59:79.881912 60:364.76801 61:152.42256 62:279.20947 63:105.27271 64:161.60004 65:138.14055 66:196.92499 67:148.70663 68:252.49564 69:189.26851 70:360.08783 71:105.20418 72:183.94131 73:41.473206 74:187.63823 75:143.56941 76:131.11453 77:123.43289 78:334.20044 79:100.65706 80:72.883347 81:72.099129 82:243.99007 83:127.19044 84:134.98169 85:131.18315 86:298.29715 87:100.60986 88:164.8567 89:58.289036 90:262.03519 91:131.12506 92:134.28198 93:126.68841 94:264.01288 95:100.28062 #
1.3289990606553889177579845948945e-07 1:0 2:0 3:0 4:0 5:0 6:0 7:0 8:0 9:0 10:0 11:0 12:0 13:0 14:0 15:0 16:0 17:0 18:0 19:0 20:66.257668 21:123.61446 22:296.87854 23:223.41849 24:148.41014 25:102.36372 26:294.99756 27:175.14 28:101.77328 29:25.824608 30:245.84811 31:134.16782 32:157.32185 33:94.735977 34:258.134 35:166.90527 36:195.06671 37:107.37335 38:354.95081 39:208.29901 40:167.25859 41:155.35118 42:123.20341 43:186.65829 44:278.00235 45:130.03279 46:232.32597 47:163.85814 48:196.56517 49:75.188538 50:313.10477 51:209.38837 52:279.58734 53:210.77666 54:275.22656 55:208.08603 56:333.9299 57:157.72295 58:162.32504 59:156.9277 60:470.22443 61:227.93178 62:330.22379 63:151.5511 64:132.73955 65:232.13025 66:310.00546 67:190.0038 68:328.38416 69:164.64531 70:156.07697 71:152.36627 72:116.31885 73:35.616978 74:262.15265 75:104.57502 76:175.80394 77:48.100819 78:221.03697 79:148.41057 80:106.71256 81:37.013294 82:195.17094 83:120.34576 84:168.45262 85:27.589865 86:206.25056 87:142.23647 88:155.76221 89:45.512234 90:173.88202 91:126.08707 92:175.93192 93:29.116922 94:203.25275 95:143.75215 #
-1.3289990606553889177579845948945e-07 1:0 2:0 3:0 4:0 5:0 6:0 7:0 8:0 9:0 10:0 11:0 12:0 13:0 14:0 15:0 16:0 17:0 18:0 19:0 20:79.62413 21:145.2632 22:305.38361 23:113.30174 24:80.313774 25:69.877113 26:427.1882 27:113.26221 28:100.98104 29:69.230476 30:348.63687 31:77.45636 32:79.236458 33:60.554863 34:407.81686 35:122.10854 36:184.2274 37:136.08453 38:487.44308 39:130.41991 40:91.516693 41:66.680832 42:430.54248 43:76.678123 44:145.64949 45:62.380173 46:506.228 47:117.20515 48:106.90245 49:139.90059 50:289.66245 51:117.88658 52:100.74402 53:28.666012 54:565.47363 55:68.292503 56:122.09367 57:84.030121 58:617.89966 59:100.03067 60:183.46143 61:36.511852 62:933.47607 63:171.36519 64:77.964798 65:37.159126 66:548.61798 67:110.28791 68:130.80214 69:89.508179 70:624.88 71:119.16977 72:128.64014 73:134.82259 74:319.27121 75:93.039536 76:42.562157 77:57.977154 78:397.96936 79:141.01991 80:135.15813 81:87.658089 82:320.25323 83:57.636555 84:42.154034 85:61.042976 86:418.49915 87:148.45264 88:115.95824 89:74.965195 90:360.78409 91:53.905987 92:39.026073 93:71.822678 94:419.73682 95:141.31664 #
-1.123925386094713448677934186648e-09 1:0 2:0 3:0 4:0 5:0 6:0 7:0 8:0 9:0 10:0 11:0 12:0 13:0 14:0 15:0 16:0 17:0 18:0 19:0 20:557.97235 21:300.27744 22:326.31802 23:232.99876 24:215.07512 25:168.47643 26:387.50656 27:144.65384 28:348.04819 29:307.39426 30:523.46259 31:151.99315 32:209.4109 33:135.78513 34:443.51288 35:138.13885 36:154.8797 37:147.04529 38:290.47412 39:112.98322 40:429.65378 41:268.83725 42:523.5116 43:214.82263 44:132.76891 45:44.431335 46:406.41711 47:120.19677 48:354.64011 49:291.50659 50:357.98798 51:212.74588 52:409.25076 53:241.33035 54:610.61328 55:248.42625 56:117.80182 57:30.888857 58:378.28546 59:121.96021 60:214.0027 61:118.47739 62:333.31537 63:82.681046 64:213.29279 65:235.00934 66:723.08203 67:304.94009 68:107.15889 69:24.263144 70:382.93655 71:107.46505 72:370.08075 73:264.4679 74:473.91849 75:145.33667 76:145.13374 77:126.0662 78:418.11462 79:162.41061 80:365.72339 81:284.73563 82:614.40955 83:146.79434 84:117.12814 85:133.41829 86:405.21744 87:157.23183 88:370.97363 89:278.77704 90:608.0946 91:138.42845 92:62.096085 93:127.25779 94:393.4743 95:155.17369 #
1.3289990606553889177579845948945e-07 1:0 2:0 3:0 4:0 5:0 6:0 7:0 8:0 9:0 10:0 11:0 12:0 13:0 14:0 15:0 16:0 17:0 18:0 19:0 20:137.88257 21:30.223623 22:298.29962 23:96.933105 24:52.441067 25:114.12896 26:711.65887 27:78.229576 28:208.94597 29:167.41539 30:426.23328 31:86.649078 32:102.50009 33:110.98491 34:724.26385 35:58.801636 36:133.64053 37:160.59088 38:660.76898 39:116.7962 40:159.40207 41:262.21295 42:662.94196 43:97.18837 44:99.868912 45:116.68518 46:945.44812 47:88.458359 48:148.15814 49:102.12869 50:579.83203 51:73.124435 52:144.42633 53:294.03174 54:826.89624 55:108.6831 56:152.92892 57:199.84158 58:1089.3607 59:142.65593 60:223.06058 61:250.88821 62:939.56512 63:78.696968 64:196.05502 65:323.78763 66:692.00946 67:127.87711 68:144.02139 69:213.7841 70:1105.8423 71:156.48694 72:140.10159 73:190.2094 74:354.17865 75:115.42786 76:17.046968 77:106.88113 78:782.24573 79:75.907959 80:153.21497 81:215.87885 82:368.7413 83:90.386726 84:9.9288969 85:97.483505 86:793.03741 87:102.65046 88:139.34834 89:197.14996 90:416.2428 91:97.94236 92:26.514107 93:82.090279 94:827.685 95:117.52102 #
1.3289990606553889177579845948945e-07 1:0 2:0 3:0 4:0 5:0 6:0 7:0 8:0 9:0 10:0 11:0 12:0 13:0 14:0 15:0 16:0 17:0 18:0 19:0 20:346.05161 21:262.53949 22:323.06641 23:150.29536 24:190.21863 25:271.50311 26:373.34998 27:89.02636 28:386.746 29:466.0509 30:831.46442 31:128.87387 32:163.20433 33:253.76505 34:380.24155 35:90.259781 36:362.90881 37:484.31171 38:821.43304 39:148.03304 40:284.51498 41:451.02417 42:971.40686 43:171.97137 44:236.45538 45:338.33136 46:512.2265 47:122.12025 48:283.46588 49:361.00348 50:627.93188 51:199.12448 52:223.43552 53:378.52875 54:876.2804 55:160.22533 56:161.7529 57:238.37971 58:391.78262 59:121.0563 60:413.95563 61:369.94644 62:847.2384 63:131.1731 64:145.78281 65:306.64124 66:844.87524 67:201.19141 68:147.29059 69:204.22447 70:342.59912 71:101.80164 72:347.04868 73:468.55304 74:765.76672 75:118.52802 76:101.37009 77:196.05463 78:312.82626 79:82.773773 80:316.83655 81:447.10333 82:810.41449 83:116.42828 84:90.40937 85:185.76924 86:277.00818 87:77.960312 88:301.74863 89:446.29111 90:793.68018 91:112.80311 92:67.034866 93:167.80469 94:251.98112 95:76.345879 #
-1.3289990606553889177579845948945e-07 1:0 2:0 3:0 4:0 5:0 6:0 7:0 8:0 9:0 10:0 11:0 12:0 13:0 14:0 15:0 16:0 17:0 18:0 19:0 20:97.785278 21:173.85634 22:682.0351 23:68.398766 24:258.03229 25:288.74265 26:688.53448 27:188.78757 28:87.79554 29:211.32205 30:598.0827 31:70.676308 32:251.66656 33:291.89301 34:713.8913 35:176.4157 36:317.77203 37:323.41162 38:534.76996 39:183.2036 40:231.65533 41:273.79706 42:751.08087 43:84.12632 44:299.25076 45:314.87112 46:564.31293 47:156.13942 48:74.882011 49:118.21056 50:921.10101 51:74.288139 52:238.54495 53:317.12259 54:834.40851 55:67.59687 56:379.61288 57:287.48074 58:501.01385 59:113.62517 60:175.1015 61:291.15775 62:598.63275 63:154.64452 64:247.28198 65:302.56738 66:923.85626 67:78.107353 68:351.15961 69:254.96378 70:437.5722 71:106.21611 72:127.69627 73:265.2666 74:620.34216 75:64.287811 76:241.88342 77:254.61734 78:649.41278 79:164.37895 80:101.47784 81:263.5184 82:629.71753 83:63.456581 84:241.31476 85:258.58911 86:602.57288 87:155.04535 88:108.93404 89:271.09641 90:633.6582 91:67.513794 92:251.70464 93:252.23167 94:561.07123 95:133.76659 #
-5.3126769639124877869697932686321e-09 1:0 2:0 3:0 4:0 5:0 6:0 7:0 8:0 9:0 10:0 11:0 12:0 13:0 14:0 15:0 16:0 17:0 18:0 19:0 20:185.98357 21:107.02135 22:120.07381 23:50.244213 24:113.83884 25:95.930458 26:303.60477 27:141.0475 28:67.695717 29:77.493576 30:259.1814 31:89.890839 32:108.61469 33:88.778847 34:293.04886 35:148.35101 36:76.593399 37:172.16197 38:457.50876 39:148.11259 40:60.318737 41:75.820061 42:266.87958 43:74.450882 44:194.73027 45:88.179771 46:464.78671 47:159.49867 48:109.84827 49:34.214115 50:126.98299 51:37.743889 52:88.440956 53:70.11203 54:361.53082 55:86.14904 56:254.65024 57:224.45305 58:771.48328 59:172.31065 60:186.37119 61:57.652798 62:715.24646 63:169.47717 64:124.21111 65:79.46907 66:427.88449 67:104.48889 68:233.32513 69:235.85547 70:787.25946 71:157.93057 72:60.862427 73:110.99228 74:287.52045 75:145.29027 76:117.14781 77:52.571598 78:286.62302 79:162.74817 80:81.565956 81:43.273529 82:242.92264 83:98.468536 84:146.47731 85:61.400539 86:267.66443 87:150.86288 88:80.497559 89:24.871372 90:250.55135 91:97.834427 92:167.53632 93:100.12345 94:351.64017 95:153.47644 #
-3.8972827334732301965408837393645e-08 1:0 2:0 3:0 4:0 5:0 6:0 7:0 8:0 9:0 10:0 11:0 12:0 13:0 14:0 15:0 16:0 17:0 18:0 19:0 20:305.99963 21:217.19157 22:378.33862 23:188.42857 24:231.52779 25:139.3252 26:369.75266 27:112.45811 28:765.14105 29:467.92471 30:909.2063 31:220.05283 32:182.90453 33:102.7555 34:379.97464 35:120.43486 36:494.41138 37:92.57943 38:814.01233 39:137.16039 40:204.40433 41:109.72186 42:334.82877 43:203.96072 44:515.8313 45:158.16475 46:610.84229 47:127.49834 48:409.75009 49:262.06662 50:427.65509 51:167.3744 52:155.38014 53:68.537498 54:410.80634 55:255.73807 56:388.44708 57:137.01822 58:440.43433 59:159.09059 60:846.43909 61:623.47723 62:801.63409 63:201.38472 64:260.11877 65:89.024315 66:446.02002 67:341.2179 68:528.61743 69:141.18365 70:481.54678 71:212.82666 72:319.61346 73:252.08624 74:604.85815 75:248.52576 76:230.41092 77:124.12023 78:331.88864 79:115.73586 80:682.5979 81:386.9024 82:505.90366 83:213.91795 84:232.33458 85:131.10512 86:340.93127 87:115.80552 88:585.0036 89:339.36066 90:494.09964 91:204.7894 92:266.55753 93:155.84039 94:356.84042 95:101.07174 #
-1.3289990606553889177579845948945e-07 1:0 2:0 3:0 4:0 5:0 6:0 7:0 8:0 9:0 10:0 11:0 12:0 13:0 14:0 15:0 16:0 17:0 18:0 19:0 20:190.06686 21:221.01283 22:320.65176 23:94.764458 24:105.73257 25:199.75705 26:732.11542 27:255.40384 28:42.411438 29:175.73396 30:434.45074 31:117.69621 32:117.26772 33:194.66197 34:692.63855 35:256.72427 36:147.90962 37:228.59074 38:558.56824 39:246.45787 40:154.6597 41:90.134094 42:469.30029 43:157.95596 44:274.50009 45:371.05811 46:863.37622 47:172.09608 48:81.504829 49:149.37192 50:498.47659 51:80.230049 52:184.05498 53:105.38379 54:485.38443 55:214.1993 56:141.8318 57:325.65521 58:767.42554 59:222.74197 60:205.68013 61:255.48125 62:698.33173 63:227.75362 64:193.63405 65:105.83328 66:391.80344 67:196.65732 68:146.74883 69:269.63699 70:617.50616 71:215.57285 72:42.215847 73:200.67413 74:502.22046 75:111.57745 76:134.59824 77:154.8123 78:693.4632 79:196.90793 80:88.161125 81:158.95383 82:595.96997 83:149.14337 84:193.31792 85:133.717 86:653.03223 87:195.02164 88:59.956249 89:153.0974 90:635.90594 91:162.70648 92:140.36534 93:176.49356 94:656.82837 95:183.78784 #
1.3289990606553889177579845948945e-07 1:0 2:0 3:0 4:0 5:0 6:0 7:0 8:0 9:0 10:0 11:0 12:0 13:0 14:0 15:0 16:0 17:0 18:0 19:0 20:437.47919 21:158.31718 22:249.42662 23:94.447914 24:498.02679 25:131.26755 26:130.15729 27:118.43054 28:331.00519 29:95.934586 30:305.39368 31:123.23638 32:436.07645 33:111.74027 34:126.64785 35:110.76565 36:451.19543 37:33.953171 38:281.1882 39:126.30432 40:356.78519 41:107.73828 42:221.76489 43:165.86324 44:207.20483 45:81.864677 46:505.14743 47:242.03694 48:380.26065 49:92.124161 50:390.45435 51:100.47066 52:317.07376 53:100.31522 54:242.0479 55:172.18291 56:413.17133 57:79.679466 58:492.62503 59:255.81024 60:204.17723 61:150.61403 62:249.03589 63:180.33987 64:228.42995 65:56.423084 66:247.64816 67:141.40623 68:399.38354 69:62.424633 70:424.42563 71:267.77988 72:267.69409 73:88.852386 74:360.39978 75:113.7536 76:456.97427 77:116.17316 78:81.637009 79:133.66396 80:372.99768 81:137.00645 82:285.90726 83:137.7702 84:466.36734 85:111.17112 86:100.85416 87:151.68623 88:384.07227 89:129.37166 90:261.94128 91:141.94922 92:457.54343 93:101.75209 94:114.41028 95:149.93025 #
1.3289990606553889177579845948945e-07 1:0 2:0 3:0 4:0 5:0 6:0 7:0 8:0 9:0 10:0 11:0 12:0 13:0 14:0 15:0 16:0 17:0 18:0 19:0 20:172.62869 21:303.26599 22:545.68201 23:75.975853 24:323.81525 25:295.40628 26:493.05466 27:49.890606 28:262.92908 29:223.76831 30:309.88278 31:94.230164 32:297.98294 33:268.65521 34:485.67764 35:63.334015 36:402.30484 37:371.48898 38:606.474 39:105.01273 40:144.3562 41:134.65889 42:526.34399 43:49.819191 44:191.32855 45:123.08062 46:282.58078 47:60.799866 48:303.69095 49:320.99969 50:587.79974 51:106.38588 52:69.434006 53:43.584721 54:718.48889 55:107.95032 56:183.03296 57:91.522995 58:312.1286 59:99.752953 60:589.32355 61:448.95374 62:443.22766 63:159.90915 64:143.86772 65:59.095493 66:491.32205 67:142.25233 68:126.53652 69:75.76268 70:344.43692 71:146.36711 72:157.68744 73:101.32764 74:179.6459 75:108.98978 76:303.59381 77:217.27078 78:366.6611 79:56.256798 80:170.77742 81:108.11016 82:230.3231 83:87.871597 84:290.93402 85:194.90547 86:377.97989 87:74.034653 88:168.09883 89:98.436752 90:234.95879 91:93.091202 92:273.63092 93:182.54393 94:382.31924 95:91.482689 #
1.3289990606553889177579845948945e-07 1:0 2:0 3:0 4:0 5:0 6:0 7:0 8:0 9:0 10:0 11:0 12:0 13:0 14:0 15:0 16:0 17:0 18:0 19:0 20:378.51941 21:113.07938 22:589.14832 23:65.506477 24:305.7662 25:67.67672 26:316.52905 27:96.732666 28:231.36447 29:152.16867 30:303.53265 31:63.590866 32:309.77545 33:66.071899 34:280.71594 35:85.561653 36:172.05324 37:54.994316 38:397.99698 39:140.17058 40:369.99414 41:247.2123 42:470.05264 43:61.305126 44:275.40918 45:79.520294 46:294.06049 47:162.14577 48:120.5135 49:95.270981 50:526.37903 51:46.537235 52:200.05623 53:160.9959 54:465.04556 55:90.932663 56:199.47008 57:109.01283 58:340.45599 59:260.53516 60:520.55957 61:295.27759 62:403.17633 63:286.51727 64:139.63048 65:128.57266 66:407.13623 67:149.89024 68:155.34132 69:80.095284 70:328.71622 71:307.21249 72:94.456482 73:100.48817 74:243.19864 75:49.210033 76:292.09131 77:95.719109 78:329.01639 79:69.937241 80:156.49622 81:156.25119 82:279.69342 83:50.285637 84:267.96841 85:88.433784 86:315.87009 87:87.052917 88:164.85947 89:161.55911 90:278.19708 91:52.202026 92:231.07152 93:96.595367 94:279.71008 95:101.60795 #
1.3289990606553889177579845948945e-07 1:0 2:0 3:0 4:0 5:0 6:0 7:0 8:0 9:0 10:0 11:0 12:0 13:0 14:0 15:0 16:0 17:0 18:0 19:0 20:333.20282 21:157.35771 22:586.66595 23:136.6358 24:410.75934 25:165.73849 26:219.47752 27:123.87485 28:93.7388 29:90.253853 30:135.42926 31:82.814545 32:378.05481 33:123.596 34:228.74464 35:128.0882 36:639.3891 37:337.70688 38:360.2247 39:163.27072 40:244.68494 41:114.90477 42:325.94043 43:97.087463 44:519.90674 45:215.81203 46:310.82306 47:116.84019 48:351.45709 49:80.609344 50:505.26886 51:108.6228 52:200.93517 53:41.150562 54:419.73889 55:112.65967 56:449.20822 57:295.64447 58:368.34814 59:116.68023 60:835.46228 61:300.97583 62:492.76645 63:160.50731 64:189.1749 65:34.918297 66:472.3042 67:121.92179 68:452.74652 69:303.36801 70:409.67941 71:123.12853 72:56.509953 73:54.210442 74:152.00845 75:128.02374 76:278.68793 77:89.795555 78:200.94145 79:104.27199 80:83.512184 81:56.944023 82:85.189514 83:107.05133 84:303.1492 85:97.293106 86:203.73332 87:94.871468 88:90.569588 89:52.513336 90:109.56907 91:105.20959 92:284.10989 93:104.78008 94:211.02568 95:98.801575 #
1.3289990606553889177579845948945e-07 1:0 2:0 3:0 4:0 5:0 6:0 7:0 8:0 9:0 10:0 11:0 12:0 13:0 14:0 15:0 16:0 17:0 18:0 19:0 20:171.77361 21:199.76811 22:345.918 23:121.18821 24:454.03439 25:333.22131 26:398.62915 27:98.197144 28:202.74326 29:150.08211 30:285.11542 31:88.450645 32:458.85129 33:323.68427 34:365.0498 35:97.681252 36:507.78104 37:344.10373 38:552.87195 39:138.22525 40:131.82704 41:119.18243 42:361.3205 43:62.458614 44:384.28876 45:311.59384 46:296.60233 47:158.05263 48:324.91794 49:203.14699 50:339.40671 51:116.26289 52:194.74553 53:164.73178 54:597.04541 55:81.226173 56:475.33594 57:224.07216 58:323.83685 59:120.78598 60:243.93968 61:242.56134 62:263.04428 63:156.74692 64:228.08931 65:193.9146 66:562.89526 67:78.093193 68:466.27219 69:189.53148 70:404.14856 71:148.46965 72:143.63483 73:101.69432 74:349.28815 75:78.206276 76:503.84625 77:319.61707 78:343.29886 79:103.60468 80:165.26784 81:135.86671 82:344.91531 83:79.123322 84:519.62939 85:292.51147 86:303.12558 87:106.47373 88:163.45926 89:134.68707 90:351.66022 91:80.591362 92:546.12854 93:265.33099 94:263.90521 95:124.19514 #
-1.3019356914876972285264775889418e-07 1:0 2:0 3:0 4:0 5:0 6:0 7:0 8:0 9:0 10:0 11:0 12:0 13:0 14:0 15:0 16:0 17:0 18:0 19:0 20:248.70013 21:288.67432 22:489.0491 23:70.166306 24:92.801971 25:206.20422 26:581.52075 27:111.59013 28:353.65298 29:305.52448 30:286.58148 31:82.766403 32:88.489174 33:203.4417 34:582.18494 35:115.31741 36:129.83981 37:214.22144 38:619.22864 39:128.70235 40:479.19577 41:397.23633 42:447.52731 43:106.33508 44:150.70541 45:183.16154 46:477.45099 47:95.878174 48:298.35806 49:166.58214 50:537.75317 51:111.38895 52:442.00836 53:378.0939 54:304.24094 55:133.9798 56:161.57339 57:213.23315 58:354.36664 59:98.980728 60:245.74442 61:201.1209 62:294.16757 63:94.832771 64:381.03613 65:313.88672 66:243.83809 67:161.39583 68:161.40584 69:190.36708 70:322.17453 71:97.96888 72:251.85004 73:225.60286 74:269.23621 75:79.718414 76:91.105919 77:210.94542 78:586.06073 79:97.62429 80:362.87903 81:309.73669 82:285.94391 83:93.100807 84:81.380058 85:218.49055 86:566.95966 87:82.797905 88:365.67288 89:315.47531 90:289.16412 91:92.30545 92:67.62719 93:222.44435 94:555.2984 95:84.450546 #
-1.3289990606553889177579845948945e-07 1:0 2:0 3:0 4:0 5:0 6:0 7:0 8:0 9:0 10:0 11:0 12:0 13:0 14:0 15:0 16:0 17:0 18:0 19:0 20:691.85669 21:168.17357 22:287.67181 23:87.433685 24:520.58392 25:174.00465 26:295.0434 27:248.31277 28:376.31686 29:81.240082 30:226.85132 31:37.102699 32:456.35013 33:138.2653 34:285.11557 35:251.15567 36:458.21591 37:101.4735 38:325.31613 39:193.2655 40:308.65015 41:29.88225 42:296.52298 43:83.354584 44:369.66302 45:109.68147 46:167.80638 47:189.2438 48:440.36127 49:96.754227 50:346.78906 51:66.659363 52:296.55875 53:33.840843 54:276.19394 55:122.54919 56:323.63382 57:136.05241 58:210.57579 59:163.62096 60:261.2879 61:76.007423 62:239.37642 63:198.53209 64:287.54364 65:59.388561 66:229.56831 67:148.10287 68:269.8699 69:108.681 70:232.45073 71:202.89952 72:378.7085 73:90.688797 74:127.1398 75:40.033401 76:432.52719 77:150.87502 78:375.97504 79:277.59586 80:366.52438 81:65.724075 82:194.99937 83:49.480793 84:411.08545 85:138.67899 86:331.35992 87:266.67862 88:353.8277 89:63.932362 90:195.43961 91:52.846687 92:406.21844 93:138.93005 94:296.05042 95:249.92841 #
-1.3289990606553889177579845948945e-07 1:0 2:0 3:0 4:0 5:0 6:0 7:0 8:0 9:0 10:0 11:0 12:0 13:0 14:0 15:0 16:0 17:0 18:0 19:0 20:60.873497 21:51.100346 22:249.3363 23:50.413891 24:68.888336 25:45.02211 26:203.52542 27:50.33382 28:83.201836 29:58.381989 30:314.37357 31:30.834949 32:86.194893 33:47.012405 34:215.26201 35:48.232639 36:79.930542 37:93.218384 38:312.27707 39:46.126457 40:152.40434 41:63.88007 42:183.9082 43:39.079544 44:179.48598 45:87.037239 46:238.96297 47:58.864532 48:101.13731 49:44.353405 50:215.60042 51:38.380344 52:167.53043 53:81.54274 54:63.103756 55:71.413628 56:171.14491 57:90.109779 58:265.35214 59:69.221825 60:178.70601 61:74.903793 62:159.14137 63:75.566147 64:152.55098 65:76.41584 66:117.97948 67:96.579742 68:139.78952 69:83.127182 70:300.02524 71:77.61795 72:111.84676 73:43.581497 74:297.091 75:68.019249 76:77.108627 77:42.079433 78:175.4341 79:52.052959 80:194.84413 81:53.829823 82:230.19331 83:48.059917 84:86.766861 85:46.971607 86:151.26935 87:50.281563 88:192.34009 89:60.320011 90:238.42975 91:50.606274 92:88.591057 93:48.469833 94:131.40608 95:50.922901 #
-1.3289990606553889177579845948945e-07 1:0 2:0 3:0 4:0 5:0 6:0 7:0 8:0 9:0 10:0 11:0 12:0 13:0 14:0 15:0 16:0 17:0 18:0 19:0 20:199.18607 21:106.22511 22:238.95474 23:91.159836 24:214.06233 25:162.56795 26:333.78674 27:90.610573 28:352.34521 29:190.29561 30:190.06244 31:43.235031 32:215.69832 33:159.72133 34:319.6636 35:87.641846 36:231.65271 37:114.7951 38:306.3093 39:106.9463 40:224.26544 41:148.75908 42:231.72005 43:73.328506 44:216.84737 45:242.89786 46:343.49493 47:34.441509 48:187.55298 49:61.424191 50:226.48448 51:108.11871 52:136.46719 53:75.33046 54:297.71017 55:85.406136 56:202.14603 57:184.27086 58:346.90091 59:35.674282 60:555.30298 61:323.24759 62:445.83716 63:51.217953 64:121.40738 65:46.709492 66:471.33371 67:92.309753 68:256.47147 69:185.74272 70:354.88663 71:63.347843 72:268.33594 73:143.10864 74:220.52826 75:51.463207 76:189.81364 77:159.36235 78:294.67517 79:72.778 80:346.00186 81:160.28725 82:164.05882 83:61.671597 84:188.71561 85:144.06519 86:294.61578 87:78.618958 88:295.24249 89:160.05701 90:215.85568 91:53.814407 92:208.17459 93:130.69698 94:295.21008 95:86.075668 #
1.3289990606553889177579845948945e-07 1:0 2:0 3:0 4:0 5:0 6:0 7:0 8:0 9:0 10:0 11:0 12:0 13:0 14:0 15:0 16:0 17:0 18:0 19:0 20:528.2464 21:235.94127 22:1048.0333 23:381.04666 24:33.473793 25:219.86826 26:803.72699 27:432.32901 28:526.60321 29:138.01376 30:850.91479 31:358.25327 32:75.917824 33:220.83524 34:784.71259 35:420.72418 36:131.58594 37:256.87628 38:802.73169 39:442.46722 40:315.57098 41:189.39059 42:709.43744 43:297.07666 44:126.37697 45:157.50389 46:571.55048 47:366.04486 48:498.98593 49:260.83215 50:1180.2803 51:399.28931 52:573.03992 53:265.52435 54:718.94757 55:312.94229 56:518.08252 57:154.54208 58:594.65057 59:372.57785 60:151.58533 61:236.48598 62:388.52188 63:371.42511 64:394.45816 65:260.74506 66:716.73792 67:275.03586 68:348.72742 69:122.91596 70:366.87204 71:425.65424 72:366.05203 73:161.30518 74:718.42419 75:344.91968 76:85.997917 77:185.1349 78:770.41321 79:417.6344 80:75.971344 81:69.464203 82:733.61121 83:321.41449 84:77.251984 85:170.38745 86:777.47534 87:421.09286 88:372.08026 89:139.91429 90:777.21667 91:283.2298 92:139.08971 93:169.19032 94:790.53198 95:433.88956 #
1.3289990606553889177579845948945e-07 1:0 2:0 3:0 4:0 5:0 6:0 7:0 8:0 9:0 10:0 11:0 12:0 13:0 14:0 15:0 16:0 17:0 18:0 19:0 20:240.81401 21:204.23149 22:718.58856 23:158.45511 24:193.11545 25:137.53348 26:390.26633 27:271.00229 28:266.51086 29:254.76125 30:877.1554 31:181.58539 32:179.92694 33:117.09214 34:361.20767 35:261.0434 36:348.83008 37:248.49438 38:425.98172 39:314.276 40:225.42778 41:231.37592 42:664.46796 43:170.49103 44:247.91159 45:134.48854 46:454.26654 47:344.14072 48:69.896301 49:215.96529 50:749.87103 51:167.76549 52:344.60321 53:244.04829 54:592.17371 55:165.07666 56:308.54037 57:81.80349 58:622.92847 59:397.17911 60:358.573 61:285.51639 62:466.14478 63:399.33453 64:212.45433 65:209.6582 66:519.90833 67:178.29776 68:341.48083 69:157.6012 70:557.3407 71:414.10397 72:195.85097 73:177.54668 74:791.29285 75:137.58191 76:95.747818 77:54.257309 78:394.34705 79:244.12688 80:449.0289 81:239.10995 82:876.82281 83:152.79514 84:78.634872 85:40.082161 86:421.89304 87:253.04272 88:216.07317 89:223.10921 90:847.43988 91:145.94305 92:69.157852 93:31.456589 94:458.25681 95:261.55127 #
1.3289990606553889177579845948945e-07 1:0 2:0 3:0 4:0 5:0 6:0 7:0 8:0 9:0 10:0 11:0 12:0 13:0 14:0 15:0 16:0 17:0 18:0 19:0 20:171.13033 21:264.10883 22:891.38983 23:140.24927 24:211.92647 25:115.21169 26:399.90195 27:111.56843 28:59.692352 29:120.47128 30:639.28198 31:97.869843 32:167.78702 33:128.73331 34:399.17459 35:104.91727 36:239.93953 37:51.818008 38:224.77812 39:86.411636 40:129.19014 41:211.44395 42:589.64227 43:63.227379 44:159.67773 45:71.143784 46:439.77393 47:115.26137 48:70.912758 49:240.06195 50:899.71075 51:128.44942 52:328.31277 53:106.73529 54:566.24823 55:100.11086 56:135.85747 57:123.77932 58:573.60938 59:89.497375 60:107.92213 61:147.62833 62:650.17584 63:136.83243 64:184.79553 65:89.79377 66:587.4494 67:107.29771 68:118.51487 69:117.92331 70:628.49054 71:106.32849 72:54.515842 73:132.84691 74:588.83502 75:99.069023 76:106.10984 77:178.76466 78:479.95319 79:113.86457 80:90.706245 81:127.33752 82:603.0542 83:84.64167 84:103.21574 85:212.27495 86:537.84351 87:116.91365 88:69.104149 89:117.9918 90:578.41302 91:73.3908 92:91.901878 93:226.0218 94:586.36572 95:113.26768 #
-1.2835594689217755741639194130843e-07 1:0 2:0 3:0 4:0 5:0 6:0 7:0 8:0 9:0 10:0 11:0 12:0 13:0 14:0 15:0 16:0 17:0 18:0 19:0 20:427.00137 21:135.24518 22:735.13165 23:116.13858 24:859.78436 25:230.53418 26:550.17236 27:132.55945 28:134.94417 29:312.54977 30:880.36078 31:194.7168 32:851.91064 33:215.55486 34:514.46033 35:146.71107 36:797.11218 37:214.60626 38:795.6449 39:161.44608 40:70.946465 41:417.76651 42:928.56769 43:109.10361 44:587.17529 45:163.07263 46:571.7948 47:122.25884 48:684.93549 49:376.70081 50:1154.4871 51:569.26367 52:205.54787 53:316.37595 54:819.15466 55:74.224808 56:649.55328 57:351.65027 58:553.61737 59:91.018021 60:1406.8977 61:927.8291 62:1031.667 63:188.34697 64:362.24796 65:198.20123 66:934.09979 67:120.55049 68:598.68408 69:342.30814 70:545.37903 71:107.33639 72:261.58337 73:226.424 74:953.07123 75:194.87918 76:824.23688 77:226.99933 78:467.95184 79:175.25957 80:108.03027 81:454.26605 82:903.7276 83:147.18228 84:755.31378 85:186.70876 86:453.59106 87:180.58902 88:172.94081 89:498.61017 90:957.2597 91:134.15639 92:673.21051 93:192.24072 94:445.89325 95:181.63385 #
-1.1398490706761364209070007402769e-07 1:0 2:0 3:0 4:0 5:0 6:0 7:0 8:0 9:0 10:0 11:0 12:0 13:0 14:0 15:0 16:0 17:0 18:0 19:0 20:270.83911 21:125.35683 22:148.7343 23:119.00147 24:130.62093 25:124.83463 26:390.08215 27:185.97014 28:280.76755 29:108.95127 30:222.19066 31:115.51155 32:194.3904 33:135.02507 34:372.70029 35:162.7971 36:344.29938 37:163.3125 38:439.60648 39:249.00496 40:97.488953 41:75.480507 42:399.97025 43:238.09776 44:318.49115 45:85.777084 46:857.3385 47:408.95093 48:331.55869 49:180.6741 50:406.17355 51:158.06938 52:174.35825 53:157.46062 54:473.33603 55:346.18347 56:351.36392 57:134.17908 58:1041.8557 59:561.37933 60:160.2168 61:56.645218 62:871.66919 63:411.95438 64:190.37213 65:164.51944 66:574.58868 67:413.81549 68:523.07147 69:242.06259 70:1170.9642 71:713.80884 72:155.24672 73:109.15411 74:178.63885 75:97.358627 76:157.89937 77:57.231045 78:450.16824 79:199.17514 80:270.36026 81:146.86896 82:257.40076 83:136.85674 84:160.11884 85:60.049412 86:512.67065 87:231.31783 88:258.48193 89:141.14232 90:252.2608 91:139.47516 92:162.79704 93:53.794273 94:588.33582 95:255.37798 #
-1.3289990606553889177579845948945e-07 1:0 2:0 3:0 4:0 5:0 6:0 7:0 8:0 9:0 10:0 11:0 12:0 13:0 14:0 15:0 16:0 17:0 18:0 19:0 20:67.648964 21:105.90881 22:190.92317 23:274.11734 24:94.089905 25:134.98178 26:444.16272 27:86.685448 28:59.581882 29:2.079942 30:192.98921 31:277.03928 32:118.88713 33:154.38853 34:434.97269 35:88.909142 36:81.153236 37:287.53482 38:740.30078 39:145.63283 40:92.503433 41:34.610847 42:170.38628 43:276.07202 44:114.45987 45:269.99185 46:630.14459 47:131.49707 48:123.1035 49:60.55949 50:204.80788 51:281.97659 52:215.91782 53:80.660645 54:251.45885 55:286.15656 56:132.39403 57:300.12366 58:657.15533 59:196.07185 60:289.39478 61:346.87112 62:729.43805 63:131.7789 64:163.57091 65:44.209896 66:381.92224 67:246.38754 68:52.300667 69:277.91681 70:563.40149 71:204.8732 72:137.20738 73:72.382011 74:255.96512 75:252.8625 76:139.93132 77:179.35741 78:413.85648 79:88.291405 80:98.011292 81:33.920376 82:224.85393 83:260.49338 84:133.08005 85:182.1122 86:392.92682 87:85.816628 88:102.02505 89:37.444408 90:223.47124 91:261.03381 92:144.08429 93:182.32619 94:383.90601 95:93.299858 #
-1.3289990606553889177579845948945e-07 1:0 2:0 3:0 4:0 5:0 6:0 7:0 8:0 9:0 10:0 11:0 12:0 13:0 14:0 15:0 16:0 17:0 18:0 19:0 20:205.81955 21:198.46661 22:398.29767 23:167.01308 24:197.29282 25:74.933739 26:298.75107 27:163.37508 28:441.30966 29:161.06648 30:190.6561 31:249.81001 32:200.4651 33:59.318504 34:262.35455 35:161.38193 36:640.15118 37:286.70938 38:394.81744 39:132.33775 40:97.627853 41:160.63066 42:329.08234 43:280.68307 44:171.28329 45:68.04702 46:239.57304 47:319.3465 48:220.68526 49:209.46637 50:434.14313 51:231.55655 52:154.78641 53:190.1096 54:544.70892 55:345.07257 56:265.82016 57:103.24052 58:482.61182 59:481.12958 60:273.81937 61:58.270733 62:510.40198 63:379.74292 64:70.369972 65:248.1049 66:740.28101 67:430.19125 68:298.24835 69:139.62135 70:510.01416 71:545.08966 72:191.81494 73:149.32704 74:407.67499 75:230.55145 76:174.78821 77:46.213905 78:248.5153 79:198.63846 80:348.22531 81:175.41283 82:269.28912 83:232.27141 84:180.14429 85:43.502693 86:225.32329 87:212.71324 88:341.65973 89:176.8698 90:283.78433 91:238.19948 92:202.16476 93:72.909554 94:229.04466 95:232.04424 #
-1.3289990606553889177579845948945e-07 1:0 2:0 3:0 4:0 5:0 6:0 7:0 8:0 9:0 10:0 11:0 12:0 13:0 14:0 15:0 16:0 17:0 18:0 19:0 20:260.60962 21:120.62815 22:603.73706 23:120.46831 24:296.80365 25:319.6073 26:406.62137 27:117.31693 28:193.8327 29:98.391876 30:441.98569 31:221.51906 32:297.28473 33:315.13113 34:441.33932 35:115.50514 36:396.11069 37:429.24631 38:396.27472 39:97.705566 40:276.83173 41:216.00229 42:530.0556 43:252.60165 44:450.04929 45:410.72696 46:618.92957 47:139.63936 48:378.14023 49:218.18327 50:503.4545 51:153.36623 52:320.81519 53:300.54514 54:519.23816 55:271.13879 56:445.47101 57:431.33594 58:753.20465 59:200.5766 60:264.97855 61:385.18442 62:484.09579 63:130.53401 64:383.47559 65:320.88324 66:560.44055 67:289.98956 68:405.36398 69:372.83728 70:711.31976 71:194.83861 72:170.14218 73:51.255295 74:487.72726 75:241.16927 76:269.56516 77:254.83162 78:463.83505 79:123.65251 80:253.27809 81:92.269608 82:643.93842 83:254.67361 84:278.55161 85:262.74771 86:527.89111 87:141.09988 88:185.60439 89:102.42925 90:548.10834 91:271.76169 92:276.66055 93:270.3345 94:574.19489 95:156.95174 #
-1.3289990606553889177579845948945e-07 1:0 2:0 3:0 4:0 5:0 6:0 7:0 8:0 9:0 10:0 11:0 12:0 13:0 14:0 15:0 16:0 17:0 18:0 19:0 20:209.18752 21:190.35524 22:629.66248 23:224.15996 24:164.59425 25:247.18044 26:619.70172 27:119.11297 28:241.85248 29:143.25313 30:391.03366 31:203.81845 32:194.46948 33:266.56207 34:565.72369 35:126.93182 36:473.90601 37:288.70224 38:678.28748 39:200.3768 40:208.90005 41:109.98128 42:420.5784 43:225.37753 44:415.79999 45:260.7067 46:549.9306 47:183.74965 48:297.84418 49:213.85361 50:652.2843 51:202.42307 52:300.13123 53:138.8661 54:401.5708 55:283.03522 56:492.50101 57:280.45016 58:603.88263 59:179.89731 60:431.75235 61:313.01331 62:412.85318 63:231.89156 64:407.86057 65:219.3309 66:425.93362 67:301.8519 68:319.46399 69:208.91971 70:564.87439 71:196.96629 72:224.14737 73:104.74583 74:441.95041 75:176.75023 76:109.59254 77:227.08235 78:521.08575 79:104.88996 80:189.13478 81:114.20811 82:344.51651 83:199.5179 84:111.54066 85:221.59346 86:486.78433 87:112.0451 88:179.64885 89:102.51319 90:342.34079 91:207.60559 92:93.274452 93:232.97403 94:503.82529 95:114.12396 #
1.3289990606553889177579845948945e-07 1:0 2:0 3:0 4:0 5:0 6:0 7:0 8:0 9:0 10:0 11:0 12:0 13:0 14:0 15:0 16:0 17:0 18:0 19:0 20:148.73431 21:142.59639 22:372.62585 23:62.809315 24:94.343628 25:142.47095 26:470.43661 27:58.376816 28:161.89888 29:129.01607 30:423.5419 31:80.08194 32:122.81927 33:120.95782 34:426.54346 35:52.108738 36:38.712452 37:185.68755 38:574.93683 39:70.710625 40:211.90352 41:249.56866 42:833.96698 43:115.05084 44:184.72719 45:72.003212 46:196.92964 47:72.674675 48:195.56218 49:175.92271 50:497.48767 51:110.36861 52:145.3255 53:244.04486 54:856.26898 55:134.75565 56:89.083351 57:106.56597 58:287.60266 59:101.83377 60:483.60944 61:179.1908 62:235.88719 63:133.93484 64:77.806801 65:238.88528 66:814.77087 67:123.43241 68:108.0748 69:151.52376 70:395.46204 71:122.65845 72:102.34966 73:121.36221 74:423.44653 75:82.168373 76:81.477753 77:104.72526 78:377.42624 79:56.680683 80:167.61026 81:156.80872 82:543.10675 83:80.361458 84:86.431396 85:85.223915 86:356.93024 87:62.167576 88:168.59288 89:158.6942 90:558.49506 91:85.046844 92:71.246605 93:67.654388 94:289.02695 95:51.634083 #
1.3289990606553889177579845948945e-07 1:0 2:0 3:0 4:0 5:0 6:0 7:0 8:0 9:0 10:0 11:0 12:0 13:0 14:0 15:0 16:0 17:0 18:0 19:0 20:236.38687 21:192.79321 22:633.85132 23:103.58708 24:286.50516 25:128.49919 26:538.13275 27:92.63678 28:236.5697 29:184.79057 30:412.36868 31:99.581795 32:269.36942 33:123.01304 34:559.37341 35:101.41346 36:507.45197 37:189.68466 38:876.17944 39:98.428932 40:228.60909 41:288.1297 42:608.26404 43:109.76302 44:473.7067 45:152.77336 46:640.20532 47:101.15932 48:348.24219 49:307.43112 50:699.96454 51:118.95891 52:316.11429 53:301.19281 54:667.49512 55:88.364105 56:227.27055 57:10.457128 58:344.84402 59:114.53088 60:745.71484 61:151.69682 62:822.2309 63:165.63896 64:262.60773 65:291.72012 66:600.10754 67:116.66924 68:186.37752 69:39.420311 70:326.21317 71:111.61474 72:327.9942 73:229.01617 74:286.38541 75:88.19648 76:210.11551 77:124.80317 78:525.36053 79:92.635887 80:250.618 81:199.55928 82:396.59006 83:84.536232 84:198.33569 85:119.33389 86:516.76569 87:94.570541 88:211.07808 89:194.92052 90:406.23792 91:84.228264 92:187.52473 93:112.83902 94:461.89471 95:90.590218 #
