SVM-light Version V6.02
0 # kernel type
3 # kernel parameter -d 
1 # kernel parameter -g 
1 # kernel parameter -s 
1 # kernel parameter -r 
empty# kernel parameter -u 
95 # highest feature index 
202 # number of training documents 
156 # number of support vectors plus 1 
1.4078553 # threshold b, each following line is a SV (starting with alpha*y)
-1.0125146931522614207397853009103e-08 1:0 2:0 3:0 4:0 5:0 6:0 7:0 8:0 9:0 10:0 11:0 12:0 13:0 14:0 15:0 16:0 17:0 18:0 19:0 20:1553.5056 21:652.15002 22:938.97223 23:183.51405 24:181.47932 25:123.18585 26:809.62799 27:458.80182 28:1352.3624 29:480.81998 30:1453.6533 31:706.74823 32:105.29224 33:139.09274 34:844.94922 35:468.68463 36:2075.064 37:938.92621 38:895.55115 39:470.36691 40:2575.7554 41:999.76678 42:1709.6832 43:538.91827 44:3372.4131 45:1024.1259 46:648.7088 47:431.64529 48:3081.0779 49:1559.6863 50:2898.0544 51:710.34167 52:1712.6086 53:714.23407 54:1518.1655 55:714.78003 56:1427.2919 57:533.93512 58:829.34216 59:384.92319 60:2282.5037 61:438.28381 62:1537.2347 63:751.72693 64:1334.7244 65:683.28027 66:824.18298 67:937.4693 68:978.23151 69:300.03595 70:588.71948 71:607.50104 72:1086.1115 73:347.6127 74:1237.4805 75:659.51086 76:282.78366 77:108.98315 78:1046.7633 79:516.51544 80:1724.9397 81:459.4967 82:1394.9036 83:991.83722 84:457.5817 85:126.43507 86:1174.9606 87:608.39368 88:1738.6486 89:528.08679 90:1548.4656 91:1095.1482 92:132.97278 93:53.581089 94:1280.3202 95:702.94189 #
1.0125146931522614207397853009103e-08 1:0 2:0 3:0 4:0 5:0 6:0 7:0 8:0 9:0 10:0 11:0 12:0 13:0 14:0 15:0 16:0 17:0 18:0 19:0 20:594.18677 21:359.97971 22:914.48425 23:373.63089 24:229.78723 25:328.75482 26:359.7688 27:337.45749 28:487.85223 29:221.97299 30:482.99664 31:485.84714 32:165.87914 33:347.28479 34:357.46414 35:345.55258 36:241.16743 37:337.79294 38:469.89963 39:274.91071 40:809.57208 41:178.37375 42:563.64111 43:469.48355 44:279.57336 45:333.047 46:474.96619 47:213.06046 48:331.14117 49:202.34746 50:687.37982 51:303.89963 52:816.38995 53:165.2748 54:711.2912 55:453.77539 56:333.21832 57:380.70633 58:625.84357 59:237.3891 60:174.42058 61:337.4512 62:659.51758 63:288.61667 64:294.67484 65:238.7162 66:573.31299 67:251.83534 68:284.81274 69:370.84705 70:480.789 71:200.68971 72:404.79047 73:215.97821 74:657.67303 75:399.85931 76:318.75568 77:287.32486 78:407.70447 79:359.22839 80:614.04333 81:151.53926 82:691.38373 83:495.31393 84:339.64984 85:299.12057 86:438.41254 87:350.81641 88:633.74603 89:141.05898 90:738.91705 91:514.87244 92:343.57382 93:337.61865 94:566.04156 95:370.47552 #
-1.0125146931522614207397853009103e-08 1:0 2:0 3:0 4:0 5:0 6:0 7:0 8:0 9:0 10:0 11:0 12:0 13:0 14:0 15:0 16:0 17:0 18:0 19:0 20:195.0092 21:318.82053 22:377.01556 23:175.94481 24:142.03925 25:468.75647 26:581.69202 27:80.253204 28:131.01845 29:250.72307 30:730.04846 31:251.62726 32:115.19616 33:419.6438 34:596.74426 35:78.902313 36:143.68369 37:580.70679 38:612.13312 39:104.30822 40:64.224915 41:162.35413 42:616.96863 43:284.681 44:387.56656 45:360.64249 46:752.71747 47:142.1488 48:564.77875 49:312.07861 50:387.46323 51:221.43176 52:60.717365 53:83.39151 54:749.72211 55:317.14435 56:314.793 57:309.34103 58:831.10724 59:352.87994 60:464.46982 61:556.17438 62:981.76239 63:199.00665 64:505.61969 65:65.771194 66:1199.7118 67:514.77722 68:329.67194 69:359.68167 70:878.6123 71:456.76157 72:61.924515 73:93.108795 74:957.93311 75:381.57651 76:70.504578 77:346.3541 78:573.1463 79:98.354897 80:64.070335 81:147.5829 82:733.90228 83:393.26651 84:120.38362 85:316.9639 86:594.56549 87:120.32622 88:69.448227 89:139.91211 90:763.34137 91:444.56784 92:60.320034 93:340.54868 94:675.13995 95:156.79544 #
-1.0125146931522614207397853009103e-08 1:0 2:0 3:0 4:0 5:0 6:0 7:0 8:0 9:0 10:0 11:0 12:0 13:0 14:0 15:0 16:0 17:0 18:0 19:0 20:362.30173 21:230.94278 22:382.43085 23:117.14951 24:286.93362 25:256.22192 26:771.15082 27:484.24146 28:342.13544 29:205.99947 30:625.85846 31:135.41904 32:298.0578 33:262.92706 34:726.3006 35:456.92841 36:192.56212 37:182.46452 38:923.97491 39:319.81427 40:370.01801 41:211.08322 42:668.96912 43:251.98569 44:197.80611 45:303.29755 46:890.94049 47:532.47253 48:384.20093 49:112.2341 50:359.79865 51:187.95473 52:440.6738 53:193.89769 54:656.51843 55:319.58865 56:183.87543 57:341.89197 58:998.7782 59:664.38831 60:111.63285 61:214.43991 62:955.18762 63:520.24658 64:490.92618 65:233.19661 66:690.34845 67:443.88004 68:290.23331 69:376.91287 70:1097.7272 71:802.07361 72:362.64319 73:251.71356 74:783.05542 75:264.68164 76:262.81476 77:254.82472 78:783.03229 79:538.0379 80:338.01443 81:187.17969 82:1003.4193 83:200.98703 84:275.84158 85:296.26904 86:676.63 87:553.37402 88:354.24515 89:206.74178 90:1052.948 91:221.5527 92:296.46225 93:323.37466 94:567.75409 95:517.75232 #
1.0125146931522614207397853009103e-08 1:0 2:0 3:0 4:0 5:0 6:0 7:0 8:0 9:0 10:0 11:0 12:0 13:0 14:0 15:0 16:0 17:0 18:0 19:0 20:3605.8049 21:975.6972 22:952.34418 23:523.90674 24:428.50525 25:118.04029 26:314.06046 27:329.32391 28:2859.199 29:1001.6591 30:2070.1152 31:916.9248 32:174.00191 33:80.802551 34:361.36691 35:309.10263 36:735.28619 37:383.82877 38:1976.6519 39:418.47205 40:4537.147 41:989.3833 42:2444.3113 43:637.44122 44:1336.798 45:667.3725 46:494.4881 47:556.31653 48:4032.3069 49:4152.6929 50:2844.8254 51:993.8009 52:5357.5596 53:1511.7012 54:2040.1315 55:697.27527 56:1161.3457 57:430.02829 58:649.41101 59:535.1637 60:3362.5034 61:1218.4261 62:2012.0023 63:1074.3976 64:5884.7061 65:1183.0865 66:961.07245 67:696.08826 68:362.34174 69:521.65796 70:639.51099 71:370.28745 72:4901.4771 73:1627.7195 74:1836.8669 75:887.45569 76:476.67413 77:255.63434 78:402.45285 79:277.65692 80:3797.1772 81:1315.7046 82:1918.8851 83:799.2652 84:292.06699 85:322.81342 86:446.06302 87:309.88339 88:3739.1514 89:1320.8578 90:2008.4044 91:804.04889 92:414.29276 93:483.04657 94:584.5777 95:396.94305 #
1.0125146931522614207397853009103e-08 1:0 2:0 3:0 4:0 5:0 6:0 7:0 8:0 9:0 10:0 11:0 12:0 13:0 14:0 15:0 16:0 17:0 18:0 19:0 20:710.6012 21:322.34396 22:1102.985 23:671.2417 24:723.01935 25:161.45508 26:463.13098 27:505.22375 28:666.6449 29:721.31036 30:1845.5599 31:880.42603 32:756.55255 33:100.24414 34:450.13834 35:492.32202 36:3139.5061 37:1212.386 38:2363.3684 39:842.00342 40:615.35168 41:362.64264 42:1521.74 43:674.84015 44:1351.1053 45:890.31982 46:1262.1748 47:497.97467 48:7014.7065 49:2685.3853 50:2851.6672 51:709.4801 52:1067.5852 53:270.65396 54:2048.9451 55:706.2959 56:1651.5178 57:736.0863 58:623.88062 59:394.84863 60:6845.2456 61:6294.6313 62:9821.7686 63:2406.4207 64:1555.2175 65:618.74835 66:4355.4302 67:908.49048 68:1039.2189 69:762.33966 70:1215.6187 71:275.98511 72:396.05777 73:399.25821 74:1439.6995 75:927.62354 76:752.08008 77:143.35806 78:480.80685 79:580.06561 80:725.11749 81:632.02301 82:1723.9149 83:829.65332 84:761.95679 85:108.18344 86:507.01505 87:555.41394 88:692.08807 89:600.36835 90:1675.2645 91:851.11047 92:682.18268 93:69.754196 94:376.81033 95:585.75629 #
1.0125146931522614207397853009103e-08 1:0 2:0 3:0 4:0 5:0 6:0 7:0 8:0 9:0 10:0 11:0 12:0 13:0 14:0 15:0 16:0 17:0 18:0 19:0 20:3280.6045 21:1463.8906 22:3487.2996 23:930.99652 24:306.41119 25:414.94693 26:593.01196 27:269.57611 28:4330.2388 29:3626.4255 30:7178.1909 31:1338.3081 32:424.96628 33:403.48889 34:525.65161 35:314.84766 36:6154.2539 37:333.71155 38:2862.4895 39:465.08835 40:3094.7429 41:2446.449 42:5202.0449 43:2409.3086 44:2613.5303 45:460.49985 46:2619.8083 47:214.88875 48:3363.4756 49:4641.6265 50:10480.062 51:1943.3949 52:2012.4703 53:1553.3757 54:3892.5996 55:1493.1354 56:1727.4973 57:981.08636 58:1198.5496 59:752.71161 60:3789.0452 61:1159.3489 62:3704.4482 63:3403.0791 64:7264.1445 65:3300.5024 66:5673.2935 67:1249.3116 68:1121.8163 69:428.28476 70:1022.7465 71:680.45709 72:4951.7422 73:2824.3235 74:5941.4561 75:1429.3975 76:251.9614 77:402.18823 78:657.15521 79:337.88025 80:1019.9813 81:463.93585 82:4729.1465 83:1196.6169 84:383.83987 85:460.56113 86:588.39197 87:460.59961 88:1482.3142 89:520.89038 90:5582.0181 91:1206.2455 92:1066.926 93:887.95599 94:896.54169 95:602.70447 #
-5.4993413504640977184198133377504e-09 1:0 2:0 3:0 4:0 5:0 6:0 7:0 8:0 9:0 10:0 11:0 12:0 13:0 14:0 15:0 16:0 17:0 18:0 19:0 20:1539.0211 21:659.33356 22:1017.7793 23:707.92755 24:198.79495 25:311.15076 26:793.21643 27:381.01007 28:2791.45 29:3152.4539 30:5191.1294 31:534.40308 32:301.28787 33:324.3063 34:733.12653 35:396.01126 36:3699.5623 37:954.72235 38:2487.4014 39:577.48218 40:3636.1792 41:2159.5574 42:2637.7883 43:682.97675 44:2093.9587 45:1123.2473 46:1293.3455 47:272.13986 48:2791.7664 49:2926.9946 50:8009.4243 51:1432.3518 52:7481.4629 53:2562.8176 54:1278.6169 55:486.98819 56:300.71213 57:127.41693 58:699.15436 59:529.60944 60:10253.839 61:8607.9482 62:11051.605 63:821.44788 64:4047.54 65:1442.2401 66:1772.5836 67:975.05042 68:1851.3115 69:192.849 70:735.77631 71:566.47363 72:1180.0365 73:369.19247 74:1513.2258 75:757.03418 76:446.84698 77:508.48306 78:1130.4375 79:502.0961 80:502.31927 81:1201.5308 82:2297.0574 83:823.89557 84:562.24115 85:536.55493 86:1262.6222 87:588.01697 88:859.49622 89:895.92596 90:2543.1692 91:916.00079 92:374.30817 93:760.25134 94:1354.3834 95:677.72839 #
-1.0125146931522614207397853009103e-08 1:0 2:0 3:0 4:0 5:0 6:0 7:0 8:0 9:0 10:0 11:0 12:0 13:0 14:0 15:0 16:0 17:0 18:0 19:0 20:880.47314 21:663.33472 22:1703.5852 23:562.74329 24:1801.9314 25:1237.8643 26:777.65802 27:302.11581 28:1137.604 29:1420.6963 30:5983.3013 31:384.8107 32:1973.583 33:1238.4592 34:715.76996 35:423.33203 36:3143.0208 37:1682.7949 38:1679.158 39:693.30975 40:1323.2408 41:544.53156 42:5350.3423 43:553.77264 44:1085.1987 45:128.64235 46:1788.1965 47:272.05734 48:4419.6001 49:4129.3169 50:12030.111 51:2576.2478 52:5945.6636 53:1980.6498 54:2311.4297 55:506.32428 56:3917.8076 57:3051.1177 58:2573.4619 59:926.65448 60:3901.9502 61:6847.8389 62:11243.458 63:1956.2277 64:3161.3892 65:1891.6163 66:2354.0488 67:1194.2131 68:833.82184 69:1947.8705 70:1806.2728 71:623.03943 72:2409.991 73:2047.5383 74:1920.8121 75:555.659 76:2580.0955 77:1321.829 78:899.96246 79:345.19891 80:3585.4312 81:1770.2439 82:2849 83:485.13199 84:3280.1465 85:1423.5026 86:1091.3812 87:401.97995 88:3217.5017 89:1938.0518 90:1745.7833 91:718.9314 92:3341.5193 93:1496.073 94:1223.2252 95:399.10107 #
1.0125146931522614207397853009103e-08 1:0 2:0 3:0 4:0 5:0 6:0 7:0 8:0 9:0 10:0 11:0 12:0 13:0 14:0 15:0 16:0 17:0 18:0 19:0 20:205.92581 21:284.00287 22:821.76813 23:196.00104 24:535.95312 25:267.44812 26:541.65869 27:221.30499 28:285.62164 29:370.30399 30:1101.9424 31:218.29669 32:528.06335 33:251.2281 34:550.53876 35:223.92223 36:545.57281 37:385.85532 38:560.68262 39:244.64067 40:344.82571 41:270.41068 42:923.74268 43:113.04066 44:820.30634 45:531.72961 46:328.85294 47:362.95004 48:529.59662 49:326.92044 50:1116.7225 51:171.45721 52:516.57239 53:282.50198 54:722.20258 55:201.93033 56:590.37012 57:331.38733 58:444.09988 59:463.12045 60:633.96356 61:56.310757 62:387.72134 63:382.68243 64:285.17642 65:370.00128 66:1302.4093 67:687.05646 68:685.30603 69:252.30927 70:515.88574 71:578.04706 72:426.9563 73:106.45514 74:1118.9546 75:210.1982 76:602.35315 77:313.74127 78:579.93793 79:279.37155 80:381.17172 81:168.35301 82:1174.712 83:249.5049 84:640.42401 85:319.05872 86:643.3634 87:317.38226 88:391.45343 89:162.8632 90:1210.7622 91:279.34872 92:671.49835 93:368.57266 94:736.56561 95:398.35703 #
-1.0125146931522614207397853009103e-08 1:0 2:0 3:0 4:0 5:0 6:0 7:0 8:0 9:0 10:0 11:0 12:0 13:0 14:0 15:0 16:0 17:0 18:0 19:0 20:2043.2164 21:667.7359 22:1063.0148 23:465.29456 24:562.60266 25:96.08223 26:352.18921 27:259.7085 28:1630.9349 29:1052.8033 30:2564.8176 31:843.7558 32:463.82977 33:94.539383 34:552.17963 35:256.62314 36:1138.7859 37:47.277725 38:1714.2578 39:436.36548 40:2498.0623 41:1578.259 42:2389.4971 43:907.26239 44:1810.1138 45:570.64709 46:1626.4821 47:473.41599 48:5882.7295 49:2033.8727 50:4050.4045 51:772.82642 52:3389.0537 53:1469.6033 54:2413.7087 55:990.51166 56:183.80605 57:253.38533 58:1415.9719 59:848.51221 60:2484.1494 61:2539.0137 62:3630.9666 63:1468.8286 64:5942.4194 65:2541.2705 66:2385.4922 67:729.34912 68:2653.5842 69:668.49481 70:1435.5374 71:1396.4105 72:2325.1003 73:1102.2413 74:1842.731 75:752.72528 76:710.36945 77:341.33133 78:1053.6826 79:308.91302 80:1866.4769 81:656.59766 82:1719.8915 83:1040.7526 84:797.42236 85:484.2298 86:1391.5994 87:313.49551 88:1810.488 89:640.0542 90:1923.9036 91:1103.0343 92:176.17249 93:465.14844 94:1650.0461 95:314.70166 #
-1.0125146931522614207397853009103e-08 1:0 2:0 3:0 4:0 5:0 6:0 7:0 8:0 9:0 10:0 11:0 12:0 13:0 14:0 15:0 16:0 17:0 18:0 19:0 20:166.76305 21:98.604805 22:392.62787 23:198.4758 24:301.03534 25:139.25505 26:579.41278 27:205.21152 28:205.4386 29:140.39252 30:1026.8796 31:362.9455 32:273.26498 33:137.0361 34:522.56879 35:214.07732 36:98.099815 37:90.489166 38:691.62128 39:170.34435 40:106.68205 41:235.42297 42:1293.16 43:286.59412 44:398.76712 45:317.45236 46:309.79871 47:311.65091 48:242.09418 49:400.04047 50:885.83551 51:90.827911 52:74.039543 53:180.1012 54:1408.9653 55:220.81256 56:281.24734 57:243.28387 58:515.62042 59:435.08875 60:85.703651 61:218.09547 62:890.83746 63:300.47415 64:566.10089 65:49.719704 66:1143.8907 67:440.08496 68:418.77716 69:102.66944 70:609.46094 71:429.8577 72:294.69302 73:153.35776 74:859.09412 75:493.48566 76:319.86005 77:157.64365 78:594.61005 79:327.83173 80:218.93953 81:216.24481 82:1072.7565 83:565.60388 84:269.39618 85:168.53607 86:563.13416 87:359.05743 88:186.89577 89:245.42732 90:1148.6736 91:610.77527 92:305.27762 93:178.50406 94:461.00772 95:445.45627 #
-6.4942335942467571416960469459292e-09 1:0 2:0 3:0 4:0 5:0 6:0 7:0 8:0 9:0 10:0 11:0 12:0 13:0 14:0 15:0 16:0 17:0 18:0 19:0 20:668.54144 21:348.28427 22:685.15546 23:224.61171 24:83.574112 25:255.74275 26:282.76895 27:214.94823 28:608.94128 29:317.16571 30:697.46228 31:360.6395 32:40.260353 33:288.68909 34:372.25085 35:239.87947 36:1723.5626 37:841.151 38:591.2583 39:240.68452 40:1400.2052 41:187.62683 42:762.479 43:328.16913 44:355.23563 45:642.56732 46:1273.178 47:472.35257 48:1894.571 49:2359.1699 50:3200.7031 51:753.32898 52:1507.1189 53:209.59297 54:766.55023 55:323.98376 56:322.46948 57:542.83154 58:1334.8262 59:555.45789 60:2078.9058 61:453.54358 62:1403.697 63:601.37634 64:1628.613 65:128.13364 66:579.99207 67:371.54507 68:400.55313 69:717.69214 70:979.90765 71:421.77628 72:422.56638 73:405.23715 74:619.64288 75:165.24156 76:243.94461 77:243.52388 78:284.54324 79:259.36349 80:714.25702 81:317.63214 82:447.58191 83:129.82809 84:267.18677 85:296.05725 86:314.19211 87:276.76361 88:654.52081 89:270.9379 90:453.35153 91:130.35191 92:167.15202 93:369.31888 94:364.57214 95:317.11581 #
-1.0125146931522614207397853009103e-08 1:0 2:0 3:0 4:0 5:0 6:0 7:0 8:0 9:0 10:0 11:0 12:0 13:0 14:0 15:0 16:0 17:0 18:0 19:0 20:594.18677 21:359.97971 22:914.48425 23:373.63089 24:229.78723 25:328.75482 26:359.7688 27:337.45749 28:487.85223 29:221.97299 30:482.99664 31:485.84714 32:165.87914 33:347.28479 34:357.46414 35:345.55258 36:241.16743 37:337.79294 38:469.89963 39:274.91071 40:809.57208 41:178.37375 42:563.64111 43:469.48355 44:279.57336 45:333.047 46:474.96619 47:213.06046 48:331.14117 49:202.34746 50:687.37982 51:303.89963 52:816.38995 53:165.2748 54:711.2912 55:453.77539 56:333.21832 57:380.70633 58:625.84357 59:237.3891 60:174.42058 61:337.4512 62:659.51758 63:288.61667 64:294.67484 65:238.7162 66:573.31299 67:251.83534 68:284.81274 69:370.84705 70:480.789 71:200.68971 72:404.79047 73:215.97821 74:657.67303 75:399.85931 76:318.75568 77:287.32486 78:407.70447 79:359.22839 80:614.04333 81:151.53926 82:691.38373 83:495.31393 84:339.64984 85:299.12057 86:438.41254 87:350.81641 88:633.74603 89:141.05898 90:738.91705 91:514.87244 92:343.57382 93:337.61865 94:566.04156 95:370.47552 #
1.0125146931522614207397853009103e-08 1:0 2:0 3:0 4:0 5:0 6:0 7:0 8:0 9:0 10:0 11:0 12:0 13:0 14:0 15:0 16:0 17:0 18:0 19:0 20:709.79553 21:574.88739 22:1211.0811 23:297.70847 24:2207.1658 25:1133.2848 26:2637.2708 27:654.58997 28:1713.1956 29:1364.3519 30:3620.4792 31:586.86725 32:2286.6538 33:1152.9974 34:2645.0586 35:628.87189 36:2592.2827 37:1367.5823 38:3996.0396 39:760.70483 40:607.06494 41:1024.2614 42:3842.2622 43:755.16626 44:2114.9204 45:1133.3322 46:2151.2773 47:726.76691 48:1094.3148 49:438.65152 50:1781.6924 51:232.29964 52:2656.3843 53:1898.525 54:2518.9941 55:647.83264 56:2542.3511 57:1174.2063 58:2108.3784 59:862.7323 60:3881.7627 61:3969.8298 62:8144.8003 63:1530.0378 64:3370.6499 65:1226.7174 66:1423.6259 67:711.45953 68:1885.6237 69:1314.4484 70:1863.0669 71:858.6225 72:1694.3257 73:1322.9604 74:3538.7075 75:496.87756 76:2216.6704 77:1174.7144 78:2570.2458 79:580.79999 80:2361.6904 81:1474.4565 82:2656.3303 83:839.12506 84:2308.3289 85:1159.5521 86:2513.7935 87:527.09393 88:1792.5294 89:1116.5725 90:2214.4697 91:810.95978 92:2279.3936 93:1181.8745 94:2388.2651 95:456.6409 #
1.0125146931522614207397853009103e-08 1:0 2:0 3:0 4:0 5:0 6:0 7:0 8:0 9:0 10:0 11:0 12:0 13:0 14:0 15:0 16:0 17:0 18:0 19:0 20:1054.0289 21:325.56094 22:961.57001 23:460.06763 24:900.0639 25:242.11295 26:733.24237 27:330.04031 28:1382.6686 29:1034.417 30:1730.8173 31:860.85986 32:922.87689 33:288.26102 34:743.50055 35:334.9895 36:1576.3444 37:536.33032 38:1293.3136 39:624.70697 40:2464.3367 41:839.40649 42:1339.3947 43:643.10858 44:1560.3241 45:747.18256 46:747.1192 47:966.54071 48:2772.6855 49:3272.7983 50:5213.2832 51:929.55969 52:2520.6294 53:643.73022 54:2484.4768 55:784.50317 56:2107.2981 57:287.44449 58:1304.699 59:1532.1703 60:5917.6187 61:6185.9844 62:6494.7935 63:1303.8605 64:4046.1792 65:1014.2067 66:1986.2617 67:1052.0957 68:4073.3113 69:476.35867 70:1548.6176 71:1958.3022 72:693.54779 73:761.61597 74:572.79095 75:534.32886 76:756.46478 77:335.61633 78:696.06128 79:352.40427 80:656.82092 81:832.06152 82:960.0282 83:620.56744 84:783.9101 85:393.68021 86:790.97571 87:363.76569 88:416.4776 89:796.41534 90:926.31921 91:590.6333 92:655.50861 93:589.41479 94:982.255 95:411.11984 #
1.0125146931522614207397853009103e-08 1:0 2:0 3:0 4:0 5:0 6:0 7:0 8:0 9:0 10:0 11:0 12:0 13:0 14:0 15:0 16:0 17:0 18:0 19:0 20:1129.4047 21:660.89752 22:1258.1976 23:467.5578 24:1366.6619 25:1290.775 26:2169.4075 27:262.90891 28:1070.9891 29:574.74713 30:2014.9802 31:1273.6904 32:1501.0254 33:1293.0583 34:2282.8342 35:338.25879 36:1012.9386 37:1235.1493 38:3141.1697 39:543.05243 40:1954.7346 41:1944.1196 42:2778.0662 43:1147.2877 44:1141.7061 45:1334.8473 46:2601.2605 47:316.12952 48:1163.9183 49:1292.8289 50:4236.5991 51:711.11841 52:2862.9287 53:1242.1466 54:1258.3109 55:892.26233 56:1423.5208 57:1113.9056 58:3242.5535 59:460.47235 60:2690.2385 61:2514.4355 62:3066.6753 63:493.66443 64:1991.4447 65:1035.9296 66:686.09106 67:533.20599 68:498.69717 69:602.38281 70:2751.6733 71:499.97986 72:540.29089 73:286.83173 74:1208.5564 75:1068.3994 76:1398.293 77:1259.0593 78:2226.0916 79:384.50043 80:1080.5344 81:928.18127 82:1621.9886 83:1289.8562 84:1525.7633 85:1305.5156 86:2147.8611 87:438.2944 88:1133.3497 89:787.86182 90:1566.8538 91:1474.1506 92:1553.4442 93:1338.1249 94:2105.0286 95:561.5014 #
1.0125146931522614207397853009103e-08 1:0 2:0 3:0 4:0 5:0 6:0 7:0 8:0 9:0 10:0 11:0 12:0 13:0 14:0 15:0 16:0 17:0 18:0 19:0 20:1130.3556 21:530.55115 22:574.25781 23:178.43149 24:649.00031 25:153.95578 26:379.13858 27:572.30597 28:849.11755 29:997.8645 30:1939.0039 31:1477.7046 32:680.31708 33:125.08359 34:553.51404 35:673.54803 36:4408.9551 37:3514.9109 38:6411.9365 39:1183.2295 40:863.30151 41:637.12799 42:1697.1213 43:764.46924 44:1270.0464 45:765.83685 46:912.64117 47:221.82668 48:8285.4385 49:8003.7261 50:19356.717 51:3371.5693 52:1625.7896 53:307.59259 54:1169.2698 55:612.60376 56:951.12976 57:699.18713 58:1251.8586 59:280.6243 60:4868.9004 61:4220.7876 62:8648.416 63:3198.4614 64:1840.2988 65:1186.1791 66:2314.1052 67:829.83441 68:736.67114 69:431.75623 70:1075.342 71:815.97699 72:209.5499 73:683.96777 74:1036.2711 75:1577.9928 76:907.65979 77:262.56754 78:418.36606 79:894.67511 80:1180.8446 81:647.72272 82:1577.2048 83:1861.8683 84:1044.3932 85:341.16095 86:525.62665 87:939.14508 88:1004.1493 89:521.7854 90:1680.2463 91:2003.4247 92:1557.1066 93:565.13873 94:746.84369 95:1048.324 #
1.0125146931522614207397853009103e-08 1:0 2:0 3:0 4:0 5:0 6:0 7:0 8:0 9:0 10:0 11:0 12:0 13:0 14:0 15:0 16:0 17:0 18:0 19:0 20:223.34953 21:150.41115 22:738.66418 23:298.64526 24:513.04187 25:34.571541 26:308.64658 27:305.17081 28:317.7774 29:354.80743 30:1060.9501 31:758.10303 32:540.73163 33:36.845047 34:366.50287 35:374.4664 36:1229.7305 37:181.70163 38:407.13251 39:259.55933 40:415.90433 41:196.07556 42:946.40839 43:395.73758 44:641.95935 45:310.89856 46:967.0307 47:184.98384 48:575.90399 49:87.813538 50:582.87256 51:441.03952 52:751.57861 53:254.26501 54:811.01276 55:339.05554 56:443.87634 57:74.705528 58:820.38971 59:230.30898 60:297.26413 61:92.104774 62:382.09662 63:334.67349 64:550.69495 65:240.01457 66:486.24619 67:646.08032 68:554.93512 69:81.630974 70:358.75909 71:318.11874 72:269.2413 73:323.70306 74:1203.0251 75:787.27008 76:433.63849 77:42.562721 78:467.12134 79:400.59921 80:337.73288 81:236.69737 82:1360.979 83:851.63464 84:424.6348 85:21.006668 86:517.54681 87:385.03052 88:292.4776 89:226.58646 90:1445.537 91:892.44885 92:515.42554 93:116.0453 94:616.789 95:433.35168 #
1.0125146931522614207397853009103e-08 1:0 2:0 3:0 4:0 5:0 6:0 7:0 8:0 9:0 10:0 11:0 12:0 13:0 14:0 15:0 16:0 17:0 18:0 19:0 20:335.69763 21:117.84189 22:610.56824 23:485.44458 24:278.59113 25:399.20529 26:413.97977 27:235.97906 28:416.85919 29:364.64841 30:1133.7067 31:818.79193 32:308.31357 33:437.80139 34:456.81635 35:248.80022 36:455.0332 37:99.481102 38:285.70853 39:309.74802 40:327.8075 41:72.771828 42:1150.0359 43:779.79932 44:88.72834 45:342.05801 46:481.39075 47:183.7748 48:290.23178 49:501.0813 50:820.27271 51:374.12088 52:472.85651 53:319.73468 54:887.30646 55:596.37061 56:178.78444 57:453.52985 58:624.88123 59:237.72279 60:266.04535 61:493.57773 62:862.19055 63:340.46857 64:648.90588 65:620.50116 66:818.98383 67:289.76117 68:370.70828 69:509.73672 70:788.85205 71:502.18927 72:194.49809 73:257.8667 74:1099.5464 75:741.14398 76:197.11369 77:363.57819 78:454.11972 79:219.02696 80:388.436 81:287.37592 82:1239.7108 83:889.91241 84:197.79749 85:364.81635 86:498.68576 87:192.57797 88:307.15991 89:244.63417 90:1227.4515 91:929.58612 92:158.52567 93:355.93219 94:588.43085 95:252.0658 #
-1.0125146931522614207397853009103e-08 1:0 2:0 3:0 4:0 5:0 6:0 7:0 8:0 9:0 10:0 11:0 12:0 13:0 14:0 15:0 16:0 17:0 18:0 19:0 20:1524.8722 21:170.68559 22:410.45065 23:293.46466 24:879.71991 25:295.30084 26:711.62396 27:210.94473 28:1677.0802 29:79.85482 30:235.92264 31:878.39423 32:858.92621 33:249.2278 34:675.35815 35:217.62114 36:386.97067 37:149.76845 38:939.38232 39:388.93631 40:1441.2471 41:107.11855 42:421.88019 43:830.38519 44:1372.1995 45:820.22418 46:1107.384 47:212.18947 48:1661.6294 49:179.50934 50:572.32153 51:397.90659 52:1452.0537 53:106.45371 54:610.45996 55:910.44434 56:840.23346 57:279.49542 58:1532.2921 59:286.38885 60:1440.9103 61:152.52864 62:937.6723 63:300.28732 64:2188.1438 65:180.98735 66:930.30273 67:556.79419 68:876.46094 69:231.4473 70:1554.2419 71:342.56375 72:1648.1376 73:78.753876 74:250.87346 75:806.69891 76:897.03888 77:311.98215 78:760.89441 79:232.11465 80:1681.9723 81:16.957199 82:419.1329 83:1164.3293 84:857.50598 85:311.29462 86:829.62061 87:265.02618 88:1646.8832 89:22.707998 90:484.25079 91:1288.3717 92:967.50073 93:330.47079 94:942.15112 95:347.5369 #
-1.0125146931522614207397853009103e-08 1:0 2:0 3:0 4:0 5:0 6:0 7:0 8:0 9:0 10:0 11:0 12:0 13:0 14:0 15:0 16:0 17:0 18:0 19:0 20:1398.6035 21:302.43942 22:410.59198 23:273.76251 24:3297.3491 25:1626.239 26:991.9176 27:410.69662 28:1355.8323 29:369.54337 30:688.36627 31:428.03818 32:3444.688 33:1630.7019 34:982.84479 35:389.92166 36:3819.7039 37:1852.9323 38:1468.2667 39:355.97427 40:1080.7394 41:361.21609 42:800.49408 43:482.66208 44:3351.5715 45:2040.3499 46:2166.5376 47:371.43179 48:1552.4801 49:1040.7184 50:950.50018 51:437.13611 52:959.90833 53:434.96487 54:950.17133 55:565.1347 56:3342.2854 57:2078.6721 58:1820.1112 59:442.23587 60:3946.3342 61:1430.3378 62:1629.0425 63:496.99701 64:2565.6423 65:378.2197 66:1395.589 67:717.94537 68:3968.353 69:1975.2667 70:2201.3247 71:470.8295 72:1460.231 73:149.44971 74:359.39926 75:355.87558 76:3115.3579 77:1647.0913 78:979.4527 79:432.54837 80:1473.9232 81:297.44681 82:653.48676 83:531.22791 84:2757.4329 85:1665.0844 86:1059.62 87:449.12405 88:1381.1589 89:250.61707 90:661.08972 91:560.36932 92:2960.8811 93:1738.9629 94:1010.548 95:438.73166 #
-1.0125146931522614207397853009103e-08 1:0 2:0 3:0 4:0 5:0 6:0 7:0 8:0 9:0 10:0 11:0 12:0 13:0 14:0 15:0 16:0 17:0 18:0 19:0 20:887.32837 21:294.16144 22:428.74918 23:219.71875 24:2194.6667 25:317.70053 26:778.06891 27:507.42529 28:854.57184 29:533.49847 30:653.94281 31:348.58524 32:2121.7197 33:309.9874 34:800.85956 35:493.22852 36:1746.4014 37:378.9946 38:655.89941 39:418.96442 40:1703.5718 41:303.99017 42:596.96417 43:502.75647 44:2377.1831 45:297.8121 46:950.71021 47:429.18808 48:1970.8922 49:418.20404 50:673.25616 51:471.04404 52:745.4516 53:239.01785 54:1141.8538 55:649.50171 56:1608.1177 57:430.34094 58:1321.3812 59:548.49231 60:2986.6694 61:565.99335 62:987.63757 63:597.50586 64:1287.1569 65:272.23697 66:1185.4524 67:403.34048 68:2328.6858 69:318.23657 70:1764.6233 71:733.45752 72:1972.5249 73:515.05115 74:1050.5909 75:245.76091 76:2513.3159 77:314.84601 78:1000.0159 79:552.55164 80:994.96326 81:98.280266 82:918.26111 83:508.40674 84:2637.5732 85:316.72955 86:1034.9454 87:522.19971 88:953.5495 89:87.294693 90:1106.5122 91:561.93567 92:2682.9746 93:351.01935 94:1034.8481 95:505.22018 #
-1.0125146931522614207397853009103e-08 1:0 2:0 3:0 4:0 5:0 6:0 7:0 8:0 9:0 10:0 11:0 12:0 13:0 14:0 15:0 16:0 17:0 18:0 19:0 20:873.42957 21:744.41168 22:1142.0594 23:418.01395 24:4250.9312 25:1143.22 26:1645.2737 27:364.59583 28:1600.4481 29:1606.4973 30:1077.4905 31:582.41577 32:4129.6763 33:1098.7522 34:1657.6171 35:418.24127 36:4669.7861 37:1636.1693 38:2173.2729 39:235.91591 40:591.04553 41:1028.2614 42:1291.4761 43:464.01398 44:4028.3589 45:1048.2117 46:1573.0537 47:379.46881 48:876.32367 49:869.45221 50:1671.4723 51:589.38605 52:396.50504 53:620.50647 54:1172.6887 55:485.87921 56:4936.7876 57:1216.6492 58:1678.0129 59:448.18118 60:3470.907 61:940.27917 62:1429.371 63:187.40791 64:310.11633 65:573.49066 66:1425.9222 67:560.3634 68:4900.71 69:1230.7454 70:2043.8934 71:538.0694 72:891.00195 73:1128.7512 74:1105.6801 75:441.57489 76:4133.0938 77:1035.4617 78:1837.2219 79:481.38107 80:882.24884 81:1037.1682 82:846.8457 83:538.58514 84:4486.7568 85:1149.9667 86:1834.306 87:467.07086 88:782.89539 89:950.92145 90:926.4234 91:582.64648 92:4722.8105 93:1288.2218 94:1879.7089 95:432.38 #
-6.9596690759433373799297209037415e-09 1:0 2:0 3:0 4:0 5:0 6:0 7:0 8:0 9:0 10:0 11:0 12:0 13:0 14:0 15:0 16:0 17:0 18:0 19:0 20:2127.8572 21:1868.2653 22:3316.7871 23:869.85419 24:1134.3025 25:1113.8066 26:1370.402 27:329.1308 28:2051.9119 29:3780.1938 30:5758.499 31:1424.6245 32:864.99805 33:1197.1935 34:1640.207 35:388.09637 36:3795.1038 37:1644.3995 38:3805.116 39:1226.7233 40:3154.4346 41:2421.7334 42:3985.3828 43:1128.3729 44:1068.1848 45:669.21161 46:1061.1324 47:490.6951 48:2914.8154 49:5757.3652 50:19812.629 51:1827.0692 52:1787.5897 53:3504.3176 54:5631.4497 55:1581.7001 56:346.43964 57:1031.5189 58:1399.91 59:720.7345 60:5816.8154 61:2095.1499 62:11805.445 63:1322.0277 64:2553.6755 65:2774.593 66:5668.584 67:1779.9741 68:947.98334 69:1322.7014 70:1479.9456 71:560.65375 72:861.55328 73:1955.4969 74:3840.6931 75:1178.2731 76:1390.3035 77:1471.4293 78:1493.9014 79:372.82812 80:977.03339 81:2434.1763 82:6005.1299 83:1632.8706 84:1596.9781 85:1711.7034 86:1642.625 87:403.27222 88:453.79562 89:2146.8228 90:4567.6089 91:1497.0834 92:2079.7585 93:2008.0472 94:1978.7269 95:446.31955 #
-1.0125146931522614207397853009103e-08 1:0 2:0 3:0 4:0 5:0 6:0 7:0 8:0 9:0 10:0 11:0 12:0 13:0 14:0 15:0 16:0 17:0 18:0 19:0 20:328.41528 21:184.3329 22:498.40237 23:154.92694 24:560.39221 25:74.130737 26:589.9491 27:179.5201 28:514.27026 29:272.54822 30:1299.8893 31:694.14453 32:485.2323 33:62.677631 34:568.48438 35:178.5285 36:771.46448 37:236.68649 38:400.68842 39:184.07516 40:293.68585 41:167.42595 42:1401.9515 43:311.09216 44:479.0535 45:87.120598 46:711.14948 47:201.38977 48:769.13007 49:356.09995 50:864.19397 51:129.98285 52:835.65643 53:544.6554 54:1445.5234 55:237.96782 56:171.56236 57:234.22722 58:881.3454 59:434.67862 60:341.46591 61:178.02988 62:916.92902 63:331.73706 64:1147.1949 65:556.38898 66:682.89075 67:529.52844 68:481.02692 69:306.32092 70:963.52997 71:569.19507 72:317.41037 73:293.02591 74:1710.3483 75:661.16528 76:730.69763 77:138.70427 78:593.05859 79:188.17477 80:477.81039 81:397.84827 82:2040.5769 83:758.32928 84:763.58008 85:166.74655 86:650.2923 87:203.94186 88:459.4379 89:403.58884 90:2204.5051 91:793.52332 92:687.63873 93:144.03555 94:710.20398 95:202.41534 #
-1.0125146931522614207397853009103e-08 1:0 2:0 3:0 4:0 5:0 6:0 7:0 8:0 9:0 10:0 11:0 12:0 13:0 14:0 15:0 16:0 17:0 18:0 19:0 20:2108.9485 21:1129.8923 22:3705.9607 23:1675.2134 24:1460.7045 25:747.7569 26:697.3335 27:449.07852 28:1134.1592 29:1129.3892 30:3554.7441 31:2174.0171 32:1519.5745 33:804.48462 34:760.87347 35:449.74176 36:900.45398 37:596.03479 38:1388.1743 39:558.27222 40:3410.1968 41:1639.2694 42:6004.0459 43:2455.9702 44:802.06885 45:815.3548 46:2351.6372 47:573.12793 48:5535.7573 49:2225.1455 50:5495.3828 51:1994.3505 52:2106.0376 53:2146.1912 54:8878.3311 55:4032.9119 56:1745.9364 57:792.15094 58:2372.3606 59:1255.4937 60:2238.6848 61:1370.2095 62:3918.7671 63:1252.6642 64:1235.6941 65:1056.821 66:5683.1978 67:2798.7358 68:1734.4106 69:817.24969 70:3296.866 71:1479.8123 72:2840.1152 73:1604.3761 74:4093.9575 75:2001.4581 76:1784.6271 77:914.19556 78:949.48914 79:426.83823 80:2602.2996 81:1777.2289 82:4221.417 83:2248.0012 84:1942.103 85:993.4978 86:1137.4486 87:429.97589 88:2993.9717 89:1756.7141 90:4403.373 91:2104.2798 92:1342.4132 93:799.00964 94:1084.0496 95:410.73602 #
1.0125146931522614207397853009103e-08 1:0 2:0 3:0 4:0 5:0 6:0 7:0 8:0 9:0 10:0 11:0 12:0 13:0 14:0 15:0 16:0 17:0 18:0 19:0 20:714.87347 21:284.6926 22:499.23816 23:366.25998 24:260.5033 25:29.357456 26:173.41925 27:197.14345 28:1239.7256 29:427.49051 30:573.07104 31:460.03284 32:277.75314 33:64.490082 34:140.04935 35:170.71774 36:449.78604 37:72.804741 38:374.42477 39:195.45045 40:945.0105 41:373.13867 42:558.59271 43:461.86777 44:1476.1821 45:677.81714 46:837.55212 47:161.51871 48:635.63666 49:102.64323 50:671.63263 51:648.5188 52:1492.7057 53:720.07965 54:996.41119 55:461.42856 56:708.84125 57:227.40381 58:515.92206 59:158.99344 60:309.99097 61:160.29904 62:1220.0056 63:376.61008 64:459.08987 65:229.18115 66:298.87265 67:279.9407 68:656.37738 69:363.8588 70:473.29657 71:293.5687 72:887.28595 73:372.17636 74:659.27911 75:365.00812 76:232.70334 77:16.471775 78:198.06891 79:254.31487 80:860.05927 81:385.48602 82:629.04419 83:402.33582 84:244.6246 85:35.242832 86:198.50706 87:254.49998 88:926.29565 89:406.51617 90:646.14661 91:413.79745 92:249.45453 93:53.390625 94:216.80426 95:268.0304 #
-1.0125146931522614207397853009103e-08 1:0 2:0 3:0 4:0 5:0 6:0 7:0 8:0 9:0 10:0 11:0 12:0 13:0 14:0 15:0 16:0 17:0 18:0 19:0 20:755.93585 21:136.24345 22:532.00574 23:166.18137 24:343.69882 25:103.49911 26:599.91046 27:200.47716 28:2032.2676 29:61.404316 30:508.24506 31:525.06885 32:249.47566 33:126.98766 34:617.43231 35:184.27058 36:613.97833 37:115.82756 38:891.45123 39:325.63931 40:1082.7983 41:452.56912 42:679.09503 43:383.12598 44:289.13794 45:336.55045 46:1104.7411 47:433.99411 48:1661.4127 49:2208.655 50:958.67419 51:809.73682 52:1357.3138 53:270.36023 54:951.79871 55:632.49536 56:780.56189 57:186.01537 58:1094.7537 59:736.34662 60:3021.3484 61:3162.8523 62:2865.9529 63:718.724 64:1896.3218 65:237.46046 66:1224.4974 67:870.36292 68:737.87408 69:376.26572 70:1144.9238 71:1023.897 72:989.32129 73:206.79648 74:791.03815 75:557.30084 76:151.44003 77:68.717239 78:471.04767 79:242.92345 80:1205.8986 81:179.88109 82:348.76227 83:438.53439 84:91.636765 85:71.689209 86:490.39996 87:270.33667 88:1211.4302 89:48.026978 90:401.08505 91:427.9379 92:213.01767 93:41.628796 94:499.88297 95:259.97812 #
-1.0125146931522614207397853009103e-08 1:0 2:0 3:0 4:0 5:0 6:0 7:0 8:0 9:0 10:0 11:0 12:0 13:0 14:0 15:0 16:0 17:0 18:0 19:0 20:155.42923 21:442.09976 22:352.91418 23:226.35837 24:144.15186 25:365.20114 26:363.70544 27:355.95316 28:507.58383 29:407.50775 30:582.93585 31:353.2247 32:129.74963 33:338.43753 34:315.11926 35:379.57367 36:523.26935 37:639.62592 38:757.68774 39:273.25797 40:816.00977 41:664.73938 42:547.19366 43:295.28122 44:36.761616 45:280.76663 46:388.31668 47:299.06165 48:883.92816 49:1027.7246 50:1040.1056 51:267.99316 52:942.76709 53:594.22504 54:374.53745 55:347.07803 56:198.36143 57:297.67783 58:546.51111 59:499.35593 60:722.84113 61:702.09741 62:609.18304 63:385.29788 64:688.04401 65:549.41901 66:839.89594 67:733.03235 68:361.87421 69:307.75433 70:517.44519 71:501.08777 72:182.56221 73:310.22522 74:592.07465 75:407.72635 76:193.28015 77:361.83875 78:354.94998 79:444.05554 80:300.99866 81:476.79196 82:673.56836 83:484.49619 84:251.94958 85:389.99588 86:404.80981 87:395.08755 88:277.0274 89:444.33923 90:698.44708 91:518.59753 92:234.83807 93:435.94788 94:548.47003 95:467.02646 #
-1.0125146931522614207397853009103e-08 1:0 2:0 3:0 4:0 5:0 6:0 7:0 8:0 9:0 10:0 11:0 12:0 13:0 14:0 15:0 16:0 17:0 18:0 19:0 20:267.2962 21:364.41144 22:764.75757 23:254.5354 24:468.34891 25:385.37762 26:594.29987 27:318.50403 28:559.04559 29:428.85098 30:918.68274 31:395.22086 32:346.15402 33:365.62738 34:641.74121 35:330.92691 36:481.50305 37:53.938713 38:710.62079 39:433.5509 40:476.81439 41:178.32021 42:679.72961 43:375.19748 44:745.73529 45:380.50693 46:985.75018 47:327.62271 48:1329.8289 49:829.79193 50:617.09271 51:461.65265 52:927.93866 53:153.51376 54:765.66931 55:379.64206 56:881.12628 57:330.48959 58:811.97913 59:133.98482 60:1499.5181 61:552.41455 62:2229.3994 63:1164.4984 64:2676.4358 65:316.3768 66:1171.0209 67:542.43353 68:624.8869 69:368.75198 70:907.14691 71:175.49699 72:372.20621 73:503.53021 74:1079.4937 75:399.57892 76:499.56931 77:428.69278 78:680.89178 79:331.65814 80:533.19379 81:430.6561 82:1128.9446 83:563.94257 84:454.75967 85:477.46454 86:724.85388 87:298.40869 88:421.79764 89:403.50085 90:1154.5857 91:624.64142 92:476.28647 93:477.35843 94:936.44543 95:266.85892 #
1.0125146931522614207397853009103e-08 1:0 2:0 3:0 4:0 5:0 6:0 7:0 8:0 9:0 10:0 11:0 12:0 13:0 14:0 15:0 16:0 17:0 18:0 19:0 20:1983.5143 21:867.22467 22:2091.2615 23:491.38486 24:1360.153 25:489.40622 26:823.45172 27:394.81516 28:1687.8954 29:1320.708 30:2443.1326 31:605.33258 32:1473.4852 33:547.85767 34:969.41437 35:408.7084 36:490.37973 37:88.54892 38:1460.2249 39:563.69977 40:679.39459 41:2824.375 42:7745.4634 43:632.36975 44:1916.1533 45:693.43512 46:1273.707 47:492.75525 48:2768.8528 49:2952.229 50:5630.5386 51:508.21799 52:1088.3988 53:1386.6382 54:4195.2681 55:757.55304 56:1415.5625 57:617.18396 58:1247.8057 59:559.09357 60:3935.8572 61:1395.7854 62:938.56458 63:1077.827 64:688.69336 65:1383.4409 66:3700.3745 67:743.53571 68:1432.9482 69:288.1496 70:1737.9183 71:640.47162 72:2357.2808 73:1218.1472 74:1726.7505 75:729.65961 76:1498.254 77:537.54755 78:1054.567 79:420.75708 80:1526.6796 81:1216.8124 82:2435.9858 83:767.13599 84:1505.3657 85:622.12433 86:1297.8707 87:482.36053 88:1598.4213 89:1169.7068 90:2548.3381 91:817.22504 92:1660.8765 93:666.72113 94:1349.6996 95:456.83057 #
1.0125146931522614207397853009103e-08 1:0 2:0 3:0 4:0 5:0 6:0 7:0 8:0 9:0 10:0 11:0 12:0 13:0 14:0 15:0 16:0 17:0 18:0 19:0 20:693.75439 21:189.02199 22:707.33081 23:303.15594 24:4097.9722 25:1198.7539 26:1063.6736 27:502.98248 28:841.84558 29:351.47437 30:1109.8112 31:622.7674 32:4235.6709 33:1264.6077 34:1097.4147 35:519.31183 36:4995.3027 37:1264.8777 38:1434.6323 39:289.74731 40:877.09637 41:155.64572 42:1029.4983 43:636.72406 44:3920.2466 45:1537.0173 46:1829.1653 47:438.56216 48:2242.6064 49:1351.447 50:1394.8624 51:478.69437 52:1377.4767 53:393.95145 54:964.79388 55:711.56708 56:4059.5417 57:1267.6899 58:1341.7334 59:309.2771 60:2251.1323 61:557.00037 62:1628.9032 63:369.8674 64:1643.8776 65:592.01862 66:968.07635 67:562.34753 68:4368.7549 69:1373.3195 70:1554.4368 71:391.33142 72:1091.4008 73:353.52164 74:842.05951 75:654.9693 76:3971.4819 77:1100.6893 78:1174.951 79:552.46521 80:808.00317 81:233.61394 82:1001.5991 83:802.01923 84:4007.4766 85:1098.2871 86:1239.0649 87:562.19257 88:732.57739 89:211.38782 90:1071.5554 91:837.45093 92:4170.2656 93:1091.8832 94:1338.2205 95:563.58765 #
1.0125146931522614207397853009103e-08 1:0 2:0 3:0 4:0 5:0 6:0 7:0 8:0 9:0 10:0 11:0 12:0 13:0 14:0 15:0 16:0 17:0 18:0 19:0 20:63.543465 21:229.45718 22:704.01367 23:269.66885 24:3067.5906 25:1258.9321 26:1972.382 27:570.9931 28:111.58839 29:346.84869 30:1213.8568 31:385.2294 32:3057.0615 33:1261.1904 34:1966.972 35:579.29401 36:2970.3523 37:1256.574 38:2058.6157 39:564.48163 40:119.33929 41:451.25928 42:882.61139 43:391.29691 44:2688.293 45:1222.1626 46:1898.4015 47:424.26553 48:264.64194 49:434.65576 50:914.62402 51:499.75845 52:195.3196 53:496.35709 54:829.45709 55:370.78592 56:2907.9636 57:1362.6105 58:2156.9792 59:361.04449 60:2937.9287 61:1279.7815 62:1730.9604 63:395.19281 64:455.90164 65:486.47006 66:700.63147 67:409.51355 68:2805.7136 69:1248.1674 70:2267.853 71:447.79977 72:168.26056 73:283.36084 74:1255.4626 75:418.54385 76:3125.1428 77:1279.8145 78:1836.3062 79:581.52521 80:51.107529 81:342.74353 82:1354.6227 83:426.54321 84:3072.2659 85:1262.3156 86:1794.5703 87:560.34955 88:60.37022 89:356.08347 90:1395.3993 91:443.35007 92:3103.4792 93:1257.1031 94:1674.7458 95:509.43527 #
1.0125146931522614207397853009103e-08 1:0 2:0 3:0 4:0 5:0 6:0 7:0 8:0 9:0 10:0 11:0 12:0 13:0 14:0 15:0 16:0 17:0 18:0 19:0 20:2452.429 21:337.03778 22:390.17053 23:346.02914 24:934.02075 25:421.91043 26:819.23761 27:300.89218 28:2939.3784 29:462.28464 30:1691.6664 31:432.24402 32:954.14838 33:398.19403 34:811.6817 35:291.62933 36:1502.4445 37:750.95496 38:2398.3503 39:534.03326 40:3261.4922 41:506.67535 42:799.14966 43:373.61145 44:1237.3638 45:127.83852 46:1213.6831 47:480.54773 48:2903.8828 49:3403.9609 50:4583.0093 51:662.98291 52:2339.4167 53:732.90436 54:569.70581 55:505.45981 56:626.17719 57:341.94858 58:1621.6799 59:348.59161 60:3812.4646 61:1069.989 62:6690.5918 63:992.12555 64:2411.0376 65:515.32263 66:1343.3013 67:490.99927 68:1953.8716 69:963.89062 70:1034.7634 71:406.61304 72:2753.0115 73:1000.1188 74:1351.4967 75:291.12222 76:1341.6169 77:620.30933 78:994.93036 79:468.50397 80:3212.0334 81:254.39909 82:871.86963 83:251.90717 84:1407.8665 85:690.11523 86:1210.001 87:532.84967 88:3185.7322 89:225.86168 90:902.50525 91:274.71295 92:1442.7302 93:934.85938 94:1838.1062 95:616.41565 #
1.0125146931522614207397853009103e-08 1:0 2:0 3:0 4:0 5:0 6:0 7:0 8:0 9:0 10:0 11:0 12:0 13:0 14:0 15:0 16:0 17:0 18:0 19:0 20:377.32364 21:253.35735 22:579.66193 23:145.11314 24:389.47388 25:177.37035 26:618.6792 27:131.68663 28:324.45508 29:376.8266 30:757.03076 31:187.90929 32:403.46127 33:169.65863 34:536.50439 35:132.55504 36:919.21899 37:250.28714 38:574.40802 39:196.54268 40:420.7337 41:583.39166 42:686.13031 43:134.61874 44:215.25085 45:85.329361 46:452.86298 47:165.2663 48:1030.5071 49:190.34619 50:664.276 51:158.4308 52:456.29706 53:594.32959 54:800.14172 55:155.09177 56:215.97144 57:23.900026 58:588.58606 59:263.33682 60:301.13962 61:239.37546 62:666.79883 63:233.21136 64:981.65497 65:293.87485 66:564.84375 67:642.74841 68:265.24374 69:8.0698214 70:627.37469 71:336.91086 72:281.05255 73:447.84668 74:831.02539 75:160.05644 76:312.28696 77:137.5065 78:437.3746 79:162.65572 80:228.79945 81:413.66214 82:892 83:231.45187 84:328.40948 85:148.00005 86:412.56171 87:147.46751 88:264.3587 89:406.88144 90:918.84735 91:247.84375 92:309.53598 93:98.501923 94:446.43356 95:137.64481 #
1.0125146931522614207397853009103e-08 1:0 2:0 3:0 4:0 5:0 6:0 7:0 8:0 9:0 10:0 11:0 12:0 13:0 14:0 15:0 16:0 17:0 18:0 19:0 20:2156.5552 21:1099.4525 22:936.09454 23:329.69931 24:782.93353 25:322.98553 26:469.38434 27:361.66519 28:4411.4834 29:1321.2683 30:2400.9209 31:668.6687 32:738.82983 33:337.96155 34:503.60843 35:318.31348 36:7291.0195 37:3260.8611 38:1814.7644 39:308.16666 40:3018.21 41:453.49091 42:1532.4642 43:321.97528 44:2916.8855 45:2577.7412 46:2728.6995 47:343.31842 48:8719.874 49:3956.2866 50:3227.7312 51:1245.7474 52:2798.8987 53:1162.501 54:1482.6853 55:403.06976 56:846.33466 57:558.53131 58:527.96564 59:169.3333 60:6809.7959 61:3560.2268 62:3069.1226 63:447.37552 64:5251.665 65:1074.2333 66:1227.1211 67:402.82733 68:3382.3542 69:1492.0447 70:1575.3606 71:339.62555 72:3318.4915 73:1381.8519 74:1628.1041 75:567.59692 76:921.02936 77:513.59363 78:512.69623 79:383.55804 80:4050.7793 81:1118.9194 82:822.48029 83:380.27017 84:895.60718 85:586.10382 86:649.84735 87:408.29996 88:3790.4558 89:1073.9675 90:771.4386 91:414.02802 92:943.00366 93:825.5907 94:996.74683 95:391.85037 #
-1.0125146931522614207397853009103e-08 1:0 2:0 3:0 4:0 5:0 6:0 7:0 8:0 9:0 10:0 11:0 12:0 13:0 14:0 15:0 16:0 17:0 18:0 19:0 20:2156.5552 21:1099.4525 22:936.09454 23:329.69931 24:782.93353 25:322.98553 26:469.38434 27:361.66519 28:4411.4834 29:1321.2683 30:2400.9209 31:668.6687 32:738.82983 33:337.96155 34:503.60843 35:318.31348 36:7291.0195 37:3260.8611 38:1814.7644 39:308.16666 40:3018.21 41:453.49091 42:1532.4642 43:321.97528 44:2916.8855 45:2577.7412 46:2728.6995 47:343.31842 48:8719.874 49:3956.2866 50:3227.7312 51:1245.7474 52:2798.8987 53:1162.501 54:1482.6853 55:403.06976 56:846.33466 57:558.53131 58:527.96564 59:169.3333 60:6809.7959 61:3560.2268 62:3069.1226 63:447.37552 64:5251.665 65:1074.2333 66:1227.1211 67:402.82733 68:3382.3542 69:1492.0447 70:1575.3606 71:339.62555 72:3318.4915 73:1381.8519 74:1628.1041 75:567.59692 76:921.02936 77:513.59363 78:512.69623 79:383.55804 80:4050.7793 81:1118.9194 82:822.48029 83:380.27017 84:895.60718 85:586.10382 86:649.84735 87:408.29996 88:3790.4558 89:1073.9675 90:771.4386 91:414.02802 92:943.00366 93:825.5907 94:996.74683 95:391.85037 #
-3.185067037545592262124982988955e-09 1:0 2:0 3:0 4:0 5:0 6:0 7:0 8:0 9:0 10:0 11:0 12:0 13:0 14:0 15:0 16:0 17:0 18:0 19:0 20:5160.3535 21:605.99225 22:2733.751 23:973.65332 24:263.52042 25:414.29837 26:648.08832 27:407.56784 28:4044.1604 29:1077.0967 30:4027.825 31:1335.6315 32:277.19415 33:423.94922 34:769.43628 35:347.10526 36:1683.0044 37:636.1106 38:1139.5128 39:309.07886 40:9966.4238 41:2116.1501 42:4833.8086 43:1611.1946 44:4307.3101 45:1438.5542 46:1710.4255 47:962.85968 48:4289.2715 49:523.68958 50:4582.8267 51:833.8786 52:5344.064 53:693.76135 54:4423.9746 55:1648.7249 56:961.36194 57:1015.3279 58:2800.2458 59:1304.7172 60:5899.606 61:2705.7441 62:5688.0581 63:884.30243 64:4354.6558 65:1609.4641 66:4013.3376 67:1837.8036 68:3467.5273 69:1037.8131 70:3227.3479 71:1872.1376 72:4456.3804 73:279.58987 74:2852.8594 75:1105.9512 76:277.66623 77:443.8392 78:1080.5642 79:518.60779 80:4481.0464 81:1096.42 82:4624.3799 83:1177.6119 84:807.89203 85:569.92303 86:1256.814 87:577.34644 88:4423.1191 89:1013.1119 90:4075.8242 91:1121.5303 92:1157.2892 93:599.85083 94:1681.934 95:615.21429 #
1.0125146931522614207397853009103e-08 1:0 2:0 3:0 4:0 5:0 6:0 7:0 8:0 9:0 10:0 11:0 12:0 13:0 14:0 15:0 16:0 17:0 18:0 19:0 20:342.61545 21:280.81119 22:370.10739 23:383.36722 24:263.32446 25:119.31589 26:374.58527 27:196.41138 28:212.92204 29:180.73082 30:699.59448 31:480.67703 32:302.72888 33:139.41922 34:448.5647 35:203.9743 36:305.20721 37:257.81635 38:368.79889 39:200.29524 40:464.9205 41:372.96152 42:762.36707 43:375.08313 44:667.92261 45:418.97372 46:871.45563 47:284.60495 48:572.7677 49:239.21692 50:789.06714 51:319.44482 52:514.01227 53:293.71951 54:657.37109 55:353.85092 56:647.86304 57:352.56146 58:1030.4868 59:314.5119 60:1156.4568 61:531.3374 62:893.59161 63:337.61584 64:581.67206 65:241.6729 66:581.64685 67:614.44171 68:734.02795 69:208.60706 70:1008.9298 71:363.09857 72:288.12704 73:289.93842 74:782.84259 75:563.7854 76:285.12408 77:98.696655 78:407.64508 79:260.33481 80:260.49063 81:174.05673 82:780.72998 83:643.51031 84:475.89902 85:86.767776 86:382.19754 87:262.4335 88:234.25041 89:214.57271 90:878.90814 91:677.44318 92:416.78464 93:132.63213 94:386.33414 95:297.29446 #
-5.3631294096988627530291559794562e-09 1:0 2:0 3:0 4:0 5:0 6:0 7:0 8:0 9:0 10:0 11:0 12:0 13:0 14:0 15:0 16:0 17:0 18:0 19:0 20:1907.8682 21:616.99536 22:919.27448 23:341.08453 24:247.03197 25:229.59895 26:564.29224 27:117.80021 28:1095.0936 29:363.66501 30:1258.6826 31:434.32001 32:126.57779 33:244.73691 34:638.56714 35:157.60393 36:1053.5621 37:61.018181 38:1002.2471 39:286.74686 40:1810.2404 41:819.49561 42:1404.0076 43:410.71948 44:175.05107 45:454.70453 46:904.66681 47:199.06828 48:4001.0425 49:1010.7151 50:1295.2378 51:771.80762 52:1414.5421 53:488.96381 54:1412.6772 55:368.4744 56:995.41962 57:113.18285 58:822.99939 59:287.392 60:1451.1626 61:636.47113 62:1373.1963 63:1073.2067 64:1820.4536 65:347.82315 66:1469.483 67:352.37631 68:2172.5537 69:593.28192 70:683.59912 71:391.29517 72:1032.55 73:429.66885 74:1446.6157 75:416.6795 76:337.59964 77:161.0695 78:586.64722 79:225.33403 80:1185.886 81:413.70221 82:1265.4767 83:421.9191 84:349.48264 85:163.07477 86:657.82385 87:282.01715 88:1223.5071 89:420.79776 90:1318.9609 91:430.32858 92:404.69791 93:173.15605 94:861.13757 95:370.62952 #
-1.0125146931522614207397853009103e-08 1:0 2:0 3:0 4:0 5:0 6:0 7:0 8:0 9:0 10:0 11:0 12:0 13:0 14:0 15:0 16:0 17:0 18:0 19:0 20:482.19064 21:310.18088 22:744.24188 23:111.44051 24:576.85248 25:364.50967 26:592.56085 27:273.77966 28:404.61713 29:256.02972 30:1049.516 31:251.24921 32:558.75446 33:372.0368 34:567.73206 35:283.55737 36:688.35248 37:369.06458 38:583.9892 39:165.39494 40:318.18137 41:207.24036 42:1296.2561 43:202.25421 44:900.95929 45:396.91 46:543.81049 47:273.84418 48:251.44345 49:121.57436 50:1423.1285 51:203.24368 52:320.3493 53:177.63831 54:1211.141 55:186.80658 56:731.65778 57:375.202 58:715.34357 59:514.74829 60:695.97485 61:341.27231 62:820.09943 63:315.06729 64:285.94531 65:157.9236 66:1019.0627 67:205.23082 68:470.82004 69:317.30038 70:812.95044 71:621.88538 72:363.69379 73:288.51852 74:1058.0571 75:200.22075 76:572.72681 77:345.81314 78:560.92999 79:307.55377 80:331.21219 81:234.2211 82:1055.5245 83:268.44623 84:580.16528 85:367.20157 86:522.16699 87:309.23196 88:322.12091 89:249.31752 90:1065.1698 91:266.57611 92:556.97626 93:354.91809 94:466.94742 95:345.41983 #
1.0125146931522614207397853009103e-08 1:0 2:0 3:0 4:0 5:0 6:0 7:0 8:0 9:0 10:0 11:0 12:0 13:0 14:0 15:0 16:0 17:0 18:0 19:0 20:1199.0463 21:499.02164 22:769.4433 23:277.19186 24:742.86218 25:262.34177 26:958.6817 27:199.89131 28:2287.502 29:774.97601 30:726.03546 31:434.556 32:817.74994 33:328.76868 34:1160.7208 35:220.39041 36:3054.3074 37:1084.0969 38:1200.7722 39:366.90115 40:3262.1157 41:1326.8347 42:1804.2889 43:499.974 44:3457.9143 45:1553.5417 46:2695.0691 47:425.44629 48:6276.8184 49:1974.2399 50:2160.9204 51:478.84372 52:3449.1216 53:934.25409 54:1010.9183 55:471.61707 56:290.50842 57:363.15036 58:1377.9489 59:348.64767 60:2190.2424 61:2584.6484 62:2754.6296 63:683.03522 64:882.35797 65:604.52917 66:502.78729 67:162.31509 68:1243.0227 69:447.59476 70:1133.1133 71:283.9725 72:2140.7327 73:850.00928 74:1253.0417 75:459.33948 76:956.46729 77:316.43274 78:1478.9415 79:288.22153 80:1924.1252 81:632.18091 82:904.17975 83:437.00412 84:1494.6134 85:562.771 86:1795.8484 87:313.00647 88:1862.1488 89:670.09985 90:1025.4352 91:460.96747 92:1970.9589 93:1014.1622 94:2687.2983 95:360.55817 #
1.0125146931522614207397853009103e-08 1:0 2:0 3:0 4:0 5:0 6:0 7:0 8:0 9:0 10:0 11:0 12:0 13:0 14:0 15:0 16:0 17:0 18:0 19:0 20:1477.7242 21:501.87778 22:949.2594 23:272.30637 24:1052.327 25:549.77545 26:394.94919 27:280.98477 28:1460.4636 29:151.35307 30:1700.1722 31:504.62411 32:1118.3868 33:549.00629 34:418.14249 35:326.8053 36:1550.6415 37:603.94611 38:508.87177 39:221.86835 40:1602.5938 41:700.93317 42:1246.637 43:643.47345 44:1568.9932 45:242.2354 46:974.39703 47:791.46637 48:2001.7628 49:756.09558 50:851.23523 51:459.47095 52:2943.3901 53:983.17792 54:1765.1335 55:735.12329 56:1496.3998 57:216.45053 58:901.14368 59:1238.4446 60:4748.6353 61:1391.4863 62:1250.2817 63:849.82568 64:4703.7207 65:459.5394 66:1464.1561 67:1574.1998 68:3535.4976 69:1290.4347 70:2988.1382 71:1433.6234 72:1214.2015 73:796.18427 74:1607.8813 75:679.4201 76:955.26971 77:510.58136 78:529.89508 79:450.44562 80:957.68036 81:523.38257 82:1788.2186 83:728.05151 84:1065.6256 85:525.83588 86:629.92834 87:501.45285 88:1035.6409 89:464.16061 90:1832.7988 91:775.5022 92:972.03131 93:453.42648 94:811.35138 95:567.82336 #
-1.0125146931522614207397853009103e-08 1:0 2:0 3:0 4:0 5:0 6:0 7:0 8:0 9:0 10:0 11:0 12:0 13:0 14:0 15:0 16:0 17:0 18:0 19:0 20:1945.7444 21:523.81781 22:775.62408 23:254.85907 24:193.92435 25:122.05436 26:1560.0449 27:496.41464 28:3336.6147 29:876.41827 30:3039.7351 31:525.08142 32:411.43121 33:76.108589 34:1360.391 35:507.96219 36:3075.353 37:1658.2412 38:3440.2896 39:924.3692 40:494.05331 41:1352.207 42:2120.2754 43:597.96442 44:3579.4331 45:1373.6597 46:1972.6239 47:752.48047 48:6916.1685 49:2028.2061 50:3300.2161 51:625.94287 52:1719.5713 53:438.63431 54:1213.8895 55:627.24084 56:1762.5865 57:531.80115 58:2255.9651 59:1355.7163 60:4530.0361 61:3145.4263 62:4279.1157 63:1878.9921 64:3475.2063 65:296.43335 66:2294.9331 67:705.61407 68:3916.0999 69:494.25909 70:2332.6899 71:1631.3147 72:1353.9877 73:55.179562 74:832.61133 75:272.37601 76:257.86893 77:52.877151 78:1776.7921 79:604.94733 80:1429.3373 81:749.13068 82:709.88611 83:317.23709 84:676.73145 85:57.236217 86:1815.5167 87:643.5036 88:1372.0065 89:625.49841 90:619.8446 91:304.99698 92:1133.1134 93:150.80078 94:1963.5402 95:633.99805 #
1.0125146931522614207397853009103e-08 1:0 2:0 3:0 4:0 5:0 6:0 7:0 8:0 9:0 10:0 11:0 12:0 13:0 14:0 15:0 16:0 17:0 18:0 19:0 20:455.61926 21:180.30168 22:354.02219 23:250.60881 24:422.75778 25:59.829666 26:314.03793 27:249.21811 28:812.08478 29:459.45572 30:779.94592 31:443.40848 32:412.02966 33:53.62957 34:355.18054 35:238.82732 36:444.20358 37:99.827995 38:450.48605 39:387.01642 40:375.84735 41:128.05347 42:550.47552 43:316.51855 44:684.2287 45:517.06659 46:595.38 47:364.65558 48:318.103 49:140.34213 50:340.74146 51:197.58929 52:416.47723 53:241.16023 54:594.08905 55:321.36557 56:157.14276 57:163.96614 58:666.32349 59:415.80032 60:396.90137 61:221.80968 62:771.51355 63:432.27213 64:146.40642 65:327.98193 66:658.65582 67:389.73816 68:231.07191 69:199.60004 70:991.38965 71:588.55829 72:894.70013 73:459.10696 74:550.97504 75:522.85748 76:536.25586 77:132.44908 78:430.64334 79:241.16371 80:815.70978 81:506.62753 82:783.96637 83:599.02435 84:688.99445 85:171.25711 86:433.1972 87:271.3461 88:721.71021 89:484.41782 90:823.13452 91:645.9942 92:255.30269 93:86.049194 94:527.80548 95:307.70578 #
1.0125146931522614207397853009103e-08 1:0 2:0 3:0 4:0 5:0 6:0 7:0 8:0 9:0 10:0 11:0 12:0 13:0 14:0 15:0 16:0 17:0 18:0 19:0 20:368.92322 21:130.42281 22:489.87308 23:177.84315 24:520.96021 25:149.34041 26:441.63388 27:349.17499 28:720.14105 29:1170.1753 30:1857.6049 31:230.46513 32:490.7644 33:152.93979 34:473.53973 35:405.88492 36:477.56839 37:323.15976 38:402.20776 39:272.31808 40:590.53259 41:147.30128 42:472.3197 43:329.13614 44:706.50653 45:346.24835 46:514.40125 47:435.84225 48:523.3855 49:796.29413 50:1340.0234 51:354.36795 52:620.55505 53:330.03564 54:589.50763 55:386.72058 56:657.53174 57:435.09616 58:780.6955 59:505.29886 60:486.72137 61:386.48596 62:1591.4592 63:618.8302 64:347.8363 65:106.3935 66:1530.95 67:562.13605 68:468.58765 69:491.3656 70:1187.9705 71:742.1673 72:504.64334 73:243.26115 74:809.19135 75:348.46893 76:551.97742 77:251.09677 78:492.41562 79:441.00568 80:139.29816 81:427.97131 82:1297.7104 83:342.40799 84:528.13336 85:320.23843 86:586.91132 87:464.69617 88:127.00001 89:394.57587 90:1323.9231 91:374.2572 92:440.66641 93:247.86748 94:634.73126 95:463.98203 #
-1.0125146931522614207397853009103e-08 1:0 2:0 3:0 4:0 5:0 6:0 7:0 8:0 9:0 10:0 11:0 12:0 13:0 14:0 15:0 16:0 17:0 18:0 19:0 20:519.22723 21:479.14661 22:593.73517 23:180.33884 24:390.05048 25:387.8078 26:501.50531 27:446.9566 28:453.5842 29:207.75793 30:618.21741 31:391.48364 32:394.30594 33:359.51221 34:485.43188 35:447.32309 36:707.75323 37:735.95496 38:663.01605 39:434.42114 40:495.0228 41:225.11436 42:499.48376 43:452.42126 44:307.0918 45:216.72971 46:480.88852 47:710.01025 48:219.66757 49:671.81757 50:692.89545 51:421.9386 52:460.23334 53:212.1951 54:567.34967 55:644.30597 56:519.48175 57:255.53792 58:430.89609 59:1052.1744 60:417.19577 61:190.02094 62:874.36127 63:883.78705 64:589.38 65:243.6812 66:557.53943 67:558.83185 68:514.91193 69:228.03151 70:464.8801 71:1387.2856 72:513.26611 73:183.27225 74:517.50714 75:380.16016 76:292.16122 77:280.35349 78:525.5871 79:445.66562 80:456.60751 81:204.61345 82:716.14655 83:499.35992 84:285.59412 85:271.0513 86:560.52246 87:470.65442 88:456.37167 89:202.57887 90:737.54181 91:531.79834 92:332.69885 93:277.26672 94:622.70172 95:497.05194 #
-1.0125146931522614207397853009103e-08 1:0 2:0 3:0 4:0 5:0 6:0 7:0 8:0 9:0 10:0 11:0 12:0 13:0 14:0 15:0 16:0 17:0 18:0 19:0 20:1042.1459 21:508.47104 22:340.4389 23:208.7019 24:201.63499 25:460.1546 26:789.72266 27:461.00595 28:1537.376 29:732.2149 30:1196.3954 31:292.5437 32:167.00639 33:422.68463 34:753.40735 35:442.34274 36:706.87659 37:566.7381 38:917.41351 39:462.25821 40:1162.1381 41:629.62067 42:520.92462 43:486.9913 44:513.49634 45:1034.3971 46:566.46442 47:548.06274 48:1560.0278 49:1630.1808 50:2207.7996 51:326.06265 52:1479.5745 53:915.25085 54:656.40387 55:602.09576 56:345.06836 57:444.51416 58:1013.1263 59:836.00928 60:657.11133 61:306.15222 62:2597.698 63:648.23212 64:2609.2048 65:1030.0295 66:1213.7632 67:744.28882 68:840.04028 69:489.06039 70:1125.2368 71:1143.9747 72:788.84882 73:352.25739 74:727.48199 75:317.6311 76:216.73181 77:460.12537 78:712.36023 79:482.17865 80:1391.2576 81:421.97815 82:721.47675 83:421.26642 84:207.82455 85:512.25214 86:654.55206 87:460.82162 88:1271.4532 89:418.90375 90:706.93488 91:472.60388 92:128.16388 93:432.16422 94:640.31689 95:505.67172 #
1.0125146931522614207397853009103e-08 1:0 2:0 3:0 4:0 5:0 6:0 7:0 8:0 9:0 10:0 11:0 12:0 13:0 14:0 15:0 16:0 17:0 18:0 19:0 20:450.33884 21:98.774155 22:371.98727 23:209.74373 24:393.83713 25:509.92508 26:559.80487 27:215.96359 28:2384.3357 29:2088.6653 30:3143.1133 31:249.73947 32:439.82217 33:555.3158 34:547.85333 35:206.97456 36:3344.1357 37:3643.3555 38:1929.1364 39:343.78311 40:792.87793 41:454.5224 42:603.10162 43:273.28387 44:1234.3137 45:754.84613 46:680.70984 47:307.09409 48:3726.1309 49:1550.4088 50:3878.8425 51:853.12537 52:1758.8615 53:725.33478 54:706.36511 55:322.99344 56:1281.2598 57:800.20673 58:835.5578 59:188.40765 60:2319.0898 61:790.1582 62:4081.8269 63:489.38464 64:1699.0946 65:335.61838 66:1378.401 67:352.1163 68:477.44724 69:807.54077 70:1438.4965 71:410.12576 72:1043.4666 73:348.21552 74:564.90796 75:348.89969 76:542.03546 77:638.70447 78:688.74335 79:277.96539 80:746.677 81:537.50787 82:1129.1289 83:275.82047 84:756.65283 85:769.01141 86:754.95795 87:295.90283 88:761.04077 89:468.14908 90:1000.8133 91:290.00909 92:1259.5789 93:1103.2351 94:957.03839 95:328.50253 #
1.0125146931522614207397853009103e-08 1:0 2:0 3:0 4:0 5:0 6:0 7:0 8:0 9:0 10:0 11:0 12:0 13:0 14:0 15:0 16:0 17:0 18:0 19:0 20:1161.0223 21:580.52118 22:506.59882 23:488.81793 24:640.51575 25:471.83859 26:807.1427 27:276.30551 28:2042.6233 29:939.11292 30:1383.422 31:334.97174 32:689.71313 33:500.05743 34:850.11908 35:283.43939 36:1165.778 37:757.69055 38:1158.8782 39:321.77286 40:2493.7192 41:1468.3947 42:1281.0764 43:592.46246 44:1531.9436 45:1082.0514 46:1737.0101 47:961.55945 48:1288.2073 49:1342.9669 50:1317.7362 51:173.2027 52:1924.9618 53:1120.6904 54:1283.8135 55:836.46289 56:1447.6415 57:1158.194 58:3060.9407 59:1420.1553 60:3137.1489 61:1654.6298 62:2464.1208 63:1129.6918 64:2468.6174 65:1220.0886 66:2308.3352 67:1457.1801 68:2048.0652 69:882.94806 70:3763.0261 71:2035.6675 72:1417.6554 73:486.83444 74:1198.9426 75:359.87854 76:527.98059 77:443.43951 78:740.2373 79:302.27737 80:1679.5922 81:933.65582 82:1408.3134 83:492.26135 84:623.80145 85:460.02243 86:832.32031 87:387.92053 88:1649.7632 89:910.0459 90:1590.871 91:577.51959 92:644.08661 93:441.37784 94:987.11847 95:493.29745 #
-1.0125146931522614207397853009103e-08 1:0 2:0 3:0 4:0 5:0 6:0 7:0 8:0 9:0 10:0 11:0 12:0 13:0 14:0 15:0 16:0 17:0 18:0 19:0 20:2886.0439 21:822.43262 22:741.13959 23:174.2301 24:355.15991 25:430.2811 26:863.2785 27:311.09988 28:4005.5547 29:1531.0463 30:1697.332 31:310.65176 32:303.28751 33:362.78363 34:866.17139 35:352.84842 36:2593.9749 37:1809.6322 38:1834.8888 39:229.30345 40:3531.4163 41:638.06067 42:697.98291 43:173.15289 44:947.6308 45:887.40015 46:1433.1573 47:446.58188 48:3887.9021 49:2131.8701 50:4412.9175 51:700.48993 52:6065.9937 53:1723.3811 54:1341.306 55:321.49277 56:855.5705 57:47.195297 58:985.67053 59:605.25317 60:3945.0576 61:2021.5048 62:5652.2544 63:1341.3282 64:9777.9619 65:2458.7571 66:2679.8076 67:653.34674 68:3933.7244 69:1457.1743 70:3180.8501 71:642.73132 72:3027.2791 73:932.52197 74:1116.396 75:223.88362 76:588.66327 77:506.27148 78:1027.0547 79:407.80081 80:2802.5474 81:1128.3646 82:962.07104 83:403.03827 84:887.84082 85:668.94592 86:1140.163 87:467.04575 88:2449.2593 89:958.26837 90:925.60413 91:464.17249 92:948.46466 93:671.56714 94:1292.1127 95:559.57214 #
-1.0125146931522614207397853009103e-08 1:0 2:0 3:0 4:0 5:0 6:0 7:0 8:0 9:0 10:0 11:0 12:0 13:0 14:0 15:0 16:0 17:0 18:0 19:0 20:1038.7809 21:570.72705 22:569.32098 23:191.3373 24:3451.2312 25:344.12274 26:932.21472 27:254.51465 28:3791.5935 29:2372.1501 30:2424.8828 31:396.88785 32:3193.1042 33:330.53461 34:963.88153 35:274.27469 36:3956.9089 37:560.58917 38:234.84692 39:251.0686 40:4079.7083 41:1208.2789 42:564.48773 43:289.46609 44:4960.7456 45:991.41162 46:382.31021 47:426.59225 48:4686.2983 49:1975.3948 50:1679.9885 51:530.93451 52:2396.6157 53:583.64166 54:973.16742 55:334.94629 56:3653.1357 57:55.290009 58:1297.9279 59:503.3927 60:4684.4863 61:760.1358 62:1253.7234 63:464.17535 64:2165.1682 65:773.4447 66:1150.1801 67:577.63446 68:3641.9705 69:369.33194 70:1439.0077 71:599.95355 72:1366.7947 73:782.81403 74:1243.0997 75:456.86121 76:3868.9526 77:353.66873 78:950.71967 79:279.07791 80:2430.1667 81:1554.7863 82:1353.8199 83:425.99289 84:3955.0356 85:385.30893 86:986.11328 87:279.28268 88:2058.929 89:1289.9531 90:1185.6348 91:472.81061 92:3860.1533 93:470.63461 94:1055.9279 95:293.79013 #
1.0125146931522614207397853009103e-08 1:0 2:0 3:0 4:0 5:0 6:0 7:0 8:0 9:0 10:0 11:0 12:0 13:0 14:0 15:0 16:0 17:0 18:0 19:0 20:223.79065 21:357.03146 22:690.42633 23:211.48808 24:352.28235 25:56.661388 26:399.36981 27:448.6698 28:188.62106 29:182.23679 30:662.96362 31:330.64218 32:428.69897 33:88.956924 34:396.95499 35:465.89526 36:30.114052 37:199.07309 38:553.26196 39:322.99707 40:398.96979 41:321.94363 42:984.12866 43:313.28333 44:371.7995 45:73.385468 46:390.40594 47:366.05975 48:248.40767 49:300.05673 50:776.28973 51:323.388 52:337.15198 53:348.36273 54:1012.131 55:453.85413 56:269.92706 57:150.65849 58:389.93283 59:302.32733 60:547.49353 61:487.51376 62:485.32559 63:320.48569 64:513.06287 65:553.39642 66:1201.277 67:546.25635 68:451.7912 69:193.72415 70:398.47321 71:229.50952 72:154.92973 73:284.8071 74:732.61517 75:441.76752 76:298.57065 77:33.997417 78:411.36789 79:590.30658 80:131.0769 81:115.96777 82:518.12567 83:448.51941 84:313.88351 85:60.543934 86:456.19757 87:637.06342 88:115.96333 89:107.36205 90:503.99677 91:472.86511 92:320.97522 93:34.37471 94:488.39847 95:652.91772 #
1.0125146931522614207397853009103e-08 1:0 2:0 3:0 4:0 5:0 6:0 7:0 8:0 9:0 10:0 11:0 12:0 13:0 14:0 15:0 16:0 17:0 18:0 19:0 20:359.26602 21:214.66119 22:886.52979 23:235.51898 24:548.62219 25:234.95392 26:309.13226 27:293.9212 28:525.92175 29:383.79343 30:576.76721 31:1033.4971 32:517.48669 33:271.24619 34:359.37976 35:305.97241 36:372.39859 37:155.63747 38:269.18329 39:368.6474 40:317.78561 41:407.76862 42:479.32748 43:655.76349 44:364.24799 45:169.78009 46:1059.9707 47:487.4082 48:702.76294 49:362.60828 50:905.38782 51:336.00031 52:597.34808 53:480.2001 54:549.26434 55:518.50446 56:249.5968 57:279.37994 58:1792.3035 59:820.8103 60:186.52647 61:488.46857 62:1314.9192 63:611.66516 64:1417.8485 65:429.63684 66:1625.8558 67:501.09253 68:392.0986 69:395.42926 70:2434.8857 71:1061.8738 72:675.13635 73:285.57825 74:601.70923 75:1174.6968 76:586.12476 77:224.90558 78:389.60239 79:333.48041 80:693.3172 81:452.58688 82:921.0708 83:1207.033 84:550.5144 85:235.61925 86:433.48849 87:361.78491 88:709.98438 89:427.15811 90:1011.2277 91:1240.6891 92:474.74341 93:282.84262 94:518.11359 95:419.78879 #
-1.668252069743997755722823795807e-09 1:0 2:0 3:0 4:0 5:0 6:0 7:0 8:0 9:0 10:0 11:0 12:0 13:0 14:0 15:0 16:0 17:0 18:0 19:0 20:1406.8394 21:477.19836 22:1118.9891 23:585.09204 24:292.49725 25:295.43768 26:994.52887 27:492.54977 28:4312.8726 29:1289.5182 30:2120.3633 31:461.96436 32:448.70148 33:341.94537 34:971.66742 35:500.76251 36:416.26382 37:152.78937 38:981.14471 39:370.29578 40:2603.6802 41:528.58563 42:1685.9246 43:472.06174 44:2009.8478 45:1256.3424 46:2277.8936 47:434.76385 48:1491.0035 49:1772.1703 50:1417.1445 51:513.49908 52:1513.944 53:287.01718 54:1786.2228 55:604.06067 56:1218.3159 57:219.20804 58:1708.2463 59:609.37866 60:1591.0525 61:167.05878 62:1587.8262 63:709.13123 64:2754.9675 65:96.416405 66:1497.1323 67:498.22519 68:1298.5696 69:206.73264 70:1943.1912 71:711.32233 72:1954.2061 73:607.1651 74:2252.512 75:514.6499 76:346.85361 77:324.30704 78:883.69635 79:525.08258 80:3067.9561 81:1170.0892 82:2442.7886 83:625.31317 84:394.53268 85:272.34122 86:955.26666 87:563.35168 88:2660.5715 89:1050.9515 90:2985.7434 91:719.11316 92:263.83054 93:284.65298 94:905.68054 95:652.61115 #
-1.0125146931522614207397853009103e-08 1:0 2:0 3:0 4:0 5:0 6:0 7:0 8:0 9:0 10:0 11:0 12:0 13:0 14:0 15:0 16:0 17:0 18:0 19:0 20:425.25467 21:160.42639 22:542.12976 23:118.8819 24:346.76184 25:55.152512 26:670.495 27:140.70654 28:691.74182 29:201.42294 30:666.40039 31:361.95837 32:405.87305 33:40.142124 34:726.92242 35:142.94824 36:703.75598 37:146.31549 38:677.02283 39:148.54016 40:529.54089 41:421.46375 42:987.32098 43:437.01859 44:460.67923 45:134.99831 46:509.55127 47:208.93028 48:333.68762 49:912.24823 50:1734.7015 51:183.08363 52:151.19438 53:344.54388 54:723.81287 55:461.30347 56:55.822472 57:124.44524 58:691.50842 59:339.44128 60:1183.3542 61:111.99467 62:1267.3219 63:426.34378 64:86.359612 65:620.83069 66:743.88434 67:331.06885 68:182.2164 69:252.9814 70:730.64294 71:445.22751 72:526.1463 73:153.49696 74:906.01263 75:425.84982 76:338.62906 77:111.21239 78:796.96503 79:164.29713 80:563.95581 81:111.97509 82:1024.8428 83:536.12646 84:312.44684 85:170.48454 86:861.55829 87:177.42366 88:491.64001 89:163.13304 90:1178.0612 91:592.78302 92:358.50092 93:167.06544 94:992.95386 95:200.75952 #
1.0125146931522614207397853009103e-08 1:0 2:0 3:0 4:0 5:0 6:0 7:0 8:0 9:0 10:0 11:0 12:0 13:0 14:0 15:0 16:0 17:0 18:0 19:0 20:2164.3396 21:640.67407 22:847.46576 23:498.35089 24:1270.505 25:124.28384 26:295.98065 27:328.0647 28:2900.5486 29:625.55865 30:1284.7579 31:402.94342 32:1095.8704 33:120.15862 34:308.18799 35:339.80136 36:2110.3276 37:535.54742 38:572.42896 39:277.32578 40:1718.8141 41:595.03809 42:1180.4808 43:585.09033 44:1088.9258 45:558.88721 46:926.02509 47:238.31708 48:5563.3574 49:2710.4097 50:2492.4766 51:381.11389 52:1602.9896 53:352.86966 54:1336.1659 55:771.39355 56:1311.0317 57:124.93047 58:838.89441 59:318.98264 60:1182.5162 61:446.53766 62:1088.2852 63:479.20587 64:4034.1526 65:734.77441 66:1018.1777 67:981.98352 68:1109.5537 69:165.76341 70:1447.3002 71:484.2363 72:1866.9268 73:579.93256 74:1093.1294 75:475.81927 76:1329.7074 77:89.199783 78:448.32739 79:345.34595 80:2083.4023 81:506.92859 82:1262.0621 83:489.21704 84:1395.8088 85:133.54756 86:504.98096 87:327.71307 88:2158.386 89:531.75214 90:1300.006 91:557.38379 92:1422.0067 93:136.41133 94:624.28015 95:338.28162 #
1.0125146931522614207397853009103e-08 1:0 2:0 3:0 4:0 5:0 6:0 7:0 8:0 9:0 10:0 11:0 12:0 13:0 14:0 15:0 16:0 17:0 18:0 19:0 20:1398.6035 21:302.43942 22:410.59198 23:273.76251 24:3297.3491 25:1626.239 26:991.9176 27:410.69662 28:1355.8323 29:369.54337 30:688.36627 31:428.03818 32:3444.688 33:1630.7019 34:982.84479 35:389.92166 36:3819.7039 37:1852.9323 38:1468.2667 39:355.97427 40:1080.7394 41:361.21609 42:800.49408 43:482.66208 44:3351.5715 45:2040.3499 46:2166.5376 47:371.43179 48:1552.4801 49:1040.7184 50:950.50018 51:437.13611 52:959.90833 53:434.96487 54:950.17133 55:565.1347 56:3342.2854 57:2078.6721 58:1820.1112 59:442.23587 60:3946.3342 61:1430.3378 62:1629.0425 63:496.99701 64:2565.6423 65:378.2197 66:1395.589 67:717.94537 68:3968.353 69:1975.2667 70:2201.3247 71:470.8295 72:1460.231 73:149.44971 74:359.39926 75:355.87558 76:3115.3579 77:1647.0913 78:979.4527 79:432.54837 80:1473.9232 81:297.44681 82:653.48676 83:531.22791 84:2757.4329 85:1665.0844 86:1059.62 87:449.12405 88:1381.1589 89:250.61707 90:661.08972 91:560.36932 92:2960.8811 93:1738.9629 94:1010.548 95:438.73166 #
1.0125146931522614207397853009103e-08 1:0 2:0 3:0 4:0 5:0 6:0 7:0 8:0 9:0 10:0 11:0 12:0 13:0 14:0 15:0 16:0 17:0 18:0 19:0 20:508.92319 21:424.50641 22:683.41107 23:225.92455 24:1264.7864 25:1230.4136 26:1030.1615 27:301.66296 28:1913.6021 29:917.82739 30:1784.9241 31:411.94818 32:1389.6552 33:1296.9502 34:1078.5441 35:278.92697 36:1391.4803 37:835.56647 38:1180.3441 39:295.40805 40:250.25964 41:443.883 42:779.53088 43:600.7478 44:2402.9419 45:835.49493 46:915.30579 47:521.48248 48:1713.9426 49:1395.4288 50:4867.0679 51:657.00214 52:1503.3297 53:702.83789 54:636.85095 55:950.35907 56:1087.3472 57:710.14618 58:736.44751 59:856.76251 60:1698.3069 61:1238.8435 62:4836.0732 63:926.12329 64:3215.9663 65:1277.3906 66:1194.7965 67:1381.6439 68:209.16125 69:1111.6237 70:970.27209 71:1246.2739 72:1092.7029 73:536.27246 74:1532.4777 75:446.7316 76:1182.5765 77:1228.3566 78:1175.636 79:368.37927 80:1261.3701 81:224.65054 82:1488.3228 83:627.49078 84:1076.4945 85:1257.8265 86:1230.0625 87:405.96671 88:1087.4363 89:254.22186 90:1444.9236 91:647.00812 92:1107.7087 93:1226.66 94:1240.7531 95:437.42435 #
-1.0125146931522614207397853009103e-08 1:0 2:0 3:0 4:0 5:0 6:0 7:0 8:0 9:0 10:0 11:0 12:0 13:0 14:0 15:0 16:0 17:0 18:0 19:0 20:1199.0463 21:499.02164 22:769.4433 23:277.19186 24:742.86218 25:262.34177 26:958.6817 27:199.89131 28:2287.502 29:774.97601 30:726.03546 31:434.556 32:817.74994 33:328.76868 34:1160.7208 35:220.39041 36:3054.3074 37:1084.0969 38:1200.7722 39:366.90115 40:3262.1157 41:1326.8347 42:1804.2889 43:499.974 44:3457.9143 45:1553.5417 46:2695.0691 47:425.44629 48:6276.8184 49:1974.2399 50:2160.9204 51:478.84372 52:3449.1216 53:934.25409 54:1010.9183 55:471.61707 56:290.50842 57:363.15036 58:1377.9489 59:348.64767 60:2190.2424 61:2584.6484 62:2754.6296 63:683.03522 64:882.35797 65:604.52917 66:502.78729 67:162.31509 68:1243.0227 69:447.59476 70:1133.1133 71:283.9725 72:2140.7327 73:850.00928 74:1253.0417 75:459.33948 76:956.46729 77:316.43274 78:1478.9415 79:288.22153 80:1924.1252 81:632.18091 82:904.17975 83:437.00412 84:1494.6134 85:562.771 86:1795.8484 87:313.00647 88:1862.1488 89:670.09985 90:1025.4352 91:460.96747 92:1970.9589 93:1014.1622 94:2687.2983 95:360.55817 #
1.0125146931522614207397853009103e-08 1:0 2:0 3:0 4:0 5:0 6:0 7:0 8:0 9:0 10:0 11:0 12:0 13:0 14:0 15:0 16:0 17:0 18:0 19:0 20:874.74567 21:419.95416 22:617.12482 23:488.96207 24:340.67874 25:387.98151 26:784.84814 27:474.07706 28:676.41766 29:303.30518 30:671.99573 31:738.04779 32:354.61752 33:368.63187 34:796.18243 35:452.62265 36:135.81703 37:441.58093 38:847.74561 39:511.54242 40:1094.1799 41:277.49768 42:638.62494 43:632.77435 44:606.57794 45:109.47334 46:838.14032 47:424.80426 48:1013.8829 49:607.60095 50:1458.1102 51:376.20367 52:1100.6646 53:95.89167 54:631.15436 55:636.08722 56:124.94628 57:360.08987 58:859.14038 59:505.5596 60:584.33258 61:411.96924 62:971.63159 63:534.47314 64:143.77805 65:88.620949 66:569.81744 67:524.05347 68:130.2682 69:305.99008 70:878.46912 71:495.871 72:672.42218 73:357.73755 74:533.21387 75:626.7179 76:313.19452 77:358.10773 78:691.37842 79:389.80963 80:575.22302 81:260.05197 82:709.12579 83:799.67352 84:382.16388 85:356.94327 86:657.16791 87:353.4415 88:671.53564 89:278.48917 90:786.88751 91:854.81555 92:351.9057 93:325.73099 94:654.12006 95:380.13861 #
1.0125146931522614207397853009103e-08 1:0 2:0 3:0 4:0 5:0 6:0 7:0 8:0 9:0 10:0 11:0 12:0 13:0 14:0 15:0 16:0 17:0 18:0 19:0 20:1549.6208 21:699.43317 22:1111.2833 23:270.69128 24:271.5813 25:56.361389 26:602.90808 27:244.15643 28:1591.7673 29:618.7533 30:600.77155 31:431.78192 32:371.43777 33:65.316071 34:661.31439 35:237.42699 36:367.52548 37:435.87695 38:529.11194 39:249.52744 40:1685.9824 41:740.21234 42:860.69196 43:451.25369 44:390.78174 45:310.97375 46:713.9389 47:419.4834 48:1419.1475 49:603.79633 50:527.05396 51:325.85532 52:1378.1202 53:889.08868 54:1013.5234 55:553.36334 56:240.27481 57:41.457298 58:654.33368 59:530.55328 60:543.69098 61:270.07391 62:850.68433 63:430.13986 64:933.53351 65:668.33569 66:910.96875 67:425.18329 68:1490.4987 69:438.81284 70:694.51941 71:548.11273 72:1569.3958 73:658.19659 74:638.42084 75:641.05841 76:218.04118 77:97.088852 78:849.37756 79:302.15717 80:1651.0768 81:644.55627 82:618.84943 83:476.82605 84:155.68279 85:112.20007 86:848.21179 87:340.27933 88:1661.9127 89:668.99988 90:657.78949 91:476.04843 92:140.22595 93:116.09458 94:956.24475 95:383.09012 #
-1.0125146931522614207397853009103e-08 1:0 2:0 3:0 4:0 5:0 6:0 7:0 8:0 9:0 10:0 11:0 12:0 13:0 14:0 15:0 16:0 17:0 18:0 19:0 20:1268.4894 21:711.13446 22:804.9801 23:251.36685 24:2219.4431 25:313.09689 26:486.09851 27:345.5968 28:1755.1992 29:624.44562 30:563.03058 31:265.5654 32:2461.2537 33:343.63385 34:495.86359 35:335.10623 36:1541.786 37:208.49533 38:597.58374 39:354.06201 40:1328.9094 41:1080.7141 42:1050.1593 43:350.27362 44:2369.8245 45:750.87524 46:548.77362 47:310.48126 48:1417.0648 49:533.05176 50:975.3363 51:343.83688 52:1066.2098 53:820.59448 54:735.34326 55:318.77597 56:2579.6287 57:826.95892 58:297.11267 59:313.18713 60:2429.7659 61:697.67603 62:379.98917 63:270.66006 64:609.85077 65:593.76666 66:943.80139 67:384.21094 68:2202.7551 69:564.65167 70:377.18823 71:310.16135 72:1842.5688 73:1098.1183 74:1226.2257 75:306.91724 76:1960.5687 77:423.64383 78:510.19537 79:399.52341 80:310.5134 81:424.58066 82:907.28174 83:311.62482 84:1920.3389 85:427.17188 86:557.58557 87:403.06097 88:400.5303 89:482.88745 90:953.55475 91:322.43732 92:2089.6433 93:415.37424 94:661.83441 95:419.08856 #
-1.0125146931522614207397853009103e-08 1:0 2:0 3:0 4:0 5:0 6:0 7:0 8:0 9:0 10:0 11:0 12:0 13:0 14:0 15:0 16:0 17:0 18:0 19:0 20:831.72778 21:412.26508 22:374.0582 23:128.45445 24:1281.4797 25:1098.2427 26:1524.4362 27:466.80396 28:1671.6344 29:758.47473 30:1651.8873 31:681.84845 32:1295.2653 33:1142.9628 34:1644.9932 35:442.59686 36:1149.9015 37:1410.4097 38:2161.1536 39:557.63245 40:871.36572 41:446.31567 42:1186.7762 43:477.09485 44:1748.6077 45:1519.9617 46:1791.5162 47:411.93457 48:2498.8005 49:1651.1174 50:1418.7294 51:236.81845 52:1188.7563 53:785.58643 54:868.03119 55:426.64011 56:1778.4941 57:1369.9757 58:2315.2395 59:202.56552 60:2247.551 61:1847.6467 62:1997.2433 63:352.87567 64:1237.1927 65:888.84747 66:1388.8636 67:540.16046 68:1687.7218 69:1306.2062 70:2878.24 71:265.65506 72:1252.4191 73:645.43921 74:1059.2048 75:764.92444 76:1229.058 77:1065.194 78:1718.238 79:447.1362 80:990.52637 81:456.11624 82:1143.006 83:837.20593 84:1224.2147 85:1074.6864 86:1887.6687 87:476.27142 88:894.63586 89:432.21173 90:1230.5295 91:902.57391 92:1391.7231 93:1058.948 94:2145.4548 95:500.90683 #
-1.0125146931522614207397853009103e-08 1:0 2:0 3:0 4:0 5:0 6:0 7:0 8:0 9:0 10:0 11:0 12:0 13:0 14:0 15:0 16:0 17:0 18:0 19:0 20:661.24573 21:432.25549 22:569.56976 23:187.29274 24:325.37363 25:501.71545 26:1254.2181 27:298.94116 28:771.9436 29:319.00897 30:647.15527 31:468.85516 32:344.19272 33:459.41498 34:1194.4318 35:301.47296 36:419.27573 37:775.71124 38:1544.4061 39:323.57031 40:1010.4329 41:295.26831 42:435.60388 43:313.88443 44:643.15015 45:1048.5417 46:1622.9563 47:238.11917 48:555.60638 49:329.99402 50:493.46619 51:247.74796 52:963.42297 53:281.2384 54:682.52899 55:357.70892 56:335.55612 57:706.51123 58:1390.3505 59:160.46957 60:538.92694 61:693.44495 62:1160.6213 63:252.87906 64:732.82758 65:315.79391 66:481.7713 67:628.32172 68:175.29286 69:686.44904 70:1411.5004 71:132.54688 72:379.13556 73:321.28888 74:647.49084 75:467.02969 76:456.07803 77:279.25024 78:1057.5938 79:380.35962 80:562.74786 81:236.12485 82:538.72076 83:745.56482 84:494.56833 85:275.71097 86:1066.6238 87:406.87262 88:537.56042 89:205.07721 90:548.9093 91:845.00989 92:407.83185 93:317.17029 94:1179.6648 95:445.5484 #
-1.0125146931522614207397853009103e-08 1:0 2:0 3:0 4:0 5:0 6:0 7:0 8:0 9:0 10:0 11:0 12:0 13:0 14:0 15:0 16:0 17:0 18:0 19:0 20:253.85753 21:144.94237 22:353.85986 23:218.24854 24:831.33319 25:150.57285 26:403.37006 27:379.32901 28:782.69067 29:171.22491 30:698.61511 31:686.94183 32:889.8833 33:155.79591 34:443.24655 35:404.47818 36:576.34595 37:223.3618 38:743.8222 39:382.4545 40:250.29594 41:143.93207 42:444.66757 43:505.87323 44:735.88672 45:440.15186 46:850.98022 47:377.76129 48:765.34259 49:65.691116 50:725.07721 51:328.19858 52:652.54767 53:92.179321 54:310.66479 55:558.80029 56:576.64056 57:29.079508 58:828.0022 59:373.48065 60:1056.813 61:296.90497 62:816.74408 63:396.72784 64:1391.3579 65:164.11012 66:601.03723 67:519.57581 68:616.90424 69:147.06532 70:1057.6996 71:471.94516 72:231.54898 73:362.11917 74:566.21222 75:586.32959 76:941.94775 77:157.84895 78:414.76953 79:479.77283 80:640.84735 81:174.14536 82:698.27222 83:746.42303 84:908.63037 85:162.56882 86:447.83197 87:526.57306 88:492.80774 89:212.21471 90:733.55908 91:774.46832 92:717.86395 93:160.05533 94:559.052 95:526.6571 #
1.0125146931522614207397853009103e-08 1:0 2:0 3:0 4:0 5:0 6:0 7:0 8:0 9:0 10:0 11:0 12:0 13:0 14:0 15:0 16:0 17:0 18:0 19:0 20:1076.5249 21:242.30884 22:693.07184 23:200.04019 24:197.47676 25:170.84935 26:346.00583 27:167.8485 28:1639.9917 29:322.81119 30:783.52094 31:452.20255 32:399.43362 33:210.20789 34:429.73856 35:181.17921 36:696.60858 37:208.21645 38:575.85864 39:235.3477 40:2546.282 41:494.44336 42:1188.4314 43:423.92349 44:932.89136 45:531.97333 46:1387.5375 47:263.14172 48:2098.2595 49:906.85962 50:2339.1216 51:605.39941 52:2824.6702 53:486.39731 54:1340.8779 55:521.35297 56:171.98773 57:523.17548 58:1885.8569 59:503.26364 60:1081.5997 61:1628.8513 62:2231.8916 63:622.94409 64:2038.2761 65:287.8754 66:741.64484 67:672.3689 68:344.2164 69:591.6203 70:2231.886 71:867.55457 72:1173.036 73:364.72073 74:755.01428 75:811.51562 76:31.929514 77:78.374878 78:554.98218 79:224.70187 80:1164.8103 81:254.72156 82:701.7738 83:682.54407 84:87.722885 85:64.107224 86:698.73621 87:268.81848 88:1193.7189 89:255.51065 90:779.50739 91:736.39618 92:213.60718 93:96.586304 94:1051.4679 95:332.43286 #
-1.0125146931522614207397853009103e-08 1:0 2:0 3:0 4:0 5:0 6:0 7:0 8:0 9:0 10:0 11:0 12:0 13:0 14:0 15:0 16:0 17:0 18:0 19:0 20:367.19727 21:1293.4497 22:2955.5022 23:443.33786 24:887.16785 25:411.02316 26:1088.5504 27:276.45203 28:1117.3843 29:2610.0847 30:6605.002 31:600.0567 32:825.15326 33:426.8287 34:1068.8953 35:235.07718 36:1759.4598 37:841.24939 38:2121.3435 39:545.41107 40:1503.9492 41:1934.3679 42:2175.2336 43:676.39117 44:1228.8313 45:1004.4928 46:1701.7819 47:731.32587 48:2642.908 49:1662.8431 50:4078.7786 51:651.39203 52:697.46729 53:1485.1913 54:2154.7561 55:1236.4476 56:1139.9579 57:353.33377 58:3036.0469 59:1313.6302 60:1973.0536 61:2302.3074 62:4803.855 63:1711.4451 64:3597.489 65:1451.5078 66:2095.8257 67:1519.6362 68:679.4892 69:488.57626 70:1885.1824 71:1723.6915 72:2020.2462 73:2111.6846 74:5622.7598 75:1561.1223 76:957.53979 77:448.74658 78:1229.7286 79:348.35071 80:1819.4602 81:1827.3829 82:4727.3618 83:1172.2417 84:946.1969 85:455.05795 86:1292.045 87:397.02798 88:1512.3627 89:1631.464 90:4548.4741 91:1273.2069 92:1260.9271 93:443.82965 94:1367.8109 95:449.47867 #
-1.0125146931522614207397853009103e-08 1:0 2:0 3:0 4:0 5:0 6:0 7:0 8:0 9:0 10:0 11:0 12:0 13:0 14:0 15:0 16:0 17:0 18:0 19:0 20:1358.6694 21:442.48355 22:557.84375 23:290.22278 24:617.33704 25:184.8354 26:668.03119 27:439.08951 28:1940.4321 29:1190.1569 30:1640.3571 31:322.983 32:695.33997 33:230.62498 34:689.99451 35:417.93903 36:1891.7524 37:1111.0723 38:1296.3231 39:445.38535 40:2301.2749 41:1004.5812 42:640.8927 43:397.99405 44:1701.8004 45:683.34985 46:970.90826 47:332.12323 48:2112.5222 49:1354.8538 50:4480.5459 51:643.5556 52:2035.3446 53:528.51196 54:633.32629 55:543.51666 56:155.38005 57:387.99243 58:1034.5238 59:466.87845 60:2837.5457 61:2048.9844 62:1380.8394 63:427.10092 64:1884.3176 65:426.96741 66:731.35553 67:542.59741 68:506.59552 69:405.33231 70:1039.8611 71:732.46814 72:1400.9961 73:908.26758 74:1349.2375 75:217.83057 76:367.99829 77:198.21678 78:637.27319 79:409.72675 80:1361.03 81:938.67969 82:1554.2234 83:429.79709 84:190.76906 85:290.8226 86:684.69788 87:428.96143 88:1243.5319 89:869.61578 90:1570.2914 91:474.05865 92:539.30438 93:532.27515 94:811.21515 95:519.56531 #
1.0125146931522614207397853009103e-08 1:0 2:0 3:0 4:0 5:0 6:0 7:0 8:0 9:0 10:0 11:0 12:0 13:0 14:0 15:0 16:0 17:0 18:0 19:0 20:269.00977 21:302.19336 22:577.19952 23:135.55383 24:1356.0537 25:108.91228 26:1210.9241 27:523.79816 28:857.0011 29:302.71036 30:872.09485 31:238.71254 32:1225.186 33:121.01578 34:1163.5653 35:545.94727 36:755.55548 37:402.8645 38:1011.0229 39:560.08813 40:1087.6592 41:683.66205 42:1439.7269 43:173.87184 44:1594.416 45:342.82379 46:1388.3245 47:534.5152 48:1371.3616 49:809.203 50:979.71375 51:253.61847 52:1045.5317 53:198.68124 54:1065.8674 55:285.71185 56:1801.771 57:225.53133 58:1614.1277 59:644.27844 60:1351.0537 61:135.58868 62:2606.6887 63:625.38184 64:652.5921 65:216.06622 66:1135.0432 67:698.75922 68:1516.8425 69:108.72491 70:1493.2017 71:712.90369 72:245.56073 73:726.98193 74:1029.299 75:262.43997 76:1318.126 77:152.32715 78:1102.5216 79:528.4278 80:187.1256 81:516.26764 82:946.48285 83:251.15659 84:1237.4032 85:254.73758 86:1097.9403 87:512.80334 88:193.54887 89:499.24243 90:953.00269 91:278.90701 92:1099.479 93:358.25244 94:1075.8979 95:514.18451 #
-1.0125146931522614207397853009103e-08 1:0 2:0 3:0 4:0 5:0 6:0 7:0 8:0 9:0 10:0 11:0 12:0 13:0 14:0 15:0 16:0 17:0 18:0 19:0 20:154.4929 21:123.33336 22:408.46347 23:378.00906 24:354.95081 25:252.80518 26:394.75687 27:501.78491 28:331.48236 29:317.24338 30:299.39917 31:130.68117 32:315.21634 33:275.45425 34:398.76953 35:530.29309 36:410.16422 37:240.81387 38:721.44806 39:403.81696 40:380.38574 41:217.56955 42:427.72311 43:341.42264 44:584.72101 45:355.70395 46:654.57031 47:524.90375 48:253.10222 49:280.74234 50:510.22607 51:400.33084 52:559.50531 53:292.38794 54:451.39224 55:420.61462 56:735.49115 57:380.99155 58:866.23151 59:498.30475 60:642.99481 61:270.53049 62:625.91046 63:584.28784 64:783.00647 65:266.23373 66:972.11481 67:655.1983 68:776.66833 69:409.75757 70:1177.6385 71:423.53513 72:133.1754 73:55.137463 74:390.04395 75:341.42715 76:317.8497 77:267.16141 78:482.4397 79:608.4679 80:234.82266 81:265.05655 82:321.20578 83:200.76974 84:394.46158 85:308.67807 86:561.74463 87:619.80524 88:242.87445 89:281.86069 90:352.40579 91:212.36896 92:360.2005 93:309.108 94:621.80841 95:641.3692 #
-1.0125146931522614207397853009103e-08 1:0 2:0 3:0 4:0 5:0 6:0 7:0 8:0 9:0 10:0 11:0 12:0 13:0 14:0 15:0 16:0 17:0 18:0 19:0 20:278.20035 21:194.33702 22:440.17532 23:254.86383 24:568.30774 25:144.16684 26:432.80011 27:366.43387 28:135.58789 29:344.10696 30:455.0589 31:369.64316 32:619.64044 33:136.23247 34:417.89444 35:374.55743 36:575.08881 37:302.43991 38:458.3746 39:382.49515 40:182.4144 41:213.98383 42:532.65906 43:264.14667 44:638.70636 45:268.81534 46:599.47961 47:371.94446 48:239.29427 49:214.13367 50:643.9707 51:281.08154 52:454.35605 53:272.88443 54:826.73529 55:350.79221 56:557.72272 57:243.0174 58:696.08368 59:376.02383 60:964.29596 61:228.29938 62:524.74799 63:435.11386 64:698.28241 65:507.8017 66:1532.743 67:426.54874 68:657.66382 69:346.03934 70:826.841 71:420.20831 72:149.75743 73:173.01669 74:428.32181 75:322.57816 76:604.47815 77:135.65359 78:356.5643 79:371.34247 80:190.71834 81:104.56989 82:395.68362 83:397.09439 84:732.55145 85:125.80215 86:372.9765 87:357.54419 88:156.14842 89:61.528774 90:425.68826 91:454.77838 92:672.25488 93:135.40009 94:411.32553 95:391.05899 #
-1.0125146931522614207397853009103e-08 1:0 2:0 3:0 4:0 5:0 6:0 7:0 8:0 9:0 10:0 11:0 12:0 13:0 14:0 15:0 16:0 17:0 18:0 19:0 20:610.04913 21:64.254158 22:447.09683 23:195.68683 24:572.00354 25:142.45468 26:544.95105 27:272.90723 28:316.6709 29:327.44336 30:641.38422 31:280.33136 32:631.16742 33:112.11399 34:613.73236 35:312.0343 36:451.90506 37:347.98001 38:682.10181 39:252.33453 40:719.08234 41:89.767494 42:703.2417 43:285.47507 44:721.97534 45:323.17026 46:1087.8076 47:435.48624 48:428.12161 49:607.39746 50:767.8634 51:272.62149 52:714.93402 53:215.46463 54:698.47333 55:294.76813 56:850.66693 57:102.88511 58:998.24597 59:622.64972 60:947.36694 61:296.3269 62:696.83173 63:434.03503 64:435.44202 65:355.96329 66:770.18939 67:269.52399 68:508.66034 69:309.54041 70:1212.7183 71:791.10571 72:257.71072 73:68.99469 74:435.28598 75:179.15149 76:423.64011 77:123.65594 78:507.80405 79:315.06683 80:332.55576 81:128.33487 82:372.41867 83:263.7778 84:482.4321 85:116.30331 86:487.4888 87:342.31485 88:451.47351 89:176.70753 90:399.29849 91:280.99222 92:583.66675 93:116.36314 94:440.92102 95:327.60986 #
1.0125146931522614207397853009103e-08 1:0 2:0 3:0 4:0 5:0 6:0 7:0 8:0 9:0 10:0 11:0 12:0 13:0 14:0 15:0 16:0 17:0 18:0 19:0 20:1134.2377 21:666.56073 22:747.00208 23:162.99432 24:884.4137 25:444.24741 26:799.83502 27:237.45068 28:2048.4475 29:1731.1816 30:1623.4585 31:588.53735 32:1036.5885 33:516.61871 34:872.34344 35:259.99429 36:594.10663 37:1363.1577 38:1429.699 39:484.53949 40:2713.998 41:1474.6506 42:1852.2819 43:296.25244 44:481.76694 45:946.51398 46:827.12592 47:385.93683 48:3262.6389 49:167.78423 50:708.79724 51:344.19162 52:1425.9678 53:724.79169 54:584.95001 55:355.03055 56:1968.5645 57:280.37643 58:642.72882 59:604.89844 60:5852.4736 61:3237.2017 62:3041.8337 63:723.1521 64:1004.423 65:496.7944 66:1129.1566 67:760.70776 68:2224.1907 69:1424.9799 70:1776.3358 71:902.65387 72:1365.4926 73:2014.58 74:3170.3066 75:719.56573 76:871.13409 77:383.47028 78:1107.9856 79:325.22678 80:695.45465 81:1329.4684 82:2155.8953 83:601.09155 84:654.28741 85:406.418 86:1164.498 87:331.66141 88:537.19989 89:1204.8066 90:2182.5449 91:598.7262 92:794.7608 93:501.57675 94:1366.5608 95:357.84406 #
1.0125146931522614207397853009103e-08 1:0 2:0 3:0 4:0 5:0 6:0 7:0 8:0 9:0 10:0 11:0 12:0 13:0 14:0 15:0 16:0 17:0 18:0 19:0 20:1553.5056 21:652.15002 22:938.97223 23:183.51405 24:181.47932 25:123.18585 26:809.62799 27:458.80182 28:1352.3624 29:480.81998 30:1453.6533 31:706.74823 32:105.29224 33:139.09274 34:844.94922 35:468.68463 36:2075.064 37:938.92621 38:895.55115 39:470.36691 40:2575.7554 41:999.76678 42:1709.6832 43:538.91827 44:3372.4131 45:1024.1259 46:648.7088 47:431.64529 48:3081.0779 49:1559.6863 50:2898.0544 51:710.34167 52:1712.6086 53:714.23407 54:1518.1655 55:714.78003 56:1427.2919 57:533.93512 58:829.34216 59:384.92319 60:2282.5037 61:438.28381 62:1537.2347 63:751.72693 64:1334.7244 65:683.28027 66:824.18298 67:937.4693 68:978.23151 69:300.03595 70:588.71948 71:607.50104 72:1086.1115 73:347.6127 74:1237.4805 75:659.51086 76:282.78366 77:108.98315 78:1046.7633 79:516.51544 80:1724.9397 81:459.4967 82:1394.9036 83:991.83722 84:457.5817 85:126.43507 86:1174.9606 87:608.39368 88:1738.6486 89:528.08679 90:1548.4656 91:1095.1482 92:132.97278 93:53.581089 94:1280.3202 95:702.94189 #
1.0125146931522614207397853009103e-08 1:0 2:0 3:0 4:0 5:0 6:0 7:0 8:0 9:0 10:0 11:0 12:0 13:0 14:0 15:0 16:0 17:0 18:0 19:0 20:2012.4893 21:516.2796 22:872.73645 23:279.01889 24:375.49295 25:268.22443 26:291.24673 27:256.9306 28:2254.7649 29:759.25104 30:1140.0511 31:305.65033 32:373.83279 33:226.61029 34:227.05746 35:273.87354 36:893.99481 37:379.07462 38:790.96771 39:344.86954 40:2579.1406 41:635.0813 42:751.7041 43:222.28677 44:2132.4211 45:1007.2668 46:967.75867 47:273.91183 48:1027.4835 49:858.89697 50:807.0827 51:277.6153 52:2964.4871 53:815.81067 54:860.76245 55:299.97745 56:1487.895 57:866.96973 58:1650.76 59:599.44257 60:666.25873 61:527.8374 62:635.28802 63:517.74683 64:85.98716 65:102.59043 66:1239.9957 67:415.36618 68:3214.8416 69:1206.7347 70:1096.675 71:422.50006 72:2640.0715 73:711.43567 74:1027.296 75:637.64606 76:539.65558 77:272.07794 78:278.45477 79:256.35431 80:2345.1372 81:633.65497 82:908.46924 83:335.30341 84:594.43005 85:266.75476 86:289.81216 87:265.49109 88:2251.96 89:581.30048 90:860.94025 91:298.0849 92:366.26028 93:176.27586 94:309.07205 95:260.84747 #
-1.0125146931522614207397853009103e-08 1:0 2:0 3:0 4:0 5:0 6:0 7:0 8:0 9:0 10:0 11:0 12:0 13:0 14:0 15:0 16:0 17:0 18:0 19:0 20:768.00122 21:358.25208 22:536.91815 23:201.52365 24:516.5766 25:322.8576 26:511.25012 27:231.27222 28:692.94196 29:900.64868 30:1135.2501 31:626.32092 32:509.38156 33:318.17398 34:513.76056 35:218.27524 36:601.04993 37:785.42816 38:1156.0057 39:180.2448 40:1577.6716 41:1185.791 42:759.64038 43:235.02682 44:1272.6379 45:416.03915 46:718.59601 47:186.23605 48:1860.0831 49:683.75891 50:623.12634 51:147.5298 52:873.40698 53:776.86914 54:496.19916 55:266.98859 56:1041.2443 57:406.56931 58:648.85608 59:266.18005 60:279.00333 61:217.77023 62:628.93414 63:271.14557 64:535.49231 65:819.81952 66:1164.854 67:384.01712 68:548.67993 69:437.146 70:831.70795 71:365.02573 72:836.53467 73:579.27936 74:980.61176 75:375.79883 76:486.63043 77:282.52866 78:675.21558 79:293.32361 80:761.14111 81:605.75543 82:708.47162 83:437.95786 84:448.64661 85:331.28961 86:736.19299 87:318.28604 88:816.96667 89:592.97998 90:655.41522 91:451.94049 92:581.75159 93:288.71878 94:718.33929 95:290.78452 #
1.0125146931522614207397853009103e-08 1:0 2:0 3:0 4:0 5:0 6:0 7:0 8:0 9:0 10:0 11:0 12:0 13:0 14:0 15:0 16:0 17:0 18:0 19:0 20:328.41528 21:184.3329 22:498.40237 23:154.92694 24:560.39221 25:74.130737 26:589.9491 27:179.5201 28:514.27026 29:272.54822 30:1299.8893 31:694.14453 32:485.2323 33:62.677631 34:568.48438 35:178.5285 36:771.46448 37:236.68649 38:400.68842 39:184.07516 40:293.68585 41:167.42595 42:1401.9515 43:311.09216 44:479.0535 45:87.120598 46:711.14948 47:201.38977 48:769.13007 49:356.09995 50:864.19397 51:129.98285 52:835.65643 53:544.6554 54:1445.5234 55:237.96782 56:171.56236 57:234.22722 58:881.3454 59:434.67862 60:341.46591 61:178.02988 62:916.92902 63:331.73706 64:1147.1949 65:556.38898 66:682.89075 67:529.52844 68:481.02692 69:306.32092 70:963.52997 71:569.19507 72:317.41037 73:293.02591 74:1710.3483 75:661.16528 76:730.69763 77:138.70427 78:593.05859 79:188.17477 80:477.81039 81:397.84827 82:2040.5769 83:758.32928 84:763.58008 85:166.74655 86:650.2923 87:203.94186 88:459.4379 89:403.58884 90:2204.5051 91:793.52332 92:687.63873 93:144.03555 94:710.20398 95:202.41534 #
-1.0125146931522614207397853009103e-08 1:0 2:0 3:0 4:0 5:0 6:0 7:0 8:0 9:0 10:0 11:0 12:0 13:0 14:0 15:0 16:0 17:0 18:0 19:0 20:147.17744 21:55.50779 22:775.36322 23:340.05515 24:160.52542 25:185.68144 26:462.76218 27:321.91687 28:447.65521 29:204.08305 30:903.09613 31:687.32355 32:104.62607 33:209.54213 34:518.66791 35:383.59256 36:665.83875 37:494.92078 38:595.59509 39:283.95041 40:202.37181 41:74.284882 42:959.23529 43:600.80261 44:786.96893 45:443.20169 46:664.56549 47:217.10486 48:757.17578 49:412.28226 50:768.02966 51:302.09235 52:280.69809 53:115.22214 54:396.8905 55:409.64459 56:572.85046 57:237.6927 58:953.22595 59:364.82529 60:850.05804 61:538.55542 62:1408.332 63:467.75287 64:886.71729 65:65.890953 66:1311.1438 67:787.52814 68:1122.5758 69:206.81337 70:1190.8816 71:565.1076 72:439.87674 73:164.59496 74:1129.0217 75:788.92908 76:357.74487 77:177.90187 78:532.9328 79:418.05072 80:235.36201 81:172.43958 82:1216.1307 83:963.5174 84:427.63287 85:239.77773 86:582.47876 87:437.72775 88:188.15904 89:180.28911 90:1329.9558 91:1044.6245 92:259.97324 93:396.32855 94:641.33173 95:462.05237 #
-1.0125146931522614207397853009103e-08 1:0 2:0 3:0 4:0 5:0 6:0 7:0 8:0 9:0 10:0 11:0 12:0 13:0 14:0 15:0 16:0 17:0 18:0 19:0 20:126.91457 21:381.92838 22:397.57721 23:319.37427 24:174.27243 25:119.66237 26:647.27295 27:270.66351 28:170.08647 29:428.05844 30:820.28601 31:473.89877 32:226.03233 33:161.12546 34:748.84229 35:236.46138 36:1640.4335 37:729.93018 38:793.62262 39:328.69757 40:308.91431 41:231.21399 42:721.17236 43:317.77261 44:762.341 45:590.33704 46:1111.9207 47:224.47482 48:1606.8344 49:598.66565 50:957.27399 51:454.46869 52:215.24005 53:413.45358 54:885.81647 55:463.66846 56:408.01843 57:32.502033 58:1020.3472 59:271.74603 60:835.409 61:435.63248 62:950.01477 63:332.43054 64:797.95752 65:465.00174 66:1582.2599 67:602.26874 68:536.94031 69:158.36182 70:882.97974 71:505.49274 72:272.54868 73:431.53513 74:1041.7146 75:352.61392 76:104.25609 77:187.95616 78:964.17621 79:279.64951 80:100.50375 81:360.11191 82:1114.9071 83:503.96146 84:267.99075 85:256.04688 86:1163.689 87:340.00085 88:88.913445 89:374.1449 90:1246.0566 91:551.70117 92:105.30622 93:229.38623 94:1403.6183 95:413.2269 #
-1.0125146931522614207397853009103e-08 1:0 2:0 3:0 4:0 5:0 6:0 7:0 8:0 9:0 10:0 11:0 12:0 13:0 14:0 15:0 16:0 17:0 18:0 19:0 20:743.46802 21:322.79922 22:1223.0576 23:187.81738 24:332.6709 25:205.16251 26:536.22382 27:289.64575 28:1257.871 29:353.50952 30:1208.9578 31:388.76382 32:267.40427 33:199.27029 34:555.35498 35:270.98129 36:491.44812 37:650.03278 38:678.40216 39:329.63989 40:964.67004 41:460.58115 42:1086.7107 43:220.55508 44:1201.5569 45:38.902447 46:858.00165 47:363.94464 48:1205.462 49:442.13742 50:992.09003 51:154.48483 52:1089.7734 53:521.73767 54:1047.4822 55:278.19196 56:864.72406 57:124.57308 58:1025.8505 59:372.19571 60:702.24567 61:234.54814 62:806.89117 63:424.01242 64:1784.4926 65:441.86185 66:1297.5171 67:897.75879 68:999.21265 69:136.66846 70:1177.3013 71:371.69882 72:1002.575 73:379.69272 74:1147.5323 75:334.51093 76:479.55585 77:139.00467 78:621.76965 79:349.95721 80:1124.1541 81:361.59109 82:1363.1517 83:492.00986 84:564.79016 85:124.88194 86:711.35992 87:429.93076 88:1094.541 89:357.08429 90:1443.8247 91:551.39319 92:514.81769 93:199.78844 94:908.87408 95:505.91241 #
1.0125146931522614207397853009103e-08 1:0 2:0 3:0 4:0 5:0 6:0 7:0 8:0 9:0 10:0 11:0 12:0 13:0 14:0 15:0 16:0 17:0 18:0 19:0 20:414.24103 21:642.60834 22:899.90033 23:258.05539 24:2022.4827 25:1519.9375 26:2222.1997 27:291.39694 28:732.31384 29:314.23123 30:1193.8824 31:797.79224 32:2197.5137 33:1600.0468 34:2332.4829 35:287.51782 36:2485.2097 37:1018.265 38:2128.342 39:282.46982 40:924.41333 41:572.22058 42:1152.4701 43:641.27448 44:3905.8081 45:578.38611 46:2236.5564 47:152.04921 48:345.89026 49:715.25372 50:1333.5541 51:326.64523 52:804.42725 53:484.38235 54:1369.9791 55:574.47644 56:2698.3687 57:1074.4811 58:2454.3005 59:391.85046 60:2036.1031 61:1338.8457 62:2438.3469 63:310.99173 64:1425.2981 65:965.61896 66:1844.4146 67:786.20087 68:2556.7629 69:1059.7679 70:2384.7207 71:401.12933 72:609.29059 73:839.83063 74:1317.969 75:855.505 76:1741.1217 77:1531.5847 78:2329.0166 79:311.54062 80:672.70026 81:535.66046 82:1339.5806 83:951.52869 84:1702.222 85:1541.0001 86:2333.6536 87:293.16006 88:613.03632 89:508.5029 90:1366.1254 91:1007.6435 92:2082.2332 93:1621.2017 94:2429.9424 95:218.33632 #
1.0125146931522614207397853009103e-08 1:0 2:0 3:0 4:0 5:0 6:0 7:0 8:0 9:0 10:0 11:0 12:0 13:0 14:0 15:0 16:0 17:0 18:0 19:0 20:2257.9487 21:507.3248 22:208.8373 23:139.25198 24:364.08884 25:303.30453 26:559.71759 27:508.09579 28:3341.1677 29:909.03448 30:869.61346 31:435.46445 32:565.49725 33:326.59491 34:512.19434 35:569.08661 36:776.61047 37:229.68149 38:1902.3121 39:369.36057 40:1943.2854 41:616.72949 42:514.33484 43:473.47403 44:400.16571 45:277.09821 46:712.56995 47:671.43311 48:2002.2616 49:1389.1693 50:2097.0166 51:520.51416 52:2573.8071 53:874.81805 54:555.27405 55:527.38959 56:360.68903 57:483.19617 58:1037.1068 59:872.24261 60:124.84811 61:994.44287 62:1515.751 63:678.92493 64:4860.4902 65:813.52679 66:972.27417 67:954.7981 68:279.23349 69:480.32571 70:1057.4978 71:984.20465 72:2780.0762 73:600.51086 74:951.77356 75:394.22751 76:284.75769 77:404.60141 78:548.013 79:594.03113 80:2923.4197 81:660.81616 82:797.68964 83:395.44983 84:227.61711 85:255.82613 86:501.4747 87:623.12128 88:2826.4807 89:643.46484 90:762.83588 91:357.71283 92:401.5285 93:314.18085 94:631.26331 95:692.92175 #
1.0125146931522614207397853009103e-08 1:0 2:0 3:0 4:0 5:0 6:0 7:0 8:0 9:0 10:0 11:0 12:0 13:0 14:0 15:0 16:0 17:0 18:0 19:0 20:1465.2402 21:337.2901 22:832.67633 23:583.91595 24:227.97292 25:71.191795 26:537.71826 27:354.01971 28:1806.121 29:374.43011 30:903.49493 31:568.70715 32:320.92856 33:39.707512 34:487.2543 35:318.95773 36:943.45306 37:828.20831 38:1337.77 39:307.04391 40:2787.2683 41:487.5152 42:1349.746 43:669.08258 44:884.74646 45:152.44269 46:896.06201 47:268.965 48:3129.5098 49:668.53497 50:1370.4536 51:605.0163 52:2471.4841 53:404.07635 54:1011.3346 55:700.78412 56:525.37317 57:315.21097 58:636.33813 59:229.09892 60:409.61996 61:950.30725 62:692.40717 63:294.20392 64:2494.4373 65:839.44922 66:1822.2363 67:1053.939 68:715.51385 69:344.54358 70:949.66913 71:394.01718 72:1485.7527 73:213.48373 74:773.77783 75:678.68353 76:150.75092 77:60.824352 78:650.79462 79:414.64478 80:1650.8434 81:583.15808 82:1215.3339 83:667.88092 84:34.648296 85:87.182922 86:751.05475 87:420.1391 88:1554.2131 89:541.3822 90:1182.8979 91:694.12958 92:194.19223 93:80.472313 94:983.00665 95:419.17331 #
1.0125146931522614207397853009103e-08 1:0 2:0 3:0 4:0 5:0 6:0 7:0 8:0 9:0 10:0 11:0 12:0 13:0 14:0 15:0 16:0 17:0 18:0 19:0 20:1294.3051 21:293.77948 22:500.23715 23:173.69408 24:327.04044 25:139.5596 26:724.51923 27:470.96545 28:1416.3163 29:643.64703 30:1175.4585 31:490.75385 32:327.57117 33:189.37498 34:788.34375 35:460.20767 36:563.15448 37:410.85516 38:414.76108 39:387.02914 40:2196.0981 41:839.42426 42:1177.4839 43:414.89392 44:636.89197 45:186.98303 46:659.41217 47:391.2962 48:1639.6287 49:809.66974 50:895.25989 51:190.12788 52:1563.0388 53:751.12933 54:1215.1847 55:553.6214 56:805.22986 57:369.10294 58:1036.9651 59:414.53247 60:481.33508 61:531.32727 62:766.85889 63:489.20508 64:1289.6615 65:594.13123 66:1180.2985 67:371.88474 68:567.61639 69:245.63644 70:880.73157 71:446.74332 72:1667.9402 73:568.63983 74:1328.6799 75:645.86395 76:379.41196 77:152.83351 78:904.10382 79:530.62445 80:1430.0881 81:573.12897 82:1433.4454 83:640.50494 84:340.47791 85:150.56891 86:1102.135 87:539.74023 88:1448.5002 89:538.00488 90:1564.3033 91:711.98895 92:438.2951 93:230.00473 94:1409.3221 95:545.27753 #
-1.0125146931522614207397853009103e-08 1:0 2:0 3:0 4:0 5:0 6:0 7:0 8:0 9:0 10:0 11:0 12:0 13:0 14:0 15:0 16:0 17:0 18:0 19:0 20:2536.9883 21:467.84882 22:1816.7494 23:308.04114 24:723.63867 25:534.05548 26:632.58624 27:106.85181 28:3465.9575 29:833.48956 30:2856.3994 31:427.59485 32:788.98792 33:608.00305 34:685.20966 35:84.549377 36:622.34546 37:46.282909 38:1268.3447 39:210.59064 40:1562.1099 41:1423.7948 42:3253.7012 43:731.56384 44:1095.9442 45:1394.5363 46:1321.532 47:332.24432 48:1634.7385 49:965.19934 50:1279.5266 51:452.75958 52:3094.8828 53:728.57446 54:1328.2306 55:819.56781 56:1915.4319 57:1123.0172 58:1818.4183 59:829.04767 60:1717.6414 61:622.10199 62:1969.4674 63:433.47501 64:3211.0002 65:714.45306 66:1761.7474 67:1222.8076 68:1561.5171 69:1017.5774 70:1398.1891 71:700.79285 72:3662.1956 73:1023.1331 74:1927.9526 75:528.80328 76:738.60785 77:527.02368 78:727.20593 79:115.47991 80:3851.9141 81:1192.8541 82:1952.074 83:472.93997 84:893.80634 85:516.54205 86:681.65796 87:178.00365 88:3702.978 89:1190.5537 90:1835.4225 91:518.38342 92:1049.0477 93:597.96307 94:719.20758 95:272.71167 #
1.0125146931522614207397853009103e-08 1:0 2:0 3:0 4:0 5:0 6:0 7:0 8:0 9:0 10:0 11:0 12:0 13:0 14:0 15:0 16:0 17:0 18:0 19:0 20:653.88147 21:223.52226 22:880.07031 23:227.56322 24:985.22699 25:147.18971 26:982.47675 27:280.02197 28:462.63507 29:412.02026 30:1475 31:755.06525 32:989.5105 33:169.76999 34:947.88593 35:321.5719 36:1062.7065 37:111.30202 38:825.88965 39:340.90027 40:438.04254 41:420.4097 42:1228.6641 43:555.57861 44:1364.0061 45:231.43437 46:1094.5377 47:330.591 48:690.55078 49:296.74994 50:1080.8568 51:175.14911 52:897.84033 53:355.46655 54:1161.8246 55:532.71655 56:1122.7531 57:196.09995 58:1147.911 59:369.43896 60:1830.639 61:295.83487 62:1479.9103 63:456.27911 64:1595.345 65:392.92548 66:1490.5272 67:715.00812 68:587.95477 69:142.0378 70:1260.1107 71:432.10834 72:413.539 73:341.61649 74:1333.8444 75:728.83136 76:934.508 77:98.881569 78:952.32861 79:415.83234 80:509.55081 81:503.49442 82:1523.3899 83:1006.7407 84:1089.7349 85:120.48497 86:945.36212 87:455.44751 88:470.12546 89:500.49835 90:1526.192 91:1097.0142 92:1047.8744 93:120.51942 94:928.15137 95:490.73013 #
1.0125146931522614207397853009103e-08 1:0 2:0 3:0 4:0 5:0 6:0 7:0 8:0 9:0 10:0 11:0 12:0 13:0 14:0 15:0 16:0 17:0 18:0 19:0 20:147.17744 21:55.50779 22:775.36322 23:340.05515 24:160.52542 25:185.68144 26:462.76218 27:321.91687 28:447.65521 29:204.08305 30:903.09613 31:687.32355 32:104.62607 33:209.54213 34:518.66791 35:383.59256 36:665.83875 37:494.92078 38:595.59509 39:283.95041 40:202.37181 41:74.284882 42:959.23529 43:600.80261 44:786.96893 45:443.20169 46:664.56549 47:217.10486 48:757.17578 49:412.28226 50:768.02966 51:302.09235 52:280.69809 53:115.22214 54:396.8905 55:409.64459 56:572.85046 57:237.6927 58:953.22595 59:364.82529 60:850.05804 61:538.55542 62:1408.332 63:467.75287 64:886.71729 65:65.890953 66:1311.1438 67:787.52814 68:1122.5758 69:206.81337 70:1190.8816 71:565.1076 72:439.87674 73:164.59496 74:1129.0217 75:788.92908 76:357.74487 77:177.90187 78:532.9328 79:418.05072 80:235.36201 81:172.43958 82:1216.1307 83:963.5174 84:427.63287 85:239.77773 86:582.47876 87:437.72775 88:188.15904 89:180.28911 90:1329.9558 91:1044.6245 92:259.97324 93:396.32855 94:641.33173 95:462.05237 #
-1.0125146931522614207397853009103e-08 1:0 2:0 3:0 4:0 5:0 6:0 7:0 8:0 9:0 10:0 11:0 12:0 13:0 14:0 15:0 16:0 17:0 18:0 19:0 20:975.63361 21:172.26535 22:546.58307 23:311.77719 24:668.58716 25:294.37088 26:300.80356 27:129.5495 28:1238.3169 29:202.17204 30:632.04669 31:472.92429 32:798.98645 33:267.51157 34:308.76154 35:117.43987 36:1269.1064 37:461.12201 38:708.38538 39:218.71674 40:2105.3154 41:390.31876 42:1030.7789 43:610.32178 44:780.43518 45:306.362 46:1012.5574 47:277.84961 48:656.80481 49:338.01031 50:736.64465 51:410.20285 52:1953.3334 53:316.08472 54:1256.4985 55:753.56464 56:335.18475 57:91.992966 58:1528.4615 59:476.09485 60:816.37689 61:391.62842 62:2177.6531 63:295.75311 64:1382.2141 65:347.60754 66:1664.0618 67:635.69336 68:507.62045 69:266.13254 70:2086.1077 71:484.88937 72:1047.6761 73:81.093185 74:647.91034 75:329.51239 76:760.64307 77:267.92117 78:264.50476 79:81.204666 80:1470.9905 81:126.54892 82:664.08209 83:464.7114 84:930.38135 85:258.03885 86:244.11577 87:76.119576 88:1423.949 89:142.50844 90:705.6181 91:486.97195 92:961.87036 93:297.0415 94:322.86945 95:110.46767 #
